################################################################################
# Neural network connection values (weights and biases).
################################################################################
# Col  Name       Description
################################################################################
# 1    connection Neural network connection value.
# 2    t          Connection type (a = weight, b = bias).
# 3    index      Index enumerating weights.
# 4    l_s        Starting point layer (end point layer for biases).
# 5    n_s        Starting point neuron in starting layer (end point neuron for biases).
# 6    l_e        End point layer.
# 7    n_e        End point neuron in end layer.
################################################################################
#                      1 2         3     4     5     6     7
#             connection t     index   l_s   n_s   l_e   n_e
############################################################
  3.0834915968948197E-02 a         1     0     1     1     1
  5.1349444322956994E-01 a         2     0     1     1     2
 -4.0377480086798107E-01 a         3     0     1     1     3
 -6.2612093387140633E-01 a         4     0     1     1     4
  3.6333893482501706E-01 a         5     0     1     1     5
 -3.9922140543304913E-01 a         6     0     1     1     6
 -3.9290532561709696E-01 a         7     0     1     1     7
 -3.1114264128245855E-01 a         8     0     1     1     8
  4.2221336950463859E-02 a         9     0     1     1     9
  1.1071887783015949E-01 a        10     0     1     1    10
  3.4482856909778459E-01 a        11     0     1     1    11
  2.8140192461176161E-01 a        12     0     1     1    12
  1.4019674049246414E-01 a        13     0     1     1    13
 -9.3040320037254681E-03 a        14     0     1     1    14
 -7.6925893974341200E-02 a        15     0     1     1    15
  5.6092328193076135E-01 a        16     0     1     1    16
 -7.2180910654388447E-02 a        17     0     1     1    17
  3.3000872465094222E-01 a        18     0     1     1    18
  2.9892728636097393E-01 a        19     0     1     1    19
 -2.2264482603504168E-01 a        20     0     1     1    20
 -1.3292285741748422E-01 a        21     0     2     1     1
  7.9430979720107278E-02 a        22     0     2     1     2
 -1.4672414200393499E-01 a        23     0     2     1     3
  3.6227033021585163E-02 a        24     0     2     1     4
  1.2513595567829280E-01 a        25     0     2     1     5
  2.0830711882040204E-01 a        26     0     2     1     6
 -1.1728441806695480E-01 a        27     0     2     1     7
 -2.0756782429575346E-01 a        28     0     2     1     8
 -9.0855343170308481E-02 a        29     0     2     1     9
 -3.2985766178516929E-01 a        30     0     2     1    10
 -1.9401753294690566E-01 a        31     0     2     1    11
 -3.7764059323733989E-01 a        32     0     2     1    12
 -4.1273154342585888E-01 a        33     0     2     1    13
 -3.7902235495361680E-01 a        34     0     2     1    14
 -2.9269128374518544E-01 a        35     0     2     1    15
  1.8451172114498721E-01 a        36     0     2     1    16
 -2.5407324597826969E-01 a        37     0     2     1    17
  1.4157112786282403E-01 a        38     0     2     1    18
 -1.8690279716473712E-01 a        39     0     2     1    19
  9.0081962127737114E-02 a        40     0     2     1    20
 -2.5202974636594141E-02 a        41     0     3     1     1
  3.4737096677121576E-01 a        42     0     3     1     2
  9.7055361013724639E-02 a        43     0     3     1     3
  1.8037899929608942E-01 a        44     0     3     1     4
 -1.5911154493185464E-01 a        45     0     3     1     5
 -1.4625758070133996E-01 a        46     0     3     1     6
  1.9373817440417129E-01 a        47     0     3     1     7
  1.8160230875251221E-01 a        48     0     3     1     8
  1.2360248932438464E-01 a        49     0     3     1     9
  1.0960458976908784E-01 a        50     0     3     1    10
 -3.5129311992142746E-02 a        51     0     3     1    11
 -6.4810404652557649E-02 a        52     0     3     1    12
  1.6330392067219351E-02 a        53     0     3     1    13
  7.1815070222654792E-02 a        54     0     3     1    14
  3.8346092237207391E-02 a        55     0     3     1    15
 -1.2161468161349706E-01 a        56     0     3     1    16
 -5.4438620422082348E-02 a        57     0     3     1    17
  4.2615857796900636E-02 a        58     0     3     1    18
 -4.4680491963513577E-02 a        59     0     3     1    19
  2.2608645838126187E-01 a        60     0     3     1    20
 -3.9586457139462067E-01 a        61     0     4     1     1
 -1.2219638917662268E-01 a        62     0     4     1     2
  2.9155153484409790E-01 a        63     0     4     1     3
  1.6539674649016584E-01 a        64     0     4     1     4
 -3.3082213155958762E-01 a        65     0     4     1     5
 -6.3926514219809855E-02 a        66     0     4     1     6
  1.9173051609392430E-01 a        67     0     4     1     7
 -2.9611541055740181E-01 a        68     0     4     1     8
 -2.2133618871016399E-02 a        69     0     4     1     9
  8.6790172679349943E-03 a        70     0     4     1    10
 -4.6624553619787629E-01 a        71     0     4     1    11
 -5.3964250293492777E-02 a        72     0     4     1    12
 -1.2919490567085717E-01 a        73     0     4     1    13
 -1.6398843026526716E-01 a        74     0     4     1    14
 -2.9249129324572704E-01 a        75     0     4     1    15
 -3.7769756689492456E-01 a        76     0     4     1    16
  2.0467632606883585E-01 a        77     0     4     1    17
 -4.4043774134065894E-01 a        78     0     4     1    18
  6.7135045172643196E-02 a        79     0     4     1    19
 -1.0227862302486511E-01 a        80     0     4     1    20
 -3.7935387436213602E-01 a        81     0     5     1     1
 -2.4227099144473244E-01 a        82     0     5     1     2
  6.0754532565862185E-01 a        83     0     5     1     3
  3.1630558209724030E-01 a        84     0     5     1     4
 -1.2144696261966595E-01 a        85     0     5     1     5
  3.2407244869712443E-01 a        86     0     5     1     6
 -8.3037488160055073E-02 a        87     0     5     1     7
  4.7339958237867730E-01 a        88     0     5     1     8
  9.2714108824051150E-02 a        89     0     5     1     9
  3.1273598448517376E-01 a        90     0     5     1    10
 -5.9503589911719806E-02 a        91     0     5     1    11
  6.7597682313578122E-01 a        92     0     5     1    12
  2.5480530637812709E-01 a        93     0     5     1    13
  7.1215400470546877E-02 a        94     0     5     1    14
  3.1191737487197069E-01 a        95     0     5     1    15
 -1.4808355797485828E-01 a        96     0     5     1    16
  1.5818900605862052E-01 a        97     0     5     1    17
 -3.0280084157801429E-01 a        98     0     5     1    18
  5.3474080894789923E-02 a        99     0     5     1    19
  1.7154567509102353E-01 a       100     0     5     1    20
 -3.0979450960801558E-01 a       101     0     6     1     1
 -4.3665809817335727E-01 a       102     0     6     1     2
  7.0763658166716503E-01 a       103     0     6     1     3
  2.0464631319067744E-01 a       104     0     6     1     4
 -3.4267728699958744E-01 a       105     0     6     1     5
  2.7472678395549094E-01 a       106     0     6     1     6
  4.8821597112466020E-01 a       107     0     6     1     7
  2.3670179927259119E-01 a       108     0     6     1     8
  2.6232182337874994E-03 a       109     0     6     1     9
  1.8197367903297867E-01 a       110     0     6     1    10
 -7.4211736075636137E-01 a       111     0     6     1    11
  4.0936509287707906E-01 a       112     0     6     1    12
 -1.2514392317932055E-01 a       113     0     6     1    13
  9.0660676539276772E-02 a       114     0     6     1    14
  2.1588187728553840E-01 a       115     0     6     1    15
 -1.4570623752558109E-01 a       116     0     6     1    16
 -2.6420904070469992E-01 a       117     0     6     1    17
 -2.3908051227280916E-01 a       118     0     6     1    18
 -5.8632723901185679E-02 a       119     0     6     1    19
 -1.7179208312235542E-01 a       120     0     6     1    20
 -2.5625462760458217E-01 a       121     0     7     1     1
 -3.1862370703035142E-01 a       122     0     7     1     2
 -5.7010047783926092E-02 a       123     0     7     1     3
 -3.0602140842394959E-01 a       124     0     7     1     4
 -1.0070417908094126E-01 a       125     0     7     1     5
 -3.2985981785078011E-01 a       126     0     7     1     6
 -8.3322421650081424E-01 a       127     0     7     1     7
  1.1872895507381334E-01 a       128     0     7     1     8
 -2.2463890201021947E-01 a       129     0     7     1     9
  4.6448304343367480E-01 a       130     0     7     1    10
  1.4287610462522707E-01 a       131     0     7     1    11
 -2.2463715578266427E-01 a       132     0     7     1    12
  9.8532638975250642E-01 a       133     0     7     1    13
 -3.9139512919471664E-01 a       134     0     7     1    14
  2.3810140502242216E-01 a       135     0     7     1    15
  3.3199927501730869E-01 a       136     0     7     1    16
  2.1164383952499230E-01 a       137     0     7     1    17
  9.3163828527914008E-02 a       138     0     7     1    18
 -5.1473554544752269E-02 a       139     0     7     1    19
 -4.4516510541154192E-01 a       140     0     7     1    20
  4.5817331622251670E-02 a       141     0     8     1     1
  2.8122199793829433E-01 a       142     0     8     1     2
 -1.5766851544864779E-01 a       143     0     8     1     3
  1.8769928856669285E-01 a       144     0     8     1     4
  4.4976802208721456E-01 a       145     0     8     1     5
 -1.5777073560643510E-02 a       146     0     8     1     6
  3.4933814099390248E-01 a       147     0     8     1     7
 -3.5474346765441672E-01 a       148     0     8     1     8
  6.1599649009013890E-01 a       149     0     8     1     9
 -4.3088974852181805E-01 a       150     0     8     1    10
 -4.9113974791102279E-02 a       151     0     8     1    11
 -1.4716427932017673E-01 a       152     0     8     1    12
 -4.3339556904890764E-01 a       153     0     8     1    13
  1.9531281920556923E-02 a       154     0     8     1    14
 -2.6116051936236595E-01 a       155     0     8     1    15
 -2.0013817261420225E-01 a       156     0     8     1    16
  2.9615082806331326E-02 a       157     0     8     1    17
  2.7722176013823180E-02 a       158     0     8     1    18
 -1.6890103282553706E-01 a       159     0     8     1    19
  6.0502967054853352E-01 a       160     0     8     1    20
  8.4356694314482950E-02 a       161     0     9     1     1
 -3.6221807830543079E-01 a       162     0     9     1     2
 -6.3962273058581778E-02 a       163     0     9     1     3
 -3.3612369893615984E-01 a       164     0     9     1     4
  2.6345820103633999E-01 a       165     0     9     1     5
  1.6472941669029663E-02 a       166     0     9     1     6
  1.9282680734073451E-01 a       167     0     9     1     7
  2.4354563330657299E-02 a       168     0     9     1     8
 -2.1305356443817233E-01 a       169     0     9     1     9
 -4.0334036469229051E-01 a       170     0     9     1    10
 -8.1002565615388725E-02 a       171     0     9     1    11
 -7.5349337361274582E-02 a       172     0     9     1    12
  1.7000719584538559E-01 a       173     0     9     1    13
  1.8477407059585185E-02 a       174     0     9     1    14
 -3.8684094592806495E-01 a       175     0     9     1    15
 -2.2129722579153530E-01 a       176     0     9     1    16
  1.7870065533418574E-02 a       177     0     9     1    17
  1.7349933854015251E-01 a       178     0     9     1    18
 -8.0983436333014663E-02 a       179     0     9     1    19
  2.6742922575528011E-01 a       180     0     9     1    20
 -2.5761260123593743E-01 a       181     0    10     1     1
 -1.8615225216275223E-02 a       182     0    10     1     2
  1.4093510013266747E-01 a       183     0    10     1     3
  1.0676649316488067E-01 a       184     0    10     1     4
 -1.3555240752357042E-01 a       185     0    10     1     5
  2.2651302928644965E-01 a       186     0    10     1     6
  3.1077355103687582E-01 a       187     0    10     1     7
 -1.8391733288257317E-01 a       188     0    10     1     8
  3.6079099240615364E-01 a       189     0    10     1     9
 -1.4277184485200956E-01 a       190     0    10     1    10
  3.2196369695234678E-01 a       191     0    10     1    11
  1.2070628283569649E-02 a       192     0    10     1    12
  2.8915254484800301E-01 a       193     0    10     1    13
 -1.7095765112974207E-01 a       194     0    10     1    14
 -3.7047752045451937E-01 a       195     0    10     1    15
 -6.9792361410331780E-02 a       196     0    10     1    16
 -2.9505660241550458E-01 a       197     0    10     1    17
 -4.0579007178647236E-01 a       198     0    10     1    18
 -1.2520926471873850E-01 a       199     0    10     1    19
  8.3825562050796804E-02 a       200     0    10     1    20
 -2.6541244721649010E-01 a       201     0    11     1     1
  3.3272501893318956E-01 a       202     0    11     1     2
  5.5211802500428508E-02 a       203     0    11     1     3
  4.2844741561081157E-01 a       204     0    11     1     4
 -1.7733889831470909E-01 a       205     0    11     1     5
 -1.4648352675102197E-01 a       206     0    11     1     6
 -3.1621919541914012E-01 a       207     0    11     1     7
  2.3986500097637396E-02 a       208     0    11     1     8
 -6.0336007124661993E-02 a       209     0    11     1     9
  4.6912081022058905E-01 a       210     0    11     1    10
  5.0195571494798891E-02 a       211     0    11     1    11
 -2.5617038940148912E-01 a       212     0    11     1    12
 -1.8767730493945808E-01 a       213     0    11     1    13
 -4.9251941993391540E-01 a       214     0    11     1    14
 -1.1757159434361017E-01 a       215     0    11     1    15
  3.0925439153438500E-01 a       216     0    11     1    16
  3.2265638441317734E-01 a       217     0    11     1    17
 -2.7678114463367126E-01 a       218     0    11     1    18
  5.2425542532767162E-02 a       219     0    11     1    19
 -2.1844102465503135E-01 a       220     0    11     1    20
 -4.7522036676935608E-01 a       221     0    12     1     1
  3.3936926088133346E-01 a       222     0    12     1     2
  2.1652511578558537E-02 a       223     0    12     1     3
 -5.2320178155715812E-04 a       224     0    12     1     4
  6.7349756345679745E-01 a       225     0    12     1     5
 -1.1960571379107973E-01 a       226     0    12     1     6
 -2.5476869491958498E-01 a       227     0    12     1     7
 -2.8262761892548893E-01 a       228     0    12     1     8
 -2.8770591327177714E-01 a       229     0    12     1     9
  6.7408802823987990E-01 a       230     0    12     1    10
 -6.0807686610295308E-01 a       231     0    12     1    11
  2.7925075693939605E-01 a       232     0    12     1    12
 -1.4578791272583660E-01 a       233     0    12     1    13
 -2.8351177467046240E-01 a       234     0    12     1    14
 -2.6222479380063057E-01 a       235     0    12     1    15
  1.4578823765985999E-01 a       236     0    12     1    16
 -1.4565713576923292E-01 a       237     0    12     1    17
 -1.3345368469411351E-01 a       238     0    12     1    18
  6.0476504587587007E-02 a       239     0    12     1    19
 -5.7050425221108880E-01 a       240     0    12     1    20
 -9.4948082789145494E-01 a       241     0    13     1     1
 -1.9753643262856524E-01 a       242     0    13     1     2
  5.3013106109651553E-01 a       243     0    13     1     3
  4.0086814448512442E-01 a       244     0    13     1     4
 -2.2547138078030179E-01 a       245     0    13     1     5
  1.4847036920851522E-01 a       246     0    13     1     6
 -1.6343203247082808E-01 a       247     0    13     1     7
  4.4498044442563811E-01 a       248     0    13     1     8
 -5.6278097247619441E-03 a       249     0    13     1     9
 -6.8202233348391414E-02 a       250     0    13     1    10
 -1.4693681554306576E-01 a       251     0    13     1    11
 -4.0248714743110099E-02 a       252     0    13     1    12
  1.0293064880210581E-01 a       253     0    13     1    13
 -2.9605765271867901E-01 a       254     0    13     1    14
  6.4208122629673425E-01 a       255     0    13     1    15
 -5.0023117100337862E-02 a       256     0    13     1    16
  3.1519345358903350E-01 a       257     0    13     1    17
 -6.0491206085453175E-01 a       258     0    13     1    18
  1.4124595018962578E-02 a       259     0    13     1    19
  4.8054228147289646E-01 a       260     0    13     1    20
  7.2842071960238050E-02 a       261     0    14     1     1
 -2.1569781417539996E-01 a       262     0    14     1     2
 -2.1928696729984209E-01 a       263     0    14     1     3
 -3.0537143697046282E-01 a       264     0    14     1     4
 -6.3694514959224471E-02 a       265     0    14     1     5
  2.1960024465838035E-01 a       266     0    14     1     6
  1.9536428072408563E-01 a       267     0    14     1     7
 -1.9181493925080929E-02 a       268     0    14     1     8
 -3.8096612690758819E-01 a       269     0    14     1     9
 -3.6956160934977988E-01 a       270     0    14     1    10
 -1.8377687971493462E-01 a       271     0    14     1    11
 -8.2257647207066451E-02 a       272     0    14     1    12
 -2.4343378915461986E-01 a       273     0    14     1    13
 -1.3779354359928128E-01 a       274     0    14     1    14
 -3.0966523541854452E-01 a       275     0    14     1    15
 -1.0780015035803382E-01 a       276     0    14     1    16
 -3.0683056383099017E-01 a       277     0    14     1    17
  1.7277139286029713E-01 a       278     0    14     1    18
  4.1129988808833945E-01 a       279     0    14     1    19
 -1.1185967508994862E-01 a       280     0    14     1    20
  5.1961658372954944E-01 a       281     0    15     1     1
 -1.2591446764368535E-02 a       282     0    15     1     2
 -4.9899900306085176E-01 a       283     0    15     1     3
  2.9630997277797477E-01 a       284     0    15     1     4
 -1.4783381404713800E-01 a       285     0    15     1     5
 -1.5139104908744350E-01 a       286     0    15     1     6
  2.8662804682673526E-01 a       287     0    15     1     7
 -3.2092621208695021E-01 a       288     0    15     1     8
  1.2674631751444215E-01 a       289     0    15     1     9
  4.3156526285717742E-02 a       290     0    15     1    10
 -7.2004201030691651E-03 a       291     0    15     1    11
 -5.3224703775352445E-03 a       292     0    15     1    12
  1.7722500301746902E-01 a       293     0    15     1    13
  2.1251687799482361E-01 a       294     0    15     1    14
 -5.3787145133086234E-01 a       295     0    15     1    15
  1.2634086794930856E-03 a       296     0    15     1    16
 -1.8555242210988201E-01 a       297     0    15     1    17
  3.3820112644754885E-01 a       298     0    15     1    18
 -2.4743781549655269E-02 a       299     0    15     1    19
 -3.9118537473734244E-01 a       300     0    15     1    20
  4.9823147245563380E-02 a       301     0    16     1     1
  3.5271914380108671E-01 a       302     0    16     1     2
  4.6840765628315900E-01 a       303     0    16     1     3
  1.7749055665116714E-01 a       304     0    16     1     4
 -4.8346286603327077E-01 a       305     0    16     1     5
 -2.7317835108501326E-01 a       306     0    16     1     6
 -7.8610976215579262E-02 a       307     0    16     1     7
  2.3750724792488669E-02 a       308     0    16     1     8
  5.4461064078177601E-01 a       309     0    16     1     9
 -8.9977652540489694E-01 a       310     0    16     1    10
  2.6786349089156275E-01 a       311     0    16     1    11
 -1.2175977934314659E-01 a       312     0    16     1    12
  1.8231534308676536E+00 a       313     0    16     1    13
 -2.6912197104779778E-01 a       314     0    16     1    14
  3.1027101654100436E-01 a       315     0    16     1    15
 -1.2887673846695097E-01 a       316     0    16     1    16
  7.0371570539096973E-01 a       317     0    16     1    17
 -8.9357522817605528E-01 a       318     0    16     1    18
  3.8992231362077034E-01 a       319     0    16     1    19
 -5.2574357200478017E-01 a       320     0    16     1    20
 -4.9194013751210186E-01 a       321     0    17     1     1
 -7.0151514040432228E-01 a       322     0    17     1     2
 -3.7991666539034519E-01 a       323     0    17     1     3
  2.2282460965824541E-01 a       324     0    17     1     4
 -1.1158784741997883E-01 a       325     0    17     1     5
 -4.3685979253479146E-01 a       326     0    17     1     6
 -6.3292816345442343E-02 a       327     0    17     1     7
 -1.8779509463635430E-01 a       328     0    17     1     8
 -5.5562373687868261E-01 a       329     0    17     1     9
  1.5025685495376386E+00 a       330     0    17     1    10
 -3.6966861822289293E-01 a       331     0    17     1    11
  2.6661413139806428E-01 a       332     0    17     1    12
 -2.0688911378449291E+00 a       333     0    17     1    13
  5.6532977470163248E-01 a       334     0    17     1    14
 -3.2954859107375789E-01 a       335     0    17     1    15
 -3.3590677508047125E-02 a       336     0    17     1    16
 -3.1832278109627826E-01 a       337     0    17     1    17
  7.6746163670870626E-01 a       338     0    17     1    18
 -5.7272482853844386E-01 a       339     0    17     1    19
  7.8237286850928645E-01 a       340     0    17     1    20
  4.8540072164043790E-01 a       341     0    18     1     1
 -1.7826480462013528E-01 a       342     0    18     1     2
  1.6113150643937985E-01 a       343     0    18     1     3
 -5.0474917267038610E-01 a       344     0    18     1     4
  3.6095072230623004E-01 a       345     0    18     1     5
  5.3996211703846841E-01 a       346     0    18     1     6
  1.6549517435131755E-01 a       347     0    18     1     7
  1.2323005141136772E-01 a       348     0    18     1     8
 -1.8037263111068033E-01 a       349     0    18     1     9
 -4.8463147527362382E-01 a       350     0    18     1    10
 -1.7406331912968867E-01 a       351     0    18     1    11
  1.6500586822521153E-02 a       352     0    18     1    12
 -2.6348324663738665E-01 a       353     0    18     1    13
  2.7004775295034977E-01 a       354     0    18     1    14
 -3.3482344338501574E-01 a       355     0    18     1    15
 -3.9601189251325819E-01 a       356     0    18     1    16
 -3.8996737969936096E-01 a       357     0    18     1    17
  6.5214659114614409E-02 a       358     0    18     1    18
 -3.0105792567135981E-01 a       359     0    18     1    19
 -2.5429440961007771E-01 a       360     0    18     1    20
 -3.4276304942152758E-01 a       361     0    19     1     1
 -3.4266516148604396E-02 a       362     0    19     1     2
  4.6040665916354945E-01 a       363     0    19     1     3
 -3.5814524197864586E-02 a       364     0    19     1     4
 -3.8409071227587865E-01 a       365     0    19     1     5
 -1.5358626262788777E-01 a       366     0    19     1     6
 -6.2957463771519018E-01 a       367     0    19     1     7
 -2.2747908690894336E-01 a       368     0    19     1     8
 -2.1244029251671381E-01 a       369     0    19     1     9
  7.2393047824146572E-02 a       370     0    19     1    10
  2.6895317937644209E-01 a       371     0    19     1    11
 -1.1068420398323423E-01 a       372     0    19     1    12
  8.2440367403293868E-01 a       373     0    19     1    13
  9.2985386418286881E-02 a       374     0    19     1    14
  1.4324265542339895E-01 a       375     0    19     1    15
  4.2349439060714039E-01 a       376     0    19     1    16
  2.1672243144177664E-01 a       377     0    19     1    17
 -1.7492650945430965E-01 a       378     0    19     1    18
  1.5460850838538162E-01 a       379     0    19     1    19
 -4.5207285191723356E-01 a       380     0    19     1    20
 -8.2180761399818794E-02 a       381     0    20     1     1
 -3.2695227990105130E-01 a       382     0    20     1     2
 -3.9802251425046486E-01 a       383     0    20     1     3
 -1.2434348805807076E-01 a       384     0    20     1     4
  5.8561021939814994E-01 a       385     0    20     1     5
  4.8769768563015059E-01 a       386     0    20     1     6
  1.2418713436770003E-01 a       387     0    20     1     7
  8.8893943431930925E-02 a       388     0    20     1     8
 -6.0129509398193559E-02 a       389     0    20     1     9
  3.3097087564231442E-01 a       390     0    20     1    10
 -5.0081300682308905E-01 a       391     0    20     1    11
  1.4301969314679674E-01 a       392     0    20     1    12
 -9.3775671072976530E-01 a       393     0    20     1    13
 -2.5913138533821450E-01 a       394     0    20     1    14
  2.0208424348326404E-01 a       395     0    20     1    15
  2.4724421116471665E-01 a       396     0    20     1    16
 -3.2416269791014352E-01 a       397     0    20     1    17
  2.5783540178748221E-01 a       398     0    20     1    18
 -1.0983553121991535E-01 a       399     0    20     1    19
  6.2053072598302572E-01 a       400     0    20     1    20
  2.2926446281072890E-01 a       401     0    21     1     1
  2.1888184619344639E-01 a       402     0    21     1     2
 -3.0012080718863920E-01 a       403     0    21     1     3
  2.8765141796163390E-01 a       404     0    21     1     4
 -8.0919168153356202E-02 a       405     0    21     1     5
  8.3586304662211425E-02 a       406     0    21     1     6
 -8.2637711394379545E-02 a       407     0    21     1     7
  1.8150065496872858E-01 a       408     0    21     1     8
  2.2903607800526504E-01 a       409     0    21     1     9
 -7.9991630377729139E-01 a       410     0    21     1    10
  1.0105772195983945E-02 a       411     0    21     1    11
 -1.9940419970676498E-01 a       412     0    21     1    12
  6.3414593401669794E-01 a       413     0    21     1    13
 -3.6857436630126812E-02 a       414     0    21     1    14
 -3.3257265828653751E-02 a       415     0    21     1    15
 -2.1197774837857686E-01 a       416     0    21     1    16
  1.0507034363939217E-01 a       417     0    21     1    17
 -1.2415868113994996E-01 a       418     0    21     1    18
  7.2083217611743711E-01 a       419     0    21     1    19
 -2.2016479076783554E-01 a       420     0    21     1    20
  1.4863863623587509E-01 a       421     0    22     1     1
 -2.4554434362552677E-01 a       422     0    22     1     2
  3.0516646715742918E-01 a       423     0    22     1     3
 -3.1605882439799815E-01 a       424     0    22     1     4
 -5.1031981076764510E-01 a       425     0    22     1     5
 -7.4154821972317153E-01 a       426     0    22     1     6
 -1.7902455139286479E-02 a       427     0    22     1     7
 -4.9996018343152515E-01 a       428     0    22     1     8
  4.7567832348381883E-01 a       429     0    22     1     9
  7.6419158036990409E-01 a       430     0    22     1    10
  3.7517588181613332E-01 a       431     0    22     1    11
 -1.3647018556093898E-01 a       432     0    22     1    12
  2.4417632771120640E-01 a       433     0    22     1    13
 -1.5664160722243983E-01 a       434     0    22     1    14
  1.5839608054318478E-02 a       435     0    22     1    15
  3.4480978639900206E-01 a       436     0    22     1    16
  3.6905396263085949E-01 a       437     0    22     1    17
 -2.3361018804140235E-01 a       438     0    22     1    18
 -4.5470055553444222E-03 a       439     0    22     1    19
  4.9600279833475991E-01 a       440     0    22     1    20
 -4.5302907971702749E-01 a       441     0    23     1     1
  2.7040740880849207E-01 a       442     0    23     1     2
 -1.1294984321246689E-01 a       443     0    23     1     3
 -4.8013477586918096E-01 a       444     0    23     1     4
  1.2633805235873538E-01 a       445     0    23     1     5
  4.8979361100955149E-01 a       446     0    23     1     6
  8.5676788213250321E-01 a       447     0    23     1     7
  3.1931326384000414E-01 a       448     0    23     1     8
 -7.0807421408604776E-01 a       449     0    23     1     9
  3.0719840268807491E-01 a       450     0    23     1    10
 -2.6919676050728064E-01 a       451     0    23     1    11
  2.0591798044309070E-01 a       452     0    23     1    12
 -7.6626509590499114E-01 a       453     0    23     1    13
  6.0626862845516094E-01 a       454     0    23     1    14
 -3.7205686834507500E-02 a       455     0    23     1    15
 -1.4736135233797176E-01 a       456     0    23     1    16
 -2.5485201725939333E-01 a       457     0    23     1    17
  5.6286111889296186E-01 a       458     0    23     1    18
 -3.3812724603722927E-01 a       459     0    23     1    19
 -2.5140181462958783E-01 a       460     0    23     1    20
  1.1604773730380542E-01 a       461     0    24     1     1
 -9.6391211972886456E-02 a       462     0    24     1     2
  3.9149474893289843E-01 a       463     0    24     1     3
  1.1338174001572564E-01 a       464     0    24     1     4
  7.1820903637431252E-02 a       465     0    24     1     5
 -2.2541175001213479E-01 a       466     0    24     1     6
 -1.9682655072943181E-01 a       467     0    24     1     7
  3.6424504652342449E-01 a       468     0    24     1     8
  1.5616981962296364E-01 a       469     0    24     1     9
  1.8124319857369428E-01 a       470     0    24     1    10
 -2.9700773464227120E-01 a       471     0    24     1    11
  4.1810250192442144E-01 a       472     0    24     1    12
 -9.2662827113791535E-02 a       473     0    24     1    13
  3.4339039488405182E-01 a       474     0    24     1    14
 -2.7807383515312402E-02 a       475     0    24     1    15
 -1.5393918401093659E-01 a       476     0    24     1    16
  2.9607095122330912E-01 a       477     0    24     1    17
  2.7238292670348374E-01 a       478     0    24     1    18
 -2.0132300675495540E-01 a       479     0    24     1    19
  1.6139533831640331E-02 a       480     0    24     1    20
  6.1020993401696377E-01 a       481     0    25     1     1
 -1.7313315267038815E-01 a       482     0    25     1     2
  9.3417273048575430E-03 a       483     0    25     1     3
  3.1076463620496281E-01 a       484     0    25     1     4
  8.4813882648367789E-01 a       485     0    25     1     5
  4.2453859899048473E-03 a       486     0    25     1     6
  6.9904691005545128E-01 a       487     0    25     1     7
  1.7877882509498860E-01 a       488     0    25     1     8
 -2.6732138381290482E-01 a       489     0    25     1     9
 -5.4551608497848725E-01 a       490     0    25     1    10
 -3.1989268322832504E-01 a       491     0    25     1    11
  2.0095033305159851E-01 a       492     0    25     1    12
 -6.0095357998087107E-01 a       493     0    25     1    13
  2.7082897135410866E-01 a       494     0    25     1    14
  1.8902795194372701E-01 a       495     0    25     1    15
  7.0793188129462448E-02 a       496     0    25     1    16
  6.5759761101547987E-01 a       497     0    25     1    17
  7.1920353777067580E-01 a       498     0    25     1    18
 -1.5467938443252957E-01 a       499     0    25     1    19
  2.9593481198644511E-01 a       500     0    25     1    20
  6.5150343881937611E-01 a       501     0    26     1     1
 -7.7787078082921457E-02 a       502     0    26     1     2
  5.1657867832783630E-02 a       503     0    26     1     3
 -2.6134578201028696E-01 a       504     0    26     1     4
 -2.8428493450414039E-01 a       505     0    26     1     5
 -4.6971131324309601E-01 a       506     0    26     1     6
  7.3565550516972489E-01 a       507     0    26     1     7
 -1.9738893674248606E-01 a       508     0    26     1     8
 -2.3336136925311158E-02 a       509     0    26     1     9
 -2.4462925341173331E-01 a       510     0    26     1    10
 -2.4145741014931602E-01 a       511     0    26     1    11
  2.6764057245137840E-01 a       512     0    26     1    12
  1.0262168324817410E-01 a       513     0    26     1    13
  2.8723510740693808E-01 a       514     0    26     1    14
 -4.9379123679176146E-01 a       515     0    26     1    15
  5.4633391926570365E-02 a       516     0    26     1    16
 -4.3749168556526685E-01 a       517     0    26     1    17
  5.2343956236819889E-01 a       518     0    26     1    18
 -2.0622677588500787E-01 a       519     0    26     1    19
 -1.7333356035880623E-01 a       520     0    26     1    20
 -4.1598381193953188E-01 a       521     0    27     1     1
  3.0306715905984866E-01 a       522     0    27     1     2
  1.3989733504829141E-01 a       523     0    27     1     3
 -2.2018695325621623E-01 a       524     0    27     1     4
 -1.1880383551984195E+00 a       525     0    27     1     5
 -3.9088757243629901E-01 a       526     0    27     1     6
  9.1133277239473065E-02 a       527     0    27     1     7
 -7.6488199788848660E-02 a       528     0    27     1     8
 -1.0862791947697369E-01 a       529     0    27     1     9
 -2.3556101125984316E-01 a       530     0    27     1    10
  5.1900854644007077E-01 a       531     0    27     1    11
 -1.2901755982462768E-01 a       532     0    27     1    12
  2.2830430257459369E-01 a       533     0    27     1    13
 -3.4121349878293017E-01 a       534     0    27     1    14
 -3.4390502862103912E-02 a       535     0    27     1    15
 -8.9911904222437222E-02 a       536     0    27     1    16
 -2.9081271847833653E-02 a       537     0    27     1    17
  4.4502348533663466E-01 a       538     0    27     1    18
  2.6802819579624149E-01 a       539     0    27     1    19
  6.4746364481001173E-01 a       540     0    27     1    20
 -1.6451043377025742E-01 a       541     0    28     1     1
  1.6527040286900005E-01 a       542     0    28     1     2
  5.7114506804632564E-02 a       543     0    28     1     3
  1.0024378815952266E-01 a       544     0    28     1     4
  2.1240468171732013E-01 a       545     0    28     1     5
  9.4700996296800136E-02 a       546     0    28     1     6
  1.3349659864019647E-01 a       547     0    28     1     7
  2.0864564461775692E-01 a       548     0    28     1     8
 -1.0387034799032588E-01 a       549     0    28     1     9
  1.1409569526569244E-01 a       550     0    28     1    10
  1.7173094764597274E-01 a       551     0    28     1    11
 -3.7827256307331615E-02 a       552     0    28     1    12
 -7.0014149004654358E-02 a       553     0    28     1    13
 -1.6483028595880611E-01 a       554     0    28     1    14
 -1.3129808395497983E-01 a       555     0    28     1    15
 -1.3050981080002630E-01 a       556     0    28     1    16
  2.7788853541084173E-02 a       557     0    28     1    17
 -1.4719618028740222E-01 a       558     0    28     1    18
  1.8168124555152285E-01 a       559     0    28     1    19
 -1.2353251556378933E-01 a       560     0    28     1    20
  3.2756861895037476E-01 a       561     0    29     1     1
 -5.4626485485697607E-01 a       562     0    29     1     2
 -1.3815602315756903E-01 a       563     0    29     1     3
 -3.4180665493055185E-01 a       564     0    29     1     4
  6.7483587501932063E-02 a       565     0    29     1     5
 -3.2890649852803944E-01 a       566     0    29     1     6
  8.5125409555875664E-02 a       567     0    29     1     7
  2.4703067572314061E-01 a       568     0    29     1     8
 -6.9795716642016314E-01 a       569     0    29     1     9
  1.7039565866613742E-02 a       570     0    29     1    10
  3.0809668427329462E-01 a       571     0    29     1    11
 -6.6981571043672539E-01 a       572     0    29     1    12
 -3.2572550533092209E-01 a       573     0    29     1    13
  2.1260909738790390E-01 a       574     0    29     1    14
 -1.2816145910712834E-02 a       575     0    29     1    15
 -6.7174572010291456E-01 a       576     0    29     1    16
 -5.8655683571311501E-01 a       577     0    29     1    17
 -3.7921280943059466E-01 a       578     0    29     1    18
  1.2844639284104031E-01 a       579     0    29     1    19
 -4.8265639582594944E-01 a       580     0    29     1    20
 -1.8228244377991373E-01 a       581     0    30     1     1
  5.8793214326203080E-01 a       582     0    30     1     2
 -1.0516765909728618E-01 a       583     0    30     1     3
  1.1750527805958420E-02 a       584     0    30     1     4
 -2.7751876787960039E-01 a       585     0    30     1     5
  2.1010265336222278E-01 a       586     0    30     1     6
 -2.7703936668041668E-01 a       587     0    30     1     7
 -4.7451345978037851E-02 a       588     0    30     1     8
  2.2270798108026443E-01 a       589     0    30     1     9
  1.2645585720151908E-01 a       590     0    30     1    10
  4.1835375395128199E-01 a       591     0    30     1    11
  2.6756385941241850E-01 a       592     0    30     1    12
  9.4507440833232953E-02 a       593     0    30     1    13
  4.5582809921813676E-02 a       594     0    30     1    14
 -2.8590299363220228E-01 a       595     0    30     1    15
  4.3510664872658206E-01 a       596     0    30     1    16
  5.9123122797609999E-02 a       597     0    30     1    17
  5.0833278650871949E-02 a       598     0    30     1    18
  8.9522500994288878E-02 a       599     0    30     1    19
 -2.0481783400774980E-01 a       600     0    30     1    20
 -3.5923285798431254E-01 a       601     0    31     1     1
  1.1106957857757270E-01 a       602     0    31     1     2
 -3.9402659062002965E-01 a       603     0    31     1     3
 -1.9316269992266422E-01 a       604     0    31     1     4
 -1.0614909729041637E-01 a       605     0    31     1     5
 -3.0560564414480101E-01 a       606     0    31     1     6
  1.5141583561784291E-01 a       607     0    31     1     7
  1.0514002598632204E-02 a       608     0    31     1     8
  4.2283351565606414E-01 a       609     0    31     1     9
 -1.8517725431006296E-01 a       610     0    31     1    10
 -8.0314916837551362E-02 a       611     0    31     1    11
  1.9359027044346655E-01 a       612     0    31     1    12
  6.1083270647571530E-01 a       613     0    31     1    13
 -1.7823064117662946E-01 a       614     0    31     1    14
 -5.8380112931470796E-01 a       615     0    31     1    15
 -1.9543205728117380E-01 a       616     0    31     1    16
 -2.3292674125255716E-01 a       617     0    31     1    17
 -2.8412965161631415E-01 a       618     0    31     1    18
 -3.2865753074812248E-01 a       619     0    31     1    19
  7.3700922763382815E-01 a       620     0    31     1    20
  1.7967834440676758E-01 a       621     0    32     1     1
 -1.7070225430792671E-01 a       622     0    32     1     2
 -2.8506682572094882E-01 a       623     0    32     1     3
  3.1950039975801270E-01 a       624     0    32     1     4
 -3.7999662599506462E-01 a       625     0    32     1     5
  1.2493273296450347E-01 a       626     0    32     1     6
  3.5648207694028922E-01 a       627     0    32     1     7
 -3.4846577821036623E-01 a       628     0    32     1     8
 -6.3110934499441629E-01 a       629     0    32     1     9
 -4.8406409438291242E-01 a       630     0    32     1    10
  3.5299886255949119E-02 a       631     0    32     1    11
 -2.1309880753739407E-01 a       632     0    32     1    12
  1.8485439169795823E-01 a       633     0    32     1    13
 -3.6850828954882642E-01 a       634     0    32     1    14
 -8.8196875453293899E-01 a       635     0    32     1    15
 -9.5306343622818979E-02 a       636     0    32     1    16
 -3.1823358371187639E-02 a       637     0    32     1    17
  5.1894973270969869E-01 a       638     0    32     1    18
 -1.9035337488398232E-01 a       639     0    32     1    19
  4.5856550251632316E-01 a       640     0    32     1    20
  3.8671174445178774E-01 a       641     0    33     1     1
  7.5145056079929540E-01 a       642     0    33     1     2
  7.9136342255133874E-01 a       643     0    33     1     3
  3.5243161748833335E-01 a       644     0    33     1     4
  7.7357407864803562E-01 a       645     0    33     1     5
  2.9941826811004790E-01 a       646     0    33     1     6
  1.1383028481761528E-01 a       647     0    33     1     7
 -7.0561677525665001E-01 a       648     0    33     1     8
  2.4423334486097605E-02 a       649     0    33     1     9
  3.5648432769049837E-01 a       650     0    33     1    10
  5.2865547795438388E-02 a       651     0    33     1    11
  3.8159393908001361E-02 a       652     0    33     1    12
  1.0157123589192435E-01 a       653     0    33     1    13
  3.3434939014329063E-01 a       654     0    33     1    14
  2.1314450071714189E-01 a       655     0    33     1    15
  3.0327572254301832E-01 a       656     0    33     1    16
 -2.2182413233162065E-01 a       657     0    33     1    17
 -5.5509222349795551E-01 a       658     0    33     1    18
  4.3537351040125426E-02 a       659     0    33     1    19
 -8.9722652123561852E-01 a       660     0    33     1    20
  7.1011589608923520E-01 a       661     0    34     1     1
  1.4308021933119125E-01 a       662     0    34     1     2
  3.2435780867450421E-02 a       663     0    34     1     3
 -1.2240130042728539E-01 a       664     0    34     1     4
 -7.6346213986132128E-01 a       665     0    34     1     5
  2.0011687523955123E-02 a       666     0    34     1     6
  8.6461469841469324E-02 a       667     0    34     1     7
 -5.4222383449312428E-01 a       668     0    34     1     8
 -6.8367346966234799E-01 a       669     0    34     1     9
 -9.6190146738896964E-01 a       670     0    34     1    10
  3.7464092851275926E-01 a       671     0    34     1    11
 -2.3929290558510252E-01 a       672     0    34     1    12
  1.4742009117052465E-01 a       673     0    34     1    13
 -1.9014155619947168E-01 a       674     0    34     1    14
 -1.0123138305615964E+00 a       675     0    34     1    15
  1.1128612980927960E-02 a       676     0    34     1    16
 -4.1864319554857815E-01 a       677     0    34     1    17
  6.8723401972634002E-01 a       678     0    34     1    18
  2.4827352559933918E-01 a       679     0    34     1    19
 -4.5539723436345630E-01 a       680     0    34     1    20
 -1.2621044089846509E+00 a       681     0    35     1     1
  2.8502175251421985E-01 a       682     0    35     1     2
 -1.5332403476511072E-01 a       683     0    35     1     3
 -1.0886431286200035E-01 a       684     0    35     1     4
  4.7126790589409839E-01 a       685     0    35     1     5
  1.6406796507551932E-01 a       686     0    35     1     6
  6.3072761337685246E-01 a       687     0    35     1     7
  4.9185528916980392E-01 a       688     0    35     1     8
  8.4379097314300455E-01 a       689     0    35     1     9
  1.6645330243209905E-01 a       690     0    35     1    10
  2.2015438410226054E-01 a       691     0    35     1    11
  3.5807911678978949E-01 a       692     0    35     1    12
 -2.8308281590877127E-01 a       693     0    35     1    13
  3.7240143021549699E-01 a       694     0    35     1    14
  3.1130885261000885E-01 a       695     0    35     1    15
 -6.2833510012770344E-01 a       696     0    35     1    16
 -1.5396135129120930E-01 a       697     0    35     1    17
 -9.1622612775422974E-01 a       698     0    35     1    18
 -6.2495524558718141E-01 a       699     0    35     1    19
  5.9674704590379068E-01 a       700     0    35     1    20
 -3.8805759185679761E-01 a       701     0    36     1     1
 -3.8957904672885774E-01 a       702     0    36     1     2
 -1.3521632658490484E-01 a       703     0    36     1     3
  6.3447958418304209E-02 a       704     0    36     1     4
  2.5205025848750573E-01 a       705     0    36     1     5
 -4.3920421502657930E-01 a       706     0    36     1     6
  3.3712501373059617E-01 a       707     0    36     1     7
  6.3017097916455650E-04 a       708     0    36     1     8
 -1.7033603828667562E-01 a       709     0    36     1     9
  4.0884806127407282E-02 a       710     0    36     1    10
  1.4682288960294229E-01 a       711     0    36     1    11
  6.1513170945537610E-01 a       712     0    36     1    12
 -2.7258713857430861E-01 a       713     0    36     1    13
 -4.4846749646790751E-02 a       714     0    36     1    14
  6.9813241468083864E-01 a       715     0    36     1    15
  7.9485598389690715E-01 a       716     0    36     1    16
 -6.3642157010504186E-01 a       717     0    36     1    17
 -4.8354140916216964E-01 a       718     0    36     1    18
 -6.1581178920534760E-02 a       719     0    36     1    19
  4.5174033017728837E-01 a       720     0    36     1    20
  3.7915422654812780E-01 a       721     0    37     1     1
  1.7871500469272517E-01 a       722     0    37     1     2
 -3.6131203292620956E-01 a       723     0    37     1     3
  1.0719188401032734E-01 a       724     0    37     1     4
  8.2680281578436488E-01 a       725     0    37     1     5
 -2.7001271231304252E-01 a       726     0    37     1     6
  7.3790495558420177E-01 a       727     0    37     1     7
  1.5535196986144720E-01 a       728     0    37     1     8
 -9.4658789466990934E-01 a       729     0    37     1     9
 -1.9960291977523970E-01 a       730     0    37     1    10
 -5.2482786476797483E-01 a       731     0    37     1    11
  6.5755104592909197E-01 a       732     0    37     1    12
 -6.9896496572499811E-01 a       733     0    37     1    13
  2.7327669060487730E-01 a       734     0    37     1    14
  1.2865005531526061E-01 a       735     0    37     1    15
  1.0977844130248243E-01 a       736     0    37     1    16
 -9.3398297849615097E-01 a       737     0    37     1    17
  5.8105787413808330E-01 a       738     0    37     1    18
 -9.2064284613196157E-02 a       739     0    37     1    19
  3.6551923390344632E-02 a       740     0    37     1    20
  4.2376178197436137E-01 a       741     0    38     1     1
  1.5058872235265103E-01 a       742     0    38     1     2
 -5.9804216801151266E-01 a       743     0    38     1     3
 -7.9986987949009503E-01 a       744     0    38     1     4
 -5.7396728209296344E-01 a       745     0    38     1     5
 -7.0483870341625798E-01 a       746     0    38     1     6
  3.2748489539661405E-02 a       747     0    38     1     7
  3.6674797207835430E-01 a       748     0    38     1     8
 -9.1120168851166004E-03 a       749     0    38     1     9
 -2.8757743472809304E-02 a       750     0    38     1    10
  7.0316879242720454E-02 a       751     0    38     1    11
 -1.2551698036115690E-02 a       752     0    38     1    12
  3.3069161265766583E-01 a       753     0    38     1    13
  3.7232013039014555E-01 a       754     0    38     1    14
  5.3378735111825282E-01 a       755     0    38     1    15
  1.5393276049442361E-01 a       756     0    38     1    16
  7.7892720888251354E-01 a       757     0    38     1    17
 -4.7367010182364812E-02 a       758     0    38     1    18
 -1.5460934966611342E-01 a       759     0    38     1    19
  4.2076688849072491E-01 a       760     0    38     1    20
  5.1795905514116558E-01 a       761     0    39     1     1
  2.3782611473199017E-01 a       762     0    39     1     2
 -1.0114978074674981E+00 a       763     0    39     1     3
  3.7729218591626912E-01 a       764     0    39     1     4
  3.6583664637741764E-01 a       765     0    39     1     5
  2.5024288407983980E-01 a       766     0    39     1     6
  4.4752693093135731E-01 a       767     0    39     1     7
 -4.5936613688654170E-02 a       768     0    39     1     8
 -5.8785616375526484E-01 a       769     0    39     1     9
  1.4764339625799297E-01 a       770     0    39     1    10
 -6.2766742321335522E-01 a       771     0    39     1    11
  1.7811642005670034E-01 a       772     0    39     1    12
 -6.7139045706437650E-01 a       773     0    39     1    13
  4.1162237313969274E-01 a       774     0    39     1    14
  3.0373517144888562E-01 a       775     0    39     1    15
 -4.9810763522078516E-01 a       776     0    39     1    16
 -3.9227446452374448E-01 a       777     0    39     1    17
  4.2313527647836419E-01 a       778     0    39     1    18
 -4.0440832042780628E-01 a       779     0    39     1    19
  7.2006925160480365E-02 a       780     0    39     1    20
  3.5459068278421318E-01 a       781     0    40     1     1
  2.7707245091310151E-01 a       782     0    40     1     2
  4.7501702226190939E-01 a       783     0    40     1     3
 -9.5451398583896119E-02 a       784     0    40     1     4
 -1.2856657093411342E-01 a       785     0    40     1     5
  8.9571839938356257E-01 a       786     0    40     1     6
 -1.2407369811920124E+00 a       787     0    40     1     7
  9.2429093120199868E-02 a       788     0    40     1     8
  7.0764093604655398E-01 a       789     0    40     1     9
  5.7808206666111850E-01 a       790     0    40     1    10
  2.2037603162493266E-01 a       791     0    40     1    11
 -3.2880340979418271E-01 a       792     0    40     1    12
  1.0853830089973281E-01 a       793     0    40     1    13
 -1.6675339741259551E-02 a       794     0    40     1    14
  3.2172722908225221E-01 a       795     0    40     1    15
 -4.9054156132948684E-01 a       796     0    40     1    16
  5.2643950723145823E-02 a       797     0    40     1    17
 -4.1218797132394891E-01 a       798     0    40     1    18
  2.6974405026603782E-01 a       799     0    40     1    19
 -5.5108385980309336E-02 a       800     0    40     1    20
 -5.3235395087407968E-02 a       801     0    41     1     1
 -2.6903492715224669E-01 a       802     0    41     1     2
  2.3358443367365264E-01 a       803     0    41     1     3
 -1.9022628664534677E-01 a       804     0    41     1     4
  1.6234434464206254E-01 a       805     0    41     1     5
  7.0895411727239940E-02 a       806     0    41     1     6
 -7.7275461617825350E-02 a       807     0    41     1     7
 -3.9200774068926560E-02 a       808     0    41     1     8
 -1.3829925828080691E-01 a       809     0    41     1     9
  4.8249475130780584E-01 a       810     0    41     1    10
 -2.9320176219555322E-01 a       811     0    41     1    11
 -3.5865310806182674E-02 a       812     0    41     1    12
 -1.2685359243037164E-01 a       813     0    41     1    13
 -1.6616501784775570E-01 a       814     0    41     1    14
 -6.8571857521794552E-02 a       815     0    41     1    15
  1.4061465442707868E-01 a       816     0    41     1    16
 -1.2163262437094396E-01 a       817     0    41     1    17
 -3.7110898612676406E-02 a       818     0    41     1    18
 -1.9483778443250738E-02 a       819     0    41     1    19
  1.1310990818668204E-01 a       820     0    41     1    20
  1.8142869740431303E-01 a       821     0    42     1     1
  1.2724456300543990E-01 a       822     0    42     1     2
 -2.5551828973811103E-01 a       823     0    42     1     3
  1.7369188911000583E-01 a       824     0    42     1     4
  4.2191483480310815E-01 a       825     0    42     1     5
  8.4188846834727965E-02 a       826     0    42     1     6
  1.6915694019156985E-01 a       827     0    42     1     7
 -4.4912197328876619E-01 a       828     0    42     1     8
  3.3257642904810791E-01 a       829     0    42     1     9
  3.6284185176173926E-02 a       830     0    42     1    10
 -6.2993674974245073E-02 a       831     0    42     1    11
 -1.4503698727643713E-02 a       832     0    42     1    12
 -1.9029206647577906E-01 a       833     0    42     1    13
 -3.6471370143401144E-01 a       834     0    42     1    14
 -1.5352480639833233E-01 a       835     0    42     1    15
  3.0052945854312496E-01 a       836     0    42     1    16
 -4.7859570516271011E-01 a       837     0    42     1    17
  2.4940295742036481E-01 a       838     0    42     1    18
 -7.4730102134849374E-02 a       839     0    42     1    19
 -1.2534262821846107E-01 a       840     0    42     1    20
  8.3351837179317559E-02 a       841     0    43     1     1
 -2.6782409087189796E-01 a       842     0    43     1     2
 -5.7339991415996390E-02 a       843     0    43     1     3
  2.1786832888767188E-01 a       844     0    43     1     4
 -1.0485355139005154E-01 a       845     0    43     1     5
 -1.9754194612739964E-01 a       846     0    43     1     6
 -2.6704886591341442E-01 a       847     0    43     1     7
 -1.2781076804924538E-01 a       848     0    43     1     8
 -2.6523190008824443E-02 a       849     0    43     1     9
 -5.4774589653712590E-02 a       850     0    43     1    10
 -7.6950401214952349E-02 a       851     0    43     1    11
  1.3279590788083578E-01 a       852     0    43     1    12
 -7.5425984826872711E-02 a       853     0    43     1    13
 -4.2598480697171703E-01 a       854     0    43     1    14
  3.9085283491410194E-01 a       855     0    43     1    15
 -3.5563375180756057E-02 a       856     0    43     1    16
 -1.3486361776450331E-01 a       857     0    43     1    17
  8.8974638652776022E-02 a       858     0    43     1    18
 -1.2041683269085077E-01 a       859     0    43     1    19
 -1.7246762390213058E-01 a       860     0    43     1    20
  1.7452387617722755E-02 a       861     0    44     1     1
  4.6018372329167240E-01 a       862     0    44     1     2
 -2.2455950221137860E-01 a       863     0    44     1     3
  1.8269095068480942E-01 a       864     0    44     1     4
 -3.6370762740653734E-01 a       865     0    44     1     5
 -4.1071733182538778E-01 a       866     0    44     1     6
  1.5965719530331163E-01 a       867     0    44     1     7
  4.6165684251395966E-01 a       868     0    44     1     8
  3.5206195836352566E-02 a       869     0    44     1     9
 -4.1495221876481955E-02 a       870     0    44     1    10
  3.8423121162177454E-01 a       871     0    44     1    11
  6.7114002667312642E-02 a       872     0    44     1    12
  1.1138479507432121E-01 a       873     0    44     1    13
  9.4441586805311151E-01 a       874     0    44     1    14
 -8.3930826266007223E-03 a       875     0    44     1    15
 -2.9603313906459067E-01 a       876     0    44     1    16
  2.4876844227007533E-01 a       877     0    44     1    17
 -2.1741065863366457E-01 a       878     0    44     1    18
  1.8194702535321833E-01 a       879     0    44     1    19
  1.5320522673564863E-01 a       880     0    44     1    20
  7.3637691898777603E-03 a       881     0    45     1     1
  9.7045074697894973E-02 a       882     0    45     1     2
  5.4769598362636684E-01 a       883     0    45     1     3
  3.3952645806593595E-01 a       884     0    45     1     4
  1.4430046796289259E-01 a       885     0    45     1     5
  6.9723801687353415E-01 a       886     0    45     1     6
 -5.5054339270894992E-01 a       887     0    45     1     7
  4.3154682164493696E-02 a       888     0    45     1     8
  4.7939044567327444E-03 a       889     0    45     1     9
 -2.4377193845437312E-01 a       890     0    45     1    10
 -8.0778271792315481E-01 a       891     0    45     1    11
 -3.9252516564758583E-01 a       892     0    45     1    12
  2.0067748215644232E-01 a       893     0    45     1    13
 -2.7278911747068896E-01 a       894     0    45     1    14
 -1.5647792217611264E-01 a       895     0    45     1    15
 -6.2113423283683145E-01 a       896     0    45     1    16
 -2.0098604055379266E-01 a       897     0    45     1    17
  3.6783793520191654E-01 a       898     0    45     1    18
  1.9643804461610187E-01 a       899     0    45     1    19
  3.7082621690703019E-02 a       900     0    45     1    20
  5.1468107599560531E-01 a       901     0    46     1     1
 -1.0346022391505953E-02 a       902     0    46     1     2
 -1.2198517604696447E-01 a       903     0    46     1     3
 -2.3697731557596202E-01 a       904     0    46     1     4
  4.5372944937869220E-01 a       905     0    46     1     5
 -2.8908788628455589E-01 a       906     0    46     1     6
 -2.3342618085250552E-01 a       907     0    46     1     7
 -5.1316359978967663E-01 a       908     0    46     1     8
  6.9733133436477368E-01 a       909     0    46     1     9
 -3.9216229047304402E-02 a       910     0    46     1    10
  5.3863000850555198E-01 a       911     0    46     1    11
 -1.8988866020180732E-02 a       912     0    46     1    12
  6.0710114775691515E-01 a       913     0    46     1    13
 -3.4586077526694181E-01 a       914     0    46     1    14
 -3.4033033719864728E-02 a       915     0    46     1    15
  1.3105075681827222E-01 a       916     0    46     1    16
 -1.8241943953697193E-01 a       917     0    46     1    17
 -4.9025000867906326E-01 a       918     0    46     1    18
 -6.8038508498274655E-02 a       919     0    46     1    19
  1.5860464808501794E-02 a       920     0    46     1    20
 -6.8158350448118454E-01 a       921     0    47     1     1
 -1.6513528973676781E-02 a       922     0    47     1     2
  2.0831346503182313E-01 a       923     0    47     1     3
  4.7660118515921546E-01 a       924     0    47     1     4
 -2.9942085583023798E-01 a       925     0    47     1     5
 -7.0463586747735374E-01 a       926     0    47     1     6
  5.0709396684999819E-01 a       927     0    47     1     7
 -1.9112514220259105E-01 a       928     0    47     1     8
 -1.1929589153354826E-01 a       929     0    47     1     9
 -4.7575668008522753E-01 a       930     0    47     1    10
  2.9431543123892862E-01 a       931     0    47     1    11
  2.8065898080119677E-02 a       932     0    47     1    12
  3.1041257246554504E-01 a       933     0    47     1    13
  1.0599764989426093E-01 a       934     0    47     1    14
 -1.9574214590646391E-01 a       935     0    47     1    15
 -1.5763367363529499E-01 a       936     0    47     1    16
  4.7059655914282711E-01 a       937     0    47     1    17
 -4.4248929679014554E-01 a       938     0    47     1    18
  3.1056284409724944E-01 a       939     0    47     1    19
 -1.6392169870248227E-01 a       940     0    47     1    20
  1.8870249736617814E-01 a       941     0    48     1     1
  2.2838324169451685E-01 a       942     0    48     1     2
 -3.3786564774863172E-02 a       943     0    48     1     3
 -3.4438914279954341E-01 a       944     0    48     1     4
  2.5684028540095688E-01 a       945     0    48     1     5
  1.7307906639572070E-02 a       946     0    48     1     6
 -1.2432070443171062E-01 a       947     0    48     1     7
  2.9073865753347966E-01 a       948     0    48     1     8
  6.2247845284017327E-02 a       949     0    48     1     9
  2.4265488856377967E-01 a       950     0    48     1    10
  2.0061955193986722E-01 a       951     0    48     1    11
  4.6068413173634713E-02 a       952     0    48     1    12
 -1.3694497780276224E-01 a       953     0    48     1    13
 -5.5246534409124537E-01 a       954     0    48     1    14
 -1.2856501898139808E-01 a       955     0    48     1    15
  2.1285629535249870E-01 a       956     0    48     1    16
  2.0973164539791270E-01 a       957     0    48     1    17
  6.4096686084400598E-02 a       958     0    48     1    18
 -6.3012224298125308E-01 a       959     0    48     1    19
 -1.0253754283802057E-01 a       960     0    48     1    20
 -2.1331665871280198E-01 a       961     0    49     1     1
 -4.7087436099514773E-01 a       962     0    49     1     2
 -3.4020605335977805E-01 a       963     0    49     1     3
  8.5851240713672838E-02 a       964     0    49     1     4
  1.4044212129015350E-03 a       965     0    49     1     5
  9.2313533099859291E-01 a       966     0    49     1     6
 -5.5374006092400252E-01 a       967     0    49     1     7
  6.1509819348527867E-02 a       968     0    49     1     8
  1.6018672809383883E-01 a       969     0    49     1     9
  3.3940006905154047E-01 a       970     0    49     1    10
  1.0095113270185097E+00 a       971     0    49     1    11
 -8.7327448204924130E-01 a       972     0    49     1    12
 -1.2684177180234788E+00 a       973     0    49     1    13
  4.8172275576736555E-02 a       974     0    49     1    14
 -4.7949369850105850E-01 a       975     0    49     1    15
 -2.4120085920028983E-01 a       976     0    49     1    16
  1.8569400898588567E-01 a       977     0    49     1    17
  1.2154264424798074E+00 a       978     0    49     1    18
 -2.6558070388350447E-01 a       979     0    49     1    19
 -6.9932387492496573E-01 a       980     0    49     1    20
 -3.4307925723272725E-01 a       981     0    50     1     1
  1.9439425428667378E-01 a       982     0    50     1     2
  7.2293340859948130E-01 a       983     0    50     1     3
 -2.2180975720092772E-01 a       984     0    50     1     4
 -5.0752742730052702E-01 a       985     0    50     1     5
 -2.1733606177296977E-01 a       986     0    50     1     6
 -6.8944415279740556E-01 a       987     0    50     1     7
 -7.7708863302483899E-01 a       988     0    50     1     8
  1.8059303445389923E+00 a       989     0    50     1     9
 -1.6832817647349035E-02 a       990     0    50     1    10
  4.1757779542053619E-01 a       991     0    50     1    11
 -6.6486228163416627E-01 a       992     0    50     1    12
  1.6828186519755957E+00 a       993     0    50     1    13
 -5.3752537558250846E-01 a       994     0    50     1    14
  5.6660194187937518E-01 a       995     0    50     1    15
  1.2686536599300668E+00 a       996     0    50     1    16
  1.1732157740849716E+00 a       997     0    50     1    17
 -1.2686487231168120E+00 a       998     0    50     1    18
  1.1077540926140399E+00 a       999     0    50     1    19
 -5.9107356313393711E-01 a      1000     0    50     1    20
 -8.6380688656906943E-02 a      1001     0    51     1     1
 -2.0160777149148149E-01 a      1002     0    51     1     2
  2.2750049856473978E-01 a      1003     0    51     1     3
 -2.6331138715216962E-01 a      1004     0    51     1     4
  3.8484112155180511E-01 a      1005     0    51     1     5
 -2.1192749133396580E-01 a      1006     0    51     1     6
 -2.5553795186263682E-02 a      1007     0    51     1     7
  3.0591822812753539E-01 a      1008     0    51     1     8
 -7.6076136524367385E-02 a      1009     0    51     1     9
  7.7869214182604896E-01 a      1010     0    51     1    10
 -2.1882879441306360E-01 a      1011     0    51     1    11
 -3.6682874393816095E-02 a      1012     0    51     1    12
 -1.6034240307437983E-01 a      1013     0    51     1    13
  1.8151802397848518E-01 a      1014     0    51     1    14
 -1.6318916140343756E-01 a      1015     0    51     1    15
  3.8174545131418602E-01 a      1016     0    51     1    16
  2.0752157217058062E-01 a      1017     0    51     1    17
 -1.2021736768642573E-01 a      1018     0    51     1    18
 -1.2137471069679043E-01 a      1019     0    51     1    19
 -3.3311473308280970E-01 a      1020     0    51     1    20
 -1.2742310621942585E+00 b      1021     1     1
 -7.3572272249807147E-01 b      1022     1     2
  1.0453283060829213E+00 b      1023     1     3
 -5.7552175686072415E-01 b      1024     1     4
 -8.7188289736129221E-01 b      1025     1     5
 -6.6692817730441611E-01 b      1026     1     6
 -9.3133401027190155E-01 b      1027     1     7
 -4.0191533971954951E-01 b      1028     1     8
 -1.2132535598629739E+00 b      1029     1     9
 -9.6051265845483214E-01 b      1030     1    10
 -5.2418471727289284E-01 b      1031     1    11
  9.8458884298363991E-01 b      1032     1    12
 -1.0122885018698526E+00 b      1033     1    13
  1.1721184705584391E+00 b      1034     1    14
 -1.0996999501640068E+00 b      1035     1    15
  1.2335092709290545E+00 b      1036     1    16
 -4.3676780287369132E-01 b      1037     1    17
 -6.4659039216700531E-01 b      1038     1    18
  2.5482304739230499E-01 b      1039     1    19
 -6.9223647527520960E-01 b      1040     1    20
 -5.9895763438730809E-01 a      1041     1     1     2     1
  5.4326948214327186E-01 a      1042     1     1     2     2
  1.4567539611783574E-02 a      1043     1     1     2     3
 -1.1196005944289456E-01 a      1044     1     1     2     4
  7.5880041863118997E-01 a      1045     1     1     2     5
  2.6137633806030436E-01 a      1046     1     1     2     6
  2.7898479872494614E-01 a      1047     1     1     2     7
 -5.4969424239056686E-01 a      1048     1     1     2     8
 -1.7882810947948108E-01 a      1049     1     1     2     9
 -8.2006190937093670E-01 a      1050     1     1     2    10
 -1.8618666221795585E-01 a      1051     1     1     2    11
 -2.2368825833128328E-01 a      1052     1     1     2    12
 -7.1478151666353651E-01 a      1053     1     1     2    13
 -5.5170515180037227E-01 a      1054     1     1     2    14
 -6.7663925305256556E-01 a      1055     1     1     2    15
  7.6418882775368469E-01 a      1056     1     1     2    16
 -3.0904171138753911E-01 a      1057     1     1     2    17
  1.0192945184670719E+00 a      1058     1     1     2    18
 -1.5492065206256256E-01 a      1059     1     1     2    19
 -2.3425425448757750E-01 a      1060     1     1     2    20
 -2.2610807441481398E-01 a      1061     1     2     2     1
  7.2993561572193245E-04 a      1062     1     2     2     2
  1.7091431201374208E-01 a      1063     1     2     2     3
 -1.3763922910480866E-01 a      1064     1     2     2     4
  2.0553742409824641E-01 a      1065     1     2     2     5
 -4.0262076375629041E-01 a      1066     1     2     2     6
 -3.3087440928569023E-01 a      1067     1     2     2     7
 -6.1504055990197193E-01 a      1068     1     2     2     8
 -4.7221627736848304E-01 a      1069     1     2     2     9
  1.4316558319524283E-01 a      1070     1     2     2    10
  1.4263632426256509E-01 a      1071     1     2     2    11
 -4.6315911339429788E-01 a      1072     1     2     2    12
 -3.3290795275992158E-01 a      1073     1     2     2    13
  9.2144941680081333E-02 a      1074     1     2     2    14
  1.9791239392189908E-02 a      1075     1     2     2    15
  1.8553777962053339E-01 a      1076     1     2     2    16
  1.3504702094998358E-01 a      1077     1     2     2    17
  1.3339775645605104E-01 a      1078     1     2     2    18
 -1.5975210606755180E-01 a      1079     1     2     2    19
  3.3169719491017818E-01 a      1080     1     2     2    20
 -7.8988631270984522E-01 a      1081     1     3     2     1
  7.0617913344356886E-01 a      1082     1     3     2     2
  7.8919461209964417E-02 a      1083     1     3     2     3
 -6.2055350687896638E-01 a      1084     1     3     2     4
 -2.5266827559260457E-01 a      1085     1     3     2     5
  8.2232367057537248E-01 a      1086     1     3     2     6
 -6.2892077249280309E-01 a      1087     1     3     2     7
  8.8005497911520666E-02 a      1088     1     3     2     8
  6.5989228454059634E-01 a      1089     1     3     2     9
  2.1625180972827708E-02 a      1090     1     3     2    10
  5.6865020935430077E-01 a      1091     1     3     2    11
  6.7519140521639276E-01 a      1092     1     3     2    12
  6.3358214623105691E-01 a      1093     1     3     2    13
 -3.0791563680505907E-01 a      1094     1     3     2    14
  3.5831894110414397E-01 a      1095     1     3     2    15
  5.9632947613332821E-01 a      1096     1     3     2    16
  8.6576762692444098E-01 a      1097     1     3     2    17
  1.9859308762790925E-01 a      1098     1     3     2    18
  2.4347672017165781E-01 a      1099     1     3     2    19
 -5.6196914504316309E-01 a      1100     1     3     2    20
  3.6733894803207079E-01 a      1101     1     4     2     1
 -1.2790594580889986E-01 a      1102     1     4     2     2
 -3.6376905063482623E-02 a      1103     1     4     2     3
 -6.3389952708481778E-01 a      1104     1     4     2     4
 -6.5371557741040676E-01 a      1105     1     4     2     5
 -2.2011180424345231E-01 a      1106     1     4     2     6
  6.8101670007115778E-01 a      1107     1     4     2     7
  4.9978247375354085E-01 a      1108     1     4     2     8
 -3.9420847898868899E-01 a      1109     1     4     2     9
 -6.0096349928668628E-02 a      1110     1     4     2    10
 -1.5665099926192272E-01 a      1111     1     4     2    11
  4.6169165307920904E-03 a      1112     1     4     2    12
 -3.7961458084257171E-01 a      1113     1     4     2    13
  2.7784393552393361E-01 a      1114     1     4     2    14
 -5.5768708549598711E-01 a      1115     1     4     2    15
 -6.4449710331526200E-01 a      1116     1     4     2    16
  2.9227495230546258E-01 a      1117     1     4     2    17
 -4.6609946090642507E-01 a      1118     1     4     2    18
 -5.6019183441047851E-02 a      1119     1     4     2    19
  1.1902440032343251E-01 a      1120     1     4     2    20
  4.0544281307067415E-01 a      1121     1     5     2     1
  2.0853871874664881E-01 a      1122     1     5     2     2
  1.8875848385228333E-01 a      1123     1     5     2     3
 -6.8178438775941386E-01 a      1124     1     5     2     4
 -1.4009511650958246E+00 a      1125     1     5     2     5
  1.0264753065601010E-02 a      1126     1     5     2     6
 -4.9561523292220117E-01 a      1127     1     5     2     7
  8.7273836786420644E-01 a      1128     1     5     2     8
  3.7311704577501942E-01 a      1129     1     5     2     9
  4.6385699765576083E-01 a      1130     1     5     2    10
 -5.5976530386625922E-01 a      1131     1     5     2    11
 -4.9854885239644031E-01 a      1132     1     5     2    12
 -4.3947488876539043E-01 a      1133     1     5     2    13
  1.0477205601144393E+00 a      1134     1     5     2    14
  7.1707318072391016E-02 a      1135     1     5     2    15
  1.0934149131072390E-01 a      1136     1     5     2    16
 -1.1023589541020848E+00 a      1137     1     5     2    17
 -5.6583750376117327E-02 a      1138     1     5     2    18
  9.7473411012737277E-01 a      1139     1     5     2    19
  4.8093316716186479E-03 a      1140     1     5     2    20
  5.1529291172915404E-01 a      1141     1     6     2     1
 -5.2205668185626705E-02 a      1142     1     6     2     2
  6.9485008675276450E-01 a      1143     1     6     2     3
 -5.4655162694574511E-01 a      1144     1     6     2     4
 -1.2388084625152931E+00 a      1145     1     6     2     5
 -3.6113355930721885E-01 a      1146     1     6     2     6
  7.3332507659677734E-02 a      1147     1     6     2     7
 -4.6999738752486508E-01 a      1148     1     6     2     8
  1.1793435717639701E-01 a      1149     1     6     2     9
 -2.3168880603561259E-01 a      1150     1     6     2    10
 -7.4068728649801741E-02 a      1151     1     6     2    11
  1.4658380088468728E-01 a      1152     1     6     2    12
  2.5676926789497811E-01 a      1153     1     6     2    13
 -3.4241708877015470E-01 a      1154     1     6     2    14
 -5.6234276847159159E-01 a      1155     1     6     2    15
 -1.0519178676502816E+00 a      1156     1     6     2    16
 -3.9262267720650029E-01 a      1157     1     6     2    17
 -6.3865524122286943E-01 a      1158     1     6     2    18
  5.4371105569083511E-01 a      1159     1     6     2    19
 -2.1218767884879555E-01 a      1160     1     6     2    20
  1.0014305180926562E+00 a      1161     1     7     2     1
  6.0625341820380940E-01 a      1162     1     7     2     2
  1.6735669443381639E-02 a      1163     1     7     2     3
  4.7990167036492604E-01 a      1164     1     7     2     4
  2.9309585251373310E-01 a      1165     1     7     2     5
  1.2897059109696962E-01 a      1166     1     7     2     6
  1.1889062883410211E-01 a      1167     1     7     2     7
 -9.2676422262555999E-02 a      1168     1     7     2     8
  2.0295902141215685E-01 a      1169     1     7     2     9
 -2.3486531505802929E-01 a      1170     1     7     2    10
 -4.4551741240265402E-01 a      1171     1     7     2    11
 -4.0714803458367715E-01 a      1172     1     7     2    12
 -1.7395677147262362E-01 a      1173     1     7     2    13
  3.8936105887188743E-01 a      1174     1     7     2    14
  5.9934595971732096E-01 a      1175     1     7     2    15
  1.0551489895571797E-01 a      1176     1     7     2    16
  1.1101955984106208E-01 a      1177     1     7     2    17
 -6.9696513421292372E-01 a      1178     1     7     2    18
 -7.7552840618994159E-02 a      1179     1     7     2    19
  1.3541678801130683E-01 a      1180     1     7     2    20
 -2.2505552805565907E-01 a      1181     1     8     2     1
  9.2998798618404970E-03 a      1182     1     8     2     2
 -5.6991471384671510E-01 a      1183     1     8     2     3
  5.9052404771771727E-01 a      1184     1     8     2     4
 -7.4555657875175274E-01 a      1185     1     8     2     5
  4.3558268604823791E-01 a      1186     1     8     2     6
  2.3171255665453652E-01 a      1187     1     8     2     7
  4.6164124134114076E-01 a      1188     1     8     2     8
 -4.4774543321232957E-01 a      1189     1     8     2     9
 -4.3473419257225221E-01 a      1190     1     8     2    10
  2.2288786023379817E-01 a      1191     1     8     2    11
 -1.1858177405946373E-01 a      1192     1     8     2    12
 -4.1726460935096810E-01 a      1193     1     8     2    13
 -1.3684359853299310E+00 a      1194     1     8     2    14
 -4.5829820292384460E-01 a      1195     1     8     2    15
  7.7127867483075641E-01 a      1196     1     8     2    16
  4.5768105791619274E-01 a      1197     1     8     2    17
 -4.8861378548125090E-01 a      1198     1     8     2    18
 -2.9841126390887784E-01 a      1199     1     8     2    19
  3.4926136573547351E-01 a      1200     1     8     2    20
 -6.7809247861950162E-01 a      1201     1     9     2     1
  9.2598350055422940E-01 a      1202     1     9     2     2
  1.0135002619135733E+00 a      1203     1     9     2     3
  6.9078119800118221E-01 a      1204     1     9     2     4
  1.2127766287818391E+00 a      1205     1     9     2     5
  1.1971686529414169E+00 a      1206     1     9     2     6
 -9.2420296298568982E-01 a      1207     1     9     2     7
 -2.7002291410660456E-01 a      1208     1     9     2     8
  3.0892973949150559E-01 a      1209     1     9     2     9
  7.4478342290832034E-01 a      1210     1     9     2    10
  3.0874033870235812E-01 a      1211     1     9     2    11
 -2.2217523889235541E-01 a      1212     1     9     2    12
 -1.6099590578420272E-03 a      1213     1     9     2    13
 -1.8719345658731881E-01 a      1214     1     9     2    14
 -4.5719848225785087E-01 a      1215     1     9     2    15
  2.1432695556032133E-01 a      1216     1     9     2    16
  6.4831791600868147E-02 a      1217     1     9     2    17
  1.9529871437958188E-01 a      1218     1     9     2    18
 -5.6902380407211149E-02 a      1219     1     9     2    19
 -6.0992914020331046E-01 a      1220     1     9     2    20
  2.1952940781638747E-01 a      1221     1    10     2     1
 -7.2327191160855120E-01 a      1222     1    10     2     2
  1.2920589528265519E-01 a      1223     1    10     2     3
 -7.5116319330425085E-01 a      1224     1    10     2     4
  2.9135752614760485E-01 a      1225     1    10     2     5
  4.9238935080687890E-01 a      1226     1    10     2     6
 -9.3677447143848513E-02 a      1227     1    10     2     7
  2.9716015562032277E-01 a      1228     1    10     2     8
  4.3604201671207360E-01 a      1229     1    10     2     9
  4.9075215310724746E-01 a      1230     1    10     2    10
 -1.6537556447051392E-04 a      1231     1    10     2    11
 -6.8926243802469256E-01 a      1232     1    10     2    12
  2.3085903135395347E-01 a      1233     1    10     2    13
 -4.9617340274371591E-01 a      1234     1    10     2    14
 -3.9355901752709044E-01 a      1235     1    10     2    15
 -2.2425249042508028E-01 a      1236     1    10     2    16
  1.9140898656439498E-01 a      1237     1    10     2    17
 -1.1460496326217613E-01 a      1238     1    10     2    18
 -3.4736250175523335E-02 a      1239     1    10     2    19
  3.0993214599970731E-01 a      1240     1    10     2    20
  1.9493497900387682E-01 a      1241     1    11     2     1
 -6.8663594531226602E-01 a      1242     1    11     2     2
 -5.9396345457551492E-01 a      1243     1    11     2     3
 -5.9429316402231383E-02 a      1244     1    11     2     4
  3.5551198687097829E-01 a      1245     1    11     2     5
  9.9702462442944478E-02 a      1246     1    11     2     6
  4.6781577236622479E-01 a      1247     1    11     2     7
  5.8721456899462410E-01 a      1248     1    11     2     8
  8.5687336484135546E-01 a      1249     1    11     2     9
  1.3801206649863101E-01 a      1250     1    11     2    10
  1.9208871826003493E-01 a      1251     1    11     2    11
 -5.7554217629988058E-01 a      1252     1    11     2    12
  8.2500086444533705E-01 a      1253     1    11     2    13
 -7.0327064758379898E-01 a      1254     1    11     2    14
  6.3356569182454525E-01 a      1255     1    11     2    15
  1.9428646575796335E-01 a      1256     1    11     2    16
  4.4094947107212673E-01 a      1257     1    11     2    17
 -2.5536550244421002E-01 a      1258     1    11     2    18
  2.2433393692662018E-01 a      1259     1    11     2    19
  2.4652386180141703E-01 a      1260     1    11     2    20
  6.3311921582317232E-01 a      1261     1    12     2     1
  2.8288395167095998E-01 a      1262     1    12     2     2
  6.7787387550660494E-01 a      1263     1    12     2     3
  6.3247830213486822E-01 a      1264     1    12     2     4
  8.8675003689652226E-02 a      1265     1    12     2     5
 -5.3837693000127218E-01 a      1266     1    12     2     6
  8.9646830106185252E-02 a      1267     1    12     2     7
 -3.4401802559169059E-01 a      1268     1    12     2     8
 -2.0241411015140348E-01 a      1269     1    12     2     9
  1.0990142284250634E-01 a      1270     1    12     2    10
  2.9744532610074781E-01 a      1271     1    12     2    11
 -5.3377596217997342E-02 a      1272     1    12     2    12
  2.3274740835620875E-01 a      1273     1    12     2    13
  3.1035258516659131E-01 a      1274     1    12     2    14
  1.1787364399863438E-01 a      1275     1    12     2    15
 -2.4067115707525710E-01 a      1276     1    12     2    16
  3.3022177218445491E-02 a      1277     1    12     2    17
  9.8506079722885692E-02 a      1278     1    12     2    18
 -1.9697507247819401E-01 a      1279     1    12     2    19
  4.5774930378811851E-01 a      1280     1    12     2    20
 -4.1212996411698005E-01 a      1281     1    13     2     1
  5.6013462842307127E-01 a      1282     1    13     2     2
  6.7905694407011674E-01 a      1283     1    13     2     3
  3.7497803133047319E-01 a      1284     1    13     2     4
  1.9076122650072258E-01 a      1285     1    13     2     5
  1.8489142531785022E-01 a      1286     1    13     2     6
 -1.2327551295935441E-01 a      1287     1    13     2     7
  1.0851273315046139E-01 a      1288     1    13     2     8
 -3.4690100930165596E-01 a      1289     1    13     2     9
 -7.2193074659123668E-01 a      1290     1    13     2    10
 -1.9145469316922603E-01 a      1291     1    13     2    11
 -8.9873729738066055E-01 a      1292     1    13     2    12
  7.5109500231865112E-01 a      1293     1    13     2    13
 -1.6908405240925301E-01 a      1294     1    13     2    14
  2.7408926235417752E-01 a      1295     1    13     2    15
  3.9991715513549903E-01 a      1296     1    13     2    16
 -3.8993880579277479E-01 a      1297     1    13     2    17
 -2.2885760813099573E-01 a      1298     1    13     2    18
 -7.1395409849381497E-01 a      1299     1    13     2    19
 -9.4782057888742155E-01 a      1300     1    13     2    20
  1.8260959753289167E-02 a      1301     1    14     2     1
  9.6030631514169629E-02 a      1302     1    14     2     2
  3.2001744205582936E-03 a      1303     1    14     2     3
  2.2399758118830379E-01 a      1304     1    14     2     4
  7.9513756000824043E-01 a      1305     1    14     2     5
  1.9232113142585527E-01 a      1306     1    14     2     6
 -3.0911189106004214E-02 a      1307     1    14     2     7
  2.6568632719237668E-02 a      1308     1    14     2     8
  6.0715692106068653E-01 a      1309     1    14     2     9
 -9.5482618386734108E-02 a      1310     1    14     2    10
 -2.2824732138005088E-01 a      1311     1    14     2    11
  2.7935007738242662E-01 a      1312     1    14     2    12
  2.2485528356334963E-01 a      1313     1    14     2    13
  1.0794224655845229E-01 a      1314     1    14     2    14
  6.8468228414539656E-01 a      1315     1    14     2    15
 -7.4327740017997157E-01 a      1316     1    14     2    16
 -8.0395975418483556E-01 a      1317     1    14     2    17
  4.0354326868995166E-01 a      1318     1    14     2    18
 -2.5450966045057871E-01 a      1319     1    14     2    19
 -2.0104015941984604E-01 a      1320     1    14     2    20
  7.9222803870135250E-01 a      1321     1    15     2     1
 -3.5069484905527792E-01 a      1322     1    15     2     2
 -9.5758441543142292E-01 a      1323     1    15     2     3
 -3.0687169410228621E-01 a      1324     1    15     2     4
  1.5879762077056692E-01 a      1325     1    15     2     5
 -3.6457696615595669E-01 a      1326     1    15     2     6
  1.5206179699341130E-01 a      1327     1    15     2     7
  8.7642384674866916E-02 a      1328     1    15     2     8
 -2.0658923139711061E-01 a      1329     1    15     2     9
 -4.2612886312089243E-01 a      1330     1    15     2    10
  5.6035805509970504E-01 a      1331     1    15     2    11
 -4.9417106293607060E-01 a      1332     1    15     2    12
  3.4923126865311488E-01 a      1333     1    15     2    13
  9.3287865374729861E-01 a      1334     1    15     2    14
  3.6482549281103899E-01 a      1335     1    15     2    15
  8.2133204847680219E-01 a      1336     1    15     2    16
  1.6518169339249839E-02 a      1337     1    15     2    17
 -3.3672290678255323E-01 a      1338     1    15     2    18
 -1.4715122857362459E-01 a      1339     1    15     2    19
  2.2418794982351509E-01 a      1340     1    15     2    20
 -1.9231040542509532E-02 a      1341     1    16     2     1
  7.4649700121458706E-01 a      1342     1    16     2     2
 -1.8212388370826013E-01 a      1343     1    16     2     3
  4.2615930246272254E-01 a      1344     1    16     2     4
  3.4705090716904025E-01 a      1345     1    16     2     5
 -9.5239578856045864E-02 a      1346     1    16     2     6
 -3.9998287336941912E-01 a      1347     1    16     2     7
 -1.0990927538403406E-01 a      1348     1    16     2     8
 -3.5107826699587424E-01 a      1349     1    16     2     9
 -6.7323248370203526E-01 a      1350     1    16     2    10
  3.8688052639358311E-01 a      1351     1    16     2    11
  6.9306506582182359E-01 a      1352     1    16     2    12
  4.8150199093355733E-01 a      1353     1    16     2    13
 -4.3846820526073388E-01 a      1354     1    16     2    14
  4.5482532948935217E-01 a      1355     1    16     2    15
  1.5043695452185102E-01 a      1356     1    16     2    16
  5.0906020406713282E-01 a      1357     1    16     2    17
  2.6667390729217627E-01 a      1358     1    16     2    18
 -2.3592334327707618E-01 a      1359     1    16     2    19
  1.1816565257800096E+00 a      1360     1    16     2    20
  7.5326942770703442E-01 a      1361     1    17     2     1
  7.3516646574519129E-01 a      1362     1    17     2     2
  7.0330357397477694E-01 a      1363     1    17     2     3
 -3.6266218734263535E-02 a      1364     1    17     2     4
  5.8694254825279224E-01 a      1365     1    17     2     5
  3.4820495805502165E-02 a      1366     1    17     2     6
 -4.0553238856044499E-01 a      1367     1    17     2     7
  4.7620943994694222E-02 a      1368     1    17     2     8
  3.2254397136532170E-01 a      1369     1    17     2     9
 -6.6221506739941427E-02 a      1370     1    17     2    10
 -3.3856691787409232E-01 a      1371     1    17     2    11
  3.2270980414732037E-01 a      1372     1    17     2    12
 -5.9499887426411757E-01 a      1373     1    17     2    13
 -2.6817003811242968E-01 a      1374     1    17     2    14
 -2.0487502682827746E-01 a      1375     1    17     2    15
 -3.9513537178410918E-01 a      1376     1    17     2    16
 -6.5064361151992012E-01 a      1377     1    17     2    17
  4.7469558577786758E-01 a      1378     1    17     2    18
  7.7964159881062900E-01 a      1379     1    17     2    19
 -5.0897948919779190E-01 a      1380     1    17     2    20
  4.2284918941844463E-01 a      1381     1    18     2     1
 -5.9082420989422879E-01 a      1382     1    18     2     2
  4.4708969196570530E-01 a      1383     1    18     2     3
  1.8416132295931967E-01 a      1384     1    18     2     4
 -8.9643665177003984E-01 a      1385     1    18     2     5
  1.3176362235569534E+00 a      1386     1    18     2     6
 -3.3945940087342313E-01 a      1387     1    18     2     7
 -2.3841717057109568E-01 a      1388     1    18     2     8
  5.3692733705199136E-01 a      1389     1    18     2     9
  4.3983107229900992E-01 a      1390     1    18     2    10
  5.5807342713480301E-01 a      1391     1    18     2    11
 -6.2535330351157192E-01 a      1392     1    18     2    12
  4.0055884389894125E-01 a      1393     1    18     2    13
  3.2848987114090916E-01 a      1394     1    18     2    14
 -7.9224681688053619E-02 a      1395     1    18     2    15
 -1.0859435030918259E-01 a      1396     1    18     2    16
 -2.6295230540023012E-01 a      1397     1    18     2    17
 -1.6853034671484307E-01 a      1398     1    18     2    18
  2.2973386477881527E-01 a      1399     1    18     2    19
 -1.1084392916122530E-01 a      1400     1    18     2    20
 -1.2360900738529855E-01 a      1401     1    19     2     1
 -1.1874378005068255E-01 a      1402     1    19     2     2
  3.1147751515592063E-03 a      1403     1    19     2     3
  2.6718082522390157E-01 a      1404     1    19     2     4
 -4.6461365513647646E-01 a      1405     1    19     2     5
  3.6042320042253689E-01 a      1406     1    19     2     6
 -6.1723327181736087E-01 a      1407     1    19     2     7
 -1.8639631320652699E-02 a      1408     1    19     2     8
  3.0035546035690580E-01 a      1409     1    19     2     9
  1.5987426725890388E-01 a      1410     1    19     2    10
  2.5018104305081745E-01 a      1411     1    19     2    11
  4.3849241809110756E-01 a      1412     1    19     2    12
 -3.8822283420354048E-01 a      1413     1    19     2    13
  9.1270784199708599E-01 a      1414     1    19     2    14
 -3.7218413187324453E-02 a      1415     1    19     2    15
  7.9016568375158125E-01 a      1416     1    19     2    16
  4.0948152953586114E-01 a      1417     1    19     2    17
 -1.1824910985745732E-01 a      1418     1    19     2    18
  7.3440116553312407E-01 a      1419     1    19     2    19
  9.6620865110882317E-02 a      1420     1    19     2    20
  4.4835822196767178E-01 a      1421     1    20     2     1
  3.7735588391505420E-01 a      1422     1    20     2     2
 -2.5467950234526443E-01 a      1423     1    20     2     3
 -6.3872363555581901E-01 a      1424     1    20     2     4
 -1.3529412597554341E-01 a      1425     1    20     2     5
 -4.7889641438802866E-01 a      1426     1    20     2     6
  1.7430276244028700E-01 a      1427     1    20     2     7
  5.7376343690528164E-01 a      1428     1    20     2     8
 -1.0691023097787729E+00 a      1429     1    20     2     9
  2.5127106577653086E-01 a      1430     1    20     2    10
  2.2050143818402393E-01 a      1431     1    20     2    11
 -7.4965532745723285E-01 a      1432     1    20     2    12
 -1.1038699273781860E+00 a      1433     1    20     2    13
  3.0702868761539165E-01 a      1434     1    20     2    14
 -2.2956664516293968E-01 a      1435     1    20     2    15
 -6.5760863741826037E-01 a      1436     1    20     2    16
  5.2508377402495421E-01 a      1437     1    20     2    17
 -5.0379897731660117E-01 a      1438     1    20     2    18
 -2.9253773044278852E-01 a      1439     1    20     2    19
  4.6542119761746152E-02 a      1440     1    20     2    20
  1.3100718928996613E+00 b      1441     2     1
  1.7987166389471270E+00 b      1442     2     2
  9.8739633118091830E-01 b      1443     2     3
  1.4242037385426953E+00 b      1444     2     4
 -1.1933465686525889E-01 b      1445     2     5
  7.3816092395569666E-01 b      1446     2     6
 -2.0293745692204976E+00 b      1447     2     7
  7.3391492508349709E-01 b      1448     2     8
  1.2933034278809257E+00 b      1449     2     9
 -4.0923293524394566E-01 b      1450     2    10
 -6.7952658587931383E-02 b      1451     2    11
  3.9215217572043432E-01 b      1452     2    12
  7.8672563931268691E-01 b      1453     2    13
 -6.3542312474134000E-01 b      1454     2    14
  7.7167750150936731E-01 b      1455     2    15
  9.4953313864648656E-02 b      1456     2    16
 -1.1721858041902238E+00 b      1457     2    17
  3.1323164882249097E-03 b      1458     2    18
 -4.9592156792653219E-01 b      1459     2    19
 -4.3987167977020125E-01 b      1460     2    20
  6.7900848511289191E-01 a      1461     2     1     3     1
  1.1362218184540371E+00 a      1462     2     2     3     1
  1.1769564389392624E+00 a      1463     2     3     3     1
  1.7314895938246768E+00 a      1464     2     4     3     1
 -1.1831356993281938E-01 a      1465     2     5     3     1
 -3.8126964143042741E-01 a      1466     2     6     3     1
 -1.3647790480376629E+00 a      1467     2     7     3     1
  6.4069621552550604E-01 a      1468     2     8     3     1
  9.3713745651752556E-01 a      1469     2     9     3     1
 -2.2135377449201452E-01 a      1470     2    10     3     1
  1.0028201769426970E+00 a      1471     2    11     3     1
  2.1796932748786659E+00 a      1472     2    12     3     1
  1.9672678242877706E+00 a      1473     2    13     3     1
  2.4810141818917813E-02 a      1474     2    14     3     1
  2.8336298190258815E+00 a      1475     2    15     3     1
  2.9771931780335220E-01 a      1476     2    16     3     1
 -3.0075854878472319E-01 a      1477     2    17     3     1
  1.6943370462316116E+00 a      1478     2    18     3     1
 -1.3263461779857040E+00 a      1479     2    19     3     1
  8.0147224591998656E-01 a      1480     2    20     3     1
  1.8828832575360179E+00 b      1481     3     1
