################################################################################
# Neural network connection values (weights and biases).
################################################################################
# Col  Name       Description
################################################################################
# 1    connection Neural network connection value.
# 2    t          Connection type (a = weight, b = bias).
# 3    index      Index enumerating weights.
# 4    l_s        Starting point layer (end point layer for biases).
# 5    n_s        Starting point neuron in starting layer (end point neuron for biases).
# 6    l_e        End point layer.
# 7    n_e        End point neuron in end layer.
################################################################################
#                      1 2         3     4     5     6     7
#             connection t     index   l_s   n_s   l_e   n_e
############################################################
  5.2221380262445827E-01 a         1     0     1     1     1
 -1.7867996017312490E-01 a         2     0     1     1     2
 -2.7432175424867855E-01 a         3     0     1     1     3
 -2.1043499103131646E-02 a         4     0     1     1     4
 -1.4683635604055226E-01 a         5     0     1     1     5
 -1.4744260057267197E-01 a         6     0     1     1     6
  6.4766579656870615E-01 a         7     0     1     1     7
 -1.2389399927411264E-01 a         8     0     1     1     8
 -5.8372733786654453E-02 a         9     0     1     1     9
 -3.9888662934381031E-01 a        10     0     1     1    10
  6.3450791085246691E-02 a        11     0     1     1    11
  4.5720394126244651E-02 a        12     0     1     1    12
 -4.4847792691267430E-02 a        13     0     1     1    13
  8.8088535940329879E-02 a        14     0     1     1    14
 -1.0223898219375056E-01 a        15     0     1     1    15
 -4.0139771028989607E-01 a        16     0     1     1    16
  7.1531797989777129E-02 a        17     0     1     1    17
 -3.2891788255058174E-01 a        18     0     1     1    18
 -5.0605664915144077E-01 a        19     0     1     1    19
 -2.3395216651990017E-01 a        20     0     1     1    20
  1.4874065315557036E-01 a        21     0     2     1     1
 -4.1628052487588546E-01 a        22     0     2     1     2
 -4.1651838363832129E-03 a        23     0     2     1     3
  3.0815151848425487E-01 a        24     0     2     1     4
 -3.8936992757731471E-02 a        25     0     2     1     5
 -7.5024024826792018E-02 a        26     0     2     1     6
  5.8737078014526167E-01 a        27     0     2     1     7
 -1.9934976433066467E-01 a        28     0     2     1     8
  2.0016093305746582E-01 a        29     0     2     1     9
 -2.0747972082699423E-01 a        30     0     2     1    10
 -1.3278875303442678E-01 a        31     0     2     1    11
  5.1320152488620396E-01 a        32     0     2     1    12
 -2.4103863300789341E-02 a        33     0     2     1    13
 -3.2638137801068851E-01 a        34     0     2     1    14
 -1.2984192191531893E-01 a        35     0     2     1    15
 -3.2890061795619246E-01 a        36     0     2     1    16
 -3.9744272201903014E-01 a        37     0     2     1    17
 -1.2305748333622757E-01 a        38     0     2     1    18
 -2.1427565513916505E-01 a        39     0     2     1    19
 -1.2878905838758298E-01 a        40     0     2     1    20
 -2.7742132622794635E-02 a        41     0     3     1     1
  2.7633189595777552E-01 a        42     0     3     1     2
  2.3165968922329958E-01 a        43     0     3     1     3
  2.3362608947101751E-01 a        44     0     3     1     4
 -2.0723407027835350E-01 a        45     0     3     1     5
  3.5977181760971921E-01 a        46     0     3     1     6
  3.0289911077061343E-01 a        47     0     3     1     7
  2.7095300950570006E-01 a        48     0     3     1     8
  2.6129853101238459E-01 a        49     0     3     1     9
  4.1338787919366193E-01 a        50     0     3     1    10
  1.5481323904867783E-01 a        51     0     3     1    11
  3.7615632883318796E-02 a        52     0     3     1    12
 -3.3447641875135364E-01 a        53     0     3     1    13
 -3.5930387908717404E-01 a        54     0     3     1    14
  1.1755078701193140E-02 a        55     0     3     1    15
 -3.1722452162010378E-01 a        56     0     3     1    16
  3.6293088186302759E-03 a        57     0     3     1    17
  5.4117258896144305E-01 a        58     0     3     1    18
  1.2629850514942786E-01 a        59     0     3     1    19
  3.3035223888469495E-02 a        60     0     3     1    20
 -4.1383459049721044E-01 a        61     0     4     1     1
  3.3662363531165390E-01 a        62     0     4     1     2
  1.8976587433823780E-01 a        63     0     4     1     3
 -9.4620910945474340E-02 a        64     0     4     1     4
 -2.2557569352103340E-01 a        65     0     4     1     5
 -1.4857767271574929E-01 a        66     0     4     1     6
 -6.0002353242904427E-01 a        67     0     4     1     7
  3.8847045693994986E-01 a        68     0     4     1     8
 -1.1642005545154202E-02 a        69     0     4     1     9
  1.1761233105187369E-01 a        70     0     4     1    10
  8.6212573539489940E-02 a        71     0     4     1    11
  1.3865773442757259E-01 a        72     0     4     1    12
 -1.8435290136199836E-02 a        73     0     4     1    13
  8.4927846282321279E-02 a        74     0     4     1    14
  7.8596738228820226E-02 a        75     0     4     1    15
  9.7042134396020191E-02 a        76     0     4     1    16
 -3.2808119533973105E-02 a        77     0     4     1    17
  4.3225800289607230E-01 a        78     0     4     1    18
  2.4945831019987055E-02 a        79     0     4     1    19
  2.6143092094874493E-01 a        80     0     4     1    20
 -4.1627849732790007E-01 a        81     0     5     1     1
  2.0234623231955812E-01 a        82     0     5     1     2
  1.9456302994363342E-01 a        83     0     5     1     3
  9.7389745382638213E-02 a        84     0     5     1     4
  6.3780156655124520E-01 a        85     0     5     1     5
  1.6712934055699799E-01 a        86     0     5     1     6
 -2.2128933993345146E-01 a        87     0     5     1     7
 -1.5570996244378094E-01 a        88     0     5     1     8
  1.6488576693972729E-01 a        89     0     5     1     9
 -5.2730952618690974E-01 a        90     0     5     1    10
 -3.9652899788616490E-02 a        91     0     5     1    11
 -5.2468305745957367E-01 a        92     0     5     1    12
  2.7796850791100930E-01 a        93     0     5     1    13
  4.4375818053670346E-01 a        94     0     5     1    14
 -8.1489440200829006E-03 a        95     0     5     1    15
  8.4314622155666444E-02 a        96     0     5     1    16
 -3.0788107882110294E-01 a        97     0     5     1    17
 -2.2041272062836034E-01 a        98     0     5     1    18
  2.9123858931661306E-01 a        99     0     5     1    19
 -3.9312418103435920E-01 a       100     0     5     1    20
 -1.1746361870117833E-01 a       101     0     6     1     1
 -4.6367394867591429E-02 a       102     0     6     1     2
  1.3455560726683144E-01 a       103     0     6     1     3
 -3.0976852540219368E-01 a       104     0     6     1     4
  4.4029177160710586E-01 a       105     0     6     1     5
  7.3876232877640891E-01 a       106     0     6     1     6
 -1.3142410098694621E+00 a       107     0     6     1     7
  9.5194715168814503E-02 a       108     0     6     1     8
  2.7865505499596155E-01 a       109     0     6     1     9
 -3.8394093904028914E-01 a       110     0     6     1    10
 -1.3551267288508739E-01 a       111     0     6     1    11
 -8.2948599123037881E-01 a       112     0     6     1    12
  2.6102549699243999E-01 a       113     0     6     1    13
  1.8325241461381908E-01 a       114     0     6     1    14
 -1.0645177579104677E-01 a       115     0     6     1    15
  6.9543737680578599E-01 a       116     0     6     1    16
 -5.8857351536033192E-02 a       117     0     6     1    17
 -1.3102950507521596E-01 a       118     0     6     1    18
  9.4124145985297980E-01 a       119     0     6     1    19
  4.3255951362727846E-01 a       120     0     6     1    20
 -1.5297983827182082E-01 a       121     0     7     1     1
 -4.3224428897955908E-01 a       122     0     7     1     2
 -3.7266945944621616E-01 a       123     0     7     1     3
  6.0960125786089570E-01 a       124     0     7     1     4
 -4.4403806202736007E-01 a       125     0     7     1     5
 -4.3218763178661757E-01 a       126     0     7     1     6
  2.5912192351945929E-01 a       127     0     7     1     7
 -1.5000603896235309E-01 a       128     0     7     1     8
 -1.2750271343809230E-01 a       129     0     7     1     9
  4.0959643758425029E-01 a       130     0     7     1    10
 -1.0926027012154089E+00 a       131     0     7     1    11
  1.0325948518485348E+00 a       132     0     7     1    12
 -1.0283890665200395E+00 a       133     0     7     1    13
  4.1008254013701079E-01 a       134     0     7     1    14
 -3.7482266056988602E-02 a       135     0     7     1    15
 -2.5137963430107452E-01 a       136     0     7     1    16
  3.6622103810169820E-01 a       137     0     7     1    17
  8.4754554348631245E-02 a       138     0     7     1    18
 -8.8319528000196723E-01 a       139     0     7     1    19
  6.4334073257060131E-01 a       140     0     7     1    20
  3.5578853351707251E-01 a       141     0     8     1     1
  3.9538698524742649E-01 a       142     0     8     1     2
  1.1959323420178886E-01 a       143     0     8     1     3
 -1.0156065181050776E-01 a       144     0     8     1     4
 -2.6576105999120186E-01 a       145     0     8     1     5
  1.9612339670183659E-01 a       146     0     8     1     6
 -2.0952378541841322E-02 a       147     0     8     1     7
  2.4697741999335004E-01 a       148     0     8     1     8
 -3.1299644478375750E-02 a       149     0     8     1     9
 -1.1765688089413008E-01 a       150     0     8     1    10
  7.2779485464410376E-01 a       151     0     8     1    11
 -6.4962616517675237E-02 a       152     0     8     1    12
  2.9234685603744326E-01 a       153     0     8     1    13
 -3.4334557269719473E-01 a       154     0     8     1    14
  4.0340139513733678E-02 a       155     0     8     1    15
 -2.3384435023737227E-01 a       156     0     8     1    16
 -1.4724450143507237E-01 a       157     0     8     1    17
  3.1322210130811512E-01 a       158     0     8     1    18
 -6.2863081782401381E-02 a       159     0     8     1    19
 -3.9331891058382457E-01 a       160     0     8     1    20
  4.9403416001331205E-02 a       161     0     9     1     1
 -1.6141067391044581E-01 a       162     0     9     1     2
 -6.3976585515575901E-01 a       163     0     9     1     3
  6.2553820938774107E-01 a       164     0     9     1     4
 -1.7733222622942621E-01 a       165     0     9     1     5
 -1.4933331924496861E-03 a       166     0     9     1     6
 -9.2512906812896589E-01 a       167     0     9     1     7
  3.8857669124960054E-01 a       168     0     9     1     8
 -1.9972433331058703E-01 a       169     0     9     1     9
  1.6554967748606833E-01 a       170     0     9     1    10
 -7.6861042701449400E-01 a       171     0     9     1    11
 -1.2317150738540190E+00 a       172     0     9     1    12
 -1.7623859515894794E-01 a       173     0     9     1    13
 -1.8993558211112151E+00 a       174     0     9     1    14
  6.6036184575104784E-01 a       175     0     9     1    15
 -1.9792926103663652E-01 a       176     0     9     1    16
 -4.2142109430894187E-01 a       177     0     9     1    17
  9.6480138335903520E-01 a       178     0     9     1    18
  1.5523200908547865E+00 a       179     0     9     1    19
 -1.3537524030751066E-01 a       180     0     9     1    20
  5.8817381869690444E-01 a       181     0    10     1     1
 -1.1457244306717994E-01 a       182     0    10     1     2
  9.0113801052883158E-01 a       183     0    10     1     3
 -7.2941898068978483E-01 a       184     0    10     1     4
  1.3875418675045925E-01 a       185     0    10     1     5
  1.2025221236932780E-01 a       186     0    10     1     6
  3.0597455702151949E-01 a       187     0    10     1     7
 -8.8718105373552947E-01 a       188     0    10     1     8
 -1.2439289113305850E-02 a       189     0    10     1     9
 -4.9059030072805772E-02 a       190     0    10     1    10
  4.2360292245378850E-01 a       191     0    10     1    11
  1.7823558880139758E+00 a       192     0    10     1    12
 -5.7079793961264121E-02 a       193     0    10     1    13
  2.5248986459304601E+00 a       194     0    10     1    14
 -1.4473191550932270E+00 a       195     0    10     1    15
  7.2121489139863171E-01 a       196     0    10     1    16
  8.4102739558234912E-02 a       197     0    10     1    17
 -1.2804157754539098E+00 a       198     0    10     1    18
 -1.2690373353906885E+00 a       199     0    10     1    19
  5.3661006942190081E-01 a       200     0    10     1    20
  3.0924500135184990E-01 a       201     0    11     1     1
  1.9412665424343931E-01 a       202     0    11     1     2
 -8.2412925409256610E-01 a       203     0    11     1     3
 -2.1553933913164403E-01 a       204     0    11     1     4
  6.4663315776367625E-01 a       205     0    11     1     5
 -5.6020698967653537E-01 a       206     0    11     1     6
  1.0866850512290411E+00 a       207     0    11     1     7
 -4.1574666511377437E-02 a       208     0    11     1     8
  5.3014078532235520E-01 a       209     0    11     1     9
  5.9847694084472658E-01 a       210     0    11     1    10
  4.8330883132431535E-01 a       211     0    11     1    11
 -6.3417402106584497E-01 a       212     0    11     1    12
 -4.8010911453438521E-01 a       213     0    11     1    13
 -5.1767575768081220E-01 a       214     0    11     1    14
  7.7512476625358884E-01 a       215     0    11     1    15
  7.0670800717239052E-02 a       216     0    11     1    16
  3.6043842960598999E-01 a       217     0    11     1    17
  7.1552147265880800E-02 a       218     0    11     1    18
 -9.1470611434220805E-01 a       219     0    11     1    19
 -2.7258532012143077E-01 a       220     0    11     1    20
 -6.8586010569156086E-01 a       221     0    12     1     1
 -7.6098667138789489E-02 a       222     0    12     1     2
  5.8633408164614953E-01 a       223     0    12     1     3
  6.1550138635471408E-01 a       224     0    12     1     4
 -4.5808341967579874E-01 a       225     0    12     1     5
  4.2067148721620290E-01 a       226     0    12     1     6
 -7.2210569626535903E-01 a       227     0    12     1     7
  4.2626485701519327E-02 a       228     0    12     1     8
 -5.3717824038886954E-02 a       229     0    12     1     9
 -6.7275569308612793E-01 a       230     0    12     1    10
 -1.4827456660098619E-02 a       231     0    12     1    11
  6.2078309002348264E-01 a       232     0    12     1    12
  8.9251097933851620E-01 a       233     0    12     1    13
 -5.6831310207910257E-01 a       234     0    12     1    14
  2.4845533355053159E-01 a       235     0    12     1    15
 -4.5860247330481479E-01 a       236     0    12     1    16
 -1.3547843145817950E-01 a       237     0    12     1    17
  8.7320293306591260E-02 a       238     0    12     1    18
  5.6513793974163717E-01 a       239     0    12     1    19
 -2.1670386351201298E-01 a       240     0    12     1    20
  1.8475799953290964E-01 a       241     0    13     1     1
  1.1620167028186565E-01 a       242     0    13     1     2
 -1.2576081053477323E-01 a       243     0    13     1     3
 -2.7990046193422669E-01 a       244     0    13     1     4
  4.9275106687126946E-01 a       245     0    13     1     5
  2.4901884929021120E-01 a       246     0    13     1     6
  7.3360488627277276E-01 a       247     0    13     1     7
 -7.0675969078509093E-02 a       248     0    13     1     8
  6.1343140286421527E-01 a       249     0    13     1     9
  1.0382848003276925E-01 a       250     0    13     1    10
  2.6848882060339968E-01 a       251     0    13     1    11
 -4.0538469424443807E-02 a       252     0    13     1    12
  1.4955964899908133E-01 a       253     0    13     1    13
  4.1806020750745895E-02 a       254     0    13     1    14
  4.7474532476705361E-01 a       255     0    13     1    15
  2.5500626393282853E-02 a       256     0    13     1    16
  1.4229234809724975E-01 a       257     0    13     1    17
  3.8786779153566159E-01 a       258     0    13     1    18
  2.7697440039319687E-01 a       259     0    13     1    19
 -1.7689954133114558E-01 a       260     0    13     1    20
 -5.0375387936714910E-01 a       261     0    14     1     1
  2.9927977828880509E-01 a       262     0    14     1     2
 -1.9705242165439235E-01 a       263     0    14     1     3
  1.6594377510821390E-01 a       264     0    14     1     4
 -6.5600354069797950E-01 a       265     0    14     1     5
 -3.1273153455624259E-01 a       266     0    14     1     6
  1.3924427516792756E-01 a       267     0    14     1     7
  5.3202432503616315E-01 a       268     0    14     1     8
  7.8657088801306174E-02 a       269     0    14     1     9
  3.1590202246305592E-02 a       270     0    14     1    10
  1.0660016599549629E-01 a       271     0    14     1    11
 -4.7967560358521555E-01 a       272     0    14     1    12
 -3.0261048640150562E-01 a       273     0    14     1    13
 -7.2514152507499907E-01 a       274     0    14     1    14
  7.4997527713301049E-01 a       275     0    14     1    15
  7.5278349488057131E-02 a       276     0    14     1    16
 -4.4649748469805800E-01 a       277     0    14     1    17
  1.3062071481644691E-01 a       278     0    14     1    18
  1.1530505516676789E-01 a       279     0    14     1    19
 -1.0708413695853623E-01 a       280     0    14     1    20
 -2.3966191213248535E-02 a       281     0    15     1     1
  1.9903626456107801E-01 a       282     0    15     1     2
  1.7139925528020322E-01 a       283     0    15     1     3
  5.3378834048585166E-01 a       284     0    15     1     4
 -2.1631445450697220E-01 a       285     0    15     1     5
  3.8967796312739815E-04 a       286     0    15     1     6
 -4.4840236298710257E-01 a       287     0    15     1     7
  1.3223680555130132E-01 a       288     0    15     1     8
  4.9261774430982136E-01 a       289     0    15     1     9
  1.8068793737045122E-01 a       290     0    15     1    10
  3.4497457183799235E-02 a       291     0    15     1    11
  2.3132870353707771E-01 a       292     0    15     1    12
 -3.6466225811898667E-01 a       293     0    15     1    13
 -2.2644075531676865E-02 a       294     0    15     1    14
  6.3219892495867158E-01 a       295     0    15     1    15
  6.3427546328536130E-02 a       296     0    15     1    16
  1.4322042170473173E-01 a       297     0    15     1    17
 -1.7840577145684108E-01 a       298     0    15     1    18
 -3.2792113645801546E-01 a       299     0    15     1    19
 -2.2560038178385866E-01 a       300     0    15     1    20
  3.7066646258968505E-01 a       301     0    16     1     1
 -1.8991972217557895E-01 a       302     0    16     1     2
 -4.3032826766542534E-02 a       303     0    16     1     3
 -2.1166175639874968E-01 a       304     0    16     1     4
  2.5648639716926758E-01 a       305     0    16     1     5
  3.5592490408717148E-01 a       306     0    16     1     6
  2.1406087425118914E-01 a       307     0    16     1     7
 -3.9626952529169146E-01 a       308     0    16     1     8
 -3.3370761979474167E-02 a       309     0    16     1     9
 -2.9010875555716603E-01 a       310     0    16     1    10
  2.0512696739133321E-01 a       311     0    16     1    11
 -2.4385576202234030E-01 a       312     0    16     1    12
 -1.3237441499443642E-02 a       313     0    16     1    13
 -3.6634568069361745E-01 a       314     0    16     1    14
  3.5548035083588608E-01 a       315     0    16     1    15
 -4.5743592759533339E-02 a       316     0    16     1    16
  8.5535562208243299E-01 a       317     0    16     1    17
  1.0256238105638467E+00 a       318     0    16     1    18
  1.0630098894730606E+00 a       319     0    16     1    19
  6.3022516361661618E-01 a       320     0    16     1    20
  5.8875594922917429E-01 a       321     0    17     1     1
  4.4365323073790798E-02 a       322     0    17     1     2
 -8.0476506643665813E-01 a       323     0    17     1     3
 -3.2447204338450725E-01 a       324     0    17     1     4
 -2.6639414636508080E-01 a       325     0    17     1     5
 -3.4870169409541701E-01 a       326     0    17     1     6
  3.9493128581073983E-01 a       327     0    17     1     7
  2.3282472365411799E-01 a       328     0    17     1     8
  3.3669439808783391E-01 a       329     0    17     1     9
  5.7267054932984152E-01 a       330     0    17     1    10
  3.3725464174955555E-01 a       331     0    17     1    11
 -1.5378525184679728E-01 a       332     0    17     1    12
 -3.3591655663874315E-01 a       333     0    17     1    13
  1.2049299840478297E-02 a       334     0    17     1    14
  7.9682467540362489E-01 a       335     0    17     1    15
  3.4983504833597834E-01 a       336     0    17     1    16
 -4.1242727115186145E-01 a       337     0    17     1    17
 -5.6101183145631706E-01 a       338     0    17     1    18
 -6.4826096157766189E-01 a       339     0    17     1    19
  1.6011781435878978E-02 a       340     0    17     1    20
 -1.2344385393827012E-01 a       341     0    18     1     1
  4.8910319846608491E-01 a       342     0    18     1     2
  5.6758157783604024E-01 a       343     0    18     1     3
 -1.6747565025926187E-01 a       344     0    18     1     4
 -1.4846623732569941E-01 a       345     0    18     1     5
  6.4749865257344086E-01 a       346     0    18     1     6
 -1.6482584640353060E-01 a       347     0    18     1     7
  4.3283363529181718E-01 a       348     0    18     1     8
 -1.9903005406507135E-01 a       349     0    18     1     9
 -2.6726084342804207E-01 a       350     0    18     1    10
  2.9483396173463239E-01 a       351     0    18     1    11
  1.6309153625993195E-01 a       352     0    18     1    12
  5.4730781078887170E-01 a       353     0    18     1    13
 -2.1109679400721990E-01 a       354     0    18     1    14
  1.7447246387564647E-01 a       355     0    18     1    15
 -9.5697633055262632E-02 a       356     0    18     1    16
 -2.2442968964855378E-01 a       357     0    18     1    17
  2.5950972842452802E-01 a       358     0    18     1    18
  6.4239557293907834E-01 a       359     0    18     1    19
 -2.1282802561886818E-01 a       360     0    18     1    20
 -4.4159887439108486E-01 a       361     0    19     1     1
 -1.2504904791323113E-01 a       362     0    19     1     2
 -7.6756567660090391E-01 a       363     0    19     1     3
 -2.1439592630276721E-01 a       364     0    19     1     4
 -9.7374160186634839E-01 a       365     0    19     1     5
 -1.4475787067470791E-01 a       366     0    19     1     6
 -8.5567108792175994E-02 a       367     0    19     1     7
 -3.0045572765263772E-02 a       368     0    19     1     8
 -4.9204112825310020E-01 a       369     0    19     1     9
  3.4750184032334347E-01 a       370     0    19     1    10
  6.3807098271125573E-01 a       371     0    19     1    11
 -7.8743751971009102E-01 a       372     0    19     1    12
 -3.1207622028324422E-01 a       373     0    19     1    13
  1.0632122827258697E-01 a       374     0    19     1    14
 -6.3281047048983452E-01 a       375     0    19     1    15
  8.4375819872292174E-02 a       376     0    19     1    16
  2.1170437990441057E-01 a       377     0    19     1    17
  2.4698012103617453E-01 a       378     0    19     1    18
  6.3290277414306695E-01 a       379     0    19     1    19
  1.2162771274375297E-01 a       380     0    19     1    20
  2.0272599951659243E-02 a       381     0    20     1     1
  1.3706380441785593E-01 a       382     0    20     1     2
  7.3046310957277455E-02 a       383     0    20     1     3
  7.2531647510639327E-02 a       384     0    20     1     4
 -5.1368495608842679E-01 a       385     0    20     1     5
 -1.3749757095739211E-02 a       386     0    20     1     6
  1.5020339823241668E-01 a       387     0    20     1     7
 -4.3685138644299154E-02 a       388     0    20     1     8
 -2.2187241985337980E-01 a       389     0    20     1     9
 -2.8391547585601606E-01 a       390     0    20     1    10
 -2.8179948328143284E-01 a       391     0    20     1    11
 -2.3456514010210200E-01 a       392     0    20     1    12
  8.8616501532359948E-02 a       393     0    20     1    13
 -4.7449003397823798E-02 a       394     0    20     1    14
 -4.4872496782295795E-01 a       395     0    20     1    15
  1.3978637941150512E-02 a       396     0    20     1    16
  5.3597145026999304E-01 a       397     0    20     1    17
  2.0669474457670753E-01 a       398     0    20     1    18
 -6.0068485162597074E-01 a       399     0    20     1    19
 -1.6746303254334228E-02 a       400     0    20     1    20
  6.8888896172815650E-01 a       401     0    21     1     1
 -1.4310748269808782E-03 a       402     0    21     1     2
  6.1511751385962168E-02 a       403     0    21     1     3
 -3.9666074439286181E-01 a       404     0    21     1     4
 -2.4396490106696712E-03 a       405     0    21     1     5
  4.9558692764448586E-01 a       406     0    21     1     6
  9.7502159567074947E-02 a       407     0    21     1     7
  1.7408769343768679E-01 a       408     0    21     1     8
  2.2417702267022419E-01 a       409     0    21     1     9
  3.8082044377763435E-01 a       410     0    21     1    10
 -3.1101173519776210E-01 a       411     0    21     1    11
  2.0766641560366317E-01 a       412     0    21     1    12
  6.2481245642188177E-01 a       413     0    21     1    13
 -2.2347957468074364E-01 a       414     0    21     1    14
  9.5783403049598828E-02 a       415     0    21     1    15
  6.3635445871821461E-02 a       416     0    21     1    16
  3.2364580757609945E-01 a       417     0    21     1    17
 -3.4562644456557617E-01 a       418     0    21     1    18
 -2.9320772585711165E-02 a       419     0    21     1    19
  1.7224039806588054E-01 a       420     0    21     1    20
  2.5150247214437049E-02 a       421     0    22     1     1
 -3.7309553335851336E-01 a       422     0    22     1     2
 -2.7864167018895014E-01 a       423     0    22     1     3
 -2.0326863824527916E-01 a       424     0    22     1     4
 -4.2206884993545128E-02 a       425     0    22     1     5
 -2.8862913202938778E-01 a       426     0    22     1     6
 -7.1966263504697855E-02 a       427     0    22     1     7
  2.0119678561069312E-01 a       428     0    22     1     8
 -2.5112212460395988E-01 a       429     0    22     1     9
  3.5969916704889339E-02 a       430     0    22     1    10
 -2.7064805081484128E-01 a       431     0    22     1    11
 -3.0361191225193646E-01 a       432     0    22     1    12
  3.8362603768586395E-01 a       433     0    22     1    13
  2.4579496165064041E-01 a       434     0    22     1    14
  6.3723215689235474E-02 a       435     0    22     1    15
  1.0650376216601762E-02 a       436     0    22     1    16
  4.4448545289140839E-01 a       437     0    22     1    17
 -9.4105165102726773E-01 a       438     0    22     1    18
  2.4791381850548569E-01 a       439     0    22     1    19
  2.5535869335633699E-01 a       440     0    22     1    20
  6.3297274144499122E-02 a       441     0    23     1     1
  4.5038278398920972E-01 a       442     0    23     1     2
 -8.7881211755316060E-02 a       443     0    23     1     3
  5.8811549852501276E-02 a       444     0    23     1     4
  6.1941825331827516E-01 a       445     0    23     1     5
 -2.4969273569237335E-01 a       446     0    23     1     6
  2.1930807824389431E-01 a       447     0    23     1     7
 -6.8844908906608915E-01 a       448     0    23     1     8
  1.7676633005855577E-01 a       449     0    23     1     9
  5.2040795345358815E-01 a       450     0    23     1    10
  3.6944538674783495E-01 a       451     0    23     1    11
 -6.8033595162323457E-01 a       452     0    23     1    12
  9.2012570226914919E-02 a       453     0    23     1    13
 -3.6406029998963607E-01 a       454     0    23     1    14
  4.2041001571390674E-01 a       455     0    23     1    15
  4.1263893778784688E-01 a       456     0    23     1    16
 -1.3547390312975865E-01 a       457     0    23     1    17
  5.6149601566988039E-01 a       458     0    23     1    18
  2.8471809521314673E-01 a       459     0    23     1    19
 -1.4516509053259052E-01 a       460     0    23     1    20
  3.7559298537660005E-02 a       461     0    24     1     1
 -2.3603006189024303E-01 a       462     0    24     1     2
  1.9004195155909051E-01 a       463     0    24     1     3
 -1.1208221270845430E-02 a       464     0    24     1     4
 -1.3981420930886664E-02 a       465     0    24     1     5
  2.4352258454567299E-01 a       466     0    24     1     6
 -3.3228009596741331E-01 a       467     0    24     1     7
  1.0650103769365923E-01 a       468     0    24     1     8
  6.7358805401242811E-02 a       469     0    24     1     9
  9.0094616172531516E-01 a       470     0    24     1    10
  2.0668291466679514E-01 a       471     0    24     1    11
 -8.1471536479480733E-01 a       472     0    24     1    12
  4.1467446522478074E-01 a       473     0    24     1    13
  1.9639825537697542E-01 a       474     0    24     1    14
  3.3842464869021099E-01 a       475     0    24     1    15
 -2.8270703470960512E-01 a       476     0    24     1    16
  4.2205170219026017E-01 a       477     0    24     1    17
  6.5334947316679459E-01 a       478     0    24     1    18
  2.8435803555970807E-01 a       479     0    24     1    19
  3.7624697149482450E-01 a       480     0    24     1    20
 -5.7248166608947626E-01 a       481     0    25     1     1
  5.5195179947472417E-01 a       482     0    25     1     2
 -4.8234274745331807E-01 a       483     0    25     1     3
 -1.1904108424514477E-01 a       484     0    25     1     4
  4.8722628789022435E-02 a       485     0    25     1     5
  5.4697241751917614E-01 a       486     0    25     1     6
  4.1178153403045736E-01 a       487     0    25     1     7
 -6.1028690861583423E-01 a       488     0    25     1     8
 -6.4050311883237006E-03 a       489     0    25     1     9
 -4.1077548345065446E-01 a       490     0    25     1    10
  8.0382424872915004E-01 a       491     0    25     1    11
 -1.4240958222126929E-01 a       492     0    25     1    12
 -7.5624716803943143E-02 a       493     0    25     1    13
 -6.4832711616970617E-01 a       494     0    25     1    14
 -3.1042861902039870E-01 a       495     0    25     1    15
  8.7113671699066486E-01 a       496     0    25     1    16
 -7.2538757413884714E-01 a       497     0    25     1    17
 -5.4795804298144180E-02 a       498     0    25     1    18
  8.8775676052234809E-01 a       499     0    25     1    19
 -5.0234671358548233E-01 a       500     0    25     1    20
 -1.1182829706965748E-01 a       501     0    26     1     1
  8.1642566807759026E-02 a       502     0    26     1     2
 -5.0090108699621667E-02 a       503     0    26     1     3
 -3.4889889670977065E-01 a       504     0    26     1     4
 -1.6367139773088245E-02 a       505     0    26     1     5
 -1.7520953944567505E-01 a       506     0    26     1     6
 -2.6222374484532102E-02 a       507     0    26     1     7
  1.3398873908368689E-01 a       508     0    26     1     8
 -7.0485840807462549E-02 a       509     0    26     1     9
 -5.6748581317104996E-01 a       510     0    26     1    10
 -1.0215946647146901E-01 a       511     0    26     1    11
  1.5122183922742602E-01 a       512     0    26     1    12
 -3.3547923411272990E-01 a       513     0    26     1    13
  1.4138543477532942E-01 a       514     0    26     1    14
 -2.6177855137458705E-01 a       515     0    26     1    15
  4.7266777234015289E-01 a       516     0    26     1    16
 -5.0664886376230600E-01 a       517     0    26     1    17
 -5.5945459825215982E-01 a       518     0    26     1    18
  1.6701908940476862E-01 a       519     0    26     1    19
 -2.4887806905781928E-01 a       520     0    26     1    20
 -4.0262090406528554E-02 a       521     0    27     1     1
  5.8969581960316986E-01 a       522     0    27     1     2
  5.7760409680946312E-01 a       523     0    27     1     3
  3.8231489650827072E-01 a       524     0    27     1     4
 -1.1942816401105973E-01 a       525     0    27     1     5
  1.6815343717237902E-01 a       526     0    27     1     6
 -1.6241548141671991E-01 a       527     0    27     1     7
  6.2210336908642881E-02 a       528     0    27     1     8
 -2.9990498767781959E-01 a       529     0    27     1     9
  8.8673526372693390E-01 a       530     0    27     1    10
  4.2792295068743422E-02 a       531     0    27     1    11
 -1.4300118642113305E-01 a       532     0    27     1    12
  1.9533510810173949E-02 a       533     0    27     1    13
  4.5696167559335261E-02 a       534     0    27     1    14
  8.2675080000706447E-02 a       535     0    27     1    15
 -3.1366934184135320E-01 a       536     0    27     1    16
 -1.4818670217627705E-01 a       537     0    27     1    17
 -3.6199384372747813E-02 a       538     0    27     1    18
 -5.3063420826713703E-01 a       539     0    27     1    19
  1.1996556454546454E+00 a       540     0    27     1    20
  3.0307382324825691E-02 a       541     0    28     1     1
 -9.0243297341891182E-02 a       542     0    28     1     2
  1.2723318217671511E-01 a       543     0    28     1     3
  6.3818183463546271E-02 a       544     0    28     1     4
  3.0412548283812690E-01 a       545     0    28     1     5
 -1.6806771617419444E-01 a       546     0    28     1     6
 -3.0211487627299155E-01 a       547     0    28     1     7
  2.9266342942849422E-01 a       548     0    28     1     8
 -3.2220779230595903E-01 a       549     0    28     1     9
 -5.4276570444626593E-01 a       550     0    28     1    10
 -7.9750476329728467E-02 a       551     0    28     1    11
  1.6343525908883408E-01 a       552     0    28     1    12
 -2.2964102434957384E-01 a       553     0    28     1    13
 -4.4500113577778033E-01 a       554     0    28     1    14
 -8.8932494280817051E-02 a       555     0    28     1    15
 -3.2765406088701809E-01 a       556     0    28     1    16
 -3.4318099645237504E-01 a       557     0    28     1    17
  6.4780651465595002E-02 a       558     0    28     1    18
  4.9902776741336452E-03 a       559     0    28     1    19
 -1.1036509585382800E-01 a       560     0    28     1    20
 -6.2827363060421762E-02 a       561     0    29     1     1
  6.2209480454096278E-01 a       562     0    29     1     2
  6.8916656786112529E-02 a       563     0    29     1     3
 -2.9694045247964290E-01 a       564     0    29     1     4
  2.2361338629863894E-01 a       565     0    29     1     5
 -1.3899794695790721E-01 a       566     0    29     1     6
  3.7419689273719942E-01 a       567     0    29     1     7
  1.6206074529436046E-01 a       568     0    29     1     8
 -1.9552009912621862E-01 a       569     0    29     1     9
 -3.1345077073687933E-01 a       570     0    29     1    10
 -2.0254928095088320E-01 a       571     0    29     1    11
  9.4047281608205371E-02 a       572     0    29     1    12
  2.7250445784163979E-01 a       573     0    29     1    13
  2.2235950575304611E-01 a       574     0    29     1    14
 -6.6744033783473475E-02 a       575     0    29     1    15
  3.6204003176918582E-02 a       576     0    29     1    16
 -3.5208260588450663E-01 a       577     0    29     1    17
  1.4982249290243457E-01 a       578     0    29     1    18
 -2.0729525071096849E-02 a       579     0    29     1    19
 -7.2611572313773812E-02 a       580     0    29     1    20
 -1.3818638402261299E-01 a       581     0    30     1     1
 -4.7698136266179031E-01 a       582     0    30     1     2
  3.8187619767809172E-01 a       583     0    30     1     3
 -4.1077322982449871E-02 a       584     0    30     1     4
 -1.2463487825333554E-01 a       585     0    30     1     5
  4.9875685745774036E-02 a       586     0    30     1     6
  2.3670920016466432E-01 a       587     0    30     1     7
  1.9834194307420319E-01 a       588     0    30     1     8
  3.8251354150094707E-01 a       589     0    30     1     9
 -6.8755742083803348E-02 a       590     0    30     1    10
 -3.4861184064774198E-01 a       591     0    30     1    11
  8.1664569066723480E-01 a       592     0    30     1    12
 -5.2605134307909762E-01 a       593     0    30     1    13
 -3.4571956366566464E-01 a       594     0    30     1    14
 -2.0635909590000553E-01 a       595     0    30     1    15
  5.2448694097391124E-01 a       596     0    30     1    16
  4.8386382212616658E-01 a       597     0    30     1    17
 -2.0887246528416545E-01 a       598     0    30     1    18
 -1.8150030573690612E-01 a       599     0    30     1    19
 -1.6088361057721504E-02 a       600     0    30     1    20
 -1.9118365960986476E-02 a       601     0    31     1     1
  1.0386834978637630E-01 a       602     0    31     1     2
 -5.0497498206469649E-01 a       603     0    31     1     3
 -4.6056305132454539E-01 a       604     0    31     1     4
  2.4819749845911621E-01 a       605     0    31     1     5
 -2.0169661080947632E-01 a       606     0    31     1     6
  6.0186969623042808E-01 a       607     0    31     1     7
 -3.8303382805216984E-01 a       608     0    31     1     8
  1.9130113390473821E-01 a       609     0    31     1     9
 -1.5606106825925328E-01 a       610     0    31     1    10
  1.5682253527751391E-01 a       611     0    31     1    11
  4.7150149871901520E-01 a       612     0    31     1    12
 -1.1983052590993906E-01 a       613     0    31     1    13
 -7.6434136285205967E-01 a       614     0    31     1    14
 -3.6357600002520479E-01 a       615     0    31     1    15
  2.3690739662943605E-01 a       616     0    31     1    16
  2.5306075852915566E-01 a       617     0    31     1    17
  7.0000671086617200E-02 a       618     0    31     1    18
 -1.9844083140717791E-01 a       619     0    31     1    19
  2.2311130693208492E-01 a       620     0    31     1    20
  2.1172500582174339E-01 a       621     0    32     1     1
 -5.9779426739082187E-01 a       622     0    32     1     2
 -3.4655406624374174E-01 a       623     0    32     1     3
  1.7834074752893603E-01 a       624     0    32     1     4
 -1.3383611568060042E-02 a       625     0    32     1     5
  4.0881182831775151E-02 a       626     0    32     1     6
 -2.5774685269920217E-01 a       627     0    32     1     7
  1.9615568608604045E-01 a       628     0    32     1     8
 -2.4839113746913227E-01 a       629     0    32     1     9
  3.6071497544872499E-01 a       630     0    32     1    10
 -8.4917930998073946E-02 a       631     0    32     1    11
 -7.2251022632011541E-01 a       632     0    32     1    12
  4.1085157275461082E-01 a       633     0    32     1    13
  3.5085606412805037E-01 a       634     0    32     1    14
 -8.2710824124365812E-02 a       635     0    32     1    15
 -6.7879476878872325E-01 a       636     0    32     1    16
  2.4131492908154881E-01 a       637     0    32     1    17
  3.8107710114504523E-01 a       638     0    32     1    18
  3.5503419726968138E-01 a       639     0    32     1    19
 -4.4768499080068785E-01 a       640     0    32     1    20
 -2.9415961728022094E-01 a       641     0    33     1     1
 -5.8769482428597908E-01 a       642     0    33     1     2
 -8.3238296372536880E-02 a       643     0    33     1     3
 -1.9061442697712921E-01 a       644     0    33     1     4
  1.5140391462455766E-01 a       645     0    33     1     5
 -7.3723792046925044E-02 a       646     0    33     1     6
 -2.6689272788246288E-01 a       647     0    33     1     7
 -4.4222260567241972E-01 a       648     0    33     1     8
  2.4147090758315165E-01 a       649     0    33     1     9
  3.1730371505783850E-01 a       650     0    33     1    10
  1.1016098456710936E-01 a       651     0    33     1    11
 -2.1160006354244917E-01 a       652     0    33     1    12
 -1.2104963026430489E-01 a       653     0    33     1    13
  3.7914183037583474E-03 a       654     0    33     1    14
 -3.0807225773659114E-01 a       655     0    33     1    15
 -1.6448787562556216E-01 a       656     0    33     1    16
 -1.6478152065122703E-01 a       657     0    33     1    17
 -5.4604141780917370E-01 a       658     0    33     1    18
  8.0105021982476332E-01 a       659     0    33     1    19
  2.4295390472885586E-01 a       660     0    33     1    20
  1.2405772254178611E-01 a       661     0    34     1     1
  1.9953011130054049E-01 a       662     0    34     1     2
  6.8903875156507366E-02 a       663     0    34     1     3
  1.7592696556773830E-02 a       664     0    34     1     4
 -2.3926616829164052E-01 a       665     0    34     1     5
  1.0304775848377219E-01 a       666     0    34     1     6
 -2.0721821305463153E-02 a       667     0    34     1     7
  2.9972971290396649E-02 a       668     0    34     1     8
 -4.4922463769984911E-01 a       669     0    34     1     9
 -2.4330886813017798E-02 a       670     0    34     1    10
  4.4774115280759849E-02 a       671     0    34     1    11
  4.9010603446007772E-02 a       672     0    34     1    12
 -7.9485089063501491E-02 a       673     0    34     1    13
 -1.7025279525732473E-01 a       674     0    34     1    14
 -2.1639944939233513E-01 a       675     0    34     1    15
 -1.1268340362756164E-01 a       676     0    34     1    16
  1.9947615782455137E-02 a       677     0    34     1    17
  1.8572802347687928E-01 a       678     0    34     1    18
 -4.8460390677709841E-01 a       679     0    34     1    19
 -1.9938227968198810E-01 a       680     0    34     1    20
 -1.9615310249535037E-01 a       681     0    35     1     1
  4.0998683115670043E-01 a       682     0    35     1     2
  6.5705228595671544E-02 a       683     0    35     1     3
  3.8439023454331733E-01 a       684     0    35     1     4
  3.0845179715716469E-02 a       685     0    35     1     5
  4.7727122371305175E-01 a       686     0    35     1     6
  2.3751106820055418E-01 a       687     0    35     1     7
  4.9993096782724300E-01 a       688     0    35     1     8
 -4.4370852561856927E-01 a       689     0    35     1     9
  2.0737792022789497E-01 a       690     0    35     1    10
 -4.5120596238134136E-01 a       691     0    35     1    11
  1.0985364298063680E-01 a       692     0    35     1    12
  8.8493766468903584E-02 a       693     0    35     1    13
  5.0969701132787593E-01 a       694     0    35     1    14
 -5.0926771510498889E-02 a       695     0    35     1    15
  6.8006928900801911E-01 a       696     0    35     1    16
  1.6159448242773922E-01 a       697     0    35     1    17
 -5.2209232724023313E-03 a       698     0    35     1    18
 -5.0766331255908514E-01 a       699     0    35     1    19
 -2.9078449082437846E-01 a       700     0    35     1    20
  8.2492686403825583E-03 a       701     0    36     1     1
  3.0682795099390481E-01 a       702     0    36     1     2
  1.3206642282029213E-01 a       703     0    36     1     3
 -2.5977279409471538E-01 a       704     0    36     1     4
  2.1864321401070558E-01 a       705     0    36     1     5
 -1.5055807657831052E-01 a       706     0    36     1     6
  2.4499933914959596E-01 a       707     0    36     1     7
 -2.9100457154562936E-01 a       708     0    36     1     8
 -1.8691175510080291E-01 a       709     0    36     1     9
 -2.0430108681545403E-01 a       710     0    36     1    10
 -9.5598064272345004E-02 a       711     0    36     1    11
  7.4211041376860923E-02 a       712     0    36     1    12
  2.9525142099505468E-03 a       713     0    36     1    13
 -1.9243102980765769E-01 a       714     0    36     1    14
 -5.1160835750291422E-01 a       715     0    36     1    15
 -6.2400543036374068E-01 a       716     0    36     1    16
  1.7855101171811730E-01 a       717     0    36     1    17
  1.0854423309958863E-01 a       718     0    36     1    18
 -1.8213680034006643E-01 a       719     0    36     1    19
  6.6396542872624975E-02 a       720     0    36     1    20
  2.5907139409537766E-01 a       721     0    37     1     1
  2.7532048292690370E-01 a       722     0    37     1     2
 -1.4220638543318737E-01 a       723     0    37     1     3
  2.2412618931702033E-01 a       724     0    37     1     4
  2.6474958471661036E-01 a       725     0    37     1     5
 -1.1525861762875064E-01 a       726     0    37     1     6
  1.4925524432742396E-01 a       727     0    37     1     7
  4.8491525301792909E-01 a       728     0    37     1     8
 -3.1580004413105528E-01 a       729     0    37     1     9
 -1.9967188372208058E-01 a       730     0    37     1    10
 -2.2608167670377016E-01 a       731     0    37     1    11
  2.6181426775074979E-01 a       732     0    37     1    12
  1.4382068691762692E-01 a       733     0    37     1    13
  6.2095119415020487E-02 a       734     0    37     1    14
  5.3018103318375542E-01 a       735     0    37     1    15
  8.1905269860048910E-02 a       736     0    37     1    16
 -9.0139626859450192E-02 a       737     0    37     1    17
  4.4873122002077820E-01 a       738     0    37     1    18
 -6.4752617942024360E-01 a       739     0    37     1    19
 -1.9982848941668871E-01 a       740     0    37     1    20
  5.9108423342423499E-02 a       741     0    38     1     1
 -7.6746048026801861E-01 a       742     0    38     1     2
  9.7155558450668214E-02 a       743     0    38     1     3
 -1.0061711468374538E-02 a       744     0    38     1     4
 -6.1383412102692070E-01 a       745     0    38     1     5
 -1.6479007520625862E-02 a       746     0    38     1     6
 -5.6471632199215471E-01 a       747     0    38     1     7
 -2.7461309753514818E-01 a       748     0    38     1     8
  5.5040413053859738E-01 a       749     0    38     1     9
  1.0230482335068530E-01 a       750     0    38     1    10
  1.2394664592753522E-01 a       751     0    38     1    11
 -1.4564894086515542E-01 a       752     0    38     1    12
 -3.2920065522428754E-01 a       753     0    38     1    13
  1.5622768119223782E-01 a       754     0    38     1    14
 -4.1838079683406587E-01 a       755     0    38     1    15
 -4.0579105827762890E-02 a       756     0    38     1    16
 -5.7445956945755416E-01 a       757     0    38     1    17
 -7.3390027766158406E-01 a       758     0    38     1    18
  6.7594924875783691E-01 a       759     0    38     1    19
  4.5045392819503810E-01 a       760     0    38     1    20
 -2.2166337545103740E-01 a       761     0    39     1     1
  4.2490859172963191E-01 a       762     0    39     1     2
  6.5151996421941849E-01 a       763     0    39     1     3
  1.6224123466355800E-01 a       764     0    39     1     4
 -4.4544519817958463E-02 a       765     0    39     1     5
  3.0934636689709599E-01 a       766     0    39     1     6
 -1.1332408439023421E-01 a       767     0    39     1     7
 -5.4101093149928933E-02 a       768     0    39     1     8
  3.9646005087970376E-01 a       769     0    39     1     9
 -5.6435745657856029E-02 a       770     0    39     1    10
  1.1797980356149923E-01 a       771     0    39     1    11
  4.4416976958827503E-01 a       772     0    39     1    12
  1.5842894016307613E-01 a       773     0    39     1    13
  2.3212871854659502E-02 a       774     0    39     1    14
 -5.3960309777855830E-01 a       775     0    39     1    15
 -1.8587861932109603E-01 a       776     0    39     1    16
  4.0489380695224386E-01 a       777     0    39     1    17
 -6.4595522813321027E-01 a       778     0    39     1    18
 -7.6489865696826131E-01 a       779     0    39     1    19
  3.7660288980959460E-02 a       780     0    39     1    20
  8.2822988639346118E-01 a       781     0    40     1     1
 -2.3934597472332741E-01 a       782     0    40     1     2
 -2.7137856964823459E-01 a       783     0    40     1     3
 -2.2216453436781944E-01 a       784     0    40     1     4
 -7.1885175021781211E-02 a       785     0    40     1     5
 -1.3157798707956037E-01 a       786     0    40     1     6
  1.6792896420310746E-01 a       787     0    40     1     7
 -4.3133841328199757E-01 a       788     0    40     1     8
  3.1322956926112408E-02 a       789     0    40     1     9
  1.9705754674046352E-01 a       790     0    40     1    10
  5.0448377947100675E-01 a       791     0    40     1    11
 -1.8256266075463781E-02 a       792     0    40     1    12
  2.9675018809405973E-01 a       793     0    40     1    13
  1.4535772632581095E-01 a       794     0    40     1    14
 -1.3220738754489454E+00 a       795     0    40     1    15
  5.5399104845612168E-01 a       796     0    40     1    16
 -8.1469397382512898E-01 a       797     0    40     1    17
  2.1507935512883961E-01 a       798     0    40     1    18
  1.2546925902943009E+00 a       799     0    40     1    19
  2.8329694999494170E-01 a       800     0    40     1    20
 -3.8655048224665489E-01 a       801     0    41     1     1
 -3.5681020476160896E-01 a       802     0    41     1     2
 -3.2099645765993954E-03 a       803     0    41     1     3
  1.7193835293701284E-01 a       804     0    41     1     4
 -3.8010398779005847E-02 a       805     0    41     1     5
 -2.6655910590281029E-01 a       806     0    41     1     6
 -1.6497790094611553E-01 a       807     0    41     1     7
  1.3452750572298952E-01 a       808     0    41     1     8
  8.5377899640492055E-03 a       809     0    41     1     9
  1.1384178578827683E-01 a       810     0    41     1    10
 -7.4836103993543301E-01 a       811     0    41     1    11
  3.1344684710872706E-01 a       812     0    41     1    12
  3.6079974015001226E-01 a       813     0    41     1    13
  4.8770521164935565E-01 a       814     0    41     1    14
  3.4735317973495194E-01 a       815     0    41     1    15
  4.5232055891244773E-02 a       816     0    41     1    16
 -5.2654577984590417E-02 a       817     0    41     1    17
 -7.4583596276301040E-02 a       818     0    41     1    18
 -8.9120327733168456E-02 a       819     0    41     1    19
 -2.4332775532793796E-01 a       820     0    41     1    20
 -6.2508314176856472E-01 a       821     0    42     1     1
 -4.7347528896423585E-01 a       822     0    42     1     2
  3.7460525816095358E-01 a       823     0    42     1     3
  7.8871192046638824E-02 a       824     0    42     1     4
 -1.4338514307347046E-02 a       825     0    42     1     5
  2.1944773115809904E-02 a       826     0    42     1     6
 -9.5770600048252730E-01 a       827     0    42     1     7
  6.9587773031355182E-01 a       828     0    42     1     8
 -7.8833031956821498E-01 a       829     0    42     1     9
  2.8665399414659209E-01 a       830     0    42     1    10
  8.0153286822641889E-02 a       831     0    42     1    11
 -9.3505312973077614E-01 a       832     0    42     1    12
  4.2570464175085099E-01 a       833     0    42     1    13
  1.0062233595149772E+00 a       834     0    42     1    14
 -3.8753145444935244E-01 a       835     0    42     1    15
  1.4939282158097863E-02 a       836     0    42     1    16
  2.0957018631143162E-01 a       837     0    42     1    17
  6.1120282531271442E-01 a       838     0    42     1    18
 -1.0312701177968212E-01 a       839     0    42     1    19
 -6.3010309468326431E-01 a       840     0    42     1    20
 -6.1113836513690933E-01 a       841     0    43     1     1
 -3.5784438893574473E-02 a       842     0    43     1     2
 -2.3368719974934923E-01 a       843     0    43     1     3
 -1.9790695246209761E-01 a       844     0    43     1     4
  7.0550427003617489E-01 a       845     0    43     1     5
 -1.6811217040501342E-01 a       846     0    43     1     6
  2.0230583060958549E-01 a       847     0    43     1     7
 -3.8857870063562239E-01 a       848     0    43     1     8
 -1.6407640495373202E-01 a       849     0    43     1     9
 -7.8087492034150741E-01 a       850     0    43     1    10
 -8.2174963923372868E-01 a       851     0    43     1    11
  5.5879437157295397E-01 a       852     0    43     1    12
 -5.3434953966977095E-01 a       853     0    43     1    13
  6.7708457200140071E-02 a       854     0    43     1    14
 -5.2784569552191837E-02 a       855     0    43     1    15
 -8.1487795341272318E-01 a       856     0    43     1    16
  1.9041041628463454E-01 a       857     0    43     1    17
 -1.2728996057042452E+00 a       858     0    43     1    18
 -9.0426099861829512E-01 a       859     0    43     1    19
  8.1738369559909985E-01 a       860     0    43     1    20
  4.3587090391152250E-01 a       861     0    44     1     1
 -5.7005825431170686E-02 a       862     0    44     1     2
 -2.0187078699764718E-01 a       863     0    44     1     3
 -1.3681332936852586E-01 a       864     0    44     1     4
 -3.9598300352954735E-01 a       865     0    44     1     5
  3.1178401818883955E-01 a       866     0    44     1     6
 -1.5226862702140466E-02 a       867     0    44     1     7
  6.4720618831694804E-02 a       868     0    44     1     8
  4.3787054499665155E-02 a       869     0    44     1     9
 -1.4859678754124947E-01 a       870     0    44     1    10
  6.5892600388528744E-01 a       871     0    44     1    11
 -7.7077709634086777E-01 a       872     0    44     1    12
 -2.0157003777754945E-01 a       873     0    44     1    13
 -2.9399195436173770E-01 a       874     0    44     1    14
  4.3294133125203182E-01 a       875     0    44     1    15
  4.5253971445568787E-02 a       876     0    44     1    16
  4.2204122634750318E-01 a       877     0    44     1    17
  5.6507613350848096E-01 a       878     0    44     1    18
  2.3724001893766272E-01 a       879     0    44     1    19
  8.4351837268621624E-02 a       880     0    44     1    20
  3.8059381461110131E-01 a       881     0    45     1     1
 -1.6740931509560750E-01 a       882     0    45     1     2
  1.3894887384455423E-01 a       883     0    45     1     3
 -3.3128094176438344E-01 a       884     0    45     1     4
  1.5535128456811750E-01 a       885     0    45     1     5
 -6.1122897405003329E-01 a       886     0    45     1     6
  5.1057646242139898E-01 a       887     0    45     1     7
 -7.4622910522770272E-02 a       888     0    45     1     8
  1.6008026595801408E-01 a       889     0    45     1     9
 -4.1633653708394270E-04 a       890     0    45     1    10
  3.4657088965607437E-02 a       891     0    45     1    11
  1.7882537164036056E-02 a       892     0    45     1    12
 -4.0303447015569449E-01 a       893     0    45     1    13
 -2.5116069997693356E-02 a       894     0    45     1    14
 -9.1585351612237076E-02 a       895     0    45     1    15
  9.3318930961202223E-02 a       896     0    45     1    16
 -6.1589734021826041E-02 a       897     0    45     1    17
 -6.9359645405434753E-02 a       898     0    45     1    18
 -4.2175334120346147E-01 a       899     0    45     1    19
 -2.7960558450142070E-01 a       900     0    45     1    20
  3.5109323252382207E-01 a       901     0    46     1     1
 -3.7832428423804805E-03 a       902     0    46     1     2
  2.0943177796342635E-01 a       903     0    46     1     3
  1.3399800634677348E+00 a       904     0    46     1     4
  3.9540139051013536E-02 a       905     0    46     1     5
  3.8132023984640445E-01 a       906     0    46     1     6
  3.5101995861839048E-02 a       907     0    46     1     7
 -2.4078010627362631E-01 a       908     0    46     1     8
  3.0036539414068819E-01 a       909     0    46     1     9
  3.1765673535615802E-01 a       910     0    46     1    10
  7.7464951555063305E-02 a       911     0    46     1    11
  8.8726995780741369E-01 a       912     0    46     1    12
 -3.4266356538775944E-01 a       913     0    46     1    13
 -7.5557688459201078E-01 a       914     0    46     1    14
  5.1888025680809124E-01 a       915     0    46     1    15
 -8.4799046314483773E-01 a       916     0    46     1    16
 -1.9364448007884610E-01 a       917     0    46     1    17
 -5.1181542493946841E-01 a       918     0    46     1    18
 -5.5361427760097581E-01 a       919     0    46     1    19
  2.6295202428876546E-02 a       920     0    46     1    20
 -1.2904443528135161E+00 b       921     1     1
  1.0466396774134832E+00 b       922     1     2
  8.5221542846415255E-01 b       923     1     3
  9.8295415312437476E-03 b       924     1     4
 -1.1577629797748343E+00 b       925     1     5
 -4.7053812282699004E-01 b       926     1     6
 -1.1552767485473614E+00 b       927     1     7
 -8.9764630212516616E-01 b       928     1     8
  3.6132119216360636E-01 b       929     1     9
  7.8567329255815277E-01 b       930     1    10
  1.2969704908718442E+00 b       931     1    11
 -6.3018773869509570E-01 b       932     1    12
 -1.3521082880979414E+00 b       933     1    13
 -1.3242785029586206E+00 b       934     1    14
  1.7445530592378575E+00 b       935     1    15
 -1.0147866404301140E+00 b       936     1    16
  8.2363289405984896E-01 b       937     1    17
 -9.1002116999597971E-01 b       938     1    18
  1.1257258679115636E+00 b       939     1    19
  7.5144268731603447E-01 b       940     1    20
  7.4047122481577277E-01 a       941     1     1     2     1
 -5.9123131601621493E-01 a       942     1     1     2     2
  2.6387254209862088E-01 a       943     1     1     2     3
 -4.1614807147356064E-01 a       944     1     1     2     4
  1.9408180541297490E-01 a       945     1     1     2     5
  1.5579540953563201E-01 a       946     1     1     2     6
  6.3639329507237707E-01 a       947     1     1     2     7
 -6.2697344919246956E-01 a       948     1     1     2     8
  1.3717060541267515E-01 a       949     1     1     2     9
 -2.2043018826355068E-01 a       950     1     1     2    10
 -5.8008819570034587E-01 a       951     1     1     2    11
 -5.4832897822782145E-01 a       952     1     1     2    12
  5.5355164982834326E-01 a       953     1     1     2    13
 -7.6306709707495771E-02 a       954     1     1     2    14
 -1.8576725583114964E-01 a       955     1     1     2    15
 -3.0411049992722261E-01 a       956     1     1     2    16
 -4.1929270943723612E-01 a       957     1     1     2    17
 -5.2629578457627502E-01 a       958     1     1     2    18
  3.0274831146213127E-01 a       959     1     1     2    19
 -8.2584313360538134E-02 a       960     1     1     2    20
  6.0896594223076228E-01 a       961     1     2     2     1
  3.4671242101663324E-01 a       962     1     2     2     2
 -1.3605638069815323E-01 a       963     1     2     2     3
 -5.7443520272739157E-01 a       964     1     2     2     4
 -2.2346389133999309E-01 a       965     1     2     2     5
 -2.9495008331926087E-01 a       966     1     2     2     6
 -5.0839726300143710E-02 a       967     1     2     2     7
  3.4652073971319025E-01 a       968     1     2     2     8
 -6.3962074850490025E-01 a       969     1     2     2     9
 -9.9216549513071323E-02 a       970     1     2     2    10
 -2.2635511540024983E-01 a       971     1     2     2    11
  1.6558232655998675E-01 a       972     1     2     2    12
  4.5343131497239664E-01 a       973     1     2     2    13
 -5.4914963669698591E-01 a       974     1     2     2    14
 -2.3941642209394873E-01 a       975     1     2     2    15
  4.4698176215807978E-01 a       976     1     2     2    16
  3.6156956477453961E-01 a       977     1     2     2    17
  5.7873378711153577E-02 a       978     1     2     2    18
 -6.0915689114436655E-01 a       979     1     2     2    19
 -6.6450034146247428E-01 a       980     1     2     2    20
  5.2354748931978390E-01 a       981     1     3     2     1
 -3.1398120117736905E-01 a       982     1     3     2     2
  1.0033348013217704E+00 a       983     1     3     2     3
  4.0730182747060295E-01 a       984     1     3     2     4
 -4.5764534735906137E-01 a       985     1     3     2     5
  6.3308220280671457E-01 a       986     1     3     2     6
 -1.1252350993638564E-01 a       987     1     3     2     7
  4.0311470429052108E-02 a       988     1     3     2     8
 -2.9113991869713668E-01 a       989     1     3     2     9
 -2.6025764354865216E-01 a       990     1     3     2    10
  4.0568898513276003E-01 a       991     1     3     2    11
  4.6770637290057909E-01 a       992     1     3     2    12
  4.0314987096564475E-01 a       993     1     3     2    13
 -1.5618381690035690E-01 a       994     1     3     2    14
 -5.7953568619646867E-01 a       995     1     3     2    15
 -1.2511150294096923E-01 a       996     1     3     2    16
 -7.9429178976957537E-01 a       997     1     3     2    17
 -9.6398811205075402E-02 a       998     1     3     2    18
 -7.5737465790804837E-01 a       999     1     3     2    19
  8.5619750837568143E-01 a      1000     1     3     2    20
 -7.8639753676366475E-01 a      1001     1     4     2     1
  5.3049122127611470E-01 a      1002     1     4     2     2
  7.2690286431910445E-01 a      1003     1     4     2     3
 -5.2886900604260845E-01 a      1004     1     4     2     4
 -1.7241080700808770E-01 a      1005     1     4     2     5
 -1.1578410209405476E-01 a      1006     1     4     2     6
  2.0701699440473498E-01 a      1007     1     4     2     7
  4.7578688500234195E-01 a      1008     1     4     2     8
  3.4349794909343861E-01 a      1009     1     4     2     9
  4.3046020994656803E-01 a      1010     1     4     2    10
  7.1617428542387762E-01 a      1011     1     4     2    11
 -2.0544005531007461E-02 a      1012     1     4     2    12
 -2.4497625384914951E-01 a      1013     1     4     2    13
  3.3439579918020479E-01 a      1014     1     4     2    14
 -1.4542658414767670E-01 a      1015     1     4     2    15
 -5.3966556272398858E-01 a      1016     1     4     2    16
  1.0151940428826819E-02 a      1017     1     4     2    17
 -6.7817415889184818E-01 a      1018     1     4     2    18
 -6.7969481024101508E-01 a      1019     1     4     2    19
  6.6174949225409885E-01 a      1020     1     4     2    20
 -2.3796062267992593E-01 a      1021     1     5     2     1
 -5.6039694659902817E-01 a      1022     1     5     2     2
  5.7536754431880421E-01 a      1023     1     5     2     3
 -4.2184040159949820E-01 a      1024     1     5     2     4
 -2.2922891806303861E-01 a      1025     1     5     2     5
 -7.6020210086243301E-01 a      1026     1     5     2     6
  4.2814906945794262E-01 a      1027     1     5     2     7
  5.9373603444574853E-02 a      1028     1     5     2     8
  6.2409344120065192E-02 a      1029     1     5     2     9
  6.5354325619578590E-01 a      1030     1     5     2    10
 -2.4118001254989913E-01 a      1031     1     5     2    11
 -2.2085728887859241E-01 a      1032     1     5     2    12
 -2.2173042322792449E-01 a      1033     1     5     2    13
  8.7674054169426485E-01 a      1034     1     5     2    14
  5.2658695843016989E-01 a      1035     1     5     2    15
  5.2768059381728838E-01 a      1036     1     5     2    16
  1.5091617947587427E-01 a      1037     1     5     2    17
  3.7230043809768293E-01 a      1038     1     5     2    18
 -5.2292641959139885E-01 a      1039     1     5     2    19
  3.6719197999813552E-01 a      1040     1     5     2    20
  5.9202513708668647E-01 a      1041     1     6     2     1
  6.7935640518020646E-02 a      1042     1     6     2     2
 -6.2153691359744678E-01 a      1043     1     6     2     3
 -4.7755752206486779E-01 a      1044     1     6     2     4
 -2.2917967031416150E-01 a      1045     1     6     2     5
  1.7703296606692101E-01 a      1046     1     6     2     6
 -5.2669441765564684E-01 a      1047     1     6     2     7
  1.7362341781485588E-01 a      1048     1     6     2     8
 -1.8577858958887161E-01 a      1049     1     6     2     9
  1.8269387373888368E-01 a      1050     1     6     2    10
 -2.9160336164426086E-02 a      1051     1     6     2    11
 -6.1028500338335889E-01 a      1052     1     6     2    12
 -1.7875573779423531E-01 a      1053     1     6     2    13
  6.6271628374647049E-02 a      1054     1     6     2    14
 -5.4862883754159852E-01 a      1055     1     6     2    15
  5.1310710721980557E-01 a      1056     1     6     2    16
 -1.6862913567623072E-01 a      1057     1     6     2    17
 -6.5244285455565279E-02 a      1058     1     6     2    18
 -1.0937283798858072E-05 a      1059     1     6     2    19
 -1.4986767242665264E-01 a      1060     1     6     2    20
 -1.0340055265910338E-01 a      1061     1     7     2     1
 -4.6714675863056709E-01 a      1062     1     7     2     2
  2.1530524917942417E-01 a      1063     1     7     2     3
 -1.7404334080193515E-01 a      1064     1     7     2     4
 -3.9984868879198032E-01 a      1065     1     7     2     5
 -4.9921038195806650E-01 a      1066     1     7     2     6
  1.0666832114072264E+00 a      1067     1     7     2     7
  6.8329357257972567E-01 a      1068     1     7     2     8
 -3.3114557922840959E-01 a      1069     1     7     2     9
  3.6898512726072097E-01 a      1070     1     7     2    10
 -3.5330256136594279E-01 a      1071     1     7     2    11
 -1.8466958091189586E-01 a      1072     1     7     2    12
 -2.8684958127997556E-01 a      1073     1     7     2    13
  1.8352974790276859E-02 a      1074     1     7     2    14
  1.4405596846805568E-01 a      1075     1     7     2    15
 -1.1368676506737341E-01 a      1076     1     7     2    16
  1.0978035891919131E-01 a      1077     1     7     2    17
 -6.7610599229186907E-01 a      1078     1     7     2    18
 -3.4188481497113010E-01 a      1079     1     7     2    19
  3.4723267564215560E-01 a      1080     1     7     2    20
  4.6949170852296362E-01 a      1081     1     8     2     1
  4.9798020357011752E-01 a      1082     1     8     2     2
  1.3191715792369607E-01 a      1083     1     8     2     3
  5.3698819805357678E-01 a      1084     1     8     2     4
 -1.6498237929128010E-01 a      1085     1     8     2     5
 -2.4996245101508535E-01 a      1086     1     8     2     6
 -1.0653428845134261E-01 a      1087     1     8     2     7
  3.7766710056558628E-01 a      1088     1     8     2     8
  2.5731635962296129E-01 a      1089     1     8     2     9
  8.7480444181526740E-01 a      1090     1     8     2    10
  9.5885101230324232E-01 a      1091     1     8     2    11
  3.4853028194719177E-01 a      1092     1     8     2    12
 -7.8357435825617910E-02 a      1093     1     8     2    13
 -6.9407739594912254E-02 a      1094     1     8     2    14
  7.9394112124419811E-02 a      1095     1     8     2    15
 -7.6115068288358989E-01 a      1096     1     8     2    16
  6.6662078703306066E-02 a      1097     1     8     2    17
  4.7757912347818149E-01 a      1098     1     8     2    18
  1.1473900336177333E-01 a      1099     1     8     2    19
 -6.8251599408601016E-01 a      1100     1     8     2    20
 -2.0651584818672752E-01 a      1101     1     9     2     1
  5.7822384383163616E-01 a      1102     1     9     2     2
 -4.7235494822873136E-01 a      1103     1     9     2     3
  2.6907740282122172E-01 a      1104     1     9     2     4
  7.3834408680267859E-04 a      1105     1     9     2     5
 -2.2222727004496901E-01 a      1106     1     9     2     6
 -2.1324883851661749E-01 a      1107     1     9     2     7
 -3.6049696894618555E-01 a      1108     1     9     2     8
 -2.4814970753226917E-01 a      1109     1     9     2     9
 -2.8714289434759854E-01 a      1110     1     9     2    10
 -4.1028243718550866E-01 a      1111     1     9     2    11
  2.4559079310869172E-01 a      1112     1     9     2    12
  2.1643657940033115E-01 a      1113     1     9     2    13
  3.7637222401957986E-02 a      1114     1     9     2    14
 -2.7301829362955037E-02 a      1115     1     9     2    15
  8.1357083443831024E-02 a      1116     1     9     2    16
  2.9483030051635478E-01 a      1117     1     9     2    17
  1.0178732610076273E+00 a      1118     1     9     2    18
 -3.7442038567179169E-02 a      1119     1     9     2    19
  7.3288333689879792E-01 a      1120     1     9     2    20
  4.4853125445006770E-01 a      1121     1    10     2     1
  2.1215454777846707E-01 a      1122     1    10     2     2
 -3.2867692763114478E-02 a      1123     1    10     2     3
 -1.3293075581504004E-02 a      1124     1    10     2     4
  3.1181935471768618E-01 a      1125     1    10     2     5
  1.8753735806735430E-01 a      1126     1    10     2     6
 -1.3457346695487804E-01 a      1127     1    10     2     7
 -2.7216100253102132E-01 a      1128     1    10     2     8
 -2.3275515649013018E-01 a      1129     1    10     2     9
  9.7511326886627545E-02 a      1130     1    10     2    10
 -2.8711885769179265E-02 a      1131     1    10     2    11
  6.4884562783465793E-01 a      1132     1    10     2    12
  4.1023267100554417E-01 a      1133     1    10     2    13
  1.1524149252416573E+00 a      1134     1    10     2    14
  4.2630638153749137E-02 a      1135     1    10     2    15
  9.9164287497565909E-02 a      1136     1    10     2    16
  3.6601072479234115E-01 a      1137     1    10     2    17
  7.5819231815309529E-02 a      1138     1    10     2    18
 -2.9770964747754480E-01 a      1139     1    10     2    19
  1.5924172499295949E-01 a      1140     1    10     2    20
 -6.5900836374504712E-01 a      1141     1    11     2     1
 -6.2473845154816066E-01 a      1142     1    11     2     2
  3.6222571755255845E-01 a      1143     1    11     2     3
 -9.8805563479452158E-02 a      1144     1    11     2     4
 -7.7945357296382789E-01 a      1145     1    11     2     5
 -3.5372180317895480E-01 a      1146     1    11     2     6
  9.0596405517157230E-01 a      1147     1    11     2     7
 -3.4225059324829621E-01 a      1148     1    11     2     8
  6.9373263419678532E-01 a      1149     1    11     2     9
  4.6409666395511467E-01 a      1150     1    11     2    10
 -3.2566871620014337E-01 a      1151     1    11     2    11
 -3.7190750829978497E-01 a      1152     1    11     2    12
  2.7265814425827756E-01 a      1153     1    11     2    13
  7.8948367000404987E-02 a      1154     1    11     2    14
 -1.2557349219644875E-01 a      1155     1    11     2    15
  5.0198627218684441E-02 a      1156     1    11     2    16
  4.7601009311277620E-01 a      1157     1    11     2    17
 -5.8147716083507203E-02 a      1158     1    11     2    18
 -3.3083896857603157E-01 a      1159     1    11     2    19
  3.4617317357650779E-02 a      1160     1    11     2    20
  3.9276967920037542E-01 a      1161     1    12     2     1
 -5.7065627922775053E-01 a      1162     1    12     2     2
 -2.5225188912717683E-01 a      1163     1    12     2     3
 -4.9675575075379791E-01 a      1164     1    12     2     4
 -2.9144908640222517E-01 a      1165     1    12     2     5
 -7.7841824878297072E-01 a      1166     1    12     2     6
 -7.6378933101606306E-01 a      1167     1    12     2     7
 -4.5441169108676172E-01 a      1168     1    12     2     8
 -4.9246738737795920E-01 a      1169     1    12     2     9
 -1.5242699461153567E-01 a      1170     1    12     2    10
 -6.0174454714284309E-01 a      1171     1    12     2    11
  2.4127474878451283E-01 a      1172     1    12     2    12
 -5.3584542331218876E-01 a      1173     1    12     2    13
  3.0260981286814331E-01 a      1174     1    12     2    14
 -8.5768656811468641E-02 a      1175     1    12     2    15
  4.2643279520712529E-01 a      1176     1    12     2    16
 -1.4734469490851373E-01 a      1177     1    12     2    17
 -9.4948397854645761E-02 a      1178     1    12     2    18
  3.6337915856266717E-01 a      1179     1    12     2    19
  7.0687530132742316E-01 a      1180     1    12     2    20
  2.7505361023136682E-01 a      1181     1    13     2     1
 -2.3540095789679691E-01 a      1182     1    13     2     2
  2.1636865118077137E-02 a      1183     1    13     2     3
  9.4400296634508085E-01 a      1184     1    13     2     4
  8.5231988517571494E-02 a      1185     1    13     2     5
 -6.4687265261145188E-01 a      1186     1    13     2     6
  4.5969711165001287E-01 a      1187     1    13     2     7
 -4.5593045990360848E-01 a      1188     1    13     2     8
  5.1224876620926474E-01 a      1189     1    13     2     9
 -2.9199206129299757E-02 a      1190     1    13     2    10
  2.3010224825782993E-01 a      1191     1    13     2    11
  4.9785161700554614E-01 a      1192     1    13     2    12
  2.0925780599279505E-03 a      1193     1    13     2    13
 -5.7470520971040295E-01 a      1194     1    13     2    14
  4.6490216059433148E-01 a      1195     1    13     2    15
  1.3960318786612575E-02 a      1196     1    13     2    16
 -5.7582789025844372E-01 a      1197     1    13     2    17
  6.9568135524824537E-01 a      1198     1    13     2    18
  7.5431602712688575E-02 a      1199     1    13     2    19
  4.7329576359528464E-01 a      1200     1    13     2    20
 -5.5948136909892233E-02 a      1201     1    14     2     1
 -1.9421897185686668E-01 a      1202     1    14     2     2
 -2.2979841827333053E-01 a      1203     1    14     2     3
  2.5640455286893943E-01 a      1204     1    14     2     4
 -1.0221191163038289E-01 a      1205     1    14     2     5
  2.0019095928904682E-01 a      1206     1    14     2     6
  1.8876539078761134E-01 a      1207     1    14     2     7
 -3.5100141899577042E-01 a      1208     1    14     2     8
 -7.4133335807262135E-01 a      1209     1    14     2     9
  3.4826829036930229E-01 a      1210     1    14     2    10
 -4.2585588958771831E-01 a      1211     1    14     2    11
 -3.0730081828003653E-01 a      1212     1    14     2    12
  9.3005839040678495E-01 a      1213     1    14     2    13
 -8.4098172674894556E-02 a      1214     1    14     2    14
 -2.8434356893268509E-01 a      1215     1    14     2    15
 -1.9593977853241321E-01 a      1216     1    14     2    16
  3.5256456431564659E-01 a      1217     1    14     2    17
  4.2271007671188376E-01 a      1218     1    14     2    18
 -1.2653995858078920E-01 a      1219     1    14     2    19
  4.3119888428018166E-01 a      1220     1    14     2    20
  5.6227215994565904E-01 a      1221     1    15     2     1
 -1.1409903669196961E+00 a      1222     1    15     2     2
  1.7857501109497825E-01 a      1223     1    15     2     3
  1.4690442894969838E-01 a      1224     1    15     2     4
 -3.8999799957969633E-01 a      1225     1    15     2     5
  1.9797595222003250E-01 a      1226     1    15     2     6
  1.5730979299342657E-01 a      1227     1    15     2     7
 -3.1370366071316719E-01 a      1228     1    15     2     8
 -1.1542950928769720E+00 a      1229     1    15     2     9
 -2.5451366098490680E-01 a      1230     1    15     2    10
  3.1455150363653685E-02 a      1231     1    15     2    11
 -3.5961534952838803E-01 a      1232     1    15     2    12
  8.2166535786853123E-01 a      1233     1    15     2    13
 -8.7920837012863587E-02 a      1234     1    15     2    14
 -6.9807337193786378E-01 a      1235     1    15     2    15
  1.4518320279732266E-01 a      1236     1    15     2    16
 -6.5739101534354127E-01 a      1237     1    15     2    17
 -5.2047076358573330E-01 a      1238     1    15     2    18
 -2.1305239750005239E-01 a      1239     1    15     2    19
 -4.1885220729260647E-01 a      1240     1    15     2    20
  9.0036051666294947E-01 a      1241     1    16     2     1
 -2.1086612419575235E-01 a      1242     1    16     2     2
  1.3084935497198905E-01 a      1243     1    16     2     3
  2.3323248498156882E-01 a      1244     1    16     2     4
  5.2075121891573851E-02 a      1245     1    16     2     5
 -5.6866792442073641E-02 a      1246     1    16     2     6
 -1.0767927807577175E-01 a      1247     1    16     2     7
 -9.6467334718998432E-02 a      1248     1    16     2     8
  5.7672158812594720E-01 a      1249     1    16     2     9
  7.8874808591128975E-01 a      1250     1    16     2    10
 -6.6842857432649061E-01 a      1251     1    16     2    11
 -5.3953234612710496E-02 a      1252     1    16     2    12
 -9.5582342577385104E-01 a      1253     1    16     2    13
  1.8902631831368910E-01 a      1254     1    16     2    14
  2.5138777036835386E-01 a      1255     1    16     2    15
 -3.9414316137082905E-02 a      1256     1    16     2    16
  6.5302262038022407E-01 a      1257     1    16     2    17
 -1.1080679482123298E-01 a      1258     1    16     2    18
  5.9009352216983557E-01 a      1259     1    16     2    19
 -7.4115109403790491E-01 a      1260     1    16     2    20
  1.7955129452930865E-01 a      1261     1    17     2     1
 -3.4655771903044363E-01 a      1262     1    17     2     2
  7.5301641512051154E-01 a      1263     1    17     2     3
 -3.8442788375040943E-01 a      1264     1    17     2     4
 -2.9011774789066258E-01 a      1265     1    17     2     5
  1.2953138301305245E-01 a      1266     1    17     2     6
 -2.0879894058997125E-01 a      1267     1    17     2     7
 -3.1278706441613552E-01 a      1268     1    17     2     8
  1.6563225392860745E-01 a      1269     1    17     2     9
 -9.0125115729545791E-02 a      1270     1    17     2    10
 -1.1659282056184612E+00 a      1271     1    17     2    11
  2.9706567878940571E-01 a      1272     1    17     2    12
 -1.1827821650864104E-01 a      1273     1    17     2    13
  1.2579139725041453E+00 a      1274     1    17     2    14
 -4.2011436184028383E-01 a      1275     1    17     2    15
  5.5908053578311379E-01 a      1276     1    17     2    16
  1.8798840708392364E-01 a      1277     1    17     2    17
 -3.3570287378481478E-01 a      1278     1    17     2    18
 -6.0313372720031522E-01 a      1279     1    17     2    19
  2.7815960905566478E-01 a      1280     1    17     2    20
  1.0218063483127587E-01 a      1281     1    18     2     1
 -2.1444820876315249E-01 a      1282     1    18     2     2
  4.9657149727255945E-01 a      1283     1    18     2     3
  1.0051198736249864E+00 a      1284     1    18     2     4
 -5.8124407671627343E-01 a      1285     1    18     2     5
  2.3891776942419327E-02 a      1286     1    18     2     6
 -7.5596333042613961E-01 a      1287     1    18     2     7
 -2.5159818477349172E-01 a      1288     1    18     2     8
 -1.2754270796989625E-01 a      1289     1    18     2     9
  3.4852455648254876E-01 a      1290     1    18     2    10
  6.2447917220100069E-01 a      1291     1    18     2    11
  4.8547172449525328E-01 a      1292     1    18     2    12
 -6.9937197509323909E-02 a      1293     1    18     2    13
 -1.0596786035191418E-01 a      1294     1    18     2    14
  5.6525992092631860E-01 a      1295     1    18     2    15
 -8.7172338912953407E-01 a      1296     1    18     2    16
  5.2071963743788896E-01 a      1297     1    18     2    17
  5.8226165450569778E-01 a      1298     1    18     2    18
  3.0843420401163751E-01 a      1299     1    18     2    19
 -8.2769999017504126E-01 a      1300     1    18     2    20
  3.5743230301306694E-01 a      1301     1    19     2     1
 -6.4728869361010732E-01 a      1302     1    19     2     2
  7.5801111800865228E-01 a      1303     1    19     2     3
 -4.0272471362802820E-01 a      1304     1    19     2     4
 -9.0237745845408140E-02 a      1305     1    19     2     5
 -6.6695214771147537E-01 a      1306     1    19     2     6
  3.2021332027150790E-01 a      1307     1    19     2     7
  2.9869959882064499E-02 a      1308     1    19     2     8
 -4.1624650322928125E-01 a      1309     1    19     2     9
  5.5304710804496182E-01 a      1310     1    19     2    10
  1.0004626194881563E+00 a      1311     1    19     2    11
  6.9650535005732497E-02 a      1312     1    19     2    12
 -5.6774463532362884E-01 a      1313     1    19     2    13
  4.2014290232929652E-01 a      1314     1    19     2    14
 -3.4718734818368868E-01 a      1315     1    19     2    15
 -4.2112218216042374E-01 a      1316     1    19     2    16
 -7.0568527879584875E-01 a      1317     1    19     2    17
 -3.9891468087039306E-01 a      1318     1    19     2    18
 -2.9489967625432595E-01 a      1319     1    19     2    19
 -2.8800752278426478E-01 a      1320     1    19     2    20
  2.3302163943961821E-01 a      1321     1    20     2     1
 -5.1302979942068971E-01 a      1322     1    20     2     2
  9.0170878652286388E-02 a      1323     1    20     2     3
  6.5344815104466625E-01 a      1324     1    20     2     4
 -1.0201925012613133E+00 a      1325     1    20     2     5
  9.5461854894724807E-02 a      1326     1    20     2     6
 -6.6425943554286893E-01 a      1327     1    20     2     7
  6.2551236174331878E-02 a      1328     1    20     2     8
  2.1955792140029964E-01 a      1329     1    20     2     9
 -4.4648609276801268E-02 a      1330     1    20     2    10
 -9.1400212061989528E-01 a      1331     1    20     2    11
  5.3036515738387313E-01 a      1332     1    20     2    12
  4.4488018378891547E-01 a      1333     1    20     2    13
  3.9796744616343699E-01 a      1334     1    20     2    14
 -2.8404981807751434E-01 a      1335     1    20     2    15
 -3.2197104993557146E-01 a      1336     1    20     2    16
  2.6565814571993568E-01 a      1337     1    20     2    17
 -4.1854385884130696E-01 a      1338     1    20     2    18
  1.9728339271590023E-01 a      1339     1    20     2    19
 -2.4399075436200005E-01 a      1340     1    20     2    20
 -1.5209429638188507E+00 b      1341     2     1
 -9.8641408843475864E-01 b      1342     2     2
 -6.0317807978953897E-01 b      1343     2     3
 -8.9065810742984153E-01 b      1344     2     4
 -1.5723029949594658E+00 b      1345     2     5
  6.0754288212687568E-01 b      1346     2     6
 -3.1267005263345582E-01 b      1347     2     7
  1.8927852546327975E+00 b      1348     2     8
 -5.0430499255485495E-01 b      1349     2     9
 -2.1337126423253805E-01 b      1350     2    10
 -5.2917086574867234E-01 b      1351     2    11
 -2.1446956088295477E+00 b      1352     2    12
 -9.9720895931093201E-01 b      1353     2    13
  1.1673515515762558E+00 b      1354     2    14
 -6.4084715994469621E-01 b      1355     2    15
  9.3863708034738835E-01 b      1356     2    16
  1.5163370358794106E+00 b      1357     2    17
 -7.1419305207143735E-01 b      1358     2    18
 -1.1605501684448280E-01 b      1359     2    19
  1.7048693808194260E-01 b      1360     2    20
 -1.6302925315761869E+00 a      1361     2     1     3     1
 -4.7091946415261915E-01 a      1362     2     2     3     1
  1.4892596380590784E-01 a      1363     2     3     3     1
 -1.8433511275889027E+00 a      1364     2     4     3     1
 -2.0914458410989512E+00 a      1365     2     5     3     1
  1.4406690935316553E+00 a      1366     2     6     3     1
 -1.4267981597474153E+00 a      1367     2     7     3     1
  1.8079164861210069E+00 a      1368     2     8     3     1
 -8.2158766572589370E-01 a      1369     2     9     3     1
 -8.5561860536763790E-01 a      1370     2    10     3     1
  6.2194562305219292E-01 a      1371     2    11     3     1
 -1.0997260530826451E+00 a      1372     2    12     3     1
  8.0194798268776413E-01 a      1373     2    13     3     1
  2.0332665415042910E+00 a      1374     2    14     3     1
 -2.0788047485097483E+00 a      1375     2    15     3     1
  1.3492795842054262E+00 a      1376     2    16     3     1
  1.6341615350600831E+00 a      1377     2    17     3     1
 -1.4954428916128442E+00 a      1378     2    18     3     1
 -1.6111123025790093E+00 a      1379     2    19     3     1
  4.7419203600275922E-01 a      1380     2    20     3     1
  1.0370037039873392E+00 b      1381     3     1
