################################################################################
# Neural network connection values (weights and biases).
################################################################################
# Col  Name       Description
################################################################################
# 1    connection Neural network connection value.
# 2    t          Connection type (a = weight, b = bias).
# 3    index      Index enumerating weights.
# 4    l_s        Starting point layer (end point layer for biases).
# 5    n_s        Starting point neuron in starting layer (end point neuron for biases).
# 6    l_e        End point layer.
# 7    n_e        End point neuron in end layer.
################################################################################
#                      1 2         3     4     5     6     7
#             connection t     index   l_s   n_s   l_e   n_e
############################################################
 -1.9192474005524940E-01 a         1     0     1     1     1
  2.2555576854595000E-01 a         2     0     1     1     2
  1.7243458289462019E-01 a         3     0     1     1     3
 -1.7672665089567582E-01 a         4     0     1     1     4
 -2.3565259192250040E-02 a         5     0     1     1     5
  3.6141962553088730E-01 a         6     0     1     1     6
 -5.9423810025574772E-02 a         7     0     1     1     7
 -7.1027555666250242E-02 a         8     0     1     1     8
 -1.3948738334849591E-02 a         9     0     1     1     9
  3.7606495621229766E-02 a        10     0     1     1    10
  1.8065314006692632E-01 a        11     0     1     1    11
  5.0107128064906936E-01 a        12     0     1     1    12
 -3.5797086574187031E-01 a        13     0     1     1    13
 -6.8475277947674260E-02 a        14     0     1     1    14
  1.1000123047374763E-02 a        15     0     1     1    15
 -4.7174845689172074E-02 a        16     0     1     1    16
  1.6607703375784130E-01 a        17     0     1     1    17
 -4.4504415616310244E-01 a        18     0     1     1    18
 -4.4701833209016062E-01 a        19     0     1     1    19
  5.6919052755737987E-01 a        20     0     1     1    20
 -1.0726513903582853E-02 a        21     0     2     1     1
  1.8503650427521841E-02 a        22     0     2     1     2
  2.1195136951030660E-01 a        23     0     2     1     3
 -8.5981422724932616E-02 a        24     0     2     1     4
 -4.5638434020105162E-01 a        25     0     2     1     5
  1.8955769440464221E-01 a        26     0     2     1     6
  9.3755563069201409E-02 a        27     0     2     1     7
 -1.5798615732957386E-01 a        28     0     2     1     8
  4.1370202708921300E-01 a        29     0     2     1     9
  1.5257018648644005E-01 a        30     0     2     1    10
  2.2488370926131795E-01 a        31     0     2     1    11
  5.3291341991016650E-01 a        32     0     2     1    12
 -5.0070515513242993E-02 a        33     0     2     1    13
  1.0785840102072361E-01 a        34     0     2     1    14
  1.3292672380307835E-01 a        35     0     2     1    15
 -1.3150644430634284E-01 a        36     0     2     1    16
 -8.4700323455071044E-02 a        37     0     2     1    17
 -1.6321871897603385E-01 a        38     0     2     1    18
 -4.3270211094616545E-01 a        39     0     2     1    19
 -1.5006347783781451E-01 a        40     0     2     1    20
 -2.5958701832088737E-01 a        41     0     3     1     1
  3.5586619929981446E-02 a        42     0     3     1     2
 -4.2363802253466663E-02 a        43     0     3     1     3
  7.6942327574367864E-02 a        44     0     3     1     4
  2.2827701133809780E-01 a        45     0     3     1     5
 -1.3575302992129185E-01 a        46     0     3     1     6
 -2.8408891762590538E-01 a        47     0     3     1     7
 -2.7566850396537945E-01 a        48     0     3     1     8
  2.7817921000763102E-01 a        49     0     3     1     9
 -1.1101851523768196E-01 a        50     0     3     1    10
  2.4676792255109334E-01 a        51     0     3     1    11
  4.6250895018388477E-01 a        52     0     3     1    12
  3.9640353339171944E-02 a        53     0     3     1    13
 -9.5475093400594624E-02 a        54     0     3     1    14
 -3.3715546189324352E-01 a        55     0     3     1    15
  5.0439008859552303E-01 a        56     0     3     1    16
 -1.7319378080619929E-01 a        57     0     3     1    17
  5.2373790763181050E-01 a        58     0     3     1    18
  8.9994444577556051E-02 a        59     0     3     1    19
 -8.4289591826124083E-02 a        60     0     3     1    20
 -2.1301804200204472E-02 a        61     0     4     1     1
 -3.7615517218199407E-01 a        62     0     4     1     2
 -4.4375294901346202E-01 a        63     0     4     1     3
 -1.5159143844459635E-01 a        64     0     4     1     4
  5.3404127602401441E-01 a        65     0     4     1     5
  2.5701279849130211E-02 a        66     0     4     1     6
  1.5431534392794696E-01 a        67     0     4     1     7
  7.3366293629909887E-02 a        68     0     4     1     8
  1.8980457474607282E-01 a        69     0     4     1     9
  1.4500907866952020E-01 a        70     0     4     1    10
 -1.6423244509234011E-01 a        71     0     4     1    11
 -1.4052885448244196E-01 a        72     0     4     1    12
  2.5971846391271275E-01 a        73     0     4     1    13
  1.3619735638345415E-01 a        74     0     4     1    14
 -1.7066444791683225E-01 a        75     0     4     1    15
  3.0832358864897658E-01 a        76     0     4     1    16
  1.6698439718981084E-01 a        77     0     4     1    17
  6.4245039469456711E-01 a        78     0     4     1    18
  1.5401844752446159E-01 a        79     0     4     1    19
 -2.4568351943041244E-01 a        80     0     4     1    20
  5.2610300555596257E-01 a        81     0     5     1     1
 -7.8393822345789677E-01 a        82     0     5     1     2
  1.8830158560658841E-01 a        83     0     5     1     3
 -1.0370288819458425E-02 a        84     0     5     1     4
 -1.1679133426890695E-01 a        85     0     5     1     5
 -5.7911845550383045E-01 a        86     0     5     1     6
 -2.0649514461752819E-01 a        87     0     5     1     7
 -1.8026642069877322E-01 a        88     0     5     1     8
  6.7661488479739171E-02 a        89     0     5     1     9
  2.8149050345766841E-01 a        90     0     5     1    10
 -1.9984838487878975E-01 a        91     0     5     1    11
 -3.3889141724072264E-01 a        92     0     5     1    12
  3.2231946192054001E-01 a        93     0     5     1    13
 -1.6353986916998473E-01 a        94     0     5     1    14
  2.1846922323239484E-01 a        95     0     5     1    15
 -8.4332787755134267E-03 a        96     0     5     1    16
  1.0842234202274194E-01 a        97     0     5     1    17
  7.9435140071813279E-02 a        98     0     5     1    18
  3.3823225845791183E-01 a        99     0     5     1    19
 -4.0051631806296772E-01 a       100     0     5     1    20
 -9.2605913893605649E-03 a       101     0     6     1     1
 -4.4557796005989758E-01 a       102     0     6     1     2
  4.4870107720675362E-01 a       103     0     6     1     3
  3.7633938314685568E-02 a       104     0     6     1     4
  3.9528437277200679E-01 a       105     0     6     1     5
 -3.1259607456026345E-01 a       106     0     6     1     6
  2.7710258731020865E-01 a       107     0     6     1     7
  1.1748030733847287E-01 a       108     0     6     1     8
 -1.8215754863675523E-01 a       109     0     6     1     9
  4.3646793785615512E-01 a       110     0     6     1    10
 -2.7914017791147755E-01 a       111     0     6     1    11
 -3.5578581107479512E-01 a       112     0     6     1    12
  5.8406562479994328E-01 a       113     0     6     1    13
  1.1984624982450001E-01 a       114     0     6     1    14
  2.0065914802447984E-01 a       115     0     6     1    15
  6.1787868623631163E-02 a       116     0     6     1    16
 -9.3753474176435328E-02 a       117     0     6     1    17
  4.7965194766724378E-01 a       118     0     6     1    18
  3.1668740507672273E-02 a       119     0     6     1    19
 -6.2577113274668994E-01 a       120     0     6     1    20
  2.1066178500963215E-01 a       121     0     7     1     1
 -1.0694189071309254E-01 a       122     0     7     1     2
  3.8378851257478824E-01 a       123     0     7     1     3
  9.7803170695415109E-02 a       124     0     7     1     4
 -7.0124478639739207E-01 a       125     0     7     1     5
  2.5188451630579051E-02 a       126     0     7     1     6
 -1.1293135150423826E-01 a       127     0     7     1     7
 -4.0524652634677105E-01 a       128     0     7     1     8
  4.9007367979066511E-02 a       129     0     7     1     9
 -8.1566577257078984E-02 a       130     0     7     1    10
 -1.6403751850506251E-01 a       131     0     7     1    11
 -4.2353444543622576E-01 a       132     0     7     1    12
  6.8239551431475545E-02 a       133     0     7     1    13
 -1.1039200716389856E-01 a       134     0     7     1    14
 -9.7321465881235497E-02 a       135     0     7     1    15
 -1.8088947971695749E-01 a       136     0     7     1    16
  2.0645808999856441E-01 a       137     0     7     1    17
 -9.2614863299499264E-02 a       138     0     7     1    18
  4.9431697674547254E-01 a       139     0     7     1    19
 -1.3996753493474287E-01 a       140     0     7     1    20
  4.4178476375880169E-02 a       141     0     8     1     1
  2.0821981899108519E-01 a       142     0     8     1     2
 -2.5006036077817861E-01 a       143     0     8     1     3
  1.3918622626152058E-01 a       144     0     8     1     4
  3.3751095526997643E-01 a       145     0     8     1     5
  2.7456337399657393E-01 a       146     0     8     1     6
 -5.4021278819166685E-02 a       147     0     8     1     7
  2.9839389267745858E-01 a       148     0     8     1     8
  8.9217871022287287E-02 a       149     0     8     1     9
  2.2768783678224525E-01 a       150     0     8     1    10
  1.7031557439387546E-01 a       151     0     8     1    11
  3.5989249947206620E-01 a       152     0     8     1    12
  8.5540153676794489E-02 a       153     0     8     1    13
  4.6422863502873218E-01 a       154     0     8     1    14
 -2.4084149421248138E-01 a       155     0     8     1    15
  1.9523953506672873E-01 a       156     0     8     1    16
 -2.8918955011340836E-01 a       157     0     8     1    17
  1.8168064861409278E-02 a       158     0     8     1    18
 -6.7092818465711149E-02 a       159     0     8     1    19
 -1.4928437766481764E-01 a       160     0     8     1    20
  3.3474393347932410E-02 a       161     0     9     1     1
 -2.2458821376161164E-01 a       162     0     9     1     2
  4.2835546061935320E-02 a       163     0     9     1     3
 -4.9325066012083429E-01 a       164     0     9     1     4
  1.8971649061977319E-01 a       165     0     9     1     5
 -1.4543011176904636E-01 a       166     0     9     1     6
  2.5292294016881911E-01 a       167     0     9     1     7
  6.4919259914203253E-01 a       168     0     9     1     8
 -5.7390540390090117E-02 a       169     0     9     1     9
  1.3204692752681871E-01 a       170     0     9     1    10
 -1.9369437344231141E-01 a       171     0     9     1    11
  2.5022854549051754E-01 a       172     0     9     1    12
  1.6349135121050276E-01 a       173     0     9     1    13
  1.0036949392201923E-01 a       174     0     9     1    14
 -2.7293947406443406E-02 a       175     0     9     1    15
  1.2896191075144806E-01 a       176     0     9     1    16
 -4.8466540903499761E-01 a       177     0     9     1    17
  2.0423444864059798E-01 a       178     0     9     1    18
  2.2967211914213381E-01 a       179     0     9     1    19
  8.3212241089344399E-02 a       180     0     9     1    20
  9.4157059783260666E-02 a       181     0    10     1     1
 -1.1665935243042372E-01 a       182     0    10     1     2
 -2.1815998841159337E-01 a       183     0    10     1     3
 -4.1933606885670849E-01 a       184     0    10     1     4
 -1.3403331040302255E-01 a       185     0    10     1     5
  2.2609359975819054E-01 a       186     0    10     1     6
  1.1669245726679180E-01 a       187     0    10     1     7
 -6.6683974225145659E-02 a       188     0    10     1     8
 -1.3084327828454628E-01 a       189     0    10     1     9
 -3.4820882251637092E-01 a       190     0    10     1    10
  1.7319787075148588E-01 a       191     0    10     1    11
 -6.3125983251577811E-02 a       192     0    10     1    12
 -2.0410318060839711E-01 a       193     0    10     1    13
 -1.4007406970188260E-01 a       194     0    10     1    14
 -4.0594452957988081E-02 a       195     0    10     1    15
  1.1118885378896937E-01 a       196     0    10     1    16
  2.6865945656113621E-01 a       197     0    10     1    17
 -1.7829983256680312E-01 a       198     0    10     1    18
 -1.0396335808510132E-01 a       199     0    10     1    19
 -8.4033692150892292E-02 a       200     0    10     1    20
 -8.2905412571491893E-02 a       201     0    11     1     1
  5.4247665446716198E-01 a       202     0    11     1     2
  4.9161417548338815E-01 a       203     0    11     1     3
 -5.9067309700026986E-02 a       204     0    11     1     4
  1.0558381849411594E-02 a       205     0    11     1     5
  4.2204043278672165E-01 a       206     0    11     1     6
 -1.2622448819584028E-01 a       207     0    11     1     7
 -2.6151966375569297E-01 a       208     0    11     1     8
  6.5777742955076945E-01 a       209     0    11     1     9
  1.1565740840797507E-01 a       210     0    11     1    10
 -3.1618907018682596E-01 a       211     0    11     1    11
  3.4641208549934627E-01 a       212     0    11     1    12
 -7.0240227976169994E-02 a       213     0    11     1    13
 -4.4100811004928075E-01 a       214     0    11     1    14
 -1.1339820278830569E-01 a       215     0    11     1    15
 -7.4776756233773153E-02 a       216     0    11     1    16
  2.4492347488497154E-01 a       217     0    11     1    17
 -5.2818919710152554E-02 a       218     0    11     1    18
 -2.9139966395670086E-01 a       219     0    11     1    19
 -9.9571619748392209E-02 a       220     0    11     1    20
  1.5046975099144766E-01 a       221     0    12     1     1
  3.2480305144997618E-01 a       222     0    12     1     2
  1.6497619508875636E-01 a       223     0    12     1     3
 -1.4245680028760704E-01 a       224     0    12     1     4
 -1.0222864294616925E-01 a       225     0    12     1     5
  1.5917062487007480E-01 a       226     0    12     1     6
  2.0971650075521914E-01 a       227     0    12     1     7
 -1.9855665464254241E-01 a       228     0    12     1     8
  5.7308809262022320E-01 a       229     0    12     1     9
  1.7380130117028275E-01 a       230     0    12     1    10
 -1.0703415822647916E-01 a       231     0    12     1    11
 -2.3136587802061348E-02 a       232     0    12     1    12
  1.5570892172129534E-02 a       233     0    12     1    13
 -8.6895443909861796E-03 a       234     0    12     1    14
  4.6138906783169215E-01 a       235     0    12     1    15
  2.5602201522419623E-02 a       236     0    12     1    16
  8.0861936777675267E-02 a       237     0    12     1    17
 -2.4499262190051438E-01 a       238     0    12     1    18
 -7.6699165849608383E-02 a       239     0    12     1    19
  2.3970417739257152E-01 a       240     0    12     1    20
 -1.9178135100148441E-01 a       241     0    13     1     1
 -7.4549458676551397E-02 a       242     0    13     1     2
  4.8029125297439546E-01 a       243     0    13     1     3
  3.5041470532635122E-01 a       244     0    13     1     4
 -9.4490097038125401E-04 a       245     0    13     1     5
  4.3944085211900130E-01 a       246     0    13     1     6
  2.9940546018831582E-01 a       247     0    13     1     7
 -2.8693982084524272E-01 a       248     0    13     1     8
  2.3363508818271200E-01 a       249     0    13     1     9
  5.9489910440305738E-01 a       250     0    13     1    10
  8.3874645180004592E-02 a       251     0    13     1    11
 -2.7644066362832243E-01 a       252     0    13     1    12
  3.3920517424744351E-01 a       253     0    13     1    13
 -3.7177195156764609E-01 a       254     0    13     1    14
  3.6551717349513574E-01 a       255     0    13     1    15
 -2.4382202709597151E-01 a       256     0    13     1    16
  4.8946723241189122E-01 a       257     0    13     1    17
 -3.2011823129934662E-02 a       258     0    13     1    18
 -1.1394338865223358E-01 a       259     0    13     1    19
 -1.2410316964606199E-01 a       260     0    13     1    20
  4.1706486390587338E-01 a       261     0    14     1     1
 -4.0291823150885264E-01 a       262     0    14     1     2
 -3.3707881931905442E-01 a       263     0    14     1     3
  3.7654131180227916E-03 a       264     0    14     1     4
  3.1372004976668831E-02 a       265     0    14     1     5
 -2.6751739308651373E-01 a       266     0    14     1     6
 -2.4138109427504706E-01 a       267     0    14     1     7
  4.1420105677777951E-02 a       268     0    14     1     8
  3.9604588803015556E-01 a       269     0    14     1     9
 -5.8099663238595523E-01 a       270     0    14     1    10
 -3.2582264879564871E-01 a       271     0    14     1    11
  5.3993898626199421E-01 a       272     0    14     1    12
 -5.2388365771255871E-02 a       273     0    14     1    13
 -3.3138418720945551E-01 a       274     0    14     1    14
  3.8078463938701501E-01 a       275     0    14     1    15
  1.7773438744269659E-02 a       276     0    14     1    16
  9.0386971063281391E-02 a       277     0    14     1    17
  2.7292456532930176E-01 a       278     0    14     1    18
  2.2683588993768898E-02 a       279     0    14     1    19
 -4.8144580534849796E-01 a       280     0    14     1    20
 -4.4822939968897163E-01 a       281     0    15     1     1
  2.1569301881714817E-01 a       282     0    15     1     2
 -1.8794445241292668E-01 a       283     0    15     1     3
 -2.9509577009161414E-01 a       284     0    15     1     4
  3.6709867599806179E-01 a       285     0    15     1     5
 -5.1161021876527890E-01 a       286     0    15     1     6
 -2.5920769956194867E-01 a       287     0    15     1     7
  2.3754098840510379E-01 a       288     0    15     1     8
 -1.5653733054820762E-01 a       289     0    15     1     9
 -1.4981954888536794E-01 a       290     0    15     1    10
 -4.9019082501909839E-01 a       291     0    15     1    11
  3.5333397604142336E-01 a       292     0    15     1    12
  8.0793245816395992E-02 a       293     0    15     1    13
  9.7165767537302938E-02 a       294     0    15     1    14
  7.0904920085447784E-02 a       295     0    15     1    15
  1.3422774458620668E-01 a       296     0    15     1    16
 -3.8933534028868588E-01 a       297     0    15     1    17
  2.9820857814367258E-01 a       298     0    15     1    18
  2.6833236051698922E-01 a       299     0    15     1    19
 -2.8673415233565325E-01 a       300     0    15     1    20
 -5.9592641510984790E-01 a       301     0    16     1     1
 -4.9106520326411912E-01 a       302     0    16     1     2
  4.1616210150117844E-01 a       303     0    16     1     3
 -6.6427140399428083E-02 a       304     0    16     1     4
 -5.1283556920249684E-01 a       305     0    16     1     5
  1.3725447475356065E-01 a       306     0    16     1     6
  2.9748266174110993E-01 a       307     0    16     1     7
  4.6055621772410094E-01 a       308     0    16     1     8
 -3.2962356652113090E-01 a       309     0    16     1     9
 -2.9663067528026060E-01 a       310     0    16     1    10
  5.8768028431454478E-01 a       311     0    16     1    11
 -5.1785052548830912E-01 a       312     0    16     1    12
 -8.2289339507345516E-02 a       313     0    16     1    13
 -6.9225243065396935E-01 a       314     0    16     1    14
 -1.1260728271588372E+00 a       315     0    16     1    15
 -1.0442574905513564E+00 a       316     0    16     1    16
  1.4942755156590408E+00 a       317     0    16     1    17
 -2.9568623471798100E-01 a       318     0    16     1    18
  6.6507402916229558E-02 a       319     0    16     1    19
 -1.6057910624013344E-01 a       320     0    16     1    20
  6.5418373325528767E-01 a       321     0    17     1     1
  2.1511874163870981E-01 a       322     0    17     1     2
 -4.4414750832515637E-01 a       323     0    17     1     3
  3.6959587640897670E-02 a       324     0    17     1     4
  2.6272445908138359E-01 a       325     0    17     1     5
  1.1240325267029189E-01 a       326     0    17     1     6
 -3.6078637390501317E-01 a       327     0    17     1     7
 -6.7171546987410014E-01 a       328     0    17     1     8
  9.4660813211153161E-02 a       329     0    17     1     9
  3.4983823857234875E-01 a       330     0    17     1    10
 -5.2699706328021856E-01 a       331     0    17     1    11
  4.3283035470889092E-01 a       332     0    17     1    12
 -6.2302470768027071E-02 a       333     0    17     1    13
  8.6005243787555774E-01 a       334     0    17     1    14
  1.3880459000112508E+00 a       335     0    17     1    15
  1.0029830067235828E+00 a       336     0    17     1    16
 -1.8914782848731841E+00 a       337     0    17     1    17
  4.3001087438971919E-01 a       338     0    17     1    18
 -2.9938811023281103E-01 a       339     0    17     1    19
 -1.7120303072882018E-01 a       340     0    17     1    20
  1.2618318939194037E-01 a       341     0    18     1     1
  1.6132408932980571E-01 a       342     0    18     1     2
 -4.2844405112563538E-01 a       343     0    18     1     3
 -1.0188347447549446E-01 a       344     0    18     1     4
  4.0903217090602639E-01 a       345     0    18     1     5
 -7.6442623857601297E-02 a       346     0    18     1     6
  4.5583849465392795E-01 a       347     0    18     1     7
  3.9414019068666278E-01 a       348     0    18     1     8
 -2.9668864770037323E-01 a       349     0    18     1     9
 -1.0991842303200741E-01 a       350     0    18     1    10
  2.5609638311288241E-01 a       351     0    18     1    11
  6.7276144326439469E-01 a       352     0    18     1    12
  3.5897622173706073E-01 a       353     0    18     1    13
  1.6130588026216094E-01 a       354     0    18     1    14
 -2.1645477467650526E-01 a       355     0    18     1    15
  1.9982973588619601E-01 a       356     0    18     1    16
 -2.0099936742032992E-01 a       357     0    18     1    17
  6.0003924207432079E-02 a       358     0    18     1    18
  3.3782927397719403E-02 a       359     0    18     1    19
 -1.0022662523090714E-01 a       360     0    18     1    20
  1.4159043868963292E-01 a       361     0    19     1     1
  1.3894368497725751E-01 a       362     0    19     1     2
  4.1197833059029604E-01 a       363     0    19     1     3
  8.9401136882450619E-02 a       364     0    19     1     4
 -4.5314591341824040E-01 a       365     0    19     1     5
 -2.8171886050540884E-01 a       366     0    19     1     6
 -2.7297931776967294E-01 a       367     0    19     1     7
  1.5140128697736771E-01 a       368     0    19     1     8
  2.8458235133401479E-02 a       369     0    19     1     9
  4.3584276711497194E-01 a       370     0    19     1    10
  1.2804346075709902E-01 a       371     0    19     1    11
 -5.9033033199754625E-01 a       372     0    19     1    12
 -4.6831415549090108E-02 a       373     0    19     1    13
 -1.9781878368609135E-01 a       374     0    19     1    14
 -3.4124055620332511E-01 a       375     0    19     1    15
  3.9545840353450622E-02 a       376     0    19     1    16
  8.2671742404261639E-01 a       377     0    19     1    17
 -3.3774125866933730E-01 a       378     0    19     1    18
  1.6702592449529055E-01 a       379     0    19     1    19
  2.0322311891060874E-01 a       380     0    19     1    20
  1.9323739429097084E-01 a       381     0    20     1     1
  4.2391272325240603E-01 a       382     0    20     1     2
 -2.4008183093456145E-01 a       383     0    20     1     3
 -2.3663700483538566E-01 a       384     0    20     1     4
  3.5409954173574604E-01 a       385     0    20     1     5
  4.5568619710222649E-02 a       386     0    20     1     6
  3.3807875269295747E-02 a       387     0    20     1     7
 -1.0371405445900989E-01 a       388     0    20     1     8
  5.2409091911487415E-01 a       389     0    20     1     9
  1.5139858235166587E-01 a       390     0    20     1    10
 -1.4354184473592518E-01 a       391     0    20     1    11
  6.6982556830234452E-01 a       392     0    20     1    12
 -1.3549850264624958E-03 a       393     0    20     1    13
  4.9543966645392912E-01 a       394     0    20     1    14
  1.2892116199540313E+00 a       395     0    20     1    15
  1.5822427298525010E-01 a       396     0    20     1    16
 -1.0486296673069062E+00 a       397     0    20     1    17
  6.2169936452227716E-02 a       398     0    20     1    18
 -8.9361799015912805E-02 a       399     0    20     1    19
  1.0004906334689659E-01 a       400     0    20     1    20
 -6.7789791151602397E-01 a       401     0    21     1     1
 -3.3537547732569756E-01 a       402     0    21     1     2
  8.2625904986568605E-02 a       403     0    21     1     3
  5.9424503781087046E-01 a       404     0    21     1     4
 -1.8795925044490269E-01 a       405     0    21     1     5
 -1.7456799384424446E-01 a       406     0    21     1     6
  2.1160420310575262E-03 a       407     0    21     1     7
 -1.2869347095855777E-01 a       408     0    21     1     8
 -5.3269379426643426E-01 a       409     0    21     1     9
 -6.3326618734373974E-01 a       410     0    21     1    10
  3.8264179646476049E-01 a       411     0    21     1    11
 -5.5903125536015696E-01 a       412     0    21     1    12
  1.6649091894695089E-01 a       413     0    21     1    13
 -2.7947485913691184E-01 a       414     0    21     1    14
 -5.8573064146149922E-01 a       415     0    21     1    15
 -8.5841983184705761E-01 a       416     0    21     1    16
  9.2720071370893198E-01 a       417     0    21     1    17
 -1.1630639406281033E-02 a       418     0    21     1    18
  2.7669231432738001E-01 a       419     0    21     1    19
  5.1744320980929048E-01 a       420     0    21     1    20
  1.9090570263102799E-01 a       421     0    22     1     1
 -2.5268347454999046E-01 a       422     0    22     1     2
  5.8485891363122711E-01 a       423     0    22     1     3
 -2.6980081238374248E-01 a       424     0    22     1     4
 -6.5864547678483198E-01 a       425     0    22     1     5
 -8.0281873391925454E-02 a       426     0    22     1     6
  2.2620668284223125E-01 a       427     0    22     1     7
  1.7818048349521498E-01 a       428     0    22     1     8
  2.8893201858619216E-01 a       429     0    22     1     9
  5.5445739111979553E-01 a       430     0    22     1    10
 -3.1890003882097556E-01 a       431     0    22     1    11
 -1.9519193937338741E-01 a       432     0    22     1    12
  2.5272355537911606E-01 a       433     0    22     1    13
  2.4808749419825089E-02 a       434     0    22     1    14
 -8.2614713948417476E-02 a       435     0    22     1    15
 -1.8089827769029132E-01 a       436     0    22     1    16
  8.1145346757146664E-01 a       437     0    22     1    17
  3.9500972388761468E-01 a       438     0    22     1    18
  2.2484436239433472E-01 a       439     0    22     1    19
  2.6487792781207098E-01 a       440     0    22     1    20
  4.7408796643963351E-02 a       441     0    23     1     1
 -2.6853632664517624E-02 a       442     0    23     1     2
 -6.6542435319664206E-01 a       443     0    23     1     3
 -4.9015950931537866E-01 a       444     0    23     1     4
  3.7331318307605821E-01 a       445     0    23     1     5
 -3.2579653958344451E-01 a       446     0    23     1     6
  4.8122184805269608E-01 a       447     0    23     1     7
 -7.6696952412921926E-01 a       448     0    23     1     8
 -2.7321900400111165E-01 a       449     0    23     1     9
 -1.7539691855410225E-01 a       450     0    23     1    10
  1.5510023457870833E-01 a       451     0    23     1    11
  4.8045093076386558E-01 a       452     0    23     1    12
 -6.5312678559622514E-02 a       453     0    23     1    13
  2.0026981804260835E-01 a       454     0    23     1    14
  8.4765114121448515E-01 a       455     0    23     1    15
  6.6969370327647748E-01 a       456     0    23     1    16
 -1.1828041118727333E+00 a       457     0    23     1    17
  5.3467497937019680E-02 a       458     0    23     1    18
  7.9723227323510823E-02 a       459     0    23     1    19
 -9.3143700128633378E-01 a       460     0    23     1    20
  1.1829190879194689E-02 a       461     0    24     1     1
 -1.2679595776709229E-01 a       462     0    24     1     2
  6.0351082003678413E-01 a       463     0    24     1     3
 -2.0798052725368695E-03 a       464     0    24     1     4
 -6.6012592392369326E-02 a       465     0    24     1     5
  1.7829074206924017E-01 a       466     0    24     1     6
 -5.4588662550028776E-02 a       467     0    24     1     7
 -1.9521424600441165E-01 a       468     0    24     1     8
 -3.9749588172849554E-01 a       469     0    24     1     9
  4.3720547694385031E-01 a       470     0    24     1    10
 -1.6346064331162830E-01 a       471     0    24     1    11
 -9.9865026181171802E-03 a       472     0    24     1    12
  2.9672256111608064E-01 a       473     0    24     1    13
 -3.7546011385132083E-01 a       474     0    24     1    14
 -1.1213706637854032E-01 a       475     0    24     1    15
 -5.3843307543558587E-02 a       476     0    24     1    16
 -3.1049411731148230E-01 a       477     0    24     1    17
  2.6589988501844249E-02 a       478     0    24     1    18
  1.5841022607842044E-02 a       479     0    24     1    19
  3.8800299725919196E-02 a       480     0    24     1    20
 -5.4265438763841356E-01 a       481     0    25     1     1
  1.1607751994837021E-01 a       482     0    25     1     2
 -7.3644763796364365E-02 a       483     0    25     1     3
  1.6258660561298174E-01 a       484     0    25     1     4
  6.4666276224218677E-01 a       485     0    25     1     5
 -5.3209130559736036E-02 a       486     0    25     1     6
  2.2672912263926887E-01 a       487     0    25     1     7
  6.0594245807331804E-01 a       488     0    25     1     8
 -1.5709257901995860E-01 a       489     0    25     1     9
 -5.0949189729653277E-01 a       490     0    25     1    10
 -7.3776144534121524E-01 a       491     0    25     1    11
 -3.9967686708149547E-01 a       492     0    25     1    12
 -8.2733561502468161E-02 a       493     0    25     1    13
 -3.0885965468522325E-01 a       494     0    25     1    14
  5.6799624553585304E-01 a       495     0    25     1    15
 -4.5451170171510569E-01 a       496     0    25     1    16
 -1.1098810362734366E+00 a       497     0    25     1    17
 -1.5837590110294883E-01 a       498     0    25     1    18
 -1.9868406882803658E-02 a       499     0    25     1    19
  2.6199354972071393E-01 a       500     0    25     1    20
  3.1926962867456876E-01 a       501     0    26     1     1
 -6.7708282121562413E-01 a       502     0    26     1     2
  2.5297340082737858E-03 a       503     0    26     1     3
 -2.1269264087177327E-02 a       504     0    26     1     4
  4.3445174517240165E-01 a       505     0    26     1     5
 -4.5868893494668073E-01 a       506     0    26     1     6
 -1.4832963347077918E-01 a       507     0    26     1     7
  2.9358367174683669E-01 a       508     0    26     1     8
 -1.5168233230030159E-01 a       509     0    26     1     9
  4.1009015582952069E-01 a       510     0    26     1    10
 -2.9349190299129480E-01 a       511     0    26     1    11
  2.9479097483730132E-01 a       512     0    26     1    12
  1.6208899350015768E-01 a       513     0    26     1    13
  9.4909077056833574E-02 a       514     0    26     1    14
  8.3772358784961518E-02 a       515     0    26     1    15
  2.4746281291037325E-01 a       516     0    26     1    16
  4.0781781170780441E-02 a       517     0    26     1    17
  4.3346205025929035E-01 a       518     0    26     1    18
 -8.7953756678380457E-01 a       519     0    26     1    19
 -5.7793230587097744E-01 a       520     0    26     1    20
 -2.2869316733194406E-01 a       521     0    27     1     1
 -4.9454297222303961E-01 a       522     0    27     1     2
  3.0078562003074155E-01 a       523     0    27     1     3
 -6.2906616752537403E-01 a       524     0    27     1     4
 -3.1552600783246548E-01 a       525     0    27     1     5
 -1.5346422993965145E-01 a       526     0    27     1     6
  9.0670698736943889E-02 a       527     0    27     1     7
 -1.2026280570021249E-01 a       528     0    27     1     8
 -7.8708022254638562E-04 a       529     0    27     1     9
 -3.3258272387590299E-01 a       530     0    27     1    10
 -1.8437400052139874E-01 a       531     0    27     1    11
 -5.4887112350926626E-01 a       532     0    27     1    12
  9.1323537991291850E-02 a       533     0    27     1    13
  2.5924519947413921E-01 a       534     0    27     1    14
 -1.5853874579983004E-01 a       535     0    27     1    15
  8.7925093038043234E-01 a       536     0    27     1    16
  9.4674940175743363E-02 a       537     0    27     1    17
  2.5744711021167005E-01 a       538     0    27     1    18
  2.1088634674725815E-01 a       539     0    27     1    19
 -1.1386896194213886E-01 a       540     0    27     1    20
  1.7395915455518526E-01 a       541     0    28     1     1
 -1.4299013479069153E-01 a       542     0    28     1     2
  4.5682594292400021E-02 a       543     0    28     1     3
 -4.5627655912017129E-01 a       544     0    28     1     4
  5.9520589884006207E-02 a       545     0    28     1     5
  3.7024428023083650E-01 a       546     0    28     1     6
 -3.6469697371866078E-01 a       547     0    28     1     7
  7.0533483940863700E-02 a       548     0    28     1     8
  1.5378108571812654E-01 a       549     0    28     1     9
 -2.1028512098382793E-01 a       550     0    28     1    10
  1.1265201189103287E-01 a       551     0    28     1    11
 -5.9005943221783164E-01 a       552     0    28     1    12
  2.1194255718146529E-01 a       553     0    28     1    13
  2.8947274818146490E-01 a       554     0    28     1    14
 -1.2606844422470492E-01 a       555     0    28     1    15
  2.8388011740580906E-03 a       556     0    28     1    16
  5.7563179761700101E-01 a       557     0    28     1    17
 -1.2298158936353573E-01 a       558     0    28     1    18
 -2.6444286001484207E-01 a       559     0    28     1    19
 -3.3037795141249042E-02 a       560     0    28     1    20
  4.8761273335104860E-01 a       561     0    29     1     1
 -2.6740458170394227E-01 a       562     0    29     1     2
 -5.8507066924926621E-01 a       563     0    29     1     3
 -5.4364858824841789E-01 a       564     0    29     1     4
  5.0127586911488935E-02 a       565     0    29     1     5
 -1.0112339694433720E-01 a       566     0    29     1     6
  2.4332153883634994E-01 a       567     0    29     1     7
 -3.4379876607778681E-01 a       568     0    29     1     8
 -2.3273357253593412E-02 a       569     0    29     1     9
 -8.1590376248061008E-02 a       570     0    29     1    10
 -1.2128241878192610E-01 a       571     0    29     1    11
 -1.7002034236792231E-02 a       572     0    29     1    12
  2.6673797595041510E-01 a       573     0    29     1    13
 -5.7476087642563334E-01 a       574     0    29     1    14
  7.3744102952666524E-01 a       575     0    29     1    15
 -5.8176606778390733E-02 a       576     0    29     1    16
  9.7299244833059229E-01 a       577     0    29     1    17
  1.0722755966751565E-01 a       578     0    29     1    18
  3.5952657457780854E-02 a       579     0    29     1    19
  2.9981215475825168E-01 a       580     0    29     1    20
 -6.6443583277782459E-03 a       581     0    30     1     1
  5.9905270995357263E-01 a       582     0    30     1     2
  1.7556043594271853E-01 a       583     0    30     1     3
  2.1164614036293616E-01 a       584     0    30     1     4
 -4.9119577483481880E-01 a       585     0    30     1     5
 -8.2915144135894594E-03 a       586     0    30     1     6
 -1.3741760931401448E-02 a       587     0    30     1     7
 -2.2025206184825613E-01 a       588     0    30     1     8
 -2.9290188749014523E-01 a       589     0    30     1     9
  6.3300640039094080E-02 a       590     0    30     1    10
 -6.4283794119595047E-02 a       591     0    30     1    11
 -2.5645718552120672E-01 a       592     0    30     1    12
 -3.7111748810312994E-01 a       593     0    30     1    13
 -5.3066625755056079E-02 a       594     0    30     1    14
 -7.2564988863393365E-01 a       595     0    30     1    15
 -3.3803170286587209E-01 a       596     0    30     1    16
 -8.2965630896136386E-02 a       597     0    30     1    17
 -1.6736494679991137E-01 a       598     0    30     1    18
  3.8905042607229301E-01 a       599     0    30     1    19
  2.5310172712956125E-01 a       600     0    30     1    20
  3.3793583090429058E-01 a       601     0    31     1     1
  1.9139572572845215E-01 a       602     0    31     1     2
  2.9403840043880075E-01 a       603     0    31     1     3
 -1.9640837433265781E-01 a       604     0    31     1     4
 -1.7056707309392763E-01 a       605     0    31     1     5
  6.4535751124239393E-01 a       606     0    31     1     6
 -4.2013541151800123E-03 a       607     0    31     1     7
 -2.7962851455972693E-01 a       608     0    31     1     8
 -4.7333021016680105E-01 a       609     0    31     1     9
  1.6428064891838906E-01 a       610     0    31     1    10
 -3.7193812425730485E-02 a       611     0    31     1    11
  6.2056140490025946E-01 a       612     0    31     1    12
  2.8213465491528922E-01 a       613     0    31     1    13
  3.4688775024901874E-01 a       614     0    31     1    14
 -9.1948979142223636E-02 a       615     0    31     1    15
 -3.8249720830182671E-01 a       616     0    31     1    16
 -1.2108705655344527E-01 a       617     0    31     1    17
  5.9539899852912526E-01 a       618     0    31     1    18
  5.0691339613948005E-01 a       619     0    31     1    19
 -2.6383466585954812E-01 a       620     0    31     1    20
  3.5194665573927658E-01 a       621     0    32     1     1
  6.6609251906748768E-02 a       622     0    32     1     2
 -6.1813372976505750E-02 a       623     0    32     1     3
 -5.9389957557296491E-01 a       624     0    32     1     4
  3.2242343625236408E-01 a       625     0    32     1     5
 -4.7169253599633976E-01 a       626     0    32     1     6
  3.1035391546336263E-02 a       627     0    32     1     7
  5.2343223069193989E-01 a       628     0    32     1     8
 -1.6040717757686579E-01 a       629     0    32     1     9
 -3.8630322517609728E-01 a       630     0    32     1    10
  3.2276009747574935E-01 a       631     0    32     1    11
  1.3956751971367035E-01 a       632     0    32     1    12
 -4.2935914125513813E-01 a       633     0    32     1    13
  3.7456981056506805E-01 a       634     0    32     1    14
  7.7391416955055276E-02 a       635     0    32     1    15
 -9.8649972633665400E-02 a       636     0    32     1    16
 -2.5125404882712071E-02 a       637     0    32     1    17
 -1.7962141113866276E-01 a       638     0    32     1    18
  2.7239632267276420E-01 a       639     0    32     1    19
  2.6538550071536932E-01 a       640     0    32     1    20
 -3.0598639135266986E-01 a       641     0    33     1     1
 -2.2999581580613643E-01 a       642     0    33     1     2
 -1.6772906019106658E-02 a       643     0    33     1     3
  1.4960214286509463E-01 a       644     0    33     1     4
  3.5463683369391863E-01 a       645     0    33     1     5
 -7.6519987532694067E-02 a       646     0    33     1     6
  4.6914608568218336E-01 a       647     0    33     1     7
 -3.6071485822454852E-01 a       648     0    33     1     8
  5.8587126636877784E-01 a       649     0    33     1     9
  2.0728773374924414E-01 a       650     0    33     1    10
 -3.2212739332306028E-01 a       651     0    33     1    11
  1.4012172786081251E-01 a       652     0    33     1    12
  2.0891894596058866E-01 a       653     0    33     1    13
 -9.9269352038480552E-01 a       654     0    33     1    14
 -3.3582865787144506E-01 a       655     0    33     1    15
 -7.0371178141300575E-02 a       656     0    33     1    16
  4.7145771142539811E-01 a       657     0    33     1    17
 -8.5782988456480358E-01 a       658     0    33     1    18
 -3.6607790240229471E-01 a       659     0    33     1    19
  3.1667346535649998E-01 a       660     0    33     1    20
 -4.2413737340239607E-02 a       661     0    34     1     1
 -4.6912921935109936E-01 a       662     0    34     1     2
 -4.3801757323436569E-01 a       663     0    34     1     3
 -8.8727812327840139E-01 a       664     0    34     1     4
  1.5195604072683422E-01 a       665     0    34     1     5
 -1.4716563020167334E-01 a       666     0    34     1     6
  4.8750335744563042E-02 a       667     0    34     1     7
 -8.7105565741827484E-02 a       668     0    34     1     8
 -6.4354852298056778E-02 a       669     0    34     1     9
 -3.5094548986700930E-01 a       670     0    34     1    10
 -2.1977721513671566E-01 a       671     0    34     1    11
 -1.2366836622979333E-01 a       672     0    34     1    12
 -1.4567554268401245E-01 a       673     0    34     1    13
  5.6841331002109197E-01 a       674     0    34     1    14
  1.5615409206012451E-01 a       675     0    34     1    15
 -1.1336362087118970E-01 a       676     0    34     1    16
  3.4303163356272887E-01 a       677     0    34     1    17
  2.5107336646615262E-02 a       678     0    34     1    18
  2.6243967578245786E-01 a       679     0    34     1    19
  5.8689429955997692E-02 a       680     0    34     1    20
  5.1064081969508020E-02 a       681     0    35     1     1
  3.4191782776300311E-01 a       682     0    35     1     2
  1.4583573289876933E-01 a       683     0    35     1     3
 -6.3599147430219860E-01 a       684     0    35     1     4
 -1.5248951076273765E-01 a       685     0    35     1     5
  9.3922259585011425E-01 a       686     0    35     1     6
  4.3400142979163975E-01 a       687     0    35     1     7
  7.3114811603240015E-02 a       688     0    35     1     8
 -5.9538135257604252E-01 a       689     0    35     1     9
  3.4071542694054247E-01 a       690     0    35     1    10
  9.5173395665243243E-02 a       691     0    35     1    11
 -5.6346080545386401E-01 a       692     0    35     1    12
 -2.2192111901618519E-01 a       693     0    35     1    13
 -1.9467508711615814E-01 a       694     0    35     1    14
 -1.3364461850672193E-01 a       695     0    35     1    15
  7.2626917109940115E-01 a       696     0    35     1    16
 -1.1404151666017412E+00 a       697     0    35     1    17
  7.0170484465682270E-01 a       698     0    35     1    18
 -1.5505659096047528E-01 a       699     0    35     1    19
 -5.2657009184129344E-01 a       700     0    35     1    20
  3.8576829528289541E-01 a       701     0    36     1     1
 -2.5069515886963067E-01 a       702     0    36     1     2
  4.6939534918083792E-01 a       703     0    36     1     3
  1.3738693597893745E-01 a       704     0    36     1     4
 -1.0608437319774475E-01 a       705     0    36     1     5
  1.6216931148772904E-02 a       706     0    36     1     6
  4.6445553567382475E-02 a       707     0    36     1     7
 -7.4689322579677242E-01 a       708     0    36     1     8
  8.2796878994936124E-02 a       709     0    36     1     9
  4.2911032507796298E-01 a       710     0    36     1    10
 -3.0771094448042752E-01 a       711     0    36     1    11
 -4.5327316137090834E-01 a       712     0    36     1    12
  5.9742137139874099E-02 a       713     0    36     1    13
 -3.4162319617056325E-01 a       714     0    36     1    14
 -2.5831869484187298E-01 a       715     0    36     1    15
  2.2285549685471340E-01 a       716     0    36     1    16
 -2.8295798910750886E-01 a       717     0    36     1    17
  2.7089926437109541E-01 a       718     0    36     1    18
 -3.7434576218097121E-01 a       719     0    36     1    19
  2.7267412855966983E-01 a       720     0    36     1    20
 -1.8565277395687599E-02 a       721     0    37     1     1
  6.8209343577670711E-01 a       722     0    37     1     2
 -4.5650087397581529E-01 a       723     0    37     1     3
  5.8595355102138480E-02 a       724     0    37     1     4
  6.6736715221746579E-01 a       725     0    37     1     5
  3.8690964684778939E-01 a       726     0    37     1     6
 -5.7315745492853565E-02 a       727     0    37     1     7
 -2.5347909054450474E-01 a       728     0    37     1     8
 -4.2549971570176029E-03 a       729     0    37     1     9
 -2.5931605282761450E-01 a       730     0    37     1    10
 -4.3517909090704210E-01 a       731     0    37     1    11
  2.6078832858107526E-01 a       732     0    37     1    12
 -4.1369106426199669E-02 a       733     0    37     1    13
  9.9255579462953422E-02 a       734     0    37     1    14
  8.7279845322617244E-01 a       735     0    37     1    15
  1.3884013335936551E-01 a       736     0    37     1    16
 -6.0059407861839709E-01 a       737     0    37     1    17
  2.3931391483340797E-01 a       738     0    37     1    18
 -1.0382780991251639E-01 a       739     0    37     1    19
  1.0295980030874752E-02 a       740     0    37     1    20
 -9.1570394805289862E-02 a       741     0    38     1     1
 -9.4055533189742399E-02 a       742     0    38     1     2
  7.3429155198814586E-02 a       743     0    38     1     3
  1.0910026640273158E+00 a       744     0    38     1     4
 -5.0135830192306274E-01 a       745     0    38     1     5
 -1.6396637182633211E-01 a       746     0    38     1     6
  1.8055163280271180E-02 a       747     0    38     1     7
  1.8753286978072736E-01 a       748     0    38     1     8
 -2.6449012822984386E-01 a       749     0    38     1     9
 -3.0574273399692553E-01 a       750     0    38     1    10
  2.4783146845881632E-01 a       751     0    38     1    11
 -5.6278135744552726E-01 a       752     0    38     1    12
 -2.6715583070482746E-01 a       753     0    38     1    13
  3.8341667541917429E-01 a       754     0    38     1    14
 -4.6541207403623996E-02 a       755     0    38     1    15
 -4.2545350773443091E-01 a       756     0    38     1    16
 -6.6250109802375348E-02 a       757     0    38     1    17
  6.6292270839340428E-01 a       758     0    38     1    18
  1.9147150422114273E-01 a       759     0    38     1    19
  2.1442376093453175E-01 a       760     0    38     1    20
 -1.4653233992435799E-01 a       761     0    39     1     1
  6.4548006013576609E-01 a       762     0    39     1     2
 -4.6307547999846005E-01 a       763     0    39     1     3
  3.7693890335040980E-01 a       764     0    39     1     4
  2.8278264216758120E-01 a       765     0    39     1     5
  5.0147015184316179E-01 a       766     0    39     1     6
  3.7681400632226442E-01 a       767     0    39     1     7
 -5.0831581382069913E-01 a       768     0    39     1     8
 -4.2725397703504170E-01 a       769     0    39     1     9
 -4.3138870402792023E-01 a       770     0    39     1    10
  4.6757244296333311E-01 a       771     0    39     1    11
  5.0452525808904358E-01 a       772     0    39     1    12
 -1.9630781069747010E-02 a       773     0    39     1    13
 -1.4237482112638428E-01 a       774     0    39     1    14
  8.4838819058203885E-01 a       775     0    39     1    15
  9.2493222441438497E-02 a       776     0    39     1    16
 -1.0842647879742995E+00 a       777     0    39     1    17
 -1.0870305629229651E-01 a       778     0    39     1    18
 -2.1724790186361978E-01 a       779     0    39     1    19
 -4.7094961016480252E-02 a       780     0    39     1    20
 -3.5527290550115437E-01 a       781     0    40     1     1
  2.4419527947924853E-02 a       782     0    40     1     2
 -1.5728710791828499E-01 a       783     0    40     1     3
  3.6330552350594114E-01 a       784     0    40     1     4
 -3.8325153261600031E-01 a       785     0    40     1     5
 -3.0122356197637751E-01 a       786     0    40     1     6
 -4.2412451980652965E-01 a       787     0    40     1     7
 -1.1776231647354123E-01 a       788     0    40     1     8
  2.8494666207534380E-01 a       789     0    40     1     9
  5.0061604959939487E-01 a       790     0    40     1    10
  2.9107436080844495E-01 a       791     0    40     1    11
  1.4623035923614774E-01 a       792     0    40     1    12
  1.1753827455513499E-01 a       793     0    40     1    13
  5.3532514706453027E-01 a       794     0    40     1    14
 -7.5188110627409488E-01 a       795     0    40     1    15
  4.6587133308067380E-02 a       796     0    40     1    16
  4.5195285163742510E-01 a       797     0    40     1    17
 -9.3651325809837760E-01 a       798     0    40     1    18
  3.2591488487829307E-01 a       799     0    40     1    19
  1.5082503243750398E-01 a       800     0    40     1    20
  3.5973025285906296E-01 a       801     0    41     1     1
 -1.3879975956205362E-01 a       802     0    41     1     2
  1.9386568163454826E-01 a       803     0    41     1     3
  3.5435803937884133E-02 a       804     0    41     1     4
  1.8857837691001383E-01 a       805     0    41     1     5
 -1.3467528857316097E-01 a       806     0    41     1     6
 -1.3772560898816835E-01 a       807     0    41     1     7
  9.5016344228192245E-02 a       808     0    41     1     8
  3.5986314551569648E-01 a       809     0    41     1     9
  1.1800697807441103E-01 a       810     0    41     1    10
 -3.1945129628422925E-01 a       811     0    41     1    11
  4.4618210705639338E-01 a       812     0    41     1    12
  1.8743336238835503E-01 a       813     0    41     1    13
 -3.6750434597304199E-01 a       814     0    41     1    14
  3.5093634430722997E-01 a       815     0    41     1    15
  1.6838556223495249E-01 a       816     0    41     1    16
  1.7627657462902121E-02 a       817     0    41     1    17
  3.7872597902103306E-03 a       818     0    41     1    18
 -1.1552343959798035E-01 a       819     0    41     1    19
 -5.4985654665929445E-02 a       820     0    41     1    20
 -1.5508717265624961E-01 a       821     0    42     1     1
  1.0115603415868377E-01 a       822     0    42     1     2
 -2.2569984467654302E-02 a       823     0    42     1     3
 -2.3816152929781975E-01 a       824     0    42     1     4
  1.1477976494362659E-01 a       825     0    42     1     5
  8.6960490620215814E-03 a       826     0    42     1     6
 -3.0054043971987170E-02 a       827     0    42     1     7
 -2.2002427660863680E-01 a       828     0    42     1     8
 -9.8500246516865300E-02 a       829     0    42     1     9
  3.6042389370996256E-02 a       830     0    42     1    10
 -8.4401835195543271E-02 a       831     0    42     1    11
  5.6830698324034234E-01 a       832     0    42     1    12
  2.2004046483349352E-01 a       833     0    42     1    13
  2.1511138251965479E-02 a       834     0    42     1    14
  1.6643118651636529E-01 a       835     0    42     1    15
 -1.7975370138261673E-01 a       836     0    42     1    16
  1.7793321242057397E-01 a       837     0    42     1    17
 -1.4056231522325346E-01 a       838     0    42     1    18
  1.6405788702703251E-02 a       839     0    42     1    19
 -9.1314395171189180E-02 a       840     0    42     1    20
 -5.5399179051874692E-02 a       841     0    43     1     1
  3.9122938913783642E-02 a       842     0    43     1     2
 -1.0904500038037983E-02 a       843     0    43     1     3
 -2.2308744945277123E-01 a       844     0    43     1     4
 -2.6321352514974789E-03 a       845     0    43     1     5
  6.9545138452950919E-02 a       846     0    43     1     6
 -1.8163529657109576E-01 a       847     0    43     1     7
  3.6773276982320702E-01 a       848     0    43     1     8
 -2.4957929074977858E-01 a       849     0    43     1     9
 -5.7811516023815436E-02 a       850     0    43     1    10
  1.2740534298861886E-01 a       851     0    43     1    11
 -1.5311178915134083E-02 a       852     0    43     1    12
 -2.2461013561640897E-01 a       853     0    43     1    13
 -4.5408396196638584E-02 a       854     0    43     1    14
  1.1413828429121212E-02 a       855     0    43     1    15
 -8.5626229289901712E-02 a       856     0    43     1    16
  3.1212847355439739E-02 a       857     0    43     1    17
  4.9008968371083803E-02 a       858     0    43     1    18
  2.8300238235674704E-02 a       859     0    43     1    19
 -1.5942247786084293E-01 a       860     0    43     1    20
  2.2618869336705053E-01 a       861     0    44     1     1
 -2.0383724105794355E-02 a       862     0    44     1     2
 -1.9542238819323812E-01 a       863     0    44     1     3
  4.9301826542050625E-01 a       864     0    44     1     4
  1.1940193406027630E-01 a       865     0    44     1     5
  1.4716469597144050E-01 a       866     0    44     1     6
 -1.0876340815256533E-01 a       867     0    44     1     7
  3.4686711920929474E-02 a       868     0    44     1     8
  2.9917674745611278E-01 a       869     0    44     1     9
  8.0390032048127266E-02 a       870     0    44     1    10
  3.7148612881578648E-02 a       871     0    44     1    11
 -5.0500036140786297E-01 a       872     0    44     1    12
 -7.0520113589041711E-01 a       873     0    44     1    13
  1.9602467147964733E-01 a       874     0    44     1    14
 -7.6000108694437196E-01 a       875     0    44     1    15
  4.0512041843986185E-01 a       876     0    44     1    16
 -4.5914763674911763E-01 a       877     0    44     1    17
  3.1408759296723110E-01 a       878     0    44     1    18
  2.7310424175246099E-02 a       879     0    44     1    19
  3.7290204488380524E-01 a       880     0    44     1    20
 -5.1984511886900098E-01 a       881     0    45     1     1
  3.3247109080812415E-01 a       882     0    45     1     2
 -3.3675799551921820E-01 a       883     0    45     1     3
 -4.6827727753092091E-01 a       884     0    45     1     4
  3.0626911062016549E-01 a       885     0    45     1     5
  2.3223043979588442E-01 a       886     0    45     1     6
 -2.5033675808237077E-01 a       887     0    45     1     7
  3.7957047972074456E-02 a       888     0    45     1     8
 -2.5661632015654523E-01 a       889     0    45     1     9
 -3.7903806439549204E-01 a       890     0    45     1    10
  5.6461776752338555E-01 a       891     0    45     1    11
  1.5762449930284281E-01 a       892     0    45     1    12
  1.2185517455626424E-01 a       893     0    45     1    13
 -4.9621403859160879E-01 a       894     0    45     1    14
  3.7810327312272346E-01 a       895     0    45     1    15
 -6.4510395317603153E-01 a       896     0    45     1    16
  2.1222732766734140E-01 a       897     0    45     1    17
 -5.9776026530169957E-01 a       898     0    45     1    18
  5.5231714952751498E-01 a       899     0    45     1    19
 -3.3977057579328901E-01 a       900     0    45     1    20
  6.3500706371704441E-01 a       901     0    46     1     1
 -5.7754190478149658E-01 a       902     0    46     1     2
  2.9480838691921402E-01 a       903     0    46     1     3
  7.5337717432558460E-01 a       904     0    46     1     4
 -4.4943080030726451E-01 a       905     0    46     1     5
 -5.9182557596869273E-02 a       906     0    46     1     6
 -7.3361871100779708E-01 a       907     0    46     1     7
  4.2316985970735727E-01 a       908     0    46     1     8
  3.2133706588812933E-01 a       909     0    46     1     9
  4.0370691053795016E-01 a       910     0    46     1    10
 -1.9261560833196892E-01 a       911     0    46     1    11
  8.1190802488999209E-02 a       912     0    46     1    12
  1.6905951610137659E-01 a       913     0    46     1    13
 -1.4981585126903424E-01 a       914     0    46     1    14
 -6.8251185849156326E-01 a       915     0    46     1    15
 -3.4182808903912770E-01 a       916     0    46     1    16
  5.9174242856051029E-01 a       917     0    46     1    17
  2.5460869929889990E-01 a       918     0    46     1    18
 -1.4472853883789150E-01 a       919     0    46     1    19
  5.3453307319928078E-01 a       920     0    46     1    20
  3.7693166392885835E-01 a       921     0    47     1     1
 -6.1528456804440590E-01 a       922     0    47     1     2
  4.7941158288064084E-01 a       923     0    47     1     3
  7.0661141009660394E-02 a       924     0    47     1     4
 -2.0403747737750533E-01 a       925     0    47     1     5
  3.7807763081274431E-01 a       926     0    47     1     6
  6.0171744953148609E-01 a       927     0    47     1     7
 -5.2300090565558420E-02 a       928     0    47     1     8
 -4.5440876875694432E-02 a       929     0    47     1     9
 -2.3346594244055371E-01 a       930     0    47     1    10
 -3.7110341403070746E-01 a       931     0    47     1    11
 -8.0674687696812675E-01 a       932     0    47     1    12
  7.8628289818507766E-02 a       933     0    47     1    13
  2.2650469808072141E-01 a       934     0    47     1    14
 -3.2874024556393511E-01 a       935     0    47     1    15
  3.5766544512421150E-01 a       936     0    47     1    16
  2.8837670305678326E-01 a       937     0    47     1    17
  1.9294242402633885E-01 a       938     0    47     1    18
 -3.0223728231692498E-01 a       939     0    47     1    19
 -8.6871621593517923E-01 a       940     0    47     1    20
 -3.8844394194914650E-01 a       941     0    48     1     1
  2.1680103838228656E-01 a       942     0    48     1     2
  1.8870628736029621E-01 a       943     0    48     1     3
 -5.6168761497860153E-01 a       944     0    48     1     4
 -3.2044727802885128E-02 a       945     0    48     1     5
 -4.5703518436936178E-03 a       946     0    48     1     6
  6.1411922206911433E-02 a       947     0    48     1     7
  4.0396280807006568E-01 a       948     0    48     1     8
  3.1914173672953294E-01 a       949     0    48     1     9
  1.6397134802649072E-01 a       950     0    48     1    10
 -3.4299437204760158E-01 a       951     0    48     1    11
 -3.5997889123490646E-02 a       952     0    48     1    12
 -4.1241689085432809E-01 a       953     0    48     1    13
 -3.5721047114213361E-01 a       954     0    48     1    14
 -6.6006881397336570E-02 a       955     0    48     1    15
  3.1173322913919316E-01 a       956     0    48     1    16
 -4.7602929442363184E-01 a       957     0    48     1    17
 -1.3072661891758161E-01 a       958     0    48     1    18
 -1.9782783889955186E-01 a       959     0    48     1    19
  4.9446010590881284E-01 a       960     0    48     1    20
 -8.9381342026106037E-01 a       961     0    49     1     1
  6.3631888274932380E-01 a       962     0    49     1     2
 -1.1834460203513144E+00 a       963     0    49     1     3
 -2.5106444610782913E-01 a       964     0    49     1     4
  6.4229831608419907E-01 a       965     0    49     1     5
 -1.4206330424406615E+00 a       966     0    49     1     6
 -2.4926434367425887E-01 a       967     0    49     1     7
  2.6557332542781953E-01 a       968     0    49     1     8
  1.4373999924633177E-02 a       969     0    49     1     9
 -2.5021914571797360E-01 a       970     0    49     1    10
  2.0646902245561660E-01 a       971     0    49     1    11
 -2.5359019990844278E-01 a       972     0    49     1    12
 -3.0785942579153786E-01 a       973     0    49     1    13
  7.6885863631308782E-01 a       974     0    49     1    14
  7.0169036882329106E-01 a       975     0    49     1    15
  1.3742853282188932E+00 a       976     0    49     1    16
 -5.0298232441413315E-01 a       977     0    49     1    17
 -5.0126985983038030E-01 a       978     0    49     1    18
 -2.0012928469383015E-01 a       979     0    49     1    19
 -2.2151606058142706E-01 a       980     0    49     1    20
  5.5602628993014569E-01 a       981     0    50     1     1
 -8.9591457470355107E-01 a       982     0    50     1     2
  9.6755361890498770E-01 a       983     0    50     1     3
  4.1267905568557678E-01 a       984     0    50     1     4
 -9.1220430442612088E-01 a       985     0    50     1     5
 -3.3090058693910285E-01 a       986     0    50     1     6
 -8.6644166332296213E-02 a       987     0    50     1     7
  6.9411576016402754E-01 a       988     0    50     1     8
 -2.7972646629757843E-02 a       989     0    50     1     9
  2.6636963410990505E-01 a       990     0    50     1    10
  4.3545944344553883E-01 a       991     0    50     1    11
  3.4348035946548137E-02 a       992     0    50     1    12
  2.7792032190907789E-01 a       993     0    50     1    13
 -6.7046574707153117E-01 a       994     0    50     1    14
 -1.8151144087788000E+00 a       995     0    50     1    15
 -1.7478143180180865E+00 a       996     0    50     1    16
  2.1779926675457446E+00 a       997     0    50     1    17
 -2.1693889443465324E-02 a       998     0    50     1    18
  6.4868780206032162E-01 a       999     0    50     1    19
  9.4022691246626733E-01 a      1000     0    50     1    20
 -3.1713401260945562E-01 a      1001     0    51     1     1
  2.9173259564518417E-01 a      1002     0    51     1     2
 -1.4567742993678248E-01 a      1003     0    51     1     3
  1.7998091774926447E-01 a      1004     0    51     1     4
 -2.7308802484143180E-02 a      1005     0    51     1     5
 -1.7172777165127379E-01 a      1006     0    51     1     6
  2.2855702417009130E-01 a      1007     0    51     1     7
 -2.9505324490380724E-01 a      1008     0    51     1     8
  5.0509408456434102E-01 a      1009     0    51     1     9
  9.8014007760121064E-02 a      1010     0    51     1    10
  1.0451761896140149E-01 a      1011     0    51     1    11
  2.4276489320803052E-01 a      1012     0    51     1    12
 -3.0800790146046791E-01 a      1013     0    51     1    13
 -2.6497897790730757E-01 a      1014     0    51     1    14
 -1.1491451535062683E-01 a      1015     0    51     1    15
  1.8074660287025360E-01 a      1016     0    51     1    16
 -1.8132941744079428E-01 a      1017     0    51     1    17
 -1.7800700455883811E-01 a      1018     0    51     1    18
 -4.4509640422048219E-01 a      1019     0    51     1    19
  1.7936391511672281E-01 a      1020     0    51     1    20
  1.4785970799441648E+00 b      1021     1     1
 -9.2120005758285572E-01 b      1022     1     2
  3.2976131054728020E-01 b      1023     1     3
 -1.7094737106123306E+00 b      1024     1     4
 -4.4696180378879580E-01 b      1025     1     5
 -6.7491086206888729E-01 b      1026     1     6
  1.3412651251974550E+00 b      1027     1     7
 -1.4803296446780503E+00 b      1028     1     8
  3.0263843328572976E-01 b      1029     1     9
 -6.5135997340837948E-01 b      1030     1    10
  1.5285445704745559E+00 b      1031     1    11
  1.2224866549681004E+00 b      1032     1    12
  1.0907969179793096E+00 b      1033     1    13
 -5.0244114406400042E-01 b      1034     1    14
  1.4300594686209245E+00 b      1035     1    15
 -2.0136003109968209E-01 b      1036     1    16
  9.1531640921155877E-01 b      1037     1    17
  4.8615217791751847E-01 b      1038     1    18
  2.0337254351998377E-01 b      1039     1    19
 -1.2206190699381250E+00 b      1040     1    20
  8.5171436034008119E-01 a      1041     1     1     2     1
  5.8530006703838237E-03 a      1042     1     1     2     2
 -2.6027894834760240E-01 a      1043     1     1     2     3
  2.6608585265911844E-01 a      1044     1     1     2     4
 -2.6831511363814464E-01 a      1045     1     1     2     5
 -1.5609829363257710E-01 a      1046     1     1     2     6
  3.5456346180322768E-01 a      1047     1     1     2     7
 -1.5677190636505903E-01 a      1048     1     1     2     8
 -5.6409311412400875E-01 a      1049     1     1     2     9
 -3.5917224978490875E-01 a      1050     1     1     2    10
 -5.0962369977838173E-01 a      1051     1     1     2    11
 -2.4954460826707689E-01 a      1052     1     1     2    12
  4.2436015445224451E-01 a      1053     1     1     2    13
 -3.8475514788686516E-01 a      1054     1     1     2    14
 -8.1613795611868012E-01 a      1055     1     1     2    15
  2.0715380806411585E-01 a      1056     1     1     2    16
  4.4016058112437251E-01 a      1057     1     1     2    17
  5.7931867026914174E-01 a      1058     1     1     2    18
  3.1055985406731845E-01 a      1059     1     1     2    19
 -1.4904497319578938E-01 a      1060     1     1     2    20
  3.1705588395246809E-01 a      1061     1     2     2     1
 -5.8067363444273656E-02 a      1062     1     2     2     2
 -5.9811948843699647E-01 a      1063     1     2     2     3
 -8.5054999480873750E-02 a      1064     1     2     2     4
  2.1375600856692933E-01 a      1065     1     2     2     5
 -2.8913216133051961E-01 a      1066     1     2     2     6
  4.0974502325107204E-01 a      1067     1     2     2     7
  6.6448568921403528E-01 a      1068     1     2     2     8
  1.8452230157297034E-01 a      1069     1     2     2     9
  4.6861080184197251E-01 a      1070     1     2     2    10
 -2.2075115821344951E-01 a      1071     1     2     2    11
  5.2850608310043345E-01 a      1072     1     2     2    12
  1.5630706749635093E-01 a      1073     1     2     2    13
  8.5499581725386620E-01 a      1074     1     2     2    14
 -5.8825700154146277E-01 a      1075     1     2     2    15
  9.6882886301853077E-01 a      1076     1     2     2    16
  1.1772460307070187E-01 a      1077     1     2     2    17
  9.4858656289792034E-03 a      1078     1     2     2    18
  4.8222565459804406E-01 a      1079     1     2     2    19
  5.1906211357256815E-01 a      1080     1     2     2    20
  1.0975012299559108E+00 a      1081     1     3     2     1
 -4.3298658946770396E-01 a      1082     1     3     2     2
  3.0724071270768727E-01 a      1083     1     3     2     3
 -6.4280455740968634E-01 a      1084     1     3     2     4
  2.4985585363305882E-01 a      1085     1     3     2     5
 -2.3900802563303039E-01 a      1086     1     3     2     6
 -9.2131389191251412E-02 a      1087     1     3     2     7
 -7.1168989865404475E-01 a      1088     1     3     2     8
  3.7047171800823414E-01 a      1089     1     3     2     9
 -4.0200705028565452E-02 a      1090     1     3     2    10
  4.6405465435841270E-01 a      1091     1     3     2    11
 -4.2576912573366466E-01 a      1092     1     3     2    12
  1.0598289072755687E+00 a      1093     1     3     2    13
 -4.6896033627829897E-01 a      1094     1     3     2    14
 -2.8953163861244702E-01 a      1095     1     3     2    15
  1.0658653277199085E-02 a      1096     1     3     2    16
  4.7688218311348107E-01 a      1097     1     3     2    17
  1.4080226375110680E-01 a      1098     1     3     2    18
 -4.9763426033366021E-01 a      1099     1     3     2    19
  1.1217607623270535E-01 a      1100     1     3     2    20
  2.6122459548365629E-01 a      1101     1     4     2     1
  6.6999315292064054E-01 a      1102     1     4     2     2
  3.7691468992584876E-01 a      1103     1     4     2     3
  1.7344273109094483E-03 a      1104     1     4     2     4
  9.9040613170518682E-02 a      1105     1     4     2     5
 -6.0899464486620447E-01 a      1106     1     4     2     6
  2.5136218074092564E-02 a      1107     1     4     2     7
  1.9807946782930973E-02 a      1108     1     4     2     8
  1.1428322946259104E+00 a      1109     1     4     2     9
 -3.2882117004841860E-01 a      1110     1     4     2    10
 -4.1841501584308743E-01 a      1111     1     4     2    11
 -4.3761195942955761E-01 a      1112     1     4     2    12
  3.5008071498488819E-01 a      1113     1     4     2    13
  4.1724532058132496E-01 a      1114     1     4     2    14
 -1.8707007373406762E-01 a      1115     1     4     2    15
  2.4822548593705290E-01 a      1116     1     4     2    16
 -5.4585032047322157E-01 a      1117     1     4     2    17
  1.1299678929943879E-01 a      1118     1     4     2    18
  4.9057172067686389E-01 a      1119     1     4     2    19
  5.3727662992415548E-02 a      1120     1     4     2    20
  3.3924235348360660E-01 a      1121     1     5     2     1
  3.9173142044715881E-01 a      1122     1     5     2     2
  1.3569341285451209E-01 a      1123     1     5     2     3
  6.3033632685899599E-01 a      1124     1     5     2     4
 -4.0564660935939861E-01 a      1125     1     5     2     5
 -2.0453786312478103E-01 a      1126     1     5     2     6
 -2.9133727874156629E-01 a      1127     1     5     2     7
  5.7970761130014692E-01 a      1128     1     5     2     8
 -4.5575678510087331E-01 a      1129     1     5     2     9
  9.5732874790626388E-01 a      1130     1     5     2    10
 -2.6040965008932093E-01 a      1131     1     5     2    11
 -3.3240751534937113E-01 a      1132     1     5     2    12
  2.9889787456296918E-01 a      1133     1     5     2    13
  7.5219823151554832E-01 a      1134     1     5     2    14
  3.3947044276136340E-01 a      1135     1     5     2    15
  6.3192196480234186E-01 a      1136     1     5     2    16
 -3.5072946732362570E-01 a      1137     1     5     2    17
  2.2994705264406087E-01 a      1138     1     5     2    18
  3.3457401751247934E-01 a      1139     1     5     2    19
  2.8270255423111035E-01 a      1140     1     5     2    20
  1.0795011588626979E-02 a      1141     1     6     2     1
 -1.7973792082946582E-01 a      1142     1     6     2     2
  7.4949840353688579E-01 a      1143     1     6     2     3
 -5.2928773557779873E-01 a      1144     1     6     2     4
  1.5990133250226385E-02 a      1145     1     6     2     5
 -3.5436393464258215E-01 a      1146     1     6     2     6
 -1.2431310175355621E-01 a      1147     1     6     2     7
 -1.7013799964957124E-01 a      1148     1     6     2     8
 -1.2977668817947777E-01 a      1149     1     6     2     9
  2.3888750434720149E-02 a      1150     1     6     2    10
 -2.4914848373140508E-01 a      1151     1     6     2    11
  4.5345607021506157E-01 a      1152     1     6     2    12
  4.6276198045348760E-01 a      1153     1     6     2    13
  8.0711508641890625E-02 a      1154     1     6     2    14
  7.3205966480361317E-01 a      1155     1     6     2    15
  4.5487932877190829E-01 a      1156     1     6     2    16
  1.9656582960010843E-01 a      1157     1     6     2    17
  3.4167004744769902E-01 a      1158     1     6     2    18
 -6.9483690537644460E-01 a      1159     1     6     2    19
  2.0664767458011282E-01 a      1160     1     6     2    20
  6.0850512927089351E-01 a      1161     1     7     2     1
 -4.0222064402693179E-02 a      1162     1     7     2     2
 -5.0126094045316099E-04 a      1163     1     7     2     3
  1.8955631336843193E-01 a      1164     1     7     2     4
  5.0988661068502816E-01 a      1165     1     7     2     5
  6.9126023638003886E-01 a      1166     1     7     2     6
  4.1151025532402774E-01 a      1167     1     7     2     7
 -3.0252363428475471E-01 a      1168     1     7     2     8
  6.7645383400266967E-01 a      1169     1     7     2     9
 -1.6885359919582163E-01 a      1170     1     7     2    10
  3.4273571048564083E-01 a      1171     1     7     2    11
 -3.2641752221476389E-01 a      1172     1     7     2    12
 -1.8384951135370470E-01 a      1173     1     7     2    13
 -1.0261460066450463E-01 a      1174     1     7     2    14
 -7.1463874231537650E-01 a      1175     1     7     2    15
 -3.3773507087513871E-01 a      1176     1     7     2    16
  4.4467752887567946E-01 a      1177     1     7     2    17
  5.8768796400474976E-01 a      1178     1     7     2    18
 -1.9510640963635748E-01 a      1179     1     7     2    19
  1.7090442529590502E-01 a      1180     1     7     2    20
  2.9803314074363374E-01 a      1181     1     8     2     1
 -1.8529724425617303E-01 a      1182     1     8     2     2
 -1.6637208643602358E-01 a      1183     1     8     2     3
  4.1224871654983716E-02 a      1184     1     8     2     4
 -6.1996544893753314E-01 a      1185     1     8     2     5
 -1.5442455071595544E-02 a      1186     1     8     2     6
  2.2775609365479693E-01 a      1187     1     8     2     7
 -3.5245262509937086E-01 a      1188     1     8     2     8
  2.1813127487011166E-01 a      1189     1     8     2     9
  4.6558789621050817E-01 a      1190     1     8     2    10
  5.1704910696014794E-02 a      1191     1     8     2    11
 -3.8475996742425453E-02 a      1192     1     8     2    12
  3.3767228623323192E-01 a      1193     1     8     2    13
 -1.2626458137211832E-01 a      1194     1     8     2    14
  6.8965722736192125E-01 a      1195     1     8     2    15
 -2.5895097078011248E-01 a      1196     1     8     2    16
 -7.5865372727088887E-01 a      1197     1     8     2    17
 -6.9182743217273801E-02 a      1198     1     8     2    18
  1.7265379843607123E-01 a      1199     1     8     2    19
 -5.3211095196973390E-01 a      1200     1     8     2    20
 -6.8866580702975699E-01 a      1201     1     9     2     1
  6.6126422973510398E-03 a      1202     1     9     2     2
 -6.7590483199788332E-01 a      1203     1     9     2     3
  2.7636931734534881E-01 a      1204     1     9     2     4
 -3.8189749024228248E-01 a      1205     1     9     2     5
 -5.7473211170037619E-01 a      1206     1     9     2     6
  7.6679964007133650E-01 a      1207     1     9     2     7
 -1.6991022863111857E-01 a      1208     1     9     2     8
 -2.3324571052036361E-01 a      1209     1     9     2     9
  2.1530988124134035E-01 a      1210     1     9     2    10
 -4.6040131498120845E-01 a      1211     1     9     2    11
  9.0626313964708743E-02 a      1212     1     9     2    12
  1.4734212592480903E-02 a      1213     1     9     2    13
 -5.1477281959210841E-01 a      1214     1     9     2    14
  3.4044546571853412E-01 a      1215     1     9     2    15
 -6.4316419893049159E-01 a      1216     1     9     2    16
  4.0789276436958309E-02 a      1217     1     9     2    17
 -2.4123282526800682E-01 a      1218     1     9     2    18
  2.7194477392433075E-01 a      1219     1     9     2    19
  1.0783833800188971E+00 a      1220     1     9     2    20
  3.4935712192107771E-01 a      1221     1    10     2     1
 -1.3064637574123200E-01 a      1222     1    10     2     2
  2.3027602987894347E-01 a      1223     1    10     2     3
 -2.2701599982471607E-01 a      1224     1    10     2     4
  2.9054511607825056E-01 a      1225     1    10     2     5
  7.3057980155635738E-01 a      1226     1    10     2     6
 -5.3488480412463180E-01 a      1227     1    10     2     7
 -2.0782756399709684E-01 a      1228     1    10     2     8
  7.2245198754148698E-01 a      1229     1    10     2     9
 -2.9913194590153336E-01 a      1230     1    10     2    10
  2.3652245437195812E-01 a      1231     1    10     2    11
 -4.0673074518866309E-01 a      1232     1    10     2    12
 -6.1678991548976170E-01 a      1233     1    10     2    13
  4.5182029076991309E-01 a      1234     1    10     2    14
 -1.8302860312182240E-01 a      1235     1    10     2    15
 -2.1815688742900610E-01 a      1236     1    10     2    16
 -6.6503513164696182E-01 a      1237     1    10     2    17
 -3.8369857233742805E-01 a      1238     1    10     2    18
  1.3857333955963289E-01 a      1239     1    10     2    19
 -7.5190569936800222E-01 a      1240     1    10     2    20
  5.9141111325761631E-01 a      1241     1    11     2     1
 -4.3775608623213796E-01 a      1242     1    11     2     2
 -2.3752981432474563E-01 a      1243     1    11     2     3
 -8.7837956181981336E-01 a      1244     1    11     2     4
 -5.1455759670072609E-01 a      1245     1    11     2     5
  4.0637671649009427E-01 a      1246     1    11     2     6
  3.1330682064203058E-01 a      1247     1    11     2     7
 -7.7733305971579369E-01 a      1248     1    11     2     8
  1.0409110254073584E+00 a      1249     1    11     2     9
 -4.3637447277685187E-01 a      1250     1    11     2    10
  5.6738437601185021E-01 a      1251     1    11     2    11
 -3.4712998333385048E-01 a      1252     1    11     2    12
  1.9357325985733273E-01 a      1253     1    11     2    13
  3.7361076290661877E-01 a      1254     1    11     2    14
 -2.3017534203233790E-02 a      1255     1    11     2    15
 -6.3322636681838473E-01 a      1256     1    11     2    16
  1.3841760292807617E-02 a      1257     1    11     2    17
 -2.7186984867671893E-01 a      1258     1    11     2    18
  2.5089084457629773E-01 a      1259     1    11     2    19
  3.7362875970191867E-01 a      1260     1    11     2    20
 -2.8743477564370795E-01 a      1261     1    12     2     1
 -4.9133902362710552E-01 a      1262     1    12     2     2
 -3.8893582918836306E-01 a      1263     1    12     2     3
  2.5775239994030273E-02 a      1264     1    12     2     4
  6.9479043177124042E-02 a      1265     1    12     2     5
  1.7244789560936566E-01 a      1266     1    12     2     6
  2.7589318677846009E-01 a      1267     1    12     2     7
  8.3435212081631782E-01 a      1268     1    12     2     8
 -2.8261469067422995E-01 a      1269     1    12     2     9
 -4.6422179685338616E-01 a      1270     1    12     2    10
  1.0346905427364378E-01 a      1271     1    12     2    11
  9.0549653366897742E-02 a      1272     1    12     2    12
 -2.7898277722608983E-01 a      1273     1    12     2    13
 -4.1414143442358953E-01 a      1274     1    12     2    14
 -4.9193442742530957E-01 a      1275     1    12     2    15
  5.2146795397135592E-01 a      1276     1    12     2    16
  4.3931351408234409E-01 a      1277     1    12     2    17
 -5.5651144662431506E-01 a      1278     1    12     2    18
  7.1972079746919537E-01 a      1279     1    12     2    19
  6.7270936010227045E-02 a      1280     1    12     2    20
  6.2545196356177601E-01 a      1281     1    13     2     1
 -2.5831727412549982E-01 a      1282     1    13     2     2
  2.5868671964955897E-01 a      1283     1    13     2     3
  6.7713815029093960E-02 a      1284     1    13     2     4
 -3.4147200764661401E-01 a      1285     1    13     2     5
  2.8390705581047493E-01 a      1286     1    13     2     6
 -3.6998986430567905E-02 a      1287     1    13     2     7
  5.6824615729224159E-01 a      1288     1    13     2     8
 -3.3014981577013214E-01 a      1289     1    13     2     9
 -4.0972553240716086E-01 a      1290     1    13     2    10
  5.0054071022190461E-01 a      1291     1    13     2    11
  2.5641158634983485E-01 a      1292     1    13     2    12
 -7.2733158310593390E-02 a      1293     1    13     2    13
  2.6601251168292628E-01 a      1294     1    13     2    14
  5.4612229346033014E-01 a      1295     1    13     2    15
 -3.6685132170714202E-01 a      1296     1    13     2    16
  3.5445035642842987E-01 a      1297     1    13     2    17
 -2.5158787581424558E-01 a      1298     1    13     2    18
 -3.2351598778372676E-01 a      1299     1    13     2    19
 -5.5743773104105077E-01 a      1300     1    13     2    20
 -2.4527096572612600E-01 a      1301     1    14     2     1
  2.1363702632074139E-01 a      1302     1    14     2     2
 -1.9833207771344791E-01 a      1303     1    14     2     3
  8.5440661506643800E-01 a      1304     1    14     2     4
 -9.5064099992132320E-02 a      1305     1    14     2     5
  7.8038497277072849E-02 a      1306     1    14     2     6
  4.1843612530937091E-01 a      1307     1    14     2     7
  1.5372157343909318E-01 a      1308     1    14     2     8
 -3.6675937794447894E-01 a      1309     1    14     2     9
 -4.5762960995364216E-01 a      1310     1    14     2    10
 -1.0007505536318147E-01 a      1311     1    14     2    11
 -4.9185754349043165E-01 a      1312     1    14     2    12
  5.6147456919940153E-01 a      1313     1    14     2    13
  1.3389912573492382E-01 a      1314     1    14     2    14
  2.6593314274112090E-01 a      1315     1    14     2    15
  1.8082967292175542E-01 a      1316     1    14     2    16
 -3.1819132075627959E-01 a      1317     1    14     2    17
  7.0843288216664246E-02 a      1318     1    14     2    18
 -7.0073931441632181E-02 a      1319     1    14     2    19
  3.2766149924164711E-02 a      1320     1    14     2    20
  4.2642255071548935E-01 a      1321     1    15     2     1
 -8.2856032262992618E-01 a      1322     1    15     2     2
 -4.0152248727747020E-01 a      1323     1    15     2     3
 -1.0723160432926224E-01 a      1324     1    15     2     4
 -4.5075661415205387E-01 a      1325     1    15     2     5
  4.8692064551641823E-01 a      1326     1    15     2     6
  6.4379299771692738E-02 a      1327     1    15     2     7
  6.2843257781252237E-01 a      1328     1    15     2     8
 -1.3693597767145320E+00 a      1329     1    15     2     9
  6.3074159245782724E-01 a      1330     1    15     2    10
 -1.0284807210339443E-01 a      1331     1    15     2    11
 -9.4866319698455229E-02 a      1332     1    15     2    12
  4.6558549150849761E-02 a      1333     1    15     2    13
  3.4782312646640753E-04 a      1334     1    15     2    14
 -7.5418709547857632E-01 a      1335     1    15     2    15
  1.0998079043770717E+00 a      1336     1    15     2    16
  5.6948256806913782E-02 a      1337     1    15     2    17
  8.3007430644409197E-01 a      1338     1    15     2    18
  3.1226841984013060E-01 a      1339     1    15     2    19
  1.5023672847950947E-01 a      1340     1    15     2    20
 -4.5159634192660497E-01 a      1341     1    16     2     1
  5.3321451038948842E-01 a      1342     1    16     2     2
  7.1042773012250315E-01 a      1343     1    16     2     3
 -3.0861131426944233E-01 a      1344     1    16     2     4
  4.8991129684204665E-01 a      1345     1    16     2     5
  2.0237825656421300E-02 a      1346     1    16     2     6
 -4.6275512441876987E-01 a      1347     1    16     2     7
 -2.9993404530293566E-01 a      1348     1    16     2     8
  1.2413267622026643E-01 a      1349     1    16     2     9
 -1.5285128905785553E-01 a      1350     1    16     2    10
 -3.2075762129776042E-01 a      1351     1    16     2    11
  1.3184357372665620E-01 a      1352     1    16     2    12
 -1.8406665344102699E-01 a      1353     1    16     2    13
 -1.0685505828163230E-01 a      1354     1    16     2    14
  3.6860479120064210E-01 a      1355     1    16     2    15
  6.6344725676256244E-01 a      1356     1    16     2    16
 -4.2244503153585095E-01 a      1357     1    16     2    17
  3.0069685116712519E-01 a      1358     1    16     2    18
  8.3611082610857534E-02 a      1359     1    16     2    19
 -8.2211423116633997E-01 a      1360     1    16     2    20
 -2.0374846314857090E-01 a      1361     1    17     2     1
  2.6706664186757201E-02 a      1362     1    17     2     2
 -3.7400253387869520E-01 a      1363     1    17     2     3
  3.0212266064516474E-01 a      1364     1    17     2     4
 -1.4726452944304042E-01 a      1365     1    17     2     5
  3.6315608886154599E-01 a      1366     1    17     2     6
  6.0195006008709862E-01 a      1367     1    17     2     7
 -1.9859228990724558E+00 a      1368     1    17     2     8
  3.0530887704911369E-01 a      1369     1    17     2     9
 -6.7400156317510918E-01 a      1370     1    17     2    10
  3.8246447210071166E-01 a      1371     1    17     2    11
 -5.6498655400516984E-01 a      1372     1    17     2    12
  3.7977633261111055E-01 a      1373     1    17     2    13
 -3.9609485353622531E-01 a      1374     1    17     2    14
  2.3937974922296182E-01 a      1375     1    17     2    15
  7.7407556705528555E-02 a      1376     1    17     2    16
 -8.2614149745278281E-02 a      1377     1    17     2    17
  2.2385302813261454E-01 a      1378     1    17     2    18
 -3.8731327597413975E-02 a      1379     1    17     2    19
  5.5369567864734126E-01 a      1380     1    17     2    20
  3.0415452750549049E-01 a      1381     1    18     2     1
  4.2973218067374591E-01 a      1382     1    18     2     2
 -2.1646792532308448E-01 a      1383     1    18     2     3
 -8.6258237315892772E-01 a      1384     1    18     2     4
 -3.1847828448771925E-01 a      1385     1    18     2     5
  4.4843053503117219E-01 a      1386     1    18     2     6
 -3.8181911660009249E-01 a      1387     1    18     2     7
 -7.8652232768142965E-03 a      1388     1    18     2     8
 -7.8246415871670208E-02 a      1389     1    18     2     9
  3.6412048015494564E-01 a      1390     1    18     2    10
 -1.6399567697133072E-01 a      1391     1    18     2    11
  6.3324342863671723E-01 a      1392     1    18     2    12
  4.5528833133196300E-01 a      1393     1    18     2    13
  3.5492521427758605E-01 a      1394     1    18     2    14
 -6.5446398128138716E-01 a      1395     1    18     2    15
  4.7884471581741717E-01 a      1396     1    18     2    16
 -3.7568952683473644E-01 a      1397     1    18     2    17
 -1.5693300523809423E-01 a      1398     1    18     2    18
  3.1380770813537417E-01 a      1399     1    18     2    19
  3.9233843167948140E-01 a      1400     1    18     2    20
 -6.4080823963108424E-01 a      1401     1    19     2     1
 -3.4139138417818049E-01 a      1402     1    19     2     2
 -3.4315799395045549E-01 a      1403     1    19     2     3
 -6.8110851336991940E-01 a      1404     1    19     2     4
  1.2497440050672633E-01 a      1405     1    19     2     5
  6.9654448872588015E-01 a      1406     1    19     2     6
  3.0896827177144626E-01 a      1407     1    19     2     7
 -7.1070060374004485E-02 a      1408     1    19     2     8
  2.6854085307557396E-01 a      1409     1    19     2     9
  6.7909098042394325E-02 a      1410     1    19     2    10
  3.0957433282731445E-01 a      1411     1    19     2    11
  3.6454592095379229E-01 a      1412     1    19     2    12
 -4.8017249024602676E-01 a      1413     1    19     2    13
 -1.0511749517211277E-01 a      1414     1    19     2    14
  5.7743413452138286E-02 a      1415     1    19     2    15
 -7.8373587602054162E-01 a      1416     1    19     2    16
  5.8444706974318994E-01 a      1417     1    19     2    17
 -3.2318136719809365E-01 a      1418     1    19     2    18
  3.8682241545837776E-01 a      1419     1    19     2    19
  2.1061914619888275E-01 a      1420     1    19     2    20
  4.4404427956799941E-01 a      1421     1    20     2     1
  5.1421887730305382E-01 a      1422     1    20     2     2
  4.1308598653258984E-02 a      1423     1    20     2     3
 -5.0283780585520244E-01 a      1424     1    20     2     4
 -4.5370091779212401E-01 a      1425     1    20     2     5
  6.5024044722245405E-02 a      1426     1    20     2     6
 -4.4402569220283528E-01 a      1427     1    20     2     7
 -6.5362051508572239E-01 a      1428     1    20     2     8
  3.2325388447864606E-01 a      1429     1    20     2     9
 -7.0926694823008551E-01 a      1430     1    20     2    10
 -5.3689123163830954E-01 a      1431     1    20     2    11
 -3.7518135117791290E-01 a      1432     1    20     2    12
  7.6171138159305873E-01 a      1433     1    20     2    13
 -4.7897129726677784E-02 a      1434     1    20     2    14
  1.6245921080474371E-01 a      1435     1    20     2    15
 -4.9689635008442895E-01 a      1436     1    20     2    16
  2.4989606297654643E-01 a      1437     1    20     2    17
  5.8307838505952925E-01 a      1438     1    20     2    18
  4.5049478405303117E-01 a      1439     1    20     2    19
  5.5433614995000635E-01 a      1440     1    20     2    20
  4.8038469230961506E-01 b      1441     2     1
 -1.8121138992774080E+00 b      1442     2     2
 -1.8125411735344815E-01 b      1443     2     3
 -1.5534895044331525E+00 b      1444     2     4
  8.8970538018759837E-01 b      1445     2     5
  9.0363854647885133E-01 b      1446     2     6
  3.1650558497382186E-01 b      1447     2     7
  3.7089163454216173E-01 b      1448     2     8
  1.1770586906811014E+00 b      1449     2     9
  1.2215682769837275E+00 b      1450     2    10
  1.6228314023122081E+00 b      1451     2    11
 -4.3306634505357394E-01 b      1452     2    12
  5.3117810356625783E-01 b      1453     2    13
 -1.2904002049830143E+00 b      1454     2    14
 -3.0706352643622614E-01 b      1455     2    15
  7.4856631464199552E-01 b      1456     2    16
  6.4238187785856926E-01 b      1457     2    17
 -1.2744158463173529E+00 b      1458     2    18
 -1.2177009093598163E+00 b      1459     2    19
  9.8746779810710394E-01 b      1460     2    20
  1.6420401035197920E+00 a      1461     2     1     3     1
 -1.5328864519128573E+00 a      1462     2     2     3     1
 -1.0690176825007192E+00 a      1463     2     3     3     1
 -1.7974413361481567E+00 a      1464     2     4     3     1
  1.0351070962714917E+00 a      1465     2     5     3     1
  1.9804585907435230E+00 a      1466     2     6     3     1
  1.0387243947436962E+00 a      1467     2     7     3     1
  6.6634959434574281E-01 a      1468     2     8     3     1
  1.5278301578368567E-01 a      1469     2     9     3     1
  4.0314396398943136E-01 a      1470     2    10     3     1
  2.6284109943681973E+00 a      1471     2    11     3     1
 -7.0349070742003839E-01 a      1472     2    12     3     1
  5.3504165858912300E-01 a      1473     2    13     3     1
 -2.2233572011960145E+00 a      1474     2    14     3     1
 -2.3601081490010527E+00 a      1475     2    15     3     1
 -3.6120878900465242E-01 a      1476     2    16     3     1
  1.8064634162398872E+00 a      1477     2    17     3     1
 -1.6260655546152309E+00 a      1478     2    18     3     1
 -7.3085593519053282E-01 a      1479     2    19     3     1
  1.3848598024701275E+00 a      1480     2    20     3     1
  1.7268044493437149E+00 b      1481     3     1
