################################################################################
# Neural network connection values (weights and biases).
################################################################################
# Col  Name       Description
################################################################################
# 1    connection Neural network connection value.
# 2    t          Connection type (a = weight, b = bias).
# 3    index      Index enumerating weights.
# 4    l_s        Starting point layer (end point layer for biases).
# 5    n_s        Starting point neuron in starting layer (end point neuron for biases).
# 6    l_e        End point layer.
# 7    n_e        End point neuron in end layer.
################################################################################
#                      1 2         3     4     5     6     7
#             connection t     index   l_s   n_s   l_e   n_e
############################################################
 -7.1281275575585878E-01 a         1     0     1     1     1
  1.5241173343637657E-01 a         2     0     1     1     2
  3.2441176424305623E-01 a         3     0     1     1     3
  7.3500791950436989E-02 a         4     0     1     1     4
  3.1173113317018170E-01 a         5     0     1     1     5
  3.0972672165494852E-01 a         6     0     1     1     6
  1.7127938078903646E-01 a         7     0     1     1     7
  8.6954569676485696E-02 a         8     0     1     1     8
  1.3645765151860506E-01 a         9     0     1     1     9
  4.7002044975469476E-02 a        10     0     1     1    10
 -8.2344551996712312E-01 a        11     0     1     1    11
 -9.8855210440260313E-02 a        12     0     1     1    12
 -1.6371141352123106E-01 a        13     0     1     1    13
 -3.6504239738300731E-01 a        14     0     1     1    14
 -1.4366710448345213E-01 a        15     0     1     1    15
 -7.5078282571881927E-02 a        16     0     1     1    16
  5.3686539985486015E-01 a        17     0     1     1    17
  4.6009666602950838E-01 a        18     0     1     1    18
  7.2098482581750967E-01 a        19     0     1     1    19
 -1.0017733834071677E-02 a        20     0     1     1    20
 -2.3813418692939278E-01 a        21     0     2     1     1
  1.3934465224735293E-01 a        22     0     2     1     2
  1.4110051024472728E-01 a        23     0     2     1     3
 -3.4323007678050205E-01 a        24     0     2     1     4
  7.3703983307353851E-02 a        25     0     2     1     5
  1.8388865028233983E-01 a        26     0     2     1     6
  7.7932225262273933E-02 a        27     0     2     1     7
 -1.1972282580976731E-02 a        28     0     2     1     8
 -2.9134732971545058E-01 a        29     0     2     1     9
 -6.6879004139546394E-02 a        30     0     2     1    10
 -5.9264678306368457E-01 a        31     0     2     1    11
 -5.1937484777769471E-01 a        32     0     2     1    12
  2.6606798438594004E-01 a        33     0     2     1    13
  2.0636049314434807E-01 a        34     0     2     1    14
 -3.4929557043452503E-01 a        35     0     2     1    15
  2.4029041685336552E-01 a        36     0     2     1    16
  2.1796871080379965E-01 a        37     0     2     1    17
 -1.1175384112049468E-01 a        38     0     2     1    18
  2.1996478024580005E-01 a        39     0     2     1    19
 -4.0417813548083714E-02 a        40     0     2     1    20
 -7.1631652262428486E-02 a        41     0     3     1     1
  1.4518269989621088E-01 a        42     0     3     1     2
 -4.2712950785511711E-01 a        43     0     3     1     3
 -2.0239901140313674E-01 a        44     0     3     1     4
 -1.4816670567198581E-01 a        45     0     3     1     5
  3.0387285085615989E-01 a        46     0     3     1     6
  3.2186803669073344E-01 a        47     0     3     1     7
  6.9493066157559513E-02 a        48     0     3     1     8
  2.6039256300360714E-01 a        49     0     3     1     9
 -4.7368347618139456E-01 a        50     0     3     1    10
  7.1210171183933843E-02 a        51     0     3     1    11
 -2.8960423661408918E-01 a        52     0     3     1    12
 -3.7274976914295244E-01 a        53     0     3     1    13
 -1.4911150391166495E-02 a        54     0     3     1    14
 -4.3125692658341028E-02 a        55     0     3     1    15
 -7.3294522431526260E-02 a        56     0     3     1    16
  3.8887493964073128E-01 a        57     0     3     1    17
 -3.5809796873008398E-01 a        58     0     3     1    18
  3.2359650002567308E-01 a        59     0     3     1    19
 -3.5221927838250868E-03 a        60     0     3     1    20
  4.2020707287936515E-01 a        61     0     4     1     1
  1.5459309249096842E-01 a        62     0     4     1     2
 -5.3422110293574160E-02 a        63     0     4     1     3
  3.1144305502352837E-01 a        64     0     4     1     4
 -2.9425757918416945E-01 a        65     0     4     1     5
 -9.4543108360444217E-02 a        66     0     4     1     6
 -3.1594260041689232E-01 a        67     0     4     1     7
 -6.2642243880813478E-02 a        68     0     4     1     8
 -3.2904873577036997E-01 a        69     0     4     1     9
  2.8960772471316426E-01 a        70     0     4     1    10
  2.5354239976249499E-01 a        71     0     4     1    11
  3.3717278000992618E-01 a        72     0     4     1    12
 -7.1602606521650777E-02 a        73     0     4     1    13
 -1.5903630663425861E-01 a        74     0     4     1    14
  4.0449699432350816E-01 a        75     0     4     1    15
  4.1042469523201114E-01 a        76     0     4     1    16
  1.6790961672497828E-01 a        77     0     4     1    17
 -1.4926590568569320E-02 a        78     0     4     1    18
 -5.0070146959044881E-01 a        79     0     4     1    19
 -3.0163418094972072E-01 a        80     0     4     1    20
  3.8592128113301999E-01 a        81     0     5     1     1
 -1.3087353919617198E-01 a        82     0     5     1     2
  5.7541685298887750E-02 a        83     0     5     1     3
  1.6916346001179739E-02 a        84     0     5     1     4
 -6.9047719385091444E-01 a        85     0     5     1     5
 -6.3200843087000330E-02 a        86     0     5     1     6
  2.8555079668107564E-01 a        87     0     5     1     7
 -3.5181554398678949E-01 a        88     0     5     1     8
 -8.7433545650576011E-02 a        89     0     5     1     9
  5.5543608502380759E-01 a        90     0     5     1    10
  8.2211555217079446E-01 a        91     0     5     1    11
  2.0583004079855566E-01 a        92     0     5     1    12
  1.0250948837595475E-02 a        93     0     5     1    13
 -9.5640905369697354E-02 a        94     0     5     1    14
  4.4402841391360276E-01 a        95     0     5     1    15
 -8.9764685453773196E-02 a        96     0     5     1    16
 -4.2857581080576740E-01 a        97     0     5     1    17
  1.3586761058348779E-01 a        98     0     5     1    18
 -2.9327358467600495E-01 a        99     0     5     1    19
  1.5547091912823008E-01 a       100     0     5     1    20
  1.2639971591368591E+00 a       101     0     6     1     1
 -5.6500813597401212E-01 a       102     0     6     1     2
 -3.3776589702794818E-01 a       103     0     6     1     3
  4.9810368960169771E-01 a       104     0     6     1     4
 -7.7767843402596704E-01 a       105     0     6     1     5
  2.9315339724523992E-01 a       106     0     6     1     6
 -2.8752468578700235E-01 a       107     0     6     1     7
 -5.7773218639417967E-01 a       108     0     6     1     8
 -5.3444143604186301E-01 a       109     0     6     1     9
  3.0720477023043796E-01 a       110     0     6     1    10
  1.3256062849816468E+00 a       111     0     6     1    11
  1.6662728024951393E-01 a       112     0     6     1    12
  3.2855049803050657E-01 a       113     0     6     1    13
  1.2163015330211983E-01 a       114     0     6     1    14
  1.8925861195020374E-01 a       115     0     6     1    15
 -7.4404660785668485E-04 a       116     0     6     1    16
  1.2541981120920734E-01 a       117     0     6     1    17
  1.5978662037087688E-01 a       118     0     6     1    18
 -3.4100359826131627E-01 a       119     0     6     1    19
  3.7838982167833862E-01 a       120     0     6     1    20
 -9.0654304280513653E-01 a       121     0     7     1     1
 -3.1961422892122608E-02 a       122     0     7     1     2
  5.6898118837269129E-01 a       123     0     7     1     3
  2.7699020498170202E-01 a       124     0     7     1     4
  6.2647707666519625E-01 a       125     0     7     1     5
 -3.4588516613930514E-01 a       126     0     7     1     6
  2.0524399665207110E-02 a       127     0     7     1     7
  1.2917271002461410E+00 a       128     0     7     1     8
  3.4890377504542497E-01 a       129     0     7     1     9
 -2.0036132612255717E-01 a       130     0     7     1    10
 -1.2635034996046952E+00 a       131     0     7     1    11
 -8.7513737972014183E-01 a       132     0     7     1    12
 -1.3827178689257363E-01 a       133     0     7     1    13
  1.2532857046950072E-03 a       134     0     7     1    14
  5.0626333786772858E-02 a       135     0     7     1    15
  9.2819951000140642E-03 a       136     0     7     1    16
 -3.5746538901177222E-01 a       137     0     7     1    17
 -5.5054139728797802E-01 a       138     0     7     1    18
  4.8745211848500869E-01 a       139     0     7     1    19
 -9.5739099319885973E-02 a       140     0     7     1    20
  2.4379655293935681E-01 a       141     0     8     1     1
  1.6404063911977707E-01 a       142     0     8     1     2
 -1.0452586507683492E-01 a       143     0     8     1     3
 -9.5940541438720453E-02 a       144     0     8     1     4
 -2.9963919256203914E-01 a       145     0     8     1     5
  1.6952594077168850E-01 a       146     0     8     1     6
  1.8215422770926698E-01 a       147     0     8     1     7
 -3.0934943939383253E-01 a       148     0     8     1     8
 -1.6714583008754374E-02 a       149     0     8     1     9
 -7.4525681455614251E-02 a       150     0     8     1    10
  2.3880842200916644E-01 a       151     0     8     1    11
  5.3261748126252428E-01 a       152     0     8     1    12
  2.2585369758004370E-01 a       153     0     8     1    13
 -9.6090991578986637E-02 a       154     0     8     1    14
 -1.1091878344830577E-01 a       155     0     8     1    15
 -1.6148394580449901E-01 a       156     0     8     1    16
  5.2437683968050319E-01 a       157     0     8     1    17
  9.7001277037474687E-02 a       158     0     8     1    18
 -1.5905716709759213E-01 a       159     0     8     1    19
 -1.3377624672564459E-01 a       160     0     8     1    20
  1.4034526120417932E+00 a       161     0     9     1     1
 -5.1738689601241816E-01 a       162     0     9     1     2
 -2.8927548338380621E-01 a       163     0     9     1     3
 -2.4410724572499087E-01 a       164     0     9     1     4
  2.1347307717296632E-01 a       165     0     9     1     5
  2.9338629927587978E-01 a       166     0     9     1     6
 -3.4247031487024537E-01 a       167     0     9     1     7
  4.2389742605972380E-01 a       168     0     9     1     8
 -1.6972627079116194E+00 a       169     0     9     1     9
 -3.4566298383627447E-01 a       170     0     9     1    10
  1.0025316544826086E+00 a       171     0     9     1    11
 -4.0364880850597207E-01 a       172     0     9     1    12
  8.4134700806845236E-02 a       173     0     9     1    13
  1.4305194947653857E-01 a       174     0     9     1    14
  5.9176566440357392E-01 a       175     0     9     1    15
 -4.1466182088904768E-01 a       176     0     9     1    16
  1.3598838402208555E+00 a       177     0     9     1    17
  5.9737639974407331E-01 a       178     0     9     1    18
 -2.1895535855286635E-01 a       179     0     9     1    19
  3.0539564854632323E-01 a       180     0     9     1    20
 -1.1514306309733877E+00 a       181     0    10     1     1
 -2.6334046015565876E-01 a       182     0    10     1     2
  1.3300154924216903E-01 a       183     0    10     1     3
  1.9363210705129741E-01 a       184     0    10     1     4
 -2.6431684639087583E-01 a       185     0    10     1     5
 -2.2931773606156050E-01 a       186     0    10     1     6
  2.3732298035687081E-02 a       187     0    10     1     7
 -5.6082531572484573E-01 a       188     0    10     1     8
  2.5211508791332093E+00 a       189     0    10     1     9
  1.0064182274083586E-01 a       190     0    10     1    10
 -5.0839268711049879E-01 a       191     0    10     1    11
  3.4557857624251792E-01 a       192     0    10     1    12
  4.6184614992396528E-01 a       193     0    10     1    13
 -4.3923028019980054E-01 a       194     0    10     1    14
  1.1665008741868302E-01 a       195     0    10     1    15
  7.1731216848059887E-01 a       196     0    10     1    16
 -1.7118950455400073E+00 a       197     0    10     1    17
  4.5323208210851956E-01 a       198     0    10     1    18
  7.6218575826631729E-01 a       199     0    10     1    19
 -5.1521046609489818E-01 a       200     0    10     1    20
 -5.3216298633595949E-01 a       201     0    11     1     1
  1.0965231161534642E-01 a       202     0    11     1     2
 -1.2025104042400726E-01 a       203     0    11     1     3
  4.1242085499565234E-01 a       204     0    11     1     4
 -7.7622893147081470E-02 a       205     0    11     1     5
 -4.9198073440542839E-01 a       206     0    11     1     6
 -9.3120255928063433E-01 a       207     0    11     1     7
  3.3984194029750830E-01 a       208     0    11     1     8
 -6.8978669928223080E-01 a       209     0    11     1     9
  1.0317691221171552E-01 a       210     0    11     1    10
 -7.0652832064450499E-01 a       211     0    11     1    11
 -4.7247339692158767E-02 a       212     0    11     1    12
 -6.8977964237342104E-01 a       213     0    11     1    13
  2.3998065668834329E-01 a       214     0    11     1    14
 -8.2954756686376518E-01 a       215     0    11     1    15
 -3.5589647170784861E-02 a       216     0    11     1    16
  3.2650876045951049E-01 a       217     0    11     1    17
 -6.7828062907274289E-01 a       218     0    11     1    18
 -2.3398710026871414E-01 a       219     0    11     1    19
 -2.2533883851238179E-01 a       220     0    11     1    20
  4.2801522382686524E-01 a       221     0    12     1     1
  4.3193460058897276E-01 a       222     0    12     1     2
 -5.4378167883638673E-01 a       223     0    12     1     3
 -4.9425400172476547E-01 a       224     0    12     1     4
  2.3427582602598487E-01 a       225     0    12     1     5
  3.9017473116748486E-01 a       226     0    12     1     6
  7.9205369498147560E-01 a       227     0    12     1     7
  7.4515214670885857E-02 a       228     0    12     1     8
 -3.2147218781008741E-01 a       229     0    12     1     9
  1.2699908313571109E-01 a       230     0    12     1    10
  2.7832002202895317E-01 a       231     0    12     1    11
 -3.2915420532886214E-01 a       232     0    12     1    12
  8.3519540246910218E-01 a       233     0    12     1    13
 -2.2684004313889944E-01 a       234     0    12     1    14
 -6.4951935825769219E-02 a       235     0    12     1    15
 -2.5355944563099114E-01 a       236     0    12     1    16
  1.3590759112013084E-01 a       237     0    12     1    17
 -4.2453392608586299E-01 a       238     0    12     1    18
 -2.4726141952686168E-01 a       239     0    12     1    19
  5.7213860361067670E-01 a       240     0    12     1    20
 -7.2583334363267615E-01 a       241     0    13     1     1
 -4.8303763161781943E-01 a       242     0    13     1     2
 -1.6066497681761376E-02 a       243     0    13     1     3
 -2.3739695678669243E-01 a       244     0    13     1     4
  7.7848423567376326E-02 a       245     0    13     1     5
 -7.0892950206031635E-01 a       246     0    13     1     6
 -2.9626520365353992E-01 a       247     0    13     1     7
 -3.8159237261622192E-01 a       248     0    13     1     8
 -4.2429651983582667E-01 a       249     0    13     1     9
  4.6808205993786411E-01 a       250     0    13     1    10
  3.3795414428323073E-01 a       251     0    13     1    11
 -4.0178527670716035E-01 a       252     0    13     1    12
 -1.9545159859257136E-01 a       253     0    13     1    13
  3.9493840108401063E-01 a       254     0    13     1    14
 -3.4075289608506629E-02 a       255     0    13     1    15
  2.2028894778221347E-01 a       256     0    13     1    16
  3.6129820073672624E-02 a       257     0    13     1    17
 -6.7092408530235992E-01 a       258     0    13     1    18
 -1.0674366572814466E-01 a       259     0    13     1    19
 -6.3670658036914884E-01 a       260     0    13     1    20
  1.5519061298780201E-01 a       261     0    14     1     1
  3.6516886543858013E-01 a       262     0    14     1     2
  1.6721974837169951E-01 a       263     0    14     1     3
  1.0782100592944202E-01 a       264     0    14     1     4
  4.9072820659230637E-01 a       265     0    14     1     5
 -1.2699518642012300E-01 a       266     0    14     1     6
 -6.4622256994886093E-02 a       267     0    14     1     7
  1.6741846411296546E-01 a       268     0    14     1     8
 -7.3821469814625307E-01 a       269     0    14     1     9
  1.0396055833252379E-01 a       270     0    14     1    10
 -3.7086394995207544E-01 a       271     0    14     1    11
 -1.5958590961713798E-01 a       272     0    14     1    12
 -3.6552641522009338E-01 a       273     0    14     1    13
  5.2062851541606414E-01 a       274     0    14     1    14
  1.4123703624914642E-03 a       275     0    14     1    15
  1.8730611576967562E-01 a       276     0    14     1    16
  4.2281769689802667E-01 a       277     0    14     1    17
  4.1939728553095190E-01 a       278     0    14     1    18
  1.2306919900362168E-01 a       279     0    14     1    19
  2.9417048964711467E-01 a       280     0    14     1    20
  1.2377065775452833E-01 a       281     0    15     1     1
  2.2955910188801154E-01 a       282     0    15     1     2
 -6.3838456144431666E-01 a       283     0    15     1     3
  4.1639809946421824E-01 a       284     0    15     1     4
  2.2615157317456425E-01 a       285     0    15     1     5
  8.2682097676679805E-02 a       286     0    15     1     6
 -1.7005488627322257E-01 a       287     0    15     1     7
 -1.3931363048712325E-01 a       288     0    15     1     8
  9.9885448438926258E-02 a       289     0    15     1     9
 -1.5870677943142933E-01 a       290     0    15     1    10
 -5.2459231923081229E-01 a       291     0    15     1    11
 -2.6900413373802848E-02 a       292     0    15     1    12
  1.5906096195695732E-01 a       293     0    15     1    13
 -4.7607357980605425E-01 a       294     0    15     1    14
 -9.7532529550356392E-02 a       295     0    15     1    15
 -2.0256504262157402E-01 a       296     0    15     1    16
  4.0062198650488330E-02 a       297     0    15     1    17
 -3.5048106323230876E-01 a       298     0    15     1    18
 -4.8565252395155141E-02 a       299     0    15     1    19
 -3.4366213712492255E-01 a       300     0    15     1    20
  6.8985339052287975E-01 a       301     0    16     1     1
 -6.8911518582672737E-01 a       302     0    16     1     2
 -2.1716865609587180E-01 a       303     0    16     1     3
  1.0621470731088958E-01 a       304     0    16     1     4
 -3.1777034119536376E-02 a       305     0    16     1     5
  6.8043247398365503E-01 a       306     0    16     1     6
  2.2777891447070243E-03 a       307     0    16     1     7
 -2.9636983243464771E-01 a       308     0    16     1     8
 -9.0911945180196496E-01 a       309     0    16     1     9
  6.6729615319445226E-02 a       310     0    16     1    10
  4.4339014308015773E-01 a       311     0    16     1    11
 -2.8244027582293756E-02 a       312     0    16     1    12
  6.8617825656114995E-01 a       313     0    16     1    13
 -6.1901117550792317E-01 a       314     0    16     1    14
  5.9654507394638567E-01 a       315     0    16     1    15
  3.2285525311246627E-01 a       316     0    16     1    16
 -4.0779505307022484E-01 a       317     0    16     1    17
  3.6435767061734142E-01 a       318     0    16     1    18
 -4.4873867132846301E-02 a       319     0    16     1    19
 -2.0748203744762578E-01 a       320     0    16     1    20
  8.6689890643829402E-03 a       321     0    17     1     1
 -3.6300469999897217E-01 a       322     0    17     1     2
 -1.8570440930225260E-01 a       323     0    17     1     3
 -1.0661080265217231E-01 a       324     0    17     1     4
 -1.4273421768026661E-02 a       325     0    17     1     5
 -3.8621536755324759E-01 a       326     0    17     1     6
 -5.6077146944112177E-01 a       327     0    17     1     7
  3.2808650270165535E-01 a       328     0    17     1     8
  5.2192928190551724E-01 a       329     0    17     1     9
  1.1296703936916833E-01 a       330     0    17     1    10
 -5.3502893281223562E-01 a       331     0    17     1    11
  2.0359094048383763E-01 a       332     0    17     1    12
 -3.2896739364811034E-01 a       333     0    17     1    13
  3.7585727890442799E-01 a       334     0    17     1    14
 -1.7889528381748965E-01 a       335     0    17     1    15
  8.6314502047879299E-02 a       336     0    17     1    16
  2.8628941512348827E-01 a       337     0    17     1    17
  1.0596751161717452E-01 a       338     0    17     1    18
  1.7995662288940251E-01 a       339     0    17     1    19
  1.4450005625700285E-01 a       340     0    17     1    20
  4.8658036814355654E-01 a       341     0    18     1     1
 -1.7012308318576641E-01 a       342     0    18     1     2
 -4.0453149826916773E-01 a       343     0    18     1     3
 -3.2958569106567465E-01 a       344     0    18     1     4
 -2.1177667130363514E-01 a       345     0    18     1     5
 -2.9223582684113147E-01 a       346     0    18     1     6
  2.9055490030570696E-01 a       347     0    18     1     7
 -3.0117945313319650E-01 a       348     0    18     1     8
 -3.6777171183468294E-01 a       349     0    18     1     9
  3.7993658498278260E-01 a       350     0    18     1    10
  8.2890293114302660E-01 a       351     0    18     1    11
 -3.8498711727193535E-01 a       352     0    18     1    12
  3.2133393395993071E-01 a       353     0    18     1    13
 -2.4009130866414999E-01 a       354     0    18     1    14
 -4.6167776230067410E-02 a       355     0    18     1    15
 -9.2374094922037572E-03 a       356     0    18     1    16
  2.2799257824528998E-01 a       357     0    18     1    17
  1.6420862324400032E-01 a       358     0    18     1    18
 -6.1849940759570299E-01 a       359     0    18     1    19
  2.5037748208621319E-01 a       360     0    18     1    20
  8.8169295175978868E-01 a       361     0    19     1     1
  1.6859107445780347E-01 a       362     0    19     1     2
  9.2752543262413623E-01 a       363     0    19     1     3
  2.7470669483126814E-01 a       364     0    19     1     4
 -7.8385924087902192E-01 a       365     0    19     1     5
 -2.5881539867666242E-01 a       366     0    19     1     6
 -1.5329803300880018E-01 a       367     0    19     1     7
  5.9066822713433130E-02 a       368     0    19     1     8
 -1.7268200901159825E-01 a       369     0    19     1     9
 -2.9902038939123649E-01 a       370     0    19     1    10
  3.4138651057207431E-01 a       371     0    19     1    11
  7.9754538236730219E-02 a       372     0    19     1    12
 -2.2414036827597264E-01 a       373     0    19     1    13
  7.0863812777817781E-01 a       374     0    19     1    14
  1.9173300023344927E-01 a       375     0    19     1    15
 -4.5151045293804126E-01 a       376     0    19     1    16
 -4.9002124276506165E-01 a       377     0    19     1    17
  1.4949107369345573E-02 a       378     0    19     1    18
  1.0508965528547848E-02 a       379     0    19     1    19
 -3.5980296647816296E-01 a       380     0    19     1    20
 -2.1270610500594772E-01 a       381     0    20     1     1
 -1.5255757181760307E-01 a       382     0    20     1     2
  1.5293510358909773E-01 a       383     0    20     1     3
 -2.7290354185585737E-02 a       384     0    20     1     4
  6.3399995668042952E-01 a       385     0    20     1     5
 -6.7589788690027519E-02 a       386     0    20     1     6
 -8.1616084061715555E-03 a       387     0    20     1     7
  1.0772179552220905E-01 a       388     0    20     1     8
 -1.9588587422343690E-01 a       389     0    20     1     9
  2.4811333401308230E-01 a       390     0    20     1    10
 -4.8547159372057702E-01 a       391     0    20     1    11
 -3.7021915242424586E-01 a       392     0    20     1    12
  2.6109851841920835E-02 a       393     0    20     1    13
 -5.5076899781079859E-02 a       394     0    20     1    14
  8.4100199383765922E-02 a       395     0    20     1    15
  3.1450934749468934E-01 a       396     0    20     1    16
 -1.7123989742101966E-02 a       397     0    20     1    17
 -9.7626557370219705E-02 a       398     0    20     1    18
 -3.3701028373107372E-01 a       399     0    20     1    19
  4.2895168339269535E-01 a       400     0    20     1    20
  5.2719113327858369E-01 a       401     0    21     1     1
 -1.1351780683858073E-01 a       402     0    21     1     2
 -4.0034630732959625E-02 a       403     0    21     1     3
 -2.1585223868254927E-01 a       404     0    21     1     4
  2.8432382216212415E-01 a       405     0    21     1     5
 -3.1237252901415047E-01 a       406     0    21     1     6
  1.3191959817816126E-01 a       407     0    21     1     7
 -3.5937765084153611E-01 a       408     0    21     1     8
  8.4915465677775220E-02 a       409     0    21     1     9
  1.3537524433973866E-01 a       410     0    21     1    10
 -3.3155354791583969E-01 a       411     0    21     1    11
  7.8965752902371145E-01 a       412     0    21     1    12
 -2.3682183364190296E-01 a       413     0    21     1    13
  2.6647012417341376E-01 a       414     0    21     1    14
 -2.6168407535248084E-01 a       415     0    21     1    15
 -8.1098017796699298E-02 a       416     0    21     1    16
 -1.9390388587732041E-01 a       417     0    21     1    17
 -1.8396769353819167E-01 a       418     0    21     1    18
 -5.3587260743483500E-01 a       419     0    21     1    19
 -7.0778855981591526E-01 a       420     0    21     1    20
 -8.2960150464179805E-01 a       421     0    22     1     1
 -2.4823244197943578E-01 a       422     0    22     1     2
 -3.3085730671984902E-03 a       423     0    22     1     3
 -4.5708732756419335E-01 a       424     0    22     1     4
 -7.4505415349709517E-02 a       425     0    22     1     5
  2.8364292481297582E-01 a       426     0    22     1     6
 -4.3704579074675881E-01 a       427     0    22     1     7
 -1.0034560170573266E-01 a       428     0    22     1     8
 -1.6491689113372340E-01 a       429     0    22     1     9
 -1.8813888681876792E-01 a       430     0    22     1    10
 -2.4882854048595260E-01 a       431     0    22     1    11
 -2.7446555747568413E-01 a       432     0    22     1    12
 -4.3303994210969660E-01 a       433     0    22     1    13
 -1.6485426378046381E-01 a       434     0    22     1    14
  1.6834254712282470E-01 a       435     0    22     1    15
  4.0834893040974860E-02 a       436     0    22     1    16
 -1.0238121346632931E+00 a       437     0    22     1    17
  2.5611909722252307E-01 a       438     0    22     1    18
  5.5585056276750788E-01 a       439     0    22     1    19
  6.6931974618447465E-02 a       440     0    22     1    20
  6.3142816116222034E-01 a       441     0    23     1     1
 -1.5081010868221972E-01 a       442     0    23     1     2
 -2.8857566054601319E-01 a       443     0    23     1     3
 -1.1649808487189098E-01 a       444     0    23     1     4
 -2.2154475223824929E-01 a       445     0    23     1     5
  5.5525460180743180E-01 a       446     0    23     1     6
  1.1985083576046897E-01 a       447     0    23     1     7
 -2.7010549168541099E-02 a       448     0    23     1     8
  2.9578120538103164E-01 a       449     0    23     1     9
  1.5419892734156146E-01 a       450     0    23     1    10
  6.7930112560611444E-01 a       451     0    23     1    11
  3.3445568266360054E-02 a       452     0    23     1    12
  3.0810937590361787E-01 a       453     0    23     1    13
 -1.8631240835452662E-02 a       454     0    23     1    14
 -3.8034373156705642E-01 a       455     0    23     1    15
 -1.2641355852711730E-01 a       456     0    23     1    16
 -2.5796627861016319E-01 a       457     0    23     1    17
  6.8873239027460162E-02 a       458     0    23     1    18
 -8.4214683010964284E-02 a       459     0    23     1    19
 -1.0489805623872397E-01 a       460     0    23     1    20
  2.3310738079093879E-01 a       461     0    24     1     1
 -3.7023534405609411E-02 a       462     0    24     1     2
  7.6953866155138037E-02 a       463     0    24     1     3
  2.3399034004762981E-01 a       464     0    24     1     4
  2.4488354388461150E-01 a       465     0    24     1     5
 -1.9997882689134652E-01 a       466     0    24     1     6
  4.8187907220415258E-02 a       467     0    24     1     7
  5.3927820243728519E-01 a       468     0    24     1     8
 -3.0088699459572821E-01 a       469     0    24     1     9
 -2.2064038724621884E-01 a       470     0    24     1    10
  5.1967676173153887E-01 a       471     0    24     1    11
 -2.3394467702523902E-01 a       472     0    24     1    12
 -3.1538365415352092E-02 a       473     0    24     1    13
 -1.4916630869157951E-01 a       474     0    24     1    14
  8.2619013961171195E-01 a       475     0    24     1    15
  1.1810658480707288E-01 a       476     0    24     1    16
  3.3641604175896844E-01 a       477     0    24     1    17
  1.3833418767485994E-01 a       478     0    24     1    18
 -9.2196303582504346E-01 a       479     0    24     1    19
 -5.0117155760406851E-01 a       480     0    24     1    20
  1.0893589207642782E+00 a       481     0    25     1     1
  4.1180202252766196E-01 a       482     0    25     1     2
  4.3925068306287257E-02 a       483     0    25     1     3
  3.7327437454589768E-01 a       484     0    25     1     4
 -5.1834306998774216E-01 a       485     0    25     1     5
 -1.7761736284733995E-01 a       486     0    25     1     6
 -2.2976388413577384E-01 a       487     0    25     1     7
 -3.4403474093933939E-01 a       488     0    25     1     8
  2.0088721263557888E-01 a       489     0    25     1     9
  5.3616072921967828E-01 a       490     0    25     1    10
 -4.0903708907716585E-01 a       491     0    25     1    11
  4.6614430157828884E-01 a       492     0    25     1    12
 -2.0304663785271193E-01 a       493     0    25     1    13
 -1.0825978569865564E-02 a       494     0    25     1    14
 -1.1345273217620659E+00 a       495     0    25     1    15
 -3.7326517789157870E-01 a       496     0    25     1    16
 -7.5789619331040592E-01 a       497     0    25     1    17
  4.0707666949684923E-01 a       498     0    25     1    18
  6.1673196185314957E-02 a       499     0    25     1    19
 -2.1688964511731781E-01 a       500     0    25     1    20
 -2.0029648392195596E-02 a       501     0    26     1     1
  5.3455595848914739E-02 a       502     0    26     1     2
  9.8021771916939476E-02 a       503     0    26     1     3
 -2.4796743469331906E-01 a       504     0    26     1     4
 -2.0868696321003394E-01 a       505     0    26     1     5
  5.1674689825693280E-02 a       506     0    26     1     6
  7.7869565261666662E-02 a       507     0    26     1     7
 -5.3573397462265770E-01 a       508     0    26     1     8
 -6.5917014387975578E-02 a       509     0    26     1     9
  1.9817974922098136E-01 a       510     0    26     1    10
 -1.6626486993461376E-01 a       511     0    26     1    11
  4.9876492887149648E-01 a       512     0    26     1    12
 -2.6053142289850806E-01 a       513     0    26     1    13
  2.5814567049696829E-01 a       514     0    26     1    14
 -5.2015048893426230E-01 a       515     0    26     1    15
 -3.3223133264302346E-01 a       516     0    26     1    16
 -8.5196992728239787E-02 a       517     0    26     1    17
  3.0081005121021662E-02 a       518     0    26     1    18
  3.9408417105777860E-01 a       519     0    26     1    19
  3.3721645178812104E-01 a       520     0    26     1    20
 -6.3772004438446761E-01 a       521     0    27     1     1
 -1.8203108936055662E-01 a       522     0    27     1     2
  2.1694803899649370E-01 a       523     0    27     1     3
  1.8837060286933885E-01 a       524     0    27     1     4
 -6.6346443651586817E-02 a       525     0    27     1     5
 -4.2308064907227949E-01 a       526     0    27     1     6
  6.1714782851629935E-01 a       527     0    27     1     7
  1.9105177583246102E-01 a       528     0    27     1     8
 -5.5826415711730304E-01 a       529     0    27     1     9
 -8.2865311898656779E-01 a       530     0    27     1    10
  2.1598274655636399E-01 a       531     0    27     1    11
  1.3103071902000962E-01 a       532     0    27     1    12
  2.4072717976009600E-01 a       533     0    27     1    13
  3.9423713579852887E-01 a       534     0    27     1    14
  1.2807962624916658E+00 a       535     0    27     1    15
  1.0919776063714037E-01 a       536     0    27     1    16
  8.0585419690160476E-02 a       537     0    27     1    17
 -3.7644031311047582E-01 a       538     0    27     1    18
 -1.0663599504454235E-01 a       539     0    27     1    19
 -2.2489537819298189E-01 a       540     0    27     1    20
 -1.9791965518870622E-01 a       541     0    28     1     1
  1.3638100805653022E-02 a       542     0    28     1     2
 -3.1807696744639907E-01 a       543     0    28     1     3
  5.9117147929834690E-02 a       544     0    28     1     4
  3.7203884926026948E-01 a       545     0    28     1     5
  1.5828948405824517E-01 a       546     0    28     1     6
  6.2096224101354058E-01 a       547     0    28     1     7
 -4.8443274448945051E-01 a       548     0    28     1     8
 -3.5590848000797187E-01 a       549     0    28     1     9
 -2.5492431786449641E-02 a       550     0    28     1    10
 -2.6173465987409810E-02 a       551     0    28     1    11
  3.5919321500520568E-01 a       552     0    28     1    12
 -2.6238545985357742E-02 a       553     0    28     1    13
 -1.1296348151767783E-03 a       554     0    28     1    14
 -7.3346195256732818E-02 a       555     0    28     1    15
 -4.2402976583161534E-01 a       556     0    28     1    16
  7.6646932844467330E-01 a       557     0    28     1    17
 -1.2467433186582640E-01 a       558     0    28     1    18
 -2.3697886702758186E-01 a       559     0    28     1    19
  6.0679105914797327E-01 a       560     0    28     1    20
 -1.9059653043284019E-01 a       561     0    29     1     1
 -4.2442881244235331E-01 a       562     0    29     1     2
 -5.8923000739607501E-01 a       563     0    29     1     3
 -3.2101735409459164E-01 a       564     0    29     1     4
  3.1392038771035247E-01 a       565     0    29     1     5
 -1.8795767504476282E-02 a       566     0    29     1     6
  6.3426211573479097E-01 a       567     0    29     1     7
 -6.2807917016586945E-02 a       568     0    29     1     8
 -6.5182238095355971E-01 a       569     0    29     1     9
  3.0305071975450498E-01 a       570     0    29     1    10
 -1.5940078308747327E-01 a       571     0    29     1    11
  3.9648226673642796E-02 a       572     0    29     1    12
  2.4753786426234262E-01 a       573     0    29     1    13
 -3.2325213442929379E-01 a       574     0    29     1    14
  3.0654614905943414E-02 a       575     0    29     1    15
  9.6099164566909423E-02 a       576     0    29     1    16
  3.5918195439539874E-01 a       577     0    29     1    17
  1.3694029911152006E-01 a       578     0    29     1    18
 -2.9593725059026038E-01 a       579     0    29     1    19
  1.4943343673067455E-01 a       580     0    29     1    20
  4.0477370955844416E-01 a       581     0    30     1     1
  3.3938520173376513E-01 a       582     0    30     1     2
  2.8925429719081530E-01 a       583     0    30     1     3
  1.4660665013874681E-02 a       584     0    30     1     4
  1.9551171469690867E-01 a       585     0    30     1     5
 -1.4674391385296981E-01 a       586     0    30     1     6
 -2.6903735280142121E-01 a       587     0    30     1     7
  2.0568868750124417E-01 a       588     0    30     1     8
  3.8902403571291433E-01 a       589     0    30     1     9
  2.7732742251668230E-01 a       590     0    30     1    10
 -4.5182832536944428E-01 a       591     0    30     1    11
  2.8634000214583860E-01 a       592     0    30     1    12
  5.4287831065074010E-02 a       593     0    30     1    13
 -2.9403246240264611E-02 a       594     0    30     1    14
 -1.8367977819474396E-01 a       595     0    30     1    15
 -3.4156464653498218E-02 a       596     0    30     1    16
  2.1820286908766090E-01 a       597     0    30     1    17
  7.6855165848496498E-02 a       598     0    30     1    18
  1.2962988303271919E-01 a       599     0    30     1    19
 -2.7761666981601446E-01 a       600     0    30     1    20
  1.5333772057265527E-01 a       601     0    31     1     1
 -9.2462301324683180E-02 a       602     0    31     1     2
  2.3450550030435768E-01 a       603     0    31     1     3
  4.1744165583007260E-02 a       604     0    31     1     4
  2.0075863535414246E-01 a       605     0    31     1     5
  2.4241081608100162E-01 a       606     0    31     1     6
 -5.0006143784971135E-01 a       607     0    31     1     7
  3.0987586393239641E-01 a       608     0    31     1     8
  3.4449738970890459E-01 a       609     0    31     1     9
  4.4826244215739180E-01 a       610     0    31     1    10
 -3.6755252992547904E-01 a       611     0    31     1    11
 -3.9659899999106568E-01 a       612     0    31     1    12
  1.2719538150340057E-01 a       613     0    31     1    13
  3.7333648027971955E-01 a       614     0    31     1    14
 -7.0233419338096542E-04 a       615     0    31     1    15
  7.8419473942862389E-02 a       616     0    31     1    16
 -2.0299058747207596E-01 a       617     0    31     1    17
  1.3448576207183566E-01 a       618     0    31     1    18
 -8.9842235707415896E-02 a       619     0    31     1    19
 -6.9722780753300595E-01 a       620     0    31     1    20
 -5.3561936884949812E-01 a       621     0    32     1     1
 -4.9023774426522049E-01 a       622     0    32     1     2
 -5.2230251872103040E-01 a       623     0    32     1     3
 -4.8339875911009141E-02 a       624     0    32     1     4
  1.7344018710488820E-02 a       625     0    32     1     5
  5.1147911263230095E-01 a       626     0    32     1     6
 -2.8616834405866715E-01 a       627     0    32     1     7
  3.4263839308478106E-01 a       628     0    32     1     8
 -4.4004254346260580E-01 a       629     0    32     1     9
 -4.0591120309007833E-01 a       630     0    32     1    10
  6.4262085294929971E-01 a       631     0    32     1    11
 -2.6345281109418406E-01 a       632     0    32     1    12
  2.1622197237566454E-01 a       633     0    32     1    13
 -1.1229212107823344E-01 a       634     0    32     1    14
 -6.9681349352290284E-02 a       635     0    32     1    15
  9.4435573689226102E-02 a       636     0    32     1    16
  2.0078260755703439E-01 a       637     0    32     1    17
 -9.3640911359445286E-02 a       638     0    32     1    18
 -1.2621498124836245E-01 a       639     0    32     1    19
  2.0156733019786366E-01 a       640     0    32     1    20
  1.8781827506887167E-01 a       641     0    33     1     1
 -2.5805065333012794E-01 a       642     0    33     1     2
  1.2318511591612757E-01 a       643     0    33     1     3
 -1.2791115045575771E-02 a       644     0    33     1     4
 -2.8913670370086891E-01 a       645     0    33     1     5
 -5.1776877416061594E-02 a       646     0    33     1     6
  1.4676720259519732E-01 a       647     0    33     1     7
  3.8661883858262908E-01 a       648     0    33     1     8
 -3.3264939221023970E-01 a       649     0    33     1     9
 -1.2979173775618905E-01 a       650     0    33     1    10
  4.3713452479136619E-02 a       651     0    33     1    11
  8.0808532029552432E-02 a       652     0    33     1    12
  7.9053174053886799E-04 a       653     0    33     1    13
  4.3906979925612732E-01 a       654     0    33     1    14
  5.0193386257354221E-02 a       655     0    33     1    15
  1.1830594691792226E-01 a       656     0    33     1    16
 -5.2283682350137983E-01 a       657     0    33     1    17
  8.3562435888559564E-02 a       658     0    33     1    18
  5.5831361776323374E-01 a       659     0    33     1    19
 -3.0268128642797743E-01 a       660     0    33     1    20
  5.7451566411750160E-04 a       661     0    34     1     1
  2.8524000076924594E-01 a       662     0    34     1     2
  1.8565006426651862E-01 a       663     0    34     1     3
 -7.1359661043354963E-02 a       664     0    34     1     4
 -1.7676134066101676E-02 a       665     0    34     1     5
  5.0192849707556775E-02 a       666     0    34     1     6
  2.9587432333780167E-01 a       667     0    34     1     7
 -2.4928692043357967E-01 a       668     0    34     1     8
  2.1694551590991801E-01 a       669     0    34     1     9
 -8.4453581596004815E-02 a       670     0    34     1    10
 -2.7197178168392183E-01 a       671     0    34     1    11
 -2.5031307261152835E-02 a       672     0    34     1    12
  1.1105311023616404E-02 a       673     0    34     1    13
 -1.8746728135083338E-01 a       674     0    34     1    14
  2.7670045959701860E-02 a       675     0    34     1    15
  8.5497630885570136E-02 a       676     0    34     1    16
  2.4924809043984145E-01 a       677     0    34     1    17
  1.3456655463486919E-01 a       678     0    34     1    18
 -2.0589234236720660E-01 a       679     0    34     1    19
  2.5230371524777247E-02 a       680     0    34     1    20
  1.7400481036535553E-01 a       681     0    35     1     1
  6.5374859256417506E-02 a       682     0    35     1     2
  8.1637974559770343E-02 a       683     0    35     1     3
  3.7202369062339130E-01 a       684     0    35     1     4
 -4.8760991881011867E-01 a       685     0    35     1     5
  4.7554305002257269E-01 a       686     0    35     1     6
  4.4622334960651261E-01 a       687     0    35     1     7
 -3.7155807541769997E-01 a       688     0    35     1     8
  8.2435215566387887E-01 a       689     0    35     1     9
  1.6654647861052457E-01 a       690     0    35     1    10
 -2.8547805974558743E-01 a       691     0    35     1    11
 -7.8533571519934106E-02 a       692     0    35     1    12
 -7.3912098071979815E-01 a       693     0    35     1    13
 -2.4178215624286403E-01 a       694     0    35     1    14
 -5.0790748232727133E-02 a       695     0    35     1    15
 -1.9071980947857334E-01 a       696     0    35     1    16
 -3.3886095734880473E-01 a       697     0    35     1    17
 -6.4588055278170256E-02 a       698     0    35     1    18
 -6.1668589093818060E-01 a       699     0    35     1    19
 -2.2437291704339751E-01 a       700     0    35     1    20
 -1.5985797480319336E-01 a       701     0    36     1     1
  4.4751298540890355E-02 a       702     0    36     1     2
 -8.9626665587169155E-02 a       703     0    36     1     3
 -1.2706577110175060E-01 a       704     0    36     1     4
  1.2375927187401856E-01 a       705     0    36     1     5
 -2.2806720856760060E-01 a       706     0    36     1     6
 -4.7996427103135286E-02 a       707     0    36     1     7
  1.5324823102110560E-01 a       708     0    36     1     8
  1.1131486605699117E-01 a       709     0    36     1     9
  1.0471002792274046E-01 a       710     0    36     1    10
  2.9191490272290930E-02 a       711     0    36     1    11
 -2.4578171501910551E-03 a       712     0    36     1    12
  2.1910888336168122E-01 a       713     0    36     1    13
 -1.3860731525672787E-01 a       714     0    36     1    14
 -6.7148880448539464E-02 a       715     0    36     1    15
 -7.9489004451524292E-02 a       716     0    36     1    16
  3.2000788187979114E-02 a       717     0    36     1    17
 -5.7153756132260355E-02 a       718     0    36     1    18
  1.5500983475596811E-02 a       719     0    36     1    19
  1.9038529643662924E-01 a       720     0    36     1    20
 -1.0466311267846358E-01 a       721     0    37     1     1
  3.9265376168070976E-01 a       722     0    37     1     2
 -8.3130343977086088E-02 a       723     0    37     1     3
 -8.6447636128320904E-02 a       724     0    37     1     4
  9.9843200321452621E-02 a       725     0    37     1     5
  3.2308240873755986E-02 a       726     0    37     1     6
 -7.8132488725208060E-02 a       727     0    37     1     7
 -6.0097124832670168E-01 a       728     0    37     1     8
  2.7024023595657365E-01 a       729     0    37     1     9
  1.5123367251499284E-01 a       730     0    37     1    10
 -1.6802059352204221E-01 a       731     0    37     1    11
 -1.2175573464655051E-01 a       732     0    37     1    12
 -4.0694838783591986E-01 a       733     0    37     1    13
 -3.1860320066521203E-01 a       734     0    37     1    14
  5.1128236564550839E-04 a       735     0    37     1    15
 -6.6999808565078950E-02 a       736     0    37     1    16
  5.3146375079734842E-01 a       737     0    37     1    17
 -8.6087345147338401E-02 a       738     0    37     1    18
 -4.5513598276400202E-01 a       739     0    37     1    19
  3.5790088559230854E-01 a       740     0    37     1    20
  1.9804481177508493E-01 a       741     0    38     1     1
 -1.7473955106271435E-01 a       742     0    38     1     2
  1.1428907389880093E-01 a       743     0    38     1     3
  6.7008541924106393E-02 a       744     0    38     1     4
  3.6957918630342763E-02 a       745     0    38     1     5
 -1.9597725250952207E-02 a       746     0    38     1     6
  9.5254063821572824E-02 a       747     0    38     1     7
  1.3710548614370288E-01 a       748     0    38     1     8
 -2.4917037665563851E-01 a       749     0    38     1     9
 -1.9389325522073222E-01 a       750     0    38     1    10
  2.4713656997764402E-01 a       751     0    38     1    11
  3.0679454693035924E-01 a       752     0    38     1    12
  2.1459422830888952E-01 a       753     0    38     1    13
  4.2896801185192451E-01 a       754     0    38     1    14
  1.0123797247393494E-01 a       755     0    38     1    15
 -1.0252461970766048E-01 a       756     0    38     1    16
 -1.8795523623408175E-01 a       757     0    38     1    17
  1.3276350693854039E-01 a       758     0    38     1    18
  4.5940581502926237E-01 a       759     0    38     1    19
 -1.7786058371121927E-01 a       760     0    38     1    20
 -2.6645714460512056E-02 a       761     0    39     1     1
  4.0740244060366776E-01 a       762     0    39     1     2
 -1.0436809980840921E-01 a       763     0    39     1     3
 -4.2605761855346314E-02 a       764     0    39     1     4
 -1.2462846272311519E-01 a       765     0    39     1     5
 -1.4240896380551069E-01 a       766     0    39     1     6
  1.6156585606765775E-01 a       767     0    39     1     7
  4.8772918948125971E-01 a       768     0    39     1     8
  3.0960764681323100E-01 a       769     0    39     1     9
 -4.7987962603002010E-01 a       770     0    39     1    10
 -6.0639329548867937E-01 a       771     0    39     1    11
 -5.2225001690002903E-01 a       772     0    39     1    12
  3.8174833778094464E-01 a       773     0    39     1    13
  2.8379453670206628E-01 a       774     0    39     1    14
 -7.8839794179129605E-02 a       775     0    39     1    15
 -1.6792415842308195E-01 a       776     0    39     1    16
 -1.8783654975206099E-01 a       777     0    39     1    17
  1.2847767984025345E-02 a       778     0    39     1    18
  3.3387769345794704E-01 a       779     0    39     1    19
 -4.5229585694765090E-01 a       780     0    39     1    20
 -1.7318571153775075E-01 a       781     0    40     1     1
 -3.1103405021875813E-01 a       782     0    40     1     2
  7.9444264429539480E-01 a       783     0    40     1     3
 -3.0894841900127978E-02 a       784     0    40     1     4
  2.6779765690080726E-01 a       785     0    40     1     5
  4.2342105235057997E-01 a       786     0    40     1     6
 -7.0533579775135399E-02 a       787     0    40     1     7
 -4.1649471151666301E-01 a       788     0    40     1     8
  2.7574316666548898E-01 a       789     0    40     1     9
  1.2293596809281418E-01 a       790     0    40     1    10
  5.6548534880345502E-01 a       791     0    40     1    11
  5.9163337203294608E-01 a       792     0    40     1    12
 -1.9646909714403718E-01 a       793     0    40     1    13
  4.7219685002195555E-01 a       794     0    40     1    14
 -2.3352931585635328E-01 a       795     0    40     1    15
 -1.0165198445378031E-01 a       796     0    40     1    16
 -1.3286136820744046E-01 a       797     0    40     1    17
 -2.2543704302364118E-01 a       798     0    40     1    18
 -1.2833629450875980E-01 a       799     0    40     1    19
  3.4152196713019628E-01 a       800     0    40     1    20
 -2.4491541094228278E-01 a       801     0    41     1     1
  2.2580262639751961E-01 a       802     0    41     1     2
 -2.8030426100449002E-01 a       803     0    41     1     3
 -1.9601575467756909E-02 a       804     0    41     1     4
 -1.8033632007620093E-01 a       805     0    41     1     5
  3.3787047720080859E-01 a       806     0    41     1     6
 -9.3272427004221440E-04 a       807     0    41     1     7
  6.4532387260115143E-01 a       808     0    41     1     8
  3.3197845526074332E-01 a       809     0    41     1     9
  2.7872944754472045E-01 a       810     0    41     1    10
  5.3364168466378613E-02 a       811     0    41     1    11
 -2.0643339982379511E-01 a       812     0    41     1    12
 -4.2842050282244803E-02 a       813     0    41     1    13
  8.5367266703081007E-02 a       814     0    41     1    14
  1.2486723078904513E-02 a       815     0    41     1    15
  8.4348321766946427E-02 a       816     0    41     1    16
 -5.7149426510537997E-02 a       817     0    41     1    17
 -9.7996432899063429E-02 a       818     0    41     1    18
 -9.0247994193734499E-02 a       819     0    41     1    19
  9.2645615079555280E-02 a       820     0    41     1    20
  3.5095337552109918E-01 a       821     0    42     1     1
 -2.7092380846611298E-02 a       822     0    42     1     2
  4.9686556610642157E-01 a       823     0    42     1     3
  1.3735551908848112E-01 a       824     0    42     1     4
 -9.9954260171181697E-02 a       825     0    42     1     5
 -4.3323694762928250E-01 a       826     0    42     1     6
  1.6008212584419543E-01 a       827     0    42     1     7
  2.1474716061307461E-01 a       828     0    42     1     8
  2.5929306179850176E-01 a       829     0    42     1     9
 -1.8728900457770731E-01 a       830     0    42     1    10
  2.1442089125483343E-01 a       831     0    42     1    11
 -1.1726474597486781E-02 a       832     0    42     1    12
  1.0352987577453987E-01 a       833     0    42     1    13
 -1.0094644297908659E+00 a       834     0    42     1    14
 -1.0565210996684281E-01 a       835     0    42     1    15
  1.5110420874931571E-01 a       836     0    42     1    16
  4.7179690435559152E-01 a       837     0    42     1    17
  1.6748029201898665E-01 a       838     0    42     1    18
 -9.8469285482587932E-01 a       839     0    42     1    19
  7.7600544438368424E-01 a       840     0    42     1    20
 -8.4103619992611245E-01 a       841     0    43     1     1
  3.2800453694499859E-01 a       842     0    43     1     2
 -1.1506296130613848E-01 a       843     0    43     1     3
  8.3244275244183596E-02 a       844     0    43     1     4
  6.9178733850494860E-04 a       845     0    43     1     5
  1.5237473552063605E-01 a       846     0    43     1     6
  5.1299422395549767E-03 a       847     0    43     1     7
  5.2742095867612755E-02 a       848     0    43     1     8
  6.6344650089676771E-01 a       849     0    43     1     9
 -3.4565912238225449E-01 a       850     0    43     1    10
 -3.5963645059943433E-01 a       851     0    43     1    11
 -9.2290314150441630E-02 a       852     0    43     1    12
 -3.0749119653218626E-01 a       853     0    43     1    13
  4.0773861729440053E-01 a       854     0    43     1    14
  3.7908473638242496E-01 a       855     0    43     1    15
 -1.1372434733748933E-01 a       856     0    43     1    16
 -1.4219408107851697E+00 a       857     0    43     1    17
  1.1538258005742452E-01 a       858     0    43     1    18
  9.7855479171735671E-01 a       859     0    43     1    19
  2.8768077608137355E-01 a       860     0    43     1    20
  3.6494742970408128E-01 a       861     0    44     1     1
 -3.0990063249573957E-02 a       862     0    44     1     2
 -5.4291903658485789E-02 a       863     0    44     1     3
  1.7247998355604959E-02 a       864     0    44     1     4
 -1.8637833137691757E-02 a       865     0    44     1     5
 -2.0317782199828094E-01 a       866     0    44     1     6
 -1.6755500243368349E-01 a       867     0    44     1     7
 -5.7969063534103848E-01 a       868     0    44     1     8
 -7.8419479479416299E-01 a       869     0    44     1     9
 -3.9432312050220375E-01 a       870     0    44     1    10
  2.6079779600339970E-01 a       871     0    44     1    11
  3.0457414120781967E-01 a       872     0    44     1    12
 -6.6331753535962185E-02 a       873     0    44     1    13
  3.4212233846204260E-01 a       874     0    44     1    14
  3.2700300040769917E-02 a       875     0    44     1    15
  1.4573350893280207E-01 a       876     0    44     1    16
  4.7781688338892692E-01 a       877     0    44     1    17
  1.5917972261304580E-01 a       878     0    44     1    18
 -1.4910930092098337E-01 a       879     0    44     1    19
 -2.8120930808973815E-01 a       880     0    44     1    20
 -5.0611407899403094E-01 a       881     0    45     1     1
 -4.1152339471527760E-01 a       882     0    45     1     2
  4.7822803469511760E-01 a       883     0    45     1     3
 -5.1915367589129147E-01 a       884     0    45     1     4
  2.8240832510372677E-01 a       885     0    45     1     5
 -8.3600683335253057E-01 a       886     0    45     1     6
 -2.3765147304741172E-01 a       887     0    45     1     7
 -9.4698944888669201E-02 a       888     0    45     1     8
  3.6856886923352483E-01 a       889     0    45     1     9
  4.6768352271585223E-01 a       890     0    45     1    10
 -6.8533356939626519E-02 a       891     0    45     1    11
  1.3141506276439024E-01 a       892     0    45     1    12
 -4.5549539855051169E-01 a       893     0    45     1    13
 -4.4228072131294244E-01 a       894     0    45     1    14
  6.9849019645205498E-02 a       895     0    45     1    15
  3.2844202412843831E-01 a       896     0    45     1    16
  1.2316728082667100E-01 a       897     0    45     1    17
  3.8165542317379880E-01 a       898     0    45     1    18
  5.0192165601407990E-01 a       899     0    45     1    19
 -8.4713845373680680E-02 a       900     0    45     1    20
 -6.3504277975930501E-01 a       901     0    46     1     1
  1.1323586136643407E-01 a       902     0    46     1     2
 -4.0293070349143284E-01 a       903     0    46     1     3
  2.5929729131700185E-01 a       904     0    46     1     4
 -2.5472249498564387E-01 a       905     0    46     1     5
 -4.4516682493709256E-02 a       906     0    46     1     6
 -3.0914112536747551E-01 a       907     0    46     1     7
  2.0952172565315907E-01 a       908     0    46     1     8
 -2.3413060391383182E-02 a       909     0    46     1     9
 -3.2966332783528046E-01 a       910     0    46     1    10
 -3.8794443004129747E-01 a       911     0    46     1    11
 -5.6025851877591570E-01 a       912     0    46     1    12
 -1.2899102872450122E-01 a       913     0    46     1    13
 -1.3336050482806242E-01 a       914     0    46     1    14
 -2.8596712780504535E-01 a       915     0    46     1    15
  3.3184421417740601E-01 a       916     0    46     1    16
 -3.3771834836435405E-01 a       917     0    46     1    17
 -8.1338422244839370E-01 a       918     0    46     1    18
  9.8872894158109859E-01 a       919     0    46     1    19
  3.6219912487257294E-01 a       920     0    46     1    20
 -9.5500793086805258E-01 b       921     1     1
 -6.5047069326282536E-01 b       922     1     2
  9.8885594408221544E-01 b       923     1     3
  9.3965384893973336E-01 b       924     1     4
 -1.0214824852876143E+00 b       925     1     5
  3.3830865689154260E-01 b       926     1     6
  2.9931393505409321E-01 b       927     1     7
  6.5717262453669745E-01 b       928     1     8
 -9.2081343158414941E-01 b       929     1     9
 -2.1928004495558709E-01 b       930     1    10
  1.3048176730155407E+00 b       931     1    11
 -2.3030922668624759E-01 b       932     1    12
 -6.3716015218107658E-01 b       933     1    13
  6.0264252469138946E-01 b       934     1    14
  1.2367508810552188E+00 b       935     1    15
  9.0340814318408236E-01 b       936     1    16
 -1.4143173687514479E+00 b       937     1    17
 -6.0810942501001974E-01 b       938     1    18
 -7.3931084860953911E-01 b       939     1    19
 -6.6099473978248646E-01 b       940     1    20
  4.7478776370875070E-01 a       941     1     1     2     1
 -4.2729154360409771E-01 a       942     1     1     2     2
 -5.7772797725180602E-01 a       943     1     1     2     3
  2.4349489844162650E-01 a       944     1     1     2     4
 -1.0344599404136130E+00 a       945     1     1     2     5
  3.6172998496669145E-01 a       946     1     1     2     6
  1.1473993833035459E+00 a       947     1     1     2     7
  9.7658312494210801E-03 a       948     1     1     2     8
 -1.3100388195924451E-01 a       949     1     1     2     9
 -4.4020232395515119E-01 a       950     1     1     2    10
 -5.9564362572201941E-02 a       951     1     1     2    11
  7.7487163260109215E-01 a       952     1     1     2    12
 -3.9943203388518461E-01 a       953     1     1     2    13
 -1.5533720600104764E-01 a       954     1     1     2    14
 -2.7377502898076828E-01 a       955     1     1     2    15
  2.6290864388583801E-01 a       956     1     1     2    16
  4.1633144388889343E-01 a       957     1     1     2    17
 -6.1033283789182591E-01 a       958     1     1     2    18
 -2.9633902260630890E-01 a       959     1     1     2    19
  1.3292810491121843E-01 a       960     1     1     2    20
  3.3108350414735623E-02 a       961     1     2     2     1
 -1.7118558759187347E-01 a       962     1     2     2     2
  1.9809204280225337E-01 a       963     1     2     2     3
  3.8817475615786157E-01 a       964     1     2     2     4
 -2.9844328129321123E-02 a       965     1     2     2     5
 -5.0119204461027678E-01 a       966     1     2     2     6
  1.9170552008526504E-01 a       967     1     2     2     7
 -6.1488922631717624E-01 a       968     1     2     2     8
 -5.9128058127963212E-01 a       969     1     2     2     9
 -5.2140204824620584E-01 a       970     1     2     2    10
 -9.6116518161046716E-02 a       971     1     2     2    11
 -2.8008114761889769E-01 a       972     1     2     2    12
 -2.3792436852964804E-01 a       973     1     2     2    13
  1.6051496842394308E-01 a       974     1     2     2    14
 -4.5918193487713926E-01 a       975     1     2     2    15
 -5.9112309186231293E-01 a       976     1     2     2    16
  1.7097289613753658E-01 a       977     1     2     2    17
  2.0919505284366982E-01 a       978     1     2     2    18
 -4.1545831200449435E-01 a       979     1     2     2    19
  2.1232499248876655E-01 a       980     1     2     2    20
  3.5145647855288947E-01 a       981     1     3     2     1
  5.7625832316522685E-01 a       982     1     3     2     2
  4.3285466087959956E-01 a       983     1     3     2     3
  1.7133522006869081E-01 a       984     1     3     2     4
  1.8932880457572351E-01 a       985     1     3     2     5
 -3.7788045799350772E-01 a       986     1     3     2     6
 -2.6344825147825712E-02 a       987     1     3     2     7
 -4.7928211246665087E-01 a       988     1     3     2     8
 -2.0663992766580347E-01 a       989     1     3     2     9
 -4.2387174923365145E-01 a       990     1     3     2    10
  4.5107128133990854E-01 a       991     1     3     2    11
 -6.7497993869311379E-02 a       992     1     3     2    12
  4.6893506285355335E-01 a       993     1     3     2    13
  3.9349782130158995E-01 a       994     1     3     2    14
  3.4978901053956590E-01 a       995     1     3     2    15
 -1.3509499711941025E-01 a       996     1     3     2    16
 -6.9721217530320026E-02 a       997     1     3     2    17
  4.6538220181947504E-01 a       998     1     3     2    18
  5.7850856636197245E-01 a       999     1     3     2    19
 -1.6383826849640287E-01 a      1000     1     3     2    20
 -7.9231734685356736E-01 a      1001     1     4     2     1
 -3.1986181957727944E-01 a      1002     1     4     2     2
  4.7162888585926727E-01 a      1003     1     4     2     3
 -5.6551036223133599E-01 a      1004     1     4     2     4
 -8.0713273969017985E-01 a      1005     1     4     2     5
  1.9074757425514374E-01 a      1006     1     4     2     6
  3.2200521444940244E-01 a      1007     1     4     2     7
  7.3650058691970532E-01 a      1008     1     4     2     8
  4.9709537567434486E-01 a      1009     1     4     2     9
  1.4719906310752254E-01 a      1010     1     4     2    10
 -6.7782075499308903E-01 a      1011     1     4     2    11
  3.0997025318504523E-01 a      1012     1     4     2    12
 -8.7309531533808035E-02 a      1013     1     4     2    13
 -1.9705539447600770E-01 a      1014     1     4     2    14
  5.1604614818786532E-03 a      1015     1     4     2    15
  1.2850043265890279E+00 a      1016     1     4     2    16
  2.9633869350639375E-02 a      1017     1     4     2    17
 -4.7716737155252892E-01 a      1018     1     4     2    18
 -5.8948235637197810E-01 a      1019     1     4     2    19
  3.5757606373328710E-01 a      1020     1     4     2    20
 -2.2836909456735690E-02 a      1021     1     5     2     1
 -2.5409336436734503E-01 a      1022     1     5     2     2
  2.1519569004556979E-01 a      1023     1     5     2     3
  7.3829190202598416E-01 a      1024     1     5     2     4
  8.5962019810810653E-01 a      1025     1     5     2     5
 -6.3062831496513438E-01 a      1026     1     5     2     6
 -9.4403730072461500E-02 a      1027     1     5     2     7
  5.2889538417592807E-01 a      1028     1     5     2     8
 -5.2303726311656273E-01 a      1029     1     5     2     9
  2.7969530181330177E-01 a      1030     1     5     2    10
  5.8210379906000931E-01 a      1031     1     5     2    11
  7.0353401167824503E-01 a      1032     1     5     2    12
  4.0319867985199964E-01 a      1033     1     5     2    13
 -6.2992069844363463E-01 a      1034     1     5     2    14
 -7.9906500266438518E-01 a      1035     1     5     2    15
 -4.0427305111711243E-01 a      1036     1     5     2    16
 -3.0933336952940460E-01 a      1037     1     5     2    17
 -3.9005660684359711E-01 a      1038     1     5     2    18
 -1.8631086948577855E-01 a      1039     1     5     2    19
  1.9684643260750209E-01 a      1040     1     5     2    20
  4.7513083154438440E-01 a      1041     1     6     2     1
 -3.6668759240066406E-01 a      1042     1     6     2     2
 -2.4175708907420793E-01 a      1043     1     6     2     3
 -3.1647124296241463E-01 a      1044     1     6     2     4
  6.7680724666854597E-01 a      1045     1     6     2     5
  3.7142084802871411E-01 a      1046     1     6     2     6
 -2.6866063476627128E-01 a      1047     1     6     2     7
 -5.4935858295413875E-01 a      1048     1     6     2     8
 -1.9090010979709152E-01 a      1049     1     6     2     9
  6.2292412585911262E-02 a      1050     1     6     2    10
  1.1762288221129588E-01 a      1051     1     6     2    11
  6.4483007701084255E-02 a      1052     1     6     2    12
 -5.4422784976609750E-01 a      1053     1     6     2    13
 -2.6051969619495385E-01 a      1054     1     6     2    14
 -2.8336337434682723E-01 a      1055     1     6     2    15
 -3.5044162442447135E-01 a      1056     1     6     2    16
  7.0663689818031472E-01 a      1057     1     6     2    17
 -4.0440405697160939E-02 a      1058     1     6     2    18
  3.9446662598198773E-01 a      1059     1     6     2    19
 -2.5252173736803746E-01 a      1060     1     6     2    20
 -1.3732166480931657E-01 a      1061     1     7     2     1
  3.0517808315996026E-01 a      1062     1     7     2     2
 -5.7259447318611068E-01 a      1063     1     7     2     3
 -1.0203857551032419E-01 a      1064     1     7     2     4
  2.1756566595992824E-01 a      1065     1     7     2     5
  4.8464722134028876E-01 a      1066     1     7     2     6
 -6.6064976525845431E-01 a      1067     1     7     2     7
 -3.0536778445833535E-01 a      1068     1     7     2     8
 -6.6565599424214850E-01 a      1069     1     7     2     9
 -1.4248877676669150E-01 a      1070     1     7     2    10
  1.4274207364749594E-01 a      1071     1     7     2    11
 -3.9820435051974984E-01 a      1072     1     7     2    12
  5.9495560718745810E-01 a      1073     1     7     2    13
 -4.9816841398271711E-01 a      1074     1     7     2    14
 -1.8176129378492170E-01 a      1075     1     7     2    15
  5.9116442784534318E-01 a      1076     1     7     2    16
 -2.1847827129149605E-01 a      1077     1     7     2    17
 -2.4169444489448473E-02 a      1078     1     7     2    18
 -2.8560937417419202E-01 a      1079     1     7     2    19
  8.7045200547345425E-01 a      1080     1     7     2    20
  2.5892849618410502E-01 a      1081     1     8     2     1
  2.6636369835769680E-01 a      1082     1     8     2     2
  6.5078024426536152E-01 a      1083     1     8     2     3
 -1.7103787694385680E-02 a      1084     1     8     2     4
 -2.0877187673029510E-01 a      1085     1     8     2     5
  4.6773119076376701E-01 a      1086     1     8     2     6
  2.0783762903610986E-01 a      1087     1     8     2     7
  8.0407673527658774E-01 a      1088     1     8     2     8
 -7.2367519876627373E-01 a      1089     1     8     2     9
 -5.5994970504259456E-01 a      1090     1     8     2    10
  2.4889924361735352E-01 a      1091     1     8     2    11
  2.7991752123538544E-01 a      1092     1     8     2    12
  2.9375498313039899E-01 a      1093     1     8     2    13
  3.9668470241391357E-01 a      1094     1     8     2    14
  1.6976027991662873E-01 a      1095     1     8     2    15
 -6.6983923295804826E-01 a      1096     1     8     2    16
 -2.3772632087168305E-01 a      1097     1     8     2    17
 -5.7300484147497244E-01 a      1098     1     8     2    18
 -2.1458065621268878E-02 a      1099     1     8     2    19
 -3.8872858594390042E-01 a      1100     1     8     2    20
  7.8948800190624946E-01 a      1101     1     9     2     1
  1.7522267098272851E-01 a      1102     1     9     2     2
 -1.0108889424455136E+00 a      1103     1     9     2     3
 -8.6343295434959577E-01 a      1104     1     9     2     4
  7.0111822776089938E-01 a      1105     1     9     2     5
 -1.8902109667445009E-02 a      1106     1     9     2     6
 -5.2703898986668873E-01 a      1107     1     9     2     7
  6.7853121488604307E-01 a      1108     1     9     2     8
  5.6432981603663135E-01 a      1109     1     9     2     9
 -2.2875372819762965E-01 a      1110     1     9     2    10
 -8.1832644370578037E-02 a      1111     1     9     2    11
  3.1033139821777989E-01 a      1112     1     9     2    12
 -5.4179631850405707E-01 a      1113     1     9     2    13
 -7.3390164851365625E-01 a      1114     1     9     2    14
  4.5312370391840245E-01 a      1115     1     9     2    15
  7.1912646222128640E-01 a      1116     1     9     2    16
  6.5920442324642681E-01 a      1117     1     9     2    17
  2.0237727336453681E-01 a      1118     1     9     2    18
  2.5712352959725954E-01 a      1119     1     9     2    19
 -5.5351694970810952E-02 a      1120     1     9     2    20
  4.7272124142655386E-01 a      1121     1    10     2     1
 -6.4973909356131551E-02 a      1122     1    10     2     2
  1.2636851909814224E+00 a      1123     1    10     2     3
 -2.8330395781263923E-01 a      1124     1    10     2     4
 -4.5315563635003392E-01 a      1125     1    10     2     5
 -1.3191297119426874E-02 a      1126     1    10     2     6
  3.4275815846423852E-01 a      1127     1    10     2     7
  2.9633389426113216E-01 a      1128     1    10     2     8
  3.1959734212919694E-01 a      1129     1    10     2     9
  4.0873471405121187E-01 a      1130     1    10     2    10
  2.6795231573603712E-01 a      1131     1    10     2    11
 -3.6941308976577536E-01 a      1132     1    10     2    12
  1.8607233822708141E-01 a      1133     1    10     2    13
 -4.4454207172621124E-01 a      1134     1    10     2    14
 -5.8708702057576667E-01 a      1135     1    10     2    15
 -5.1650877639028658E-01 a      1136     1    10     2    16
  6.1885902808008364E-01 a      1137     1    10     2    17
 -1.1546319212754225E-01 a      1138     1    10     2    18
 -2.3333607851712482E-01 a      1139     1    10     2    19
  2.7818492810517997E-01 a      1140     1    10     2    20
  3.8121441275153828E-01 a      1141     1    11     2     1
  3.5910237818704444E-01 a      1142     1    11     2     2
 -2.0995962425286124E-01 a      1143     1    11     2     3
 -5.2880349290507367E-01 a      1144     1    11     2     4
  7.0320364803870961E-01 a      1145     1    11     2     5
  3.1756233273393836E-01 a      1146     1    11     2     6
 -3.1338106016307654E-01 a      1147     1    11     2     7
  2.7332730234475061E-01 a      1148     1    11     2     8
 -5.4639271732443284E-01 a      1149     1    11     2     9
  2.1078818132899285E-01 a      1150     1    11     2    10
 -1.5737067295341919E-01 a      1151     1    11     2    11
 -6.9162603504133890E-01 a      1152     1    11     2    12
 -3.6771630498449392E-01 a      1153     1    11     2    13
 -6.9786878648345174E-01 a      1154     1    11     2    14
  6.2684804830824545E-02 a      1155     1    11     2    15
  2.2002617096991119E-02 a      1156     1    11     2    16
 -2.8274092908401233E-01 a      1157     1    11     2    17
 -3.8970632772963493E-01 a      1158     1    11     2    18
 -5.0068428753403338E-01 a      1159     1    11     2    19
  6.2497315579737300E-01 a      1160     1    11     2    20
 -4.2452488705788483E-01 a      1161     1    12     2     1
 -6.3048016559865827E-01 a      1162     1    12     2     2
  2.4132945593533406E-01 a      1163     1    12     2     3
  7.9954597137214234E-01 a      1164     1    12     2     4
 -5.2677106639967708E-01 a      1165     1    12     2     5
 -1.5790648552480471E-01 a      1166     1    12     2     6
  4.6871993212021523E-01 a      1167     1    12     2     7
 -3.7614730678520319E-01 a      1168     1    12     2     8
  9.4348675521500747E-01 a      1169     1    12     2     9
  3.3789068082689427E-01 a      1170     1    12     2    10
 -4.9609875974234563E-01 a      1171     1    12     2    11
 -3.9025055931553518E-02 a      1172     1    12     2    12
  9.5530314941809547E-01 a      1173     1    12     2    13
 -5.0216646100483098E-01 a      1174     1    12     2    14
  6.6739027858732147E-02 a      1175     1    12     2    15
  5.0230412664100754E-01 a      1176     1    12     2    16
 -4.8998150013691277E-01 a      1177     1    12     2    17
 -2.2554873520854699E-01 a      1178     1    12     2    18
 -7.5859621207743222E-01 a      1179     1    12     2    19
 -4.7711316053699282E-01 a      1180     1    12     2    20
  7.8298355615741211E-01 a      1181     1    13     2     1
  5.5273421299015184E-02 a      1182     1    13     2     2
 -3.7632405537718398E-02 a      1183     1    13     2     3
 -4.9233391674775062E-01 a      1184     1    13     2     4
 -6.1995193461419622E-02 a      1185     1    13     2     5
  2.9841150860073001E-01 a      1186     1    13     2     6
  3.0112860238941136E-01 a      1187     1    13     2     7
  1.4591220724158624E-01 a      1188     1    13     2     8
  2.3470169965282775E-01 a      1189     1    13     2     9
 -1.6835442569441408E-01 a      1190     1    13     2    10
 -1.9755622153015531E-01 a      1191     1    13     2    11
 -5.3006679761428888E-01 a      1192     1    13     2    12
  4.4091210567250538E-01 a      1193     1    13     2    13
 -1.0447567761631832E-02 a      1194     1    13     2    14
 -1.5603457047395983E-01 a      1195     1    13     2    15
  3.7326573551854592E-01 a      1196     1    13     2    16
  1.6442524616937998E-01 a      1197     1    13     2    17
 -2.8985435759031189E-02 a      1198     1    13     2    18
 -4.6271820993371493E-01 a      1199     1    13     2    19
  1.8696521549761397E-01 a      1200     1    13     2    20
  4.8559717686456477E-02 a      1201     1    14     2     1
  4.2831616437754039E-01 a      1202     1    14     2     2
 -2.6365703677978886E-01 a      1203     1    14     2     3
  2.7117850105183347E-02 a      1204     1    14     2     4
  7.0224251915644875E-01 a      1205     1    14     2     5
  1.6948140258151523E-01 a      1206     1    14     2     6
  4.1105081705763119E-01 a      1207     1    14     2     7
  3.4086495362862973E-01 a      1208     1    14     2     8
  4.1717676688241145E-01 a      1209     1    14     2     9
  6.7006235136518294E-02 a      1210     1    14     2    10
 -9.0884917365422879E-01 a      1211     1    14     2    11
  4.1456997346311288E-02 a      1212     1    14     2    12
  1.7130821840027253E+00 a      1213     1    14     2    13
  2.0134217902225549E-01 a      1214     1    14     2    14
  3.1689885340699464E-01 a      1215     1    14     2    15
  8.5821516124031966E-02 a      1216     1    14     2    16
  2.2976376163595588E-01 a      1217     1    14     2    17
  4.8605506721424302E-01 a      1218     1    14     2    18
 -2.6312619920588549E-02 a      1219     1    14     2    19
  5.1616202605909334E-01 a      1220     1    14     2    20
  1.2589601626253977E-01 a      1221     1    15     2     1
 -2.6913535335344135E-01 a      1222     1    15     2     2
 -1.2030824456872053E+00 a      1223     1    15     2     3
  1.7700102916465434E-02 a      1224     1    15     2     4
 -8.7858436979637555E-01 a      1225     1    15     2     5
  5.5499167595156074E-01 a      1226     1    15     2     6
  8.7665003014362419E-02 a      1227     1    15     2     7
  5.4369959199781437E-01 a      1228     1    15     2     8
  2.9028716930547599E-01 a      1229     1    15     2     9
 -7.2343486100063337E-01 a      1230     1    15     2    10
 -9.8637193123732897E-02 a      1231     1    15     2    11
  7.5525599226977158E-01 a      1232     1    15     2    12
 -7.2385801069843003E-01 a      1233     1    15     2    13
  2.4325858335436899E-02 a      1234     1    15     2    14
  3.0336602836527715E-01 a      1235     1    15     2    15
  9.8363806463667602E-02 a      1236     1    15     2    16
 -1.1971791727369188E-01 a      1237     1    15     2    17
 -5.9581029788583595E-01 a      1238     1    15     2    18
 -7.3146645960652668E-01 a      1239     1    15     2    19
  8.6074672850180867E-01 a      1240     1    15     2    20
  7.6810416612788779E-01 a      1241     1    16     2     1
 -2.0538191324884943E-02 a      1242     1    16     2     2
 -4.3530949184693046E-01 a      1243     1    16     2     3
  7.6269995608169128E-01 a      1244     1    16     2     4
  3.1079574838601537E-01 a      1245     1    16     2     5
 -1.0412742371250443E-01 a      1246     1    16     2     6
 -4.6986424531735321E-01 a      1247     1    16     2     7
 -5.5711027227044119E-01 a      1248     1    16     2     8
  3.0120476569109631E-02 a      1249     1    16     2     9
 -3.5207850429415444E-01 a      1250     1    16     2    10
  4.6242813417235551E-01 a      1251     1    16     2    11
  7.9579794216964062E-01 a      1252     1    16     2    12
  8.8117868953079992E-02 a      1253     1    16     2    13
  2.8677703218155726E-01 a      1254     1    16     2    14
 -3.5794001985474194E-02 a      1255     1    16     2    15
  2.7251126995563790E-01 a      1256     1    16     2    16
 -6.7056169520752573E-01 a      1257     1    16     2    17
 -5.1512422481478581E-02 a      1258     1    16     2    18
 -5.1961863178029621E-01 a      1259     1    16     2    19
 -5.8203226297736599E-01 a      1260     1    16     2    20
  5.1879933602136674E-01 a      1261     1    17     2     1
  2.5844322307916079E-01 a      1262     1    17     2     2
 -5.0899646367879436E-01 a      1263     1    17     2     3
 -4.8552329039791031E-01 a      1264     1    17     2     4
  3.2399142975285095E-01 a      1265     1    17     2     5
 -1.7718490702981074E-01 a      1266     1    17     2     6
 -5.8154250877534119E-01 a      1267     1    17     2     7
  4.9626623044146612E-02 a      1268     1    17     2     8
  5.4681212208136931E-01 a      1269     1    17     2     9
  7.9266979336416271E-02 a      1270     1    17     2    10
 -4.8289255243602613E-01 a      1271     1    17     2    11
  8.3769099638786748E-01 a      1272     1    17     2    12
  6.9274887270700192E-01 a      1273     1    17     2    13
  3.3142153428148474E-01 a      1274     1    17     2    14
 -6.1376686470478070E-01 a      1275     1    17     2    15
  4.8973603535247223E-01 a      1276     1    17     2    16
  2.6116312902788269E-01 a      1277     1    17     2    17
  3.3585101023982711E-01 a      1278     1    17     2    18
  8.8291078659727240E-01 a      1279     1    17     2    19
  1.9376741469861883E-01 a      1280     1    17     2    20
  7.8178743593079603E-01 a      1281     1    18     2     1
  2.6248149963939715E-01 a      1282     1    18     2     2
  6.8580341406817158E-01 a      1283     1    18     2     3
  7.2183632768494455E-01 a      1284     1    18     2     4
  5.6095919669713135E-01 a      1285     1    18     2     5
  2.3588586764171843E-01 a      1286     1    18     2     6
 -1.3814793735545577E-01 a      1287     1    18     2     7
 -2.7850448479012805E-02 a      1288     1    18     2     8
 -8.4059716220789393E-01 a      1289     1    18     2     9
  4.9151896852303928E-01 a      1290     1    18     2    10
 -1.1109357829523085E+00 a      1291     1    18     2    11
 -3.3881086501734081E-01 a      1292     1    18     2    12
  6.1896483305446093E-01 a      1293     1    18     2    13
 -1.4756333559074333E-01 a      1294     1    18     2    14
  3.1095818662669972E-01 a      1295     1    18     2    15
 -1.4631855883191208E-01 a      1296     1    18     2    16
 -2.2165139581620982E-01 a      1297     1    18     2    17
  2.0647216683786221E-01 a      1298     1    18     2    18
  3.7615027162367520E-01 a      1299     1    18     2    19
  6.4312464740538366E-02 a      1300     1    18     2    20
 -4.0298043777184142E-02 a      1301     1    19     2     1
 -1.5760396867983248E-01 a      1302     1    19     2     2
 -1.4218765456659349E-01 a      1303     1    19     2     3
 -4.1753905895535465E-01 a      1304     1    19     2     4
 -2.2399930323170408E-01 a      1305     1    19     2     5
 -7.6184861208139742E-01 a      1306     1    19     2     6
  6.9625547167356527E-01 a      1307     1    19     2     7
 -7.4237396879081408E-01 a      1308     1    19     2     8
 -6.3479998499893331E-01 a      1309     1    19     2     9
 -4.3932321262752816E-01 a      1310     1    19     2    10
 -6.3063886386462820E-01 a      1311     1    19     2    11
 -1.8331905751662551E-02 a      1312     1    19     2    12
 -4.6434200766879166E-02 a      1313     1    19     2    13
  1.0618646220391761E-01 a      1314     1    19     2    14
 -8.6004132078573081E-01 a      1315     1    19     2    15
 -4.4194065728717696E-01 a      1316     1    19     2    16
  9.3134621173121268E-02 a      1317     1    19     2    17
  4.8214668043548192E-01 a      1318     1    19     2    18
  4.4135717486733123E-01 a      1319     1    19     2    19
  3.1274586452366421E-01 a      1320     1    19     2    20
  1.0453304058013835E-01 a      1321     1    20     2     1
 -4.7197701049234148E-01 a      1322     1    20     2     2
 -5.1691882924700316E-01 a      1323     1    20     2     3
 -1.0760549252826117E-01 a      1324     1    20     2     4
 -5.8059832267688405E-01 a      1325     1    20     2     5
  3.5435444914428088E-01 a      1326     1    20     2     6
  5.9279900192183965E-01 a      1327     1    20     2     7
 -9.1579948977459114E-01 a      1328     1    20     2     8
 -4.0212607569373743E-01 a      1329     1    20     2     9
  2.3730976167493073E-01 a      1330     1    20     2    10
 -2.5406795940651056E-01 a      1331     1    20     2    11
 -9.3698247371434473E-01 a      1332     1    20     2    12
 -2.8502910962256389E-01 a      1333     1    20     2    13
  1.0157106579917379E+00 a      1334     1    20     2    14
  5.5393481033830072E-01 a      1335     1    20     2    15
  3.5377274307368350E-01 a      1336     1    20     2    16
 -7.7068938066357617E-02 a      1337     1    20     2    17
  1.0863132396833905E-01 a      1338     1    20     2    18
  1.3130943612790560E-01 a      1339     1    20     2    19
 -1.3862592502938847E-01 a      1340     1    20     2    20
 -1.0083547084004105E+00 b      1341     2     1
 -1.2776810273229899E+00 b      1342     2     2
 -2.9436687945574297E-01 b      1343     2     3
 -2.5374456669707346E-01 b      1344     2     4
  5.3054935041582052E-01 b      1345     2     5
  1.0907157373228327E+00 b      1346     2     6
 -4.7653398995587781E-01 b      1347     2     7
  1.4369803365477136E+00 b      1348     2     8
  6.0079047630373161E-01 b      1349     2     9
  4.2701747596441481E-01 b      1350     2    10
  1.3119300855933813E+00 b      1351     2    11
  6.0257256089304756E-01 b      1352     2    12
  6.8675919736322777E-01 b      1353     2    13
 -1.3747363331387896E-01 b      1354     2    14
  2.2436798611855691E-01 b      1355     2    15
 -4.3286694578467655E-01 b      1356     2    16
 -1.0055623661905675E+00 b      1357     2    17
 -1.6715062460055969E+00 b      1358     2    18
 -4.5597465969405164E-02 b      1359     2    19
 -1.7452799793615606E-01 b      1360     2    20
 -1.4100141843996792E+00 a      1361     2     1     3     1
 -1.8272302593664873E+00 a      1362     2     2     3     1
  5.7435656212612884E-01 a      1363     2     3     3     1
 -5.1049811958221203E-01 a      1364     2     4     3     1
  5.2708542243058576E-01 a      1365     2     5     3     1
  1.5845833316607116E+00 a      1366     2     6     3     1
 -1.1656650416604597E+00 a      1367     2     7     3     1
  1.4043109412759729E+00 a      1368     2     8     3     1
  1.8010625849701559E-01 a      1369     2     9     3     1
 -1.2727921852935322E+00 a      1370     2    10     3     1
  9.3051957049144429E-01 a      1371     2    11     3     1
  1.1303599682914924E+00 a      1372     2    12     3     1
 -1.8428210063369502E-01 a      1373     2    13     3     1
  6.4551647760683328E-01 a      1374     2    14     3     1
  1.0712274349898161E+00 a      1375     2    15     3     1
  6.5331043279568224E-01 a      1376     2    16     3     1
 -9.9264683356997718E-01 a      1377     2    17     3     1
 -8.2920140842389134E-01 a      1378     2    18     3     1
 -1.0678472783127972E+00 a      1379     2    19     3     1
  1.0783038445415809E+00 a      1380     2    20     3     1
  2.7547431741921052E-01 b      1381     3     1
