################################################################################
# Neural network connection values (weights and biases).
################################################################################
# Col  Name       Description
################################################################################
# 1    connection Neural network connection value.
# 2    t          Connection type (a = weight, b = bias).
# 3    index      Index enumerating weights.
# 4    l_s        Starting point layer (end point layer for biases).
# 5    n_s        Starting point neuron in starting layer (end point neuron for biases).
# 6    l_e        End point layer.
# 7    n_e        End point neuron in end layer.
################################################################################
#                      1 2         3     4     5     6     7
#             connection t     index   l_s   n_s   l_e   n_e
############################################################
 -2.6605131804336629E-01 a         1     0     1     1     1
 -6.1267243986526954E-01 a         2     0     1     1     2
 -2.2620775382112224E-01 a         3     0     1     1     3
  1.2158054047310740E-01 a         4     0     1     1     4
  6.2588451062994665E-03 a         5     0     1     1     5
  3.0926925385667448E-01 a         6     0     1     1     6
 -2.4063236223417883E-01 a         7     0     1     1     7
  2.1722739544938505E-01 a         8     0     1     1     8
 -2.8081812521336241E-01 a         9     0     1     1     9
 -5.6833360000075314E-02 a        10     0     1     1    10
 -4.9401174132763584E-02 a        11     0     1     1    11
 -7.3946604996429036E-02 a        12     0     1     1    12
 -3.7215198428919294E-01 a        13     0     1     1    13
 -1.9861073874423549E-01 a        14     0     1     1    14
  3.2126126959316648E-01 a        15     0     1     1    15
  1.0476952114303893E-01 a        16     0     1     1    16
  5.3081351857060546E-02 a        17     0     1     1    17
  5.2211580306141891E-01 a        18     0     1     1    18
 -4.8874143140638349E-01 a        19     0     1     1    19
 -7.9542907805088270E-02 a        20     0     1     1    20
  3.0033556950558404E-01 a        21     0     2     1     1
  5.9773676044709852E-02 a        22     0     2     1     2
 -2.9385932951449417E-01 a        23     0     2     1     3
  8.9428641083733232E-02 a        24     0     2     1     4
 -2.4512428936126662E-01 a        25     0     2     1     5
  1.8271623652898522E-01 a        26     0     2     1     6
 -5.4518750198679722E-01 a        27     0     2     1     7
  4.5231270308362720E-01 a        28     0     2     1     8
  2.1009029625357289E-01 a        29     0     2     1     9
  2.0752964037558688E-01 a        30     0     2     1    10
 -2.1359200926644906E-01 a        31     0     2     1    11
  1.8951939949864355E-01 a        32     0     2     1    12
 -1.5719987325269730E-01 a        33     0     2     1    13
 -1.8167797651124393E-01 a        34     0     2     1    14
  6.8804492156643027E-01 a        35     0     2     1    15
 -6.4496520204926786E-02 a        36     0     2     1    16
 -2.2302055414780869E-01 a        37     0     2     1    17
  2.3531147788331729E-02 a        38     0     2     1    18
 -6.7899589458914322E-01 a        39     0     2     1    19
  3.2063400881058933E-02 a        40     0     2     1    20
 -3.5910854570797457E-01 a        41     0     3     1     1
 -8.3337449958375442E-02 a        42     0     3     1     2
 -7.6485229974084676E-02 a        43     0     3     1     3
 -3.4030851685875652E-01 a        44     0     3     1     4
 -3.6157018132149206E-03 a        45     0     3     1     5
 -1.8526592187043905E-01 a        46     0     3     1     6
  9.9985270251934086E-02 a        47     0     3     1     7
  2.3772303072650891E-01 a        48     0     3     1     8
  4.6222423909757166E-03 a        49     0     3     1     9
 -2.4847658171299911E-01 a        50     0     3     1    10
 -1.2450204945640149E-01 a        51     0     3     1    11
  3.5404102963964146E-01 a        52     0     3     1    12
  6.8733778172594434E-02 a        53     0     3     1    13
 -5.9503032869697958E-01 a        54     0     3     1    14
  1.4453677794098674E-01 a        55     0     3     1    15
  1.1349419329171495E-01 a        56     0     3     1    16
 -6.5029156956905296E-02 a        57     0     3     1    17
  2.2258931034098550E-01 a        58     0     3     1    18
  1.9146478783657844E-01 a        59     0     3     1    19
 -1.7491129199098837E-01 a        60     0     3     1    20
  2.4318477465151710E-02 a        61     0     4     1     1
  1.7953115783060725E-01 a        62     0     4     1     2
  1.0127524335035891E-01 a        63     0     4     1     3
 -6.9596140284399588E-01 a        64     0     4     1     4
  1.5664042786913393E-01 a        65     0     4     1     5
  2.0796276779580827E-01 a        66     0     4     1     6
 -1.0699145323652971E-01 a        67     0     4     1     7
 -5.4904455688883869E-01 a        68     0     4     1     8
  7.6272626517343317E-02 a        69     0     4     1     9
 -1.1278995028971288E-01 a        70     0     4     1    10
  4.4923412524968016E-02 a        71     0     4     1    11
 -4.8323826042057864E-02 a        72     0     4     1    12
 -4.4687711977029504E-02 a        73     0     4     1    13
  6.1540735016363916E-02 a        74     0     4     1    14
 -5.2529803578235545E-01 a        75     0     4     1    15
 -3.6177599990942877E-01 a        76     0     4     1    16
 -3.5850210982256842E-01 a        77     0     4     1    17
 -3.6202464057035993E-01 a        78     0     4     1    18
  5.0296873578404311E-01 a        79     0     4     1    19
 -3.0717162535475256E-01 a        80     0     4     1    20
  1.8052182981328996E-01 a        81     0     5     1     1
 -3.8993503062787219E-02 a        82     0     5     1     2
  3.9963314456243393E-01 a        83     0     5     1     3
  3.0662423387969545E-01 a        84     0     5     1     4
 -1.4891072786442605E-01 a        85     0     5     1     5
 -2.1148367478570582E-01 a        86     0     5     1     6
  4.8365107666256735E-01 a        87     0     5     1     7
  7.9704366191769724E-02 a        88     0     5     1     8
  3.2296861383472464E-01 a        89     0     5     1     9
 -8.7973552120571022E-02 a        90     0     5     1    10
 -2.4733660450980771E-01 a        91     0     5     1    11
  4.7917975518594208E-01 a        92     0     5     1    12
  4.1342066216389528E-01 a        93     0     5     1    13
  3.3068489441001647E-01 a        94     0     5     1    14
 -2.5987022310636626E-02 a        95     0     5     1    15
  1.8107284259710496E-01 a        96     0     5     1    16
 -5.8204965465474441E-02 a        97     0     5     1    17
  4.8682083139741088E-02 a        98     0     5     1    18
  1.8643515315353604E-01 a        99     0     5     1    19
 -2.2374240023620201E-01 a       100     0     5     1    20
  3.6271879802851398E-01 a       101     0     6     1     1
  4.0539018438507346E-01 a       102     0     6     1     2
  2.7960994005133011E-01 a       103     0     6     1     3
 -1.2721466931083938E-01 a       104     0     6     1     4
 -3.1573871036286516E-01 a       105     0     6     1     5
 -1.0388045416252634E-01 a       106     0     6     1     6
  4.2527542372361249E-01 a       107     0     6     1     7
 -1.6773217077780636E-01 a       108     0     6     1     8
 -3.5356980943258859E-01 a       109     0     6     1     9
  6.2849007684960900E-01 a       110     0     6     1    10
  1.7221532282170238E-01 a       111     0     6     1    11
  1.0599422487933841E-01 a       112     0     6     1    12
  4.3757476068443396E-01 a       113     0     6     1    13
 -2.5955621698686088E-01 a       114     0     6     1    14
 -5.0104734727033406E-01 a       115     0     6     1    15
 -4.3810816993706114E-01 a       116     0     6     1    16
 -7.8137151353786660E-01 a       117     0     6     1    17
 -3.1197958545101523E-01 a       118     0     6     1    18
  9.8876761610783626E-01 a       119     0     6     1    19
  9.9232154496610242E-02 a       120     0     6     1    20
  4.5261093156446169E-01 a       121     0     7     1     1
 -6.6340108605216586E-01 a       122     0     7     1     2
  1.0264464713531684E-03 a       123     0     7     1     3
 -1.0159139212259481E-01 a       124     0     7     1     4
  3.3211566188793468E-01 a       125     0     7     1     5
 -8.7434243756576269E-02 a       126     0     7     1     6
  2.2742923948322338E-01 a       127     0     7     1     7
  2.8282757965193173E-01 a       128     0     7     1     8
  4.7345253409201460E-01 a       129     0     7     1     9
  1.5761409758320907E-01 a       130     0     7     1    10
 -2.4294113070413292E-02 a       131     0     7     1    11
 -2.3709607059732099E-01 a       132     0     7     1    12
 -2.0178478097131072E-01 a       133     0     7     1    13
  2.5614200148409555E-01 a       134     0     7     1    14
  4.6605872882011257E-01 a       135     0     7     1    15
 -3.8235134487852546E-01 a       136     0     7     1    16
  3.5603159575775184E-01 a       137     0     7     1    17
 -1.3350576337789369E-01 a       138     0     7     1    18
 -5.1291524111595777E-01 a       139     0     7     1    19
  1.8505170132258128E-01 a       140     0     7     1    20
 -1.6704883523606359E-01 a       141     0     8     1     1
  4.2096121519406327E-01 a       142     0     8     1     2
 -2.2821906208920392E-01 a       143     0     8     1     3
  5.4023746121601386E-02 a       144     0     8     1     4
 -3.1781315807921368E-01 a       145     0     8     1     5
 -9.4332920767162765E-02 a       146     0     8     1     6
 -1.9514582139953712E-01 a       147     0     8     1     7
  2.4435754778589266E-01 a       148     0     8     1     8
 -4.6561114561411399E-01 a       149     0     8     1     9
 -1.0544126565262764E-01 a       150     0     8     1    10
  8.2795667053714578E-02 a       151     0     8     1    11
 -2.4869111689533202E-01 a       152     0     8     1    12
  6.8483065923862677E-02 a       153     0     8     1    13
 -5.3003593691747897E-01 a       154     0     8     1    14
 -5.6076858709324863E-02 a       155     0     8     1    15
 -1.1991452907331770E-01 a       156     0     8     1    16
 -2.4686810956385319E-01 a       157     0     8     1    17
  6.3912489088906607E-02 a       158     0     8     1    18
 -2.2196751640237749E-02 a       159     0     8     1    19
  2.7428481352433404E-01 a       160     0     8     1    20
  7.9725485007610553E-01 a       161     0     9     1     1
  3.6852444509857779E-01 a       162     0     9     1     2
 -1.1590775767511757E-01 a       163     0     9     1     3
 -3.0872807749368480E-01 a       164     0     9     1     4
  2.5531989618785406E-01 a       165     0     9     1     5
  6.5357018078712026E-02 a       166     0     9     1     6
  4.9250417194140311E-01 a       167     0     9     1     7
  3.2385245066124302E-01 a       168     0     9     1     8
 -5.2533315191390928E-01 a       169     0     9     1     9
 -1.1220297981234100E+00 a       170     0     9     1    10
 -2.0402236152340021E+00 a       171     0     9     1    11
  2.1422368779682163E-01 a       172     0     9     1    12
  1.0899635866162041E-01 a       173     0     9     1    13
 -6.4194551531337585E-01 a       174     0     9     1    14
 -2.3581501420237122E-01 a       175     0     9     1    15
  1.4939717430531119E-01 a       176     0     9     1    16
 -6.4030651595905164E-01 a       177     0     9     1    17
 -4.0105838626993695E-01 a       178     0     9     1    18
  7.3959165096346507E-02 a       179     0     9     1    19
  3.7529063782788558E-01 a       180     0     9     1    20
 -2.3111026059443085E-01 a       181     0    10     1     1
 -5.5513317140435403E-01 a       182     0    10     1     2
  5.9762384131712409E-01 a       183     0    10     1     3
  1.9954461342739802E-01 a       184     0    10     1     4
  2.1704171927737786E-01 a       185     0    10     1     5
 -9.4385453835184846E-02 a       186     0    10     1     6
 -4.8213871016073567E-01 a       187     0    10     1     7
 -1.7281169650381770E-01 a       188     0    10     1     8
  1.5448012168333118E+00 a       189     0    10     1     9
  9.6970970084450470E-01 a       190     0    10     1    10
  2.2814940902965062E+00 a       191     0    10     1    11
  1.0956440602520946E-01 a       192     0    10     1    12
 -2.8470965583334495E-01 a       193     0    10     1    13
  1.2668927311157236E+00 a       194     0    10     1    14
  4.3416606605657299E-01 a       195     0    10     1    15
 -3.2882833179415011E-02 a       196     0    10     1    16
  1.0504695538968540E+00 a       197     0    10     1    17
  1.3313863482896151E+00 a       198     0    10     1    18
  3.3944118353415237E-02 a       199     0    10     1    19
 -2.5404262118077081E-01 a       200     0    10     1    20
  2.3397123907930617E-01 a       201     0    11     1     1
 -5.0686018605276062E-01 a       202     0    11     1     2
 -5.0492866894477118E-01 a       203     0    11     1     3
  2.0472441851439149E-01 a       204     0    11     1     4
 -4.4049988832648351E-01 a       205     0    11     1     5
  1.6735777435646376E-01 a       206     0    11     1     6
  4.5631079815891085E-01 a       207     0    11     1     7
  1.9154536877805126E-01 a       208     0    11     1     8
 -1.1822706454433954E-01 a       209     0    11     1     9
  1.4840879829577527E-01 a       210     0    11     1    10
 -1.5413325344747686E+00 a       211     0    11     1    11
 -7.6036062403668170E-02 a       212     0    11     1    12
  5.3865965273302707E-01 a       213     0    11     1    13
  1.0715777818981406E-01 a       214     0    11     1    14
  1.4326701423124946E-01 a       215     0    11     1    15
  3.0008393069698219E-01 a       216     0    11     1    16
 -4.3172725936285206E-01 a       217     0    11     1    17
 -3.4345501840076464E-01 a       218     0    11     1    18
  7.0550006572512522E-02 a       219     0    11     1    19
 -2.5337721134906943E-01 a       220     0    11     1    20
 -3.5622491015850627E-01 a       221     0    12     1     1
  1.1960157239777827E+00 a       222     0    12     1     2
 -2.3524261674474603E-01 a       223     0    12     1     3
 -4.6817472390853293E-01 a       224     0    12     1     4
 -1.3219599964234166E-01 a       225     0    12     1     5
 -3.0428505985185011E-01 a       226     0    12     1     6
 -3.2269414870874591E-01 a       227     0    12     1     7
 -3.4712288247560841E-01 a       228     0    12     1     8
  9.1693111214540407E-02 a       229     0    12     1     9
  5.3923298208791215E-02 a       230     0    12     1    10
 -3.2576539693637713E-01 a       231     0    12     1    11
 -2.8953848594464698E-01 a       232     0    12     1    12
  2.3088292372367841E-01 a       233     0    12     1    13
 -7.1367669571000969E-01 a       234     0    12     1    14
 -2.3066290607609513E-01 a       235     0    12     1    15
 -3.2975258983147215E-01 a       236     0    12     1    16
  3.9611539191058093E-01 a       237     0    12     1    17
 -3.9514943638917882E-01 a       238     0    12     1    18
 -1.8068726945905683E-01 a       239     0    12     1    19
  6.6500470074539075E-01 a       240     0    12     1    20
  2.0027004186073391E-01 a       241     0    13     1     1
 -6.6524495321147725E-01 a       242     0    13     1     2
 -3.2425287349680221E-01 a       243     0    13     1     3
  6.7772013342854387E-01 a       244     0    13     1     4
 -6.3899248274479137E-01 a       245     0    13     1     5
  3.4224646741274456E-01 a       246     0    13     1     6
  3.1839080689680160E-01 a       247     0    13     1     7
  2.3382090406010822E-01 a       248     0    13     1     8
  9.7013527350759132E-02 a       249     0    13     1     9
 -2.5306215143150290E-01 a       250     0    13     1    10
 -6.7915333624766039E-01 a       251     0    13     1    11
 -3.4188179853862227E-01 a       252     0    13     1    12
  1.7325284016291539E-01 a       253     0    13     1    13
  7.5597645534556307E-02 a       254     0    13     1    14
  3.8071852465068068E-01 a       255     0    13     1    15
  4.2935147922593864E-01 a       256     0    13     1    16
  2.7370284727905824E-02 a       257     0    13     1    17
  4.6868655098230760E-01 a       258     0    13     1    18
  2.4339059023068779E-01 a       259     0    13     1    19
 -1.8118559745442872E-01 a       260     0    13     1    20
  1.3074775764709636E-02 a       261     0    14     1     1
  1.7461207003906104E-01 a       262     0    14     1     2
 -1.1573049091682615E-01 a       263     0    14     1     3
  1.0072212146343722E-01 a       264     0    14     1     4
  2.4597258415363706E-02 a       265     0    14     1     5
  1.4469372976410166E-01 a       266     0    14     1     6
 -2.3253242925139186E-01 a       267     0    14     1     7
 -3.4080100881018738E-01 a       268     0    14     1     8
 -2.4269505856980733E-01 a       269     0    14     1     9
  9.6397113245724787E-03 a       270     0    14     1    10
 -8.4095124781508990E-01 a       271     0    14     1    11
  8.5678981951907263E-02 a       272     0    14     1    12
 -2.4215031096422404E-01 a       273     0    14     1    13
 -3.2611602637109255E-01 a       274     0    14     1    14
 -1.4218603807953628E-01 a       275     0    14     1    15
 -2.7798487647345632E-01 a       276     0    14     1    16
 -2.6690159673622504E-01 a       277     0    14     1    17
  4.0454438440581941E-02 a       278     0    14     1    18
 -2.9235426354533545E-01 a       279     0    14     1    19
  3.3623005429338210E-01 a       280     0    14     1    20
  2.0720352730240035E-01 a       281     0    15     1     1
 -2.5205983868565229E-01 a       282     0    15     1     2
 -5.3695344251421251E-01 a       283     0    15     1     3
 -1.1024031449600465E-01 a       284     0    15     1     4
 -3.7911724175435896E-01 a       285     0    15     1     5
 -1.8301944460613331E-01 a       286     0    15     1     6
  3.6601349588756615E-01 a       287     0    15     1     7
  8.3957057613650229E-02 a       288     0    15     1     8
 -4.5215768514988158E-01 a       289     0    15     1     9
  1.2957010375104513E-01 a       290     0    15     1    10
  7.3294986441117482E-02 a       291     0    15     1    11
 -3.2073454700614251E-01 a       292     0    15     1    12
  2.3123371869921344E-01 a       293     0    15     1    13
  3.1367104704395909E-01 a       294     0    15     1    14
  8.4927016382087397E-02 a       295     0    15     1    15
  2.6172575686777766E-01 a       296     0    15     1    16
 -1.9622225858013306E-01 a       297     0    15     1    17
 -4.0443397690170434E-02 a       298     0    15     1    18
  2.7069661342586071E-01 a       299     0    15     1    19
  2.0945770724272800E-01 a       300     0    15     1    20
  6.4944629394431219E-01 a       301     0    16     1     1
  8.7545624016290610E-02 a       302     0    16     1     2
 -2.0561339954984290E-01 a       303     0    16     1     3
  2.0535164283528701E-01 a       304     0    16     1     4
  6.8119700875082467E-01 a       305     0    16     1     5
 -9.6348233093140653E-02 a       306     0    16     1     6
  4.1671966151803030E-01 a       307     0    16     1     7
  1.6379887087975578E-01 a       308     0    16     1     8
 -4.9101469224235345E-01 a       309     0    16     1     9
 -3.2857378399414805E-01 a       310     0    16     1    10
 -4.3005767476000606E-01 a       311     0    16     1    11
  2.1640070975628370E-01 a       312     0    16     1    12
  4.4578742113371372E-01 a       313     0    16     1    13
 -4.7113041981919401E-01 a       314     0    16     1    14
 -1.0184578329780083E-01 a       315     0    16     1    15
  4.8310886713221368E-01 a       316     0    16     1    16
  2.5838292827272452E-01 a       317     0    16     1    17
  3.5035289045545803E-01 a       318     0    16     1    18
  6.5109239197906998E-01 a       319     0    16     1    19
  4.3498082095717500E-01 a       320     0    16     1    20
 -2.1143748149643030E-01 a       321     0    17     1     1
 -7.1393697773390807E-01 a       322     0    17     1     2
  1.4101088264071818E-01 a       323     0    17     1     3
  4.3541234654225429E-02 a       324     0    17     1     4
  4.8497493797445174E-01 a       325     0    17     1     5
 -3.9121200593353639E-02 a       326     0    17     1     6
 -1.9273470974924611E-01 a       327     0    17     1     7
  4.6772070166706065E-02 a       328     0    17     1     8
 -1.7536536015378587E-01 a       329     0    17     1     9
  2.1953909566255497E-01 a       330     0    17     1    10
 -6.3841173066799609E-02 a       331     0    17     1    11
 -5.1846697601904956E-01 a       332     0    17     1    12
  2.6035069515481329E-01 a       333     0    17     1    13
  7.1383995044287607E-01 a       334     0    17     1    14
  7.9342761208688242E-03 a       335     0    17     1    15
 -5.4686435644942862E-02 a       336     0    17     1    16
  2.6204710046372603E-01 a       337     0    17     1    17
  3.3115463871572826E-01 a       338     0    17     1    18
 -2.2872343147562488E-01 a       339     0    17     1    19
 -3.4318311164843657E-01 a       340     0    17     1    20
  7.2844471343163533E-02 a       341     0    18     1     1
  1.0021168713034456E+00 a       342     0    18     1     2
  1.3813526780318233E-01 a       343     0    18     1     3
 -2.2870933949560301E-01 a       344     0    18     1     4
  2.3393608598376001E-01 a       345     0    18     1     5
 -5.3092104774354076E-01 a       346     0    18     1     6
  5.8341401522591096E-02 a       347     0    18     1     7
  2.7980530714759744E-01 a       348     0    18     1     8
 -1.1634750574484101E-01 a       349     0    18     1     9
 -2.9667372374671402E-01 a       350     0    18     1    10
 -4.2940473809159513E-01 a       351     0    18     1    11
  5.4320241894455133E-02 a       352     0    18     1    12
 -3.2478195751936600E-01 a       353     0    18     1    13
  7.0491752611772915E-02 a       354     0    18     1    14
 -1.4636230789613411E-01 a       355     0    18     1    15
 -2.6495714260416298E-01 a       356     0    18     1    16
  3.8599521789032770E-01 a       357     0    18     1    17
 -7.2149176339910681E-01 a       358     0    18     1    18
  4.5007318170279073E-02 a       359     0    18     1    19
  2.9497051273081953E-01 a       360     0    18     1    20
  2.7674845079659022E-01 a       361     0    19     1     1
  6.7244992228164352E-02 a       362     0    19     1     2
  1.6329933327866739E-01 a       363     0    19     1     3
 -1.9406779845101885E-01 a       364     0    19     1     4
  4.0186121132917818E-01 a       365     0    19     1     5
  7.1253528757948173E-02 a       366     0    19     1     6
  3.4548318452487309E-01 a       367     0    19     1     7
  2.8711469258466527E-01 a       368     0    19     1     8
  7.9796630632659724E-02 a       369     0    19     1     9
  6.3120763502489141E-01 a       370     0    19     1    10
  7.0098641344793600E-01 a       371     0    19     1    11
  3.9845018953510064E-01 a       372     0    19     1    12
 -9.1106783365541025E-02 a       373     0    19     1    13
  1.7043030862879016E-01 a       374     0    19     1    14
 -1.6055501411964010E-01 a       375     0    19     1    15
  1.8992238820432455E-01 a       376     0    19     1    16
 -1.0426802994170553E-01 a       377     0    19     1    17
 -9.5408426443521199E-01 a       378     0    19     1    18
 -2.2608135538750701E-01 a       379     0    19     1    19
  1.7301705654755631E-01 a       380     0    19     1    20
 -1.9503967627555333E-01 a       381     0    20     1     1
 -3.1367583257822018E-01 a       382     0    20     1     2
  7.9649377768203106E-02 a       383     0    20     1     3
  8.3511100290407959E-03 a       384     0    20     1     4
 -1.3249831697910134E-02 a       385     0    20     1     5
  5.1333081026795790E-02 a       386     0    20     1     6
 -8.5666565844736600E-02 a       387     0    20     1     7
 -4.5025293787623731E-02 a       388     0    20     1     8
  6.1996647069934763E-01 a       389     0    20     1     9
 -7.6288210506998591E-02 a       390     0    20     1    10
 -3.8101229694154366E-02 a       391     0    20     1    11
  2.8445341169766514E-01 a       392     0    20     1    12
 -2.9031868935198885E-01 a       393     0    20     1    13
 -4.0306879499480575E-01 a       394     0    20     1    14
 -2.0916601498882106E-02 a       395     0    20     1    15
 -2.5174636540477724E-01 a       396     0    20     1    16
  2.4674409096669722E-02 a       397     0    20     1    17
  9.8446012786507331E-02 a       398     0    20     1    18
 -4.3500106967963290E-02 a       399     0    20     1    19
 -2.3166022293531513E-01 a       400     0    20     1    20
 -5.5080670690859723E-01 a       401     0    21     1     1
  1.5376863350163675E-01 a       402     0    21     1     2
 -2.2138997412241646E-01 a       403     0    21     1     3
  3.0461224935807124E-01 a       404     0    21     1     4
  7.5792687299190142E-02 a       405     0    21     1     5
 -2.9451564700936822E-01 a       406     0    21     1     6
  7.5332432562593796E-02 a       407     0    21     1     7
 -5.8592368828566377E-01 a       408     0    21     1     8
  2.5339816906773377E-01 a       409     0    21     1     9
  1.6384223415915494E-01 a       410     0    21     1    10
  3.6438155386053628E-01 a       411     0    21     1    11
  8.6946282082541335E-02 a       412     0    21     1    12
  2.0432130924497155E-01 a       413     0    21     1    13
  7.7759933788303240E-03 a       414     0    21     1    14
  4.8946688017038067E-02 a       415     0    21     1    15
  5.2471777219025373E-03 a       416     0    21     1    16
  1.7462798645806710E-01 a       417     0    21     1    17
 -5.7475214316993171E-02 a       418     0    21     1    18
  2.7774733973052956E-01 a       419     0    21     1    19
 -1.2320363194246789E-01 a       420     0    21     1    20
 -2.4288502662556219E-01 a       421     0    22     1     1
 -4.3039410262743899E-01 a       422     0    22     1     2
 -6.3907094431456007E-02 a       423     0    22     1     3
  1.3021608558094377E-02 a       424     0    22     1     4
  8.6849811280953959E-01 a       425     0    22     1     5
  2.4401338508587112E-01 a       426     0    22     1     6
  2.6031134222639613E-02 a       427     0    22     1     7
 -2.2829847297463232E-01 a       428     0    22     1     8
  6.4002579004963078E-01 a       429     0    22     1     9
 -1.5731905794448037E-01 a       430     0    22     1    10
 -5.2431835419316938E-02 a       431     0    22     1    11
 -1.1579560542120089E-01 a       432     0    22     1    12
 -4.6937023893307434E-01 a       433     0    22     1    13
  4.6852372436155471E-01 a       434     0    22     1    14
  6.8088556519335638E-02 a       435     0    22     1    15
  6.7550695509335035E-01 a       436     0    22     1    16
  1.1187702386659069E+00 a       437     0    22     1    17
  1.1482288070921252E-02 a       438     0    22     1    18
 -3.0512805830971557E-01 a       439     0    22     1    19
 -7.8746988522736386E-02 a       440     0    22     1    20
  6.1436162038928155E-01 a       441     0    23     1     1
  4.5417538194439505E-01 a       442     0    23     1     2
  1.1268211894806790E-01 a       443     0    23     1     3
 -3.3013108272424629E-01 a       444     0    23     1     4
  2.4500136827653776E-01 a       445     0    23     1     5
  1.4565511992034910E-01 a       446     0    23     1     6
 -3.3331022830952906E-01 a       447     0    23     1     7
  7.4834705618617827E-03 a       448     0    23     1     8
  8.0574641018801685E-02 a       449     0    23     1     9
  3.8476511840661427E-02 a       450     0    23     1    10
 -1.8267819787874889E-01 a       451     0    23     1    11
 -2.8589294845959157E-01 a       452     0    23     1    12
 -4.0214802884375483E-01 a       453     0    23     1    13
  5.6712782080261681E-01 a       454     0    23     1    14
  2.7370494969897984E-02 a       455     0    23     1    15
 -4.0529381483715998E-01 a       456     0    23     1    16
  1.1594110040887509E-01 a       457     0    23     1    17
 -6.4147002598977565E-01 a       458     0    23     1    18
  1.1393412300949378E-01 a       459     0    23     1    19
  5.2724112279204649E-02 a       460     0    23     1    20
  4.6038768424668791E-01 a       461     0    24     1     1
 -2.9091108877776251E-01 a       462     0    24     1     2
 -1.7878013126466621E-01 a       463     0    24     1     3
  1.7062513162118606E-01 a       464     0    24     1     4
  7.4805115153737181E-02 a       465     0    24     1     5
  3.6738156880889487E-02 a       466     0    24     1     6
 -1.5240381612595233E-01 a       467     0    24     1     7
 -2.7405108549294038E-01 a       468     0    24     1     8
 -3.9594736338091457E-01 a       469     0    24     1     9
 -3.8515240540826029E-01 a       470     0    24     1    10
 -1.3903113991999128E-01 a       471     0    24     1    11
 -2.4551497708466091E-01 a       472     0    24     1    12
 -4.7935538622719376E-01 a       473     0    24     1    13
  3.8898934296682708E-01 a       474     0    24     1    14
  1.9318455319984004E-01 a       475     0    24     1    15
 -4.1145539513528129E-01 a       476     0    24     1    16
  1.8404369184977104E-01 a       477     0    24     1    17
  1.0465069308918726E-01 a       478     0    24     1    18
  2.1389484873300377E-01 a       479     0    24     1    19
 -4.7797953778512853E-01 a       480     0    24     1    20
 -4.4435265271609964E-01 a       481     0    25     1     1
  5.4814912097365864E-01 a       482     0    25     1     2
  3.7597643141630382E-01 a       483     0    25     1     3
  8.7004144071996838E-03 a       484     0    25     1     4
 -3.7652924612123129E-01 a       485     0    25     1     5
 -1.9631391938491577E-01 a       486     0    25     1     6
  9.7182014660709942E-02 a       487     0    25     1     7
 -2.8287264393043277E-01 a       488     0    25     1     8
 -3.2766581824986740E-01 a       489     0    25     1     9
  8.1534479021150841E-01 a       490     0    25     1    10
  4.5434306488443078E-02 a       491     0    25     1    11
 -2.8684264500894707E-01 a       492     0    25     1    12
  4.8281712195769383E-01 a       493     0    25     1    13
 -3.2873789407310200E-01 a       494     0    25     1    14
 -5.2992335527621359E-01 a       495     0    25     1    15
  1.3952354950566219E+00 a       496     0    25     1    16
 -7.3467634144868688E-01 a       497     0    25     1    17
  3.7636939151702367E-02 a       498     0    25     1    18
  3.7238268173605693E-01 a       499     0    25     1    19
  5.2690657161600563E-01 a       500     0    25     1    20
  3.9580363893515220E-02 a       501     0    26     1     1
  3.9562003465617235E-01 a       502     0    26     1     2
 -1.6080149586570791E-01 a       503     0    26     1     3
  4.5706542470164736E-02 a       504     0    26     1     4
  3.6342970467196950E-02 a       505     0    26     1     5
  2.3103204813206435E-01 a       506     0    26     1     6
  1.7042915239408582E-01 a       507     0    26     1     7
 -5.5213522993716475E-03 a       508     0    26     1     8
 -3.7556542866691489E-01 a       509     0    26     1     9
  1.1442296619775288E-01 a       510     0    26     1    10
  5.0440344846428165E-01 a       511     0    26     1    11
  8.2087699256716121E-02 a       512     0    26     1    12
  2.2466452414942223E-01 a       513     0    26     1    13
 -2.6391703156749602E-01 a       514     0    26     1    14
 -3.0870613161376104E-01 a       515     0    26     1    15
  6.7456892416870617E-01 a       516     0    26     1    16
 -3.8201046099296243E-01 a       517     0    26     1    17
 -5.6555375759050931E-02 a       518     0    26     1    18
  1.2789743063623926E-01 a       519     0    26     1    19
  1.3597795429583334E-01 a       520     0    26     1    20
  7.3744672174590709E-01 a       521     0    27     1     1
 -8.7567494256159306E-01 a       522     0    27     1     2
 -3.0882174999704487E-01 a       523     0    27     1     3
  6.5970505163160209E-01 a       524     0    27     1     4
  2.8435423507870566E-01 a       525     0    27     1     5
  2.8814522454936259E-01 a       526     0    27     1     6
 -1.1094735860465363E-01 a       527     0    27     1     7
 -1.4815966655223786E-01 a       528     0    27     1     8
 -4.6933670830639224E-01 a       529     0    27     1     9
 -6.4330061084439027E-01 a       530     0    27     1    10
  4.3109029077374017E-01 a       531     0    27     1    11
 -1.1186529335168578E-01 a       532     0    27     1    12
 -2.6046161395836237E-01 a       533     0    27     1    13
 -1.7925380907027452E-01 a       534     0    27     1    14
 -3.1525258614311441E-01 a       535     0    27     1    15
 -9.2498786640423469E-01 a       536     0    27     1    16
  5.8263119881312597E-01 a       537     0    27     1    17
 -5.6525326972692407E-02 a       538     0    27     1    18
  6.1081684444601554E-02 a       539     0    27     1    19
 -1.5735454394932039E-01 a       540     0    27     1    20
  3.8458155264080231E-02 a       541     0    28     1     1
  4.1953070658278657E-01 a       542     0    28     1     2
 -1.2339868830423681E-01 a       543     0    28     1     3
  2.4326649108710627E-01 a       544     0    28     1     4
 -3.2229539372327648E-01 a       545     0    28     1     5
 -2.5704178760462765E-01 a       546     0    28     1     6
 -5.6194209319196731E-01 a       547     0    28     1     7
  8.2646374555341295E-02 a       548     0    28     1     8
 -8.6901155115847409E-02 a       549     0    28     1     9
 -6.5944326581959922E-01 a       550     0    28     1    10
 -2.4180296524966213E-01 a       551     0    28     1    11
 -1.3983899417623283E-01 a       552     0    28     1    12
  5.7792936874554932E-02 a       553     0    28     1    13
  7.2849257041062571E-03 a       554     0    28     1    14
 -6.7974560782029714E-01 a       555     0    28     1    15
 -8.2031831202541192E-02 a       556     0    28     1    16
  9.9839715140931807E-03 a       557     0    28     1    17
  7.6003880055193179E-02 a       558     0    28     1    18
 -1.1430401632446680E-02 a       559     0    28     1    19
  2.3249779730547471E-01 a       560     0    28     1    20
 -1.0615273952249799E-01 a       561     0    29     1     1
  1.9659344791600661E-01 a       562     0    29     1     2
 -1.4879987644498230E-01 a       563     0    29     1     3
  1.2297909087117108E-01 a       564     0    29     1     4
 -2.6890053520080193E-01 a       565     0    29     1     5
  4.1636414094615125E-02 a       566     0    29     1     6
  2.5066686272218053E-01 a       567     0    29     1     7
  4.8703834237476146E-01 a       568     0    29     1     8
  3.8344137812210422E-01 a       569     0    29     1     9
 -7.6983072795984528E-02 a       570     0    29     1    10
  5.7844262368147784E-02 a       571     0    29     1    11
  1.9518255233135703E-01 a       572     0    29     1    12
 -2.9664993574726978E-03 a       573     0    29     1    13
 -2.8147188117467793E-02 a       574     0    29     1    14
 -1.1513951801429570E-01 a       575     0    29     1    15
 -2.3692847692370014E-01 a       576     0    29     1    16
  4.9912370896008573E-01 a       577     0    29     1    17
  2.4299264419492533E-01 a       578     0    29     1    18
 -2.8796460306329963E-01 a       579     0    29     1    19
 -2.7138366846060852E-01 a       580     0    29     1    20
  3.6173431953319712E-01 a       581     0    30     1     1
 -5.7457161956026859E-01 a       582     0    30     1     2
  4.3337314035882024E-01 a       583     0    30     1     3
  2.4843676900255718E-01 a       584     0    30     1     4
 -1.8338121952524572E-01 a       585     0    30     1     5
  4.5332746203017099E-01 a       586     0    30     1     6
 -2.9289351102220133E-02 a       587     0    30     1     7
 -1.3841464692130936E-01 a       588     0    30     1     8
 -1.5014770246982315E-01 a       589     0    30     1     9
  2.9755280161080766E-01 a       590     0    30     1    10
  8.8353404218248777E-03 a       591     0    30     1    11
 -3.8582273757223262E-01 a       592     0    30     1    12
  7.4212884620952921E-02 a       593     0    30     1    13
 -2.9210351217664487E-01 a       594     0    30     1    14
  5.0038039097409914E-01 a       595     0    30     1    15
  2.9571669713873405E-01 a       596     0    30     1    16
 -1.3695429518074737E-01 a       597     0    30     1    17
  2.1599614761878388E-01 a       598     0    30     1    18
  6.4067265810779997E-02 a       599     0    30     1    19
  1.2612566214796783E-01 a       600     0    30     1    20
 -8.9747763341886791E-02 a       601     0    31     1     1
 -3.1567560990647658E-01 a       602     0    31     1     2
 -1.9261687591042614E-01 a       603     0    31     1     3
 -3.1232835707810352E-01 a       604     0    31     1     4
  1.5796922871423477E-01 a       605     0    31     1     5
  4.6297794595729309E-02 a       606     0    31     1     6
  2.3937708401351798E-01 a       607     0    31     1     7
 -1.6054009476405701E-01 a       608     0    31     1     8
  4.2850851484058988E-01 a       609     0    31     1     9
  4.7167615104225630E-01 a       610     0    31     1    10
 -1.5430448994353688E-01 a       611     0    31     1    11
 -9.8703396521988576E-02 a       612     0    31     1    12
  2.1540057925265735E-01 a       613     0    31     1    13
 -4.9342395734526878E-01 a       614     0    31     1    14
  4.6253612355747031E-01 a       615     0    31     1    15
  1.3333905422634679E-01 a       616     0    31     1    16
  1.4308299922123702E-01 a       617     0    31     1    17
 -1.3143463678603307E-01 a       618     0    31     1    18
 -8.9924836690831095E-02 a       619     0    31     1    19
  6.0991711998360960E-02 a       620     0    31     1    20
 -3.1423623281958724E-01 a       621     0    32     1     1
  1.7711527242564853E-01 a       622     0    32     1     2
 -6.2276785027554349E-01 a       623     0    32     1     3
 -6.2547292247267805E-01 a       624     0    32     1     4
 -7.9460362507571582E-03 a       625     0    32     1     5
  8.7787228013344029E-02 a       626     0    32     1     6
  8.6956536674442486E-01 a       627     0    32     1     7
  5.4455517218425165E-01 a       628     0    32     1     8
 -6.9285926452096899E-02 a       629     0    32     1     9
 -4.8531773290841446E-01 a       630     0    32     1    10
 -2.8213052747419620E-01 a       631     0    32     1    11
  3.2044751623282841E-01 a       632     0    32     1    12
  2.0208785231979001E-01 a       633     0    32     1    13
 -6.7016476731978608E-02 a       634     0    32     1    14
  5.0013514988066998E-01 a       635     0    32     1    15
 -2.8345837882200620E-01 a       636     0    32     1    16
  4.3571699322409857E-01 a       637     0    32     1    17
  4.2969358778713201E-01 a       638     0    32     1    18
  2.3873016426026561E-01 a       639     0    32     1    19
  3.4137007876931913E-02 a       640     0    32     1    20
 -4.2021870541723662E-02 a       641     0    33     1     1
 -5.9185365935995500E-02 a       642     0    33     1     2
  8.9786985492463570E-03 a       643     0    33     1     3
 -4.8373300793652747E-03 a       644     0    33     1     4
 -6.3813109409621885E-02 a       645     0    33     1     5
  2.5633523876665596E-02 a       646     0    33     1     6
 -1.6706446409460091E-01 a       647     0    33     1     7
  1.7676126102119652E-01 a       648     0    33     1     8
 -8.7934819534011499E-01 a       649     0    33     1     9
  1.3562949999161505E-01 a       650     0    33     1    10
  2.0338744595061756E-01 a       651     0    33     1    11
 -2.5197056884691277E-01 a       652     0    33     1    12
  1.1483303660433249E-01 a       653     0    33     1    13
 -1.9272743306060731E-02 a       654     0    33     1    14
  1.4316114318342798E-02 a       655     0    33     1    15
  4.5872927935959856E-01 a       656     0    33     1    16
  7.6011693067693575E-01 a       657     0    33     1    17
 -4.0206673634427603E-01 a       658     0    33     1    18
  2.7621138514890158E-02 a       659     0    33     1    19
 -3.8251447921019824E-02 a       660     0    33     1    20
 -2.6838968139594868E-02 a       661     0    34     1     1
  1.2034640437224614E-01 a       662     0    34     1     2
  4.6079515455204291E-03 a       663     0    34     1     3
 -1.5531909354741397E-01 a       664     0    34     1     4
  2.1984377042755560E-01 a       665     0    34     1     5
 -4.7520995048664888E-02 a       666     0    34     1     6
 -4.4030204894239389E-01 a       667     0    34     1     7
 -4.2192388810191557E-02 a       668     0    34     1     8
 -1.3503174943797888E-01 a       669     0    34     1     9
  9.8445872546646315E-02 a       670     0    34     1    10
  4.4124193793205441E-01 a       671     0    34     1    11
 -2.0294219480854453E-01 a       672     0    34     1    12
 -1.8682495934001994E-02 a       673     0    34     1    13
  7.8641209052032507E-02 a       674     0    34     1    14
  1.4891878677881110E-01 a       675     0    34     1    15
 -1.9472395810676973E-01 a       676     0    34     1    16
 -1.0289286730739475E-01 a       677     0    34     1    17
 -4.9416629275036095E-02 a       678     0    34     1    18
 -8.1015408070560388E-02 a       679     0    34     1    19
  1.0456115943250867E-01 a       680     0    34     1    20
 -3.9678878026886599E-01 a       681     0    35     1     1
 -2.7626322706678589E-02 a       682     0    35     1     2
  6.5124922015728548E-01 a       683     0    35     1     3
  4.0316911020555335E-01 a       684     0    35     1     4
  1.2286715688635427E-01 a       685     0    35     1     5
 -2.7754994273501349E-01 a       686     0    35     1     6
  1.5828478803991768E-03 a       687     0    35     1     7
  3.1218779939237229E-01 a       688     0    35     1     8
  6.9920832706092673E-02 a       689     0    35     1     9
  2.5808447148921032E-01 a       690     0    35     1    10
  8.3821222097542181E-01 a       691     0    35     1    11
 -5.4783925980058365E-02 a       692     0    35     1    12
  4.8231484409398201E-01 a       693     0    35     1    13
  1.2055881193487980E-01 a       694     0    35     1    14
 -1.3610002649537489E-01 a       695     0    35     1    15
 -5.6761083723992489E-01 a       696     0    35     1    16
 -2.3841938625651118E-01 a       697     0    35     1    17
 -2.5663085431113758E-02 a       698     0    35     1    18
  1.1348560008641852E-01 a       699     0    35     1    19
  1.1350692269184871E-01 a       700     0    35     1    20
 -1.5586629957985265E-01 a       701     0    36     1     1
 -7.7956559069127240E-02 a       702     0    36     1     2
 -1.6846914518209025E-01 a       703     0    36     1     3
  3.2919836285348003E-01 a       704     0    36     1     4
  3.7802730619425559E-02 a       705     0    36     1     5
  8.6065637704792669E-02 a       706     0    36     1     6
  1.1311665347197154E-01 a       707     0    36     1     7
  1.0363202611033241E-01 a       708     0    36     1     8
 -1.8875940936020560E-02 a       709     0    36     1     9
 -2.9388549888816007E-01 a       710     0    36     1    10
  1.6068951631721903E-01 a       711     0    36     1    11
  1.7703106081831146E-01 a       712     0    36     1    12
 -4.4445539132578316E-01 a       713     0    36     1    13
  2.0222212145488531E-02 a       714     0    36     1    14
  1.3237438709436630E-01 a       715     0    36     1    15
  1.6611152773604804E-01 a       716     0    36     1    16
 -1.3126602534666471E-01 a       717     0    36     1    17
 -6.3387859250091316E-01 a       718     0    36     1    18
  3.5897074502781290E-01 a       719     0    36     1    19
 -6.6634430251033189E-02 a       720     0    36     1    20
  1.3693538939661873E-01 a       721     0    37     1     1
 -9.5477282748460245E-03 a       722     0    37     1     2
 -5.6257255992560595E-03 a       723     0    37     1     3
  2.9024475021444918E-01 a       724     0    37     1     4
  3.0036259493857444E-02 a       725     0    37     1     5
  1.1651047843712452E-02 a       726     0    37     1     6
  2.0294474696065531E-01 a       727     0    37     1     7
 -5.9265306222232077E-02 a       728     0    37     1     8
  3.3102287043037526E-01 a       729     0    37     1     9
 -6.8565328522141224E-03 a       730     0    37     1    10
 -5.7085561076006486E-01 a       731     0    37     1    11
  1.9917823719982605E-01 a       732     0    37     1    12
 -2.2613347991463867E-01 a       733     0    37     1    13
 -9.1876141380081544E-02 a       734     0    37     1    14
 -2.3675921148294851E-02 a       735     0    37     1    15
 -2.1839392260397583E-01 a       736     0    37     1    16
 -7.5228881518783275E-01 a       737     0    37     1    17
  4.3156281396977531E-01 a       738     0    37     1    18
 -9.8329962378960231E-02 a       739     0    37     1    19
 -3.8709982747009042E-01 a       740     0    37     1    20
 -1.9444149515792729E-02 a       741     0    38     1     1
  1.4552945982686996E-01 a       742     0    38     1     2
  2.6127927977569504E-01 a       743     0    38     1     3
 -4.9566748378779540E-01 a       744     0    38     1     4
 -1.0271864961575540E-01 a       745     0    38     1     5
 -3.2184375516777208E-01 a       746     0    38     1     6
 -5.4078144417690288E-01 a       747     0    38     1     7
 -3.4380662946693591E-01 a       748     0    38     1     8
  3.3472561634655207E-01 a       749     0    38     1     9
  1.3087759267854285E-01 a       750     0    38     1    10
  9.5050172317048831E-01 a       751     0    38     1    11
  1.6957852278312066E-01 a       752     0    38     1    12
 -3.2820100725872026E-01 a       753     0    38     1    13
 -8.5696256753277161E-02 a       754     0    38     1    14
 -2.6868451135452104E-01 a       755     0    38     1    15
 -4.8602121628777084E-02 a       756     0    38     1    16
  3.7731519577737221E-01 a       757     0    38     1    17
 -1.2920595087884440E-01 a       758     0    38     1    18
 -1.9723974134194772E-01 a       759     0    38     1    19
 -2.5125721116747063E-01 a       760     0    38     1    20
 -6.2729614228206484E-02 a       761     0    39     1     1
  1.7808894088342370E-01 a       762     0    39     1     2
  3.3384871925149384E-01 a       763     0    39     1     3
  1.6218898875120860E-01 a       764     0    39     1     4
 -2.7069471902461012E-01 a       765     0    39     1     5
  2.0934313674938122E-02 a       766     0    39     1     6
 -1.7193427869699067E-02 a       767     0    39     1     7
 -6.6572754497943998E-01 a       768     0    39     1     8
 -3.6937413332480773E-01 a       769     0    39     1     9
  1.0697162796658093E-01 a       770     0    39     1    10
  5.3811713073591494E-01 a       771     0    39     1    11
  2.5452072419915435E-02 a       772     0    39     1    12
 -3.1931273332958487E-01 a       773     0    39     1    13
 -2.1745462688176656E-01 a       774     0    39     1    14
 -1.4116668982243889E-02 a       775     0    39     1    15
 -6.8932730093133288E-01 a       776     0    39     1    16
  2.7974723662401979E-01 a       777     0    39     1    17
 -5.6272443330017441E-01 a       778     0    39     1    18
  3.1330964603161099E-01 a       779     0    39     1    19
 -1.0442583006188025E-01 a       780     0    39     1    20
  1.9477322322520774E-01 a       781     0    40     1     1
  7.0451392127152312E-01 a       782     0    40     1     2
 -9.6130308152015060E-04 a       783     0    40     1     3
  3.7279416941795457E-01 a       784     0    40     1     4
  7.5130484145841572E-02 a       785     0    40     1     5
  8.5556434416684216E-02 a       786     0    40     1     6
 -4.1805274265793602E-03 a       787     0    40     1     7
 -4.3532703990836213E-01 a       788     0    40     1     8
 -2.6826333563161647E-01 a       789     0    40     1     9
  2.0869373117389689E-01 a       790     0    40     1    10
  1.2828145295239211E+00 a       791     0    40     1    11
  1.5391356211088275E-01 a       792     0    40     1    12
  6.6108408033673349E-01 a       793     0    40     1    13
 -4.1212678412392650E-01 a       794     0    40     1    14
  3.4518255626034089E-01 a       795     0    40     1    15
  4.6535667331048292E-01 a       796     0    40     1    16
  2.3138262815814697E-01 a       797     0    40     1    17
  5.7148451498280406E-01 a       798     0    40     1    18
 -5.2987248655501314E-02 a       799     0    40     1    19
 -7.1188169804165302E-01 a       800     0    40     1    20
 -1.2155262422526741E-01 a       801     0    41     1     1
 -1.7707612870754352E-01 a       802     0    41     1     2
 -5.6325985269564816E-01 a       803     0    41     1     3
 -1.5548998611834397E-01 a       804     0    41     1     4
  1.4432928213775797E-01 a       805     0    41     1     5
  1.2676689605930941E-01 a       806     0    41     1     6
  2.3081036183835424E-01 a       807     0    41     1     7
  1.7264158490400530E-01 a       808     0    41     1     8
 -9.3881795559976555E-02 a       809     0    41     1     9
 -1.1125759104931612E-01 a       810     0    41     1    10
  2.8212309131214992E-02 a       811     0    41     1    11
  3.5577820396277704E-01 a       812     0    41     1    12
  6.6168724573175172E-02 a       813     0    41     1    13
  3.3763562954863002E-01 a       814     0    41     1    14
  1.0842588316463471E-01 a       815     0    41     1    15
 -3.3245054014762507E-02 a       816     0    41     1    16
  2.5280512203139423E-03 a       817     0    41     1    17
 -1.7081319420820340E-01 a       818     0    41     1    18
 -2.2166485872418332E-01 a       819     0    41     1    19
  5.4520614488312004E-02 a       820     0    41     1    20
 -4.1309844404233131E-01 a       821     0    42     1     1
 -3.5865095298343481E-02 a       822     0    42     1     2
  2.2017967193674131E-03 a       823     0    42     1     3
 -6.1884934564525129E-01 a       824     0    42     1     4
  9.9733249538138974E-02 a       825     0    42     1     5
  8.5266740405586253E-02 a       826     0    42     1     6
  4.0996261262705652E-01 a       827     0    42     1     7
  1.7874635847682757E-01 a       828     0    42     1     8
  4.8602169326594480E-01 a       829     0    42     1     9
 -7.6225933205373175E-01 a       830     0    42     1    10
  6.8064856481601779E-02 a       831     0    42     1    11
  2.8491237680636283E-02 a       832     0    42     1    12
  2.1952431457783061E-01 a       833     0    42     1    13
  1.3364814176653890E-02 a       834     0    42     1    14
 -1.0721957706267468E-01 a       835     0    42     1    15
 -2.7860529890733504E-01 a       836     0    42     1    16
 -1.5879796301521767E-01 a       837     0    42     1    17
 -1.8726467573814315E-01 a       838     0    42     1    18
  1.0201312813763225E-01 a       839     0    42     1    19
 -9.0685728977570657E-02 a       840     0    42     1    20
 -1.2070185619802117E-01 a       841     0    43     1     1
 -7.6869321550213421E-01 a       842     0    43     1     2
  1.0847718430434179E+00 a       843     0    43     1     3
 -1.5303966209829861E-01 a       844     0    43     1     4
 -5.6299442407176359E-01 a       845     0    43     1     5
  2.3760004556516631E-01 a       846     0    43     1     6
 -5.3819382867907684E-01 a       847     0    43     1     7
  5.4983947336201808E-02 a       848     0    43     1     8
  3.7078831435746135E-01 a       849     0    43     1     9
  5.9187030209126268E-01 a       850     0    43     1    10
 -3.2635309830438125E-01 a       851     0    43     1    11
  3.8803081429056691E-01 a       852     0    43     1    12
 -3.2090375056028764E-01 a       853     0    43     1    13
  6.0865940084548509E-01 a       854     0    43     1    14
 -4.0202611150075418E-01 a       855     0    43     1    15
  1.0440868470866939E-01 a       856     0    43     1    16
 -6.4103202244494020E-02 a       857     0    43     1    17
  2.3589923825652637E-01 a       858     0    43     1    18
 -5.7388914781501363E-02 a       859     0    43     1    19
 -3.8423292544398269E-01 a       860     0    43     1    20
  2.0346214875346744E-01 a       861     0    44     1     1
  2.8532889619372148E-01 a       862     0    44     1     2
 -1.6945027286852271E-01 a       863     0    44     1     3
 -6.3586661111092579E-01 a       864     0    44     1     4
 -4.6291715482784684E-02 a       865     0    44     1     5
 -5.2542966150531722E-02 a       866     0    44     1     6
 -5.6744006701612990E-02 a       867     0    44     1     7
 -2.8257755424876568E-01 a       868     0    44     1     8
  6.6390128870609480E-02 a       869     0    44     1     9
 -5.3462846767444110E-02 a       870     0    44     1    10
 -3.2881590293993485E-01 a       871     0    44     1    11
 -2.9558199723530482E-01 a       872     0    44     1    12
  9.2071286178911665E-02 a       873     0    44     1    13
 -2.5739578531525534E-02 a       874     0    44     1    14
 -1.4296100473280118E-01 a       875     0    44     1    15
 -5.2468387707971798E-03 a       876     0    44     1    16
 -2.3816287669945011E-02 a       877     0    44     1    17
  1.5917156932544130E-01 a       878     0    44     1    18
 -4.1588121707645848E-01 a       879     0    44     1    19
  1.2157057717242144E-01 a       880     0    44     1    20
 -3.1834783346054657E-01 a       881     0    45     1     1
 -1.7711784893281030E-01 a       882     0    45     1     2
 -3.7664366029168284E-01 a       883     0    45     1     3
  3.7623816600841731E-01 a       884     0    45     1     4
  3.9360187888170572E-01 a       885     0    45     1     5
 -1.7754183269949847E-01 a       886     0    45     1     6
 -1.0324740641120735E-01 a       887     0    45     1     7
  4.8292590452646622E-01 a       888     0    45     1     8
  1.3964860361204283E-02 a       889     0    45     1     9
 -1.7750882380434876E-01 a       890     0    45     1    10
  9.2540023022601475E-02 a       891     0    45     1    11
 -3.9753759624020052E-01 a       892     0    45     1    12
 -2.3042347033726589E-02 a       893     0    45     1    13
  2.3380493547582909E-01 a       894     0    45     1    14
  3.3031841356358577E-01 a       895     0    45     1    15
  2.6558400082038286E-01 a       896     0    45     1    16
 -2.4843021223324555E-01 a       897     0    45     1    17
  1.3219442985271054E-01 a       898     0    45     1    18
  3.0390540090193398E-02 a       899     0    45     1    19
  1.8016856950922946E-02 a       900     0    45     1    20
 -3.5326878447111310E-01 a       901     0    46     1     1
 -2.5636958566409518E-01 a       902     0    46     1     2
  1.7226944989548493E-01 a       903     0    46     1     3
  1.5663781116663017E-01 a       904     0    46     1     4
 -7.0996147167567011E-02 a       905     0    46     1     5
 -5.0499907568239444E-01 a       906     0    46     1     6
 -7.8028959884395593E-02 a       907     0    46     1     7
  3.9443282086034571E-02 a       908     0    46     1     8
  3.0419920984870980E-01 a       909     0    46     1     9
  1.5972313072349262E-01 a       910     0    46     1    10
 -4.9172194173968720E-01 a       911     0    46     1    11
 -5.2880168864371391E-01 a       912     0    46     1    12
 -9.7068068741594325E-03 a       913     0    46     1    13
 -3.0069240341767128E-01 a       914     0    46     1    14
  3.1742881037843973E-01 a       915     0    46     1    15
 -3.3143264054421773E-01 a       916     0    46     1    16
 -2.6534002793167938E-01 a       917     0    46     1    17
 -1.8175048721604650E-01 a       918     0    46     1    18
  1.8562222906098477E-01 a       919     0    46     1    19
  3.3995754296743251E-02 a       920     0    46     1    20
  6.6614546533434760E-01 b       921     1     1
 -3.9263823887743987E-01 b       922     1     2
  1.9538685360937577E-01 b       923     1     3
 -2.1603953455806280E-02 b       924     1     4
 -2.6419220124265844E-02 b       925     1     5
  3.6959050969072260E-01 b       926     1     6
 -1.2668704626209226E+00 b       927     1     7
  4.5991978781338649E-01 b       928     1     8
  1.4991100336574492E+00 b       929     1     9
 -5.2274988098730713E-01 b       930     1    10
 -1.7744320785376988E+00 b       931     1    11
 -1.7154137512719574E+00 b       932     1    12
  1.3166161299217065E+00 b       933     1    13
 -8.6090609611591329E-01 b       934     1    14
 -1.2975698399294109E+00 b       935     1    15
 -1.3945652624573565E-01 b       936     1    16
  1.2423788911565936E+00 b       937     1    17
 -7.0204238877514091E-01 b       938     1    18
 -1.0730963988881672E+00 b       939     1    19
 -1.3219307413263459E+00 b       940     1    20
 -5.4617504136197736E-01 a       941     1     1     2     1
 -2.3184538413955671E-01 a       942     1     1     2     2
  1.5592586537204531E-01 a       943     1     1     2     3
  3.2407764307673120E-01 a       944     1     1     2     4
  4.2403139142765250E-01 a       945     1     1     2     5
  5.4431824569208842E-01 a       946     1     1     2     6
  9.8508351270120781E-02 a       947     1     1     2     7
 -1.1127970170375696E-01 a       948     1     1     2     8
  2.1911726415269658E-02 a       949     1     1     2     9
  1.7199320426754658E-01 a       950     1     1     2    10
 -4.9705704337372408E-01 a       951     1     1     2    11
 -5.6765427494552198E-02 a       952     1     1     2    12
  5.8053835825301514E-01 a       953     1     1     2    13
  4.8640145785392380E-01 a       954     1     1     2    14
 -5.1405939482325924E-01 a       955     1     1     2    15
  8.1481169306902523E-01 a       956     1     1     2    16
 -8.1898659130937068E-01 a       957     1     1     2    17
  2.8228037949305201E-01 a       958     1     1     2    18
  2.4450530160965725E-01 a       959     1     1     2    19
 -3.4408630267095502E-01 a       960     1     1     2    20
  9.5599558056736686E-02 a       961     1     2     2     1
 -3.6569656268194389E-01 a       962     1     2     2     2
 -6.4771173411524371E-02 a       963     1     2     2     3
  2.9131052505128641E-01 a       964     1     2     2     4
 -1.9213395546863585E-01 a       965     1     2     2     5
 -2.2928368683409400E-01 a       966     1     2     2     6
 -4.2147872305414985E-01 a       967     1     2     2     7
 -8.7907613490875905E-02 a       968     1     2     2     8
  4.5228687495032582E-01 a       969     1     2     2     9
  1.7255536144317876E-01 a       970     1     2     2    10
  2.9599747369249191E-01 a       971     1     2     2    11
 -1.2935011935545715E-01 a       972     1     2     2    12
  7.0039986274341803E-01 a       973     1     2     2    13
 -8.4274977481737762E-02 a       974     1     2     2    14
 -5.8953787251430045E-01 a       975     1     2     2    15
 -4.2851487507750197E-01 a       976     1     2     2    16
 -7.2832775554990137E-01 a       977     1     2     2    17
  3.9529234248574151E-02 a       978     1     2     2    18
 -8.2010128214395484E-01 a       979     1     2     2    19
  4.1968623723216986E-01 a       980     1     2     2    20
 -5.2440778593989545E-01 a       981     1     3     2     1
 -1.0539812163418046E-01 a       982     1     3     2     2
  3.8346054235801014E-01 a       983     1     3     2     3
  3.5370240338876563E-01 a       984     1     3     2     4
 -3.1585820196742587E-01 a       985     1     3     2     5
 -5.5910308458786070E-02 a       986     1     3     2     6
 -3.8662094634600275E-01 a       987     1     3     2     7
  2.4223593671855606E-01 a       988     1     3     2     8
  4.7751440010959367E-01 a       989     1     3     2     9
  6.7512733020828941E-02 a       990     1     3     2    10
  1.4005821112260083E-01 a       991     1     3     2    11
  1.0979089262420225E-01 a       992     1     3     2    12
 -9.2175009870845748E-01 a       993     1     3     2    13
  3.1148581507359463E-01 a       994     1     3     2    14
 -3.0777639501289859E-02 a       995     1     3     2    15
 -1.4899441273686168E-01 a       996     1     3     2    16
 -2.3349178425622968E-01 a       997     1     3     2    17
  4.9693795169661659E-01 a       998     1     3     2    18
  3.8413602976167921E-01 a       999     1     3     2    19
  5.6591277368145043E-01 a      1000     1     3     2    20
  7.3380562341094260E-02 a      1001     1     4     2     1
 -3.0597827409672763E-03 a      1002     1     4     2     2
 -2.1048122635975605E-01 a      1003     1     4     2     3
 -9.8949050050955223E-01 a      1004     1     4     2     4
  3.9990356315657688E-01 a      1005     1     4     2     5
 -2.5123508952172502E-01 a      1006     1     4     2     6
  4.5690532120312793E-01 a      1007     1     4     2     7
 -3.3609668535160903E-01 a      1008     1     4     2     8
 -2.4790910008899189E-01 a      1009     1     4     2     9
  2.3631989130378858E-01 a      1010     1     4     2    10
  1.9843600455346921E-01 a      1011     1     4     2    11
 -2.5066958022537911E-01 a      1012     1     4     2    12
 -5.4853817441445067E-02 a      1013     1     4     2    13
 -3.3506790159506211E-01 a      1014     1     4     2    14
  2.3567386070521912E-01 a      1015     1     4     2    15
  1.1909361783269733E-01 a      1016     1     4     2    16
  4.1179296991403147E-01 a      1017     1     4     2    17
 -5.1733316308975219E-01 a      1018     1     4     2    18
 -2.2355643183827486E-02 a      1019     1     4     2    19
 -5.8790006792215251E-02 a      1020     1     4     2    20
 -3.1902812254205598E-01 a      1021     1     5     2     1
  9.3746974596285768E-02 a      1022     1     5     2     2
 -5.2568204256356232E-01 a      1023     1     5     2     3
  2.1015304448688868E-01 a      1024     1     5     2     4
  8.6309260625816031E-01 a      1025     1     5     2     5
  3.7852058970335341E-02 a      1026     1     5     2     6
 -7.7598332202483300E-01 a      1027     1     5     2     7
 -1.4464963054571772E-01 a      1028     1     5     2     8
  4.7820800770783656E-01 a      1029     1     5     2     9
  5.2664818617999831E-01 a      1030     1     5     2    10
  4.0635133341096495E-02 a      1031     1     5     2    11
  1.1318182698194564E-01 a      1032     1     5     2    12
 -5.0148607943094736E-01 a      1033     1     5     2    13
  1.0196815180678523E-01 a      1034     1     5     2    14
  4.5687814421762757E-01 a      1035     1     5     2    15
 -6.8485571989270644E-01 a      1036     1     5     2    16
  1.0449685807920099E-01 a      1037     1     5     2    17
  1.0015889362540313E-01 a      1038     1     5     2    18
  3.7844766129430302E-01 a      1039     1     5     2    19
  5.9628765223400526E-01 a      1040     1     5     2    20
  2.7487042599817485E-01 a      1041     1     6     2     1
 -3.6973830321758100E-01 a      1042     1     6     2     2
 -7.9721472206918262E-02 a      1043     1     6     2     3
 -4.4401437878827145E-02 a      1044     1     6     2     4
  3.1702368024249394E-01 a      1045     1     6     2     5
  7.6733018185421942E-02 a      1046     1     6     2     6
  2.8067558297639371E-02 a      1047     1     6     2     7
  5.3409963635340330E-01 a      1048     1     6     2     8
  1.4448606589466742E-01 a      1049     1     6     2     9
  2.3754478788500627E-01 a      1050     1     6     2    10
 -5.1966321062353060E-01 a      1051     1     6     2    11
 -8.1928361908782318E-02 a      1052     1     6     2    12
 -6.6810583826077274E-01 a      1053     1     6     2    13
  3.8882398712998589E-01 a      1054     1     6     2    14
  2.8828088787675216E-01 a      1055     1     6     2    15
 -6.3156469763830803E-01 a      1056     1     6     2    16
 -6.2547370425267934E-01 a      1057     1     6     2    17
 -6.5836281565039900E-01 a      1058     1     6     2    18
 -7.3389167085868023E-01 a      1059     1     6     2    19
 -9.2229489102816475E-01 a      1060     1     6     2    20
 -5.2977081029372386E-01 a      1061     1     7     2     1
  3.2531085259342463E-01 a      1062     1     7     2     2
  1.8777631884387577E-01 a      1063     1     7     2     3
  7.9136959666803197E-01 a      1064     1     7     2     4
 -4.3983741425954254E-01 a      1065     1     7     2     5
 -6.5725114674451834E-01 a      1066     1     7     2     6
  1.3724964143989937E-01 a      1067     1     7     2     7
  4.0066970894753473E-01 a      1068     1     7     2     8
  3.0971533475376845E-01 a      1069     1     7     2     9
  3.4180754304778971E-01 a      1070     1     7     2    10
  6.5333719768784704E-01 a      1071     1     7     2    11
  8.1397073070347015E-01 a      1072     1     7     2    12
 -3.8257006759619300E-01 a      1073     1     7     2    13
 -6.2417516467291212E-01 a      1074     1     7     2    14
  3.1476802746202981E-01 a      1075     1     7     2    15
 -6.3268220292126892E-02 a      1076     1     7     2    16
 -6.5452841183082144E-01 a      1077     1     7     2    17
  1.2389423918809715E-01 a      1078     1     7     2    18
 -2.9358995299750223E-01 a      1079     1     7     2    19
 -7.1243256426375023E-01 a      1080     1     7     2    20
  6.0821354736756872E-02 a      1081     1     8     2     1
  8.3252334653791130E-02 a      1082     1     8     2     2
 -4.7806706061309667E-01 a      1083     1     8     2     3
  1.9902287525789389E-01 a      1084     1     8     2     4
  5.1432644666720428E-01 a      1085     1     8     2     5
  9.6732630026986566E-01 a      1086     1     8     2     6
 -3.2630910094306909E-01 a      1087     1     8     2     7
  1.1010439528029032E+00 a      1088     1     8     2     8
 -6.8745920181887576E-01 a      1089     1     8     2     9
 -7.3291061499445398E-01 a      1090     1     8     2    10
  1.8417887429885207E-01 a      1091     1     8     2    11
  6.9535182964101649E-01 a      1092     1     8     2    12
  7.8916137922946342E-02 a      1093     1     8     2    13
  7.2317190774024476E-01 a      1094     1     8     2    14
 -6.4644450207683246E-01 a      1095     1     8     2    15
 -8.0360749006927112E-01 a      1096     1     8     2    16
  8.2182111677854741E-01 a      1097     1     8     2    17
 -3.5944023638228007E-01 a      1098     1     8     2    18
  6.5106889938235424E-01 a      1099     1     8     2    19
  3.7643033684344451E-01 a      1100     1     8     2    20
  1.6114558836350351E-01 a      1101     1     9     2     1
  2.2987479735069963E-01 a      1102     1     9     2     2
  1.0971778100203522E+00 a      1103     1     9     2     3
  5.4685544468507974E-01 a      1104     1     9     2     4
 -4.7018486776645613E-01 a      1105     1     9     2     5
  5.2561882627492940E-01 a      1106     1     9     2     6
 -6.7677253827895556E-01 a      1107     1     9     2     7
  7.8929355803903167E-01 a      1108     1     9     2     8
 -4.3042015265699773E-01 a      1109     1     9     2     9
 -4.6422119764929098E-01 a      1110     1     9     2    10
  1.2746498692924360E-01 a      1111     1     9     2    11
  2.5384165507896267E-01 a      1112     1     9     2    12
  1.4086788530625391E-01 a      1113     1     9     2    13
  3.1275091794168886E-01 a      1114     1     9     2    14
  5.0817598004497910E-01 a      1115     1     9     2    15
 -6.5243692012387622E-01 a      1116     1     9     2    16
  5.6036428982619502E-01 a      1117     1     9     2    17
 -3.3193482188436485E-01 a      1118     1     9     2    18
 -2.9186622062234224E-01 a      1119     1     9     2    19
  1.2039318095002771E-01 a      1120     1     9     2    20
 -2.0465198723072803E-01 a      1121     1    10     2     1
 -3.0611351962852712E-01 a      1122     1    10     2     2
  3.9033564631935558E-01 a      1123     1    10     2     3
  5.6991367101438628E-01 a      1124     1    10     2     4
  1.7351671394284754E-01 a      1125     1    10     2     5
 -9.5288148780249660E-02 a      1126     1    10     2     6
  5.0680815664981682E-01 a      1127     1    10     2     7
 -3.0502640495304267E-01 a      1128     1    10     2     8
  8.5940344995511855E-02 a      1129     1    10     2     9
  3.2938770231303921E-01 a      1130     1    10     2    10
  2.8898659043162456E-01 a      1131     1    10     2    11
 -1.1318981867261077E-01 a      1132     1    10     2    12
 -8.8063266017597452E-01 a      1133     1    10     2    13
 -5.4900313984204019E-01 a      1134     1    10     2    14
 -2.8508112102448224E-01 a      1135     1    10     2    15
  7.1608043033083624E-01 a      1136     1    10     2    16
 -3.8214590836953988E-01 a      1137     1    10     2    17
 -3.5259971636126503E-01 a      1138     1    10     2    18
  9.6629371191876673E-02 a      1139     1    10     2    19
 -2.7269277051255414E-01 a      1140     1    10     2    20
 -1.8495994108919132E-02 a      1141     1    11     2     1
  2.0253260285505784E-01 a      1142     1    11     2     2
  1.7644581717588685E+00 a      1143     1    11     2     3
  7.7726359783974783E-02 a      1144     1    11     2     4
 -1.8518396034347076E-01 a      1145     1    11     2     5
  1.2470547252620423E-02 a      1146     1    11     2     6
  3.6339631148559265E-01 a      1147     1    11     2     7
  9.4878839186918904E-02 a      1148     1    11     2     8
 -4.3025179779117372E-02 a      1149     1    11     2     9
 -3.6304828226386932E-01 a      1150     1    11     2    10
  2.2454589526986046E-01 a      1151     1    11     2    11
  2.3243014203891846E-01 a      1152     1    11     2    12
  8.7857102915998386E-01 a      1153     1    11     2    13
 -1.7995500659891051E-01 a      1154     1    11     2    14
  5.8018394552733921E-01 a      1155     1    11     2    15
  4.1876790150386367E-01 a      1156     1    11     2    16
  3.7151842085378167E-01 a      1157     1    11     2    17
 -3.8231869931899733E-02 a      1158     1    11     2    18
  3.0668307376344955E-01 a      1159     1    11     2    19
  5.2799033138675594E-02 a      1160     1    11     2    20
  6.0307926357055264E-01 a      1161     1    12     2     1
 -1.7356724992033173E-01 a      1162     1    12     2     2
 -9.8345181432266127E-01 a      1163     1    12     2     3
 -6.1190879646112306E-01 a      1164     1    12     2     4
  6.5682492355084210E-01 a      1165     1    12     2     5
  3.2369394268994889E-01 a      1166     1    12     2     6
 -1.2920489146888309E-01 a      1167     1    12     2     7
 -1.7906553140623957E-01 a      1168     1    12     2     8
  5.8313139042414464E-01 a      1169     1    12     2     9
 -4.1077114538653275E-01 a      1170     1    12     2    10
  4.0455479175320935E-01 a      1171     1    12     2    11
  6.9978832496408983E-01 a      1172     1    12     2    12
  3.4079608761655344E-01 a      1173     1    12     2    13
 -2.0858833973961186E-01 a      1174     1    12     2    14
  2.0702748697975318E-01 a      1175     1    12     2    15
  2.1659724015655805E-02 a      1176     1    12     2    16
 -3.5670491162670587E-01 a      1177     1    12     2    17
 -5.1178862278243353E-01 a      1178     1    12     2    18
  6.6138223351386460E-01 a      1179     1    12     2    19
 -1.4245689869523701E-01 a      1180     1    12     2    20
 -4.9597510811035778E-01 a      1181     1    13     2     1
 -2.4554988258191687E-02 a      1182     1    13     2     2
 -1.2944652339745558E-01 a      1183     1    13     2     3
  3.2723925365322859E-01 a      1184     1    13     2     4
 -7.2636664855069355E-01 a      1185     1    13     2     5
  1.5543016788411543E-01 a      1186     1    13     2     6
 -2.2378513069257866E-01 a      1187     1    13     2     7
  4.3659197596281957E-01 a      1188     1    13     2     8
 -1.9378811037982013E-01 a      1189     1    13     2     9
  5.9428142356265046E-01 a      1190     1    13     2    10
 -4.8925244632130771E-01 a      1191     1    13     2    11
 -1.6855864211893015E-01 a      1192     1    13     2    12
  1.2937806888621628E-01 a      1193     1    13     2    13
 -1.6955201629924777E-01 a      1194     1    13     2    14
 -4.2443804778732463E-01 a      1195     1    13     2    15
  4.7893833132278657E-01 a      1196     1    13     2    16
 -8.6306002530900983E-01 a      1197     1    13     2    17
 -7.1747724644882627E-01 a      1198     1    13     2    18
 -7.9862118968838366E-02 a      1199     1    13     2    19
  9.8983703265248482E-02 a      1200     1    13     2    20
  9.6193676806579642E-01 a      1201     1    14     2     1
 -6.6332636818439303E-02 a      1202     1    14     2     2
  7.9407927569937575E-01 a      1203     1    14     2     3
 -2.6177587430296603E-02 a      1204     1    14     2     4
  1.1399710515396061E-02 a      1205     1    14     2     5
  2.4971854779494501E-01 a      1206     1    14     2     6
  2.6683712231723050E-01 a      1207     1    14     2     7
  7.4243079850379678E-01 a      1208     1    14     2     8
  1.2931059853876609E-01 a      1209     1    14     2     9
 -7.4196319687048362E-01 a      1210     1    14     2    10
 -1.5243039641538286E-01 a      1211     1    14     2    11
 -2.9387016930348636E-01 a      1212     1    14     2    12
 -3.5892720041254722E-01 a      1213     1    14     2    13
  1.3606788663118843E-01 a      1214     1    14     2    14
  4.8409396554604567E-01 a      1215     1    14     2    15
  2.2767283404310457E-01 a      1216     1    14     2    16
  8.4363214932918218E-01 a      1217     1    14     2    17
 -1.8259546679738273E-01 a      1218     1    14     2    18
  4.2029082670147805E-01 a      1219     1    14     2    19
 -2.1868683364678695E-01 a      1220     1    14     2    20
  7.6739454540418883E-01 a      1221     1    15     2     1
 -1.6267680268395542E-02 a      1222     1    15     2     2
 -3.6108469716596669E-01 a      1223     1    15     2     3
 -4.5227826072763277E-01 a      1224     1    15     2     4
  4.9015570867571795E-01 a      1225     1    15     2     5
 -1.3432478858610011E-01 a      1226     1    15     2     6
 -2.7175225356078719E-01 a      1227     1    15     2     7
 -7.7028462608110485E-02 a      1228     1    15     2     8
  2.1242808896099905E-01 a      1229     1    15     2     9
 -4.1871799551613248E-01 a      1230     1    15     2    10
 -2.9392065207115659E-01 a      1231     1    15     2    11
 -8.4068423778506360E-02 a      1232     1    15     2    12
  3.6179957482627867E-01 a      1233     1    15     2    13
 -6.7909431655037422E-01 a      1234     1    15     2    14
  3.8314249070440098E-01 a      1235     1    15     2    15
  6.3262286263331280E-01 a      1236     1    15     2    16
  6.7787734148323064E-01 a      1237     1    15     2    17
  4.8709236645829151E-01 a      1238     1    15     2    18
  4.3297243195364443E-01 a      1239     1    15     2    19
  5.8296548081168609E-01 a      1240     1    15     2    20
  2.6736512165486159E-01 a      1241     1    16     2     1
  4.9282870456848610E-01 a      1242     1    16     2     2
 -5.4979401348611479E-01 a      1243     1    16     2     3
  4.0296348995750775E-01 a      1244     1    16     2     4
 -3.8134084171978766E-01 a      1245     1    16     2     5
  5.2039039369201967E-01 a      1246     1    16     2     6
 -1.2413040048026747E-01 a      1247     1    16     2     7
 -6.7007043381884776E-02 a      1248     1    16     2     8
  2.5324928688666198E-01 a      1249     1    16     2     9
 -2.9121715508286322E-01 a      1250     1    16     2    10
  2.0075820059612465E-01 a      1251     1    16     2    11
  3.9895123979106439E-01 a      1252     1    16     2    12
 -6.0210206988291981E-01 a      1253     1    16     2    13
 -4.5858015723220041E-01 a      1254     1    16     2    14
  7.2946776884259401E-01 a      1255     1    16     2    15
  5.1891858433443883E-01 a      1256     1    16     2    16
 -7.2531326992659906E-01 a      1257     1    16     2    17
 -6.8991793096232068E-01 a      1258     1    16     2    18
 -2.2713300394321478E-01 a      1259     1    16     2    19
  4.1460779162934042E-01 a      1260     1    16     2    20
  4.2147205341369248E-01 a      1261     1    17     2     1
 -3.7873956653917140E-01 a      1262     1    17     2     2
  4.4207249813246097E-01 a      1263     1    17     2     3
 -3.3503479714607196E-02 a      1264     1    17     2     4
 -6.8959522915281612E-01 a      1265     1    17     2     5
 -1.6732964393624808E-01 a      1266     1    17     2     6
 -7.8123279804685267E-02 a      1267     1    17     2     7
  2.3623059909392213E-01 a      1268     1    17     2     8
  4.0250457810660911E-01 a      1269     1    17     2     9
  1.3914605644488603E-01 a      1270     1    17     2    10
 -4.9846802335075702E-01 a      1271     1    17     2    11
 -6.2266524583014204E-01 a      1272     1    17     2    12
 -5.2251846468987706E-01 a      1273     1    17     2    13
  6.5689641860620068E-02 a      1274     1    17     2    14
  1.0012350101133862E+00 a      1275     1    17     2    15
 -7.5442009857057368E-01 a      1276     1    17     2    16
 -4.7667462550468903E-01 a      1277     1    17     2    17
 -4.0207024227308341E-01 a      1278     1    17     2    18
 -5.3842573731164645E-01 a      1279     1    17     2    19
 -1.2683546374267529E-01 a      1280     1    17     2    20
 -1.3901066020772733E-02 a      1281     1    18     2     1
  1.6993047355950389E-01 a      1282     1    18     2     2
  3.5723025433371852E-01 a      1283     1    18     2     3
  3.2531262452628651E-01 a      1284     1    18     2     4
  4.5096145741725546E-01 a      1285     1    18     2     5
 -6.0261681392254060E-02 a      1286     1    18     2     6
  3.2381246149161588E-02 a      1287     1    18     2     7
  2.2813239717530401E-01 a      1288     1    18     2     8
 -9.3611896613935053E-01 a      1289     1    18     2     9
 -4.0549265040691335E-01 a      1290     1    18     2    10
  6.3827302502061878E-01 a      1291     1    18     2    11
  4.4400076354821050E-01 a      1292     1    18     2    12
  8.5354897524677820E-01 a      1293     1    18     2    13
 -3.3712621506437890E-01 a      1294     1    18     2    14
  5.1089294610692459E-01 a      1295     1    18     2    15
  2.2528963527197045E-03 a      1296     1    18     2    16
  1.0114323688056224E+00 a      1297     1    18     2    17
 -5.8427514842775835E-02 a      1298     1    18     2    18
  4.8425465893495817E-01 a      1299     1    18     2    19
  1.2255634797321286E+00 a      1300     1    18     2    20
 -1.4957758083344497E-01 a      1301     1    19     2     1
 -4.6773253045804880E-01 a      1302     1    19     2     2
  7.8826867551945540E-02 a      1303     1    19     2     3
  2.3662968206125257E-01 a      1304     1    19     2     4
 -6.2886348885471144E-01 a      1305     1    19     2     5
  1.0950054046214547E-01 a      1306     1    19     2     6
 -2.5092264784553525E-01 a      1307     1    19     2     7
 -1.0398350233892106E-01 a      1308     1    19     2     8
 -2.6830730215465979E-02 a      1309     1    19     2     9
 -2.8707926451046317E-02 a      1310     1    19     2    10
  5.8823121136624035E-01 a      1311     1    19     2    11
  1.1113232436096754E-01 a      1312     1    19     2    12
  2.7831357273957569E-01 a      1313     1    19     2    13
  1.3081494526278983E-01 a      1314     1    19     2    14
 -4.9712664427989106E-01 a      1315     1    19     2    15
 -2.1155137004687058E-01 a      1316     1    19     2    16
  5.3500694897278406E-02 a      1317     1    19     2    17
  5.8356744753130452E-01 a      1318     1    19     2    18
  1.7380335991308341E-01 a      1319     1    19     2    19
  2.4405362175857015E-01 a      1320     1    19     2    20
 -3.4712478607911990E-01 a      1321     1    20     2     1
  5.5923095017257263E-01 a      1322     1    20     2     2
 -4.5037126982263431E-01 a      1323     1    20     2     3
  4.1843826883732414E-02 a      1324     1    20     2     4
  3.3420652053856949E-02 a      1325     1    20     2     5
 -4.3203283968032336E-01 a      1326     1    20     2     6
  4.6798778568946653E-01 a      1327     1    20     2     7
 -5.3074254887596262E-01 a      1328     1    20     2     8
  6.6475149223564589E-01 a      1329     1    20     2     9
  4.3909407794989702E-01 a      1330     1    20     2    10
  4.6337880252591546E-01 a      1331     1    20     2    11
  6.1834196527533858E-01 a      1332     1    20     2    12
  5.9338649988754799E-01 a      1333     1    20     2    13
 -2.8464316088823810E-01 a      1334     1    20     2    14
 -2.4977147277534220E-01 a      1335     1    20     2    15
  3.4819481039731981E-01 a      1336     1    20     2    16
 -4.6830460858277567E-01 a      1337     1    20     2    17
  2.4421636448580486E-01 a      1338     1    20     2    18
  9.9722685093970267E-02 a      1339     1    20     2    19
  6.2032138774097967E-01 a      1340     1    20     2    20
 -9.9030604206538442E-01 b      1341     2     1
 -1.5163703132257567E+00 b      1342     2     2
 -7.2775499977964275E-01 b      1343     2     3
  1.0364380218522260E+00 b      1344     2     4
 -1.5126752624315039E+00 b      1345     2     5
  5.4459244902109447E-02 b      1346     2     6
  1.2210099656818727E+00 b      1347     2     7
  4.4196029298955480E-01 b      1348     2     8
 -6.4270700645737411E-01 b      1349     2     9
  4.5499216912211354E-01 b      1350     2    10
  4.0996764177202305E-01 b      1351     2    11
  8.0461483156965205E-02 b      1352     2    12
  9.0525129261686677E-01 b      1353     2    13
 -1.2890479069531875E+00 b      1354     2    14
  1.2226170168118795E+00 b      1355     2    15
 -7.3745806694365021E-02 b      1356     2    16
  1.9690576670322044E-01 b      1357     2    17
  8.2997258150161202E-01 b      1358     2    18
 -3.7194730954790678E-01 b      1359     2    19
 -9.9080090262309473E-01 b      1360     2    20
 -1.0280660622179598E+00 a      1361     2     1     3     1
 -1.3168030325456552E+00 a      1362     2     2     3     1
  2.2102630443092955E-01 a      1363     2     3     3     1
  6.0110884304565615E-01 a      1364     2     4     3     1
 -9.5987748021578323E-01 a      1365     2     5     3     1
  4.5756139138436774E-01 a      1366     2     6     3     1
  4.5630999549433748E-01 a      1367     2     7     3     1
  7.4780018352284583E-01 a      1368     2     8     3     1
 -4.0912781213699284E-01 a      1369     2     9     3     1
  4.7715431794655250E-01 a      1370     2    10     3     1
 -9.2859852057245440E-01 a      1371     2    11     3     1
 -9.7946838898185462E-01 a      1372     2    12     3     1
  7.3469767939455158E-02 a      1373     2    13     3     1
  6.8008018941863613E-01 a      1374     2    14     3     1
 -4.7968101318099299E-01 a      1375     2    15     3     1
 -1.5890515005810393E+00 a      1376     2    16     3     1
  4.6340249711371206E-01 a      1377     2    17     3     1
 -2.0849395795742109E-01 a      1378     2    18     3     1
 -1.4044309591744273E+00 a      1379     2    19     3     1
 -1.7036566383741407E+00 a      1380     2    20     3     1
  5.8491279528149187E-01 b      1381     3     1
