################################################################################
# Neural network connection values (weights and biases).
################################################################################
# Col  Name       Description
################################################################################
# 1    connection Neural network connection value.
# 2    t          Connection type (a = weight, b = bias).
# 3    index      Index enumerating weights.
# 4    l_s        Starting point layer (end point layer for biases).
# 5    n_s        Starting point neuron in starting layer (end point neuron for biases).
# 6    l_e        End point layer.
# 7    n_e        End point neuron in end layer.
################################################################################
#                      1 2         3     4     5     6     7
#             connection t     index   l_s   n_s   l_e   n_e
############################################################
 -2.0747768921532128E-01 a         1     0     1     1     1
  3.4731366829491728E-01 a         2     0     1     1     2
 -4.0005646749733570E-01 a         3     0     1     1     3
  1.0353997825857957E-01 a         4     0     1     1     4
 -4.3401207369751316E-01 a         5     0     1     1     5
 -2.1397771601208976E-01 a         6     0     1     1     6
 -3.2963507448732710E-01 a         7     0     1     1     7
 -1.6336904112348263E-01 a         8     0     1     1     8
  2.2186953993217817E-01 a         9     0     1     1     9
  2.4881846644025965E-01 a        10     0     1     1    10
  5.1512464218434761E-01 a        11     0     1     1    11
 -1.5300465173796068E-01 a        12     0     1     1    12
 -4.5079524063014736E-01 a        13     0     1     1    13
  1.4984587201201316E-01 a        14     0     1     1    14
 -1.3434522017413875E-01 a        15     0     1     1    15
  4.8891228719604002E-01 a        16     0     1     1    16
  2.4959052180156296E-01 a        17     0     1     1    17
 -5.4869311907868007E-02 a        18     0     1     1    18
  3.0473761080544320E-01 a        19     0     1     1    19
  3.1402578147670340E-01 a        20     0     1     1    20
 -9.8786330801786879E-02 a        21     0     2     1     1
 -1.4258259553754876E-01 a        22     0     2     1     2
 -1.5894821716352220E-01 a        23     0     2     1     3
 -2.6899556787737905E-01 a        24     0     2     1     4
 -1.9727360389861676E-01 a        25     0     2     1     5
  8.8292427923522647E-03 a        26     0     2     1     6
 -2.9661045861670815E-01 a        27     0     2     1     7
  1.5850850964960239E-01 a        28     0     2     1     8
  3.1910497445922487E-01 a        29     0     2     1     9
  1.4441173936570820E-01 a        30     0     2     1    10
 -3.4655956711326881E-02 a        31     0     2     1    11
  1.2682226130175431E-01 a        32     0     2     1    12
  3.5214271051994636E-02 a        33     0     2     1    13
 -1.4381240772066375E-01 a        34     0     2     1    14
  3.4055768762356714E-01 a        35     0     2     1    15
  3.7290948457418829E-02 a        36     0     2     1    16
  1.5940141589220289E-03 a        37     0     2     1    17
 -2.5843616443364065E-01 a        38     0     2     1    18
 -2.6408659069606993E-01 a        39     0     2     1    19
 -2.0538848066833731E-01 a        40     0     2     1    20
 -2.7778876108373168E-01 a        41     0     3     1     1
  2.5557572649850541E-01 a        42     0     3     1     2
  2.5981586132352952E-01 a        43     0     3     1     3
 -5.0307250005173047E-02 a        44     0     3     1     4
 -5.1948685383622573E-02 a        45     0     3     1     5
  1.1571297015143567E-01 a        46     0     3     1     6
 -6.9559272342370526E-02 a        47     0     3     1     7
 -2.6877180833091312E-02 a        48     0     3     1     8
 -1.1062949961777113E-01 a        49     0     3     1     9
  7.7671162300191020E-03 a        50     0     3     1    10
 -2.8236657582675773E-01 a        51     0     3     1    11
  2.6010220096489345E-01 a        52     0     3     1    12
 -2.3808524680686174E-01 a        53     0     3     1    13
 -1.2517302997834748E-01 a        54     0     3     1    14
  7.7810441423212164E-03 a        55     0     3     1    15
 -4.5743990585601829E-01 a        56     0     3     1    16
 -1.4674015991343581E-01 a        57     0     3     1    17
  3.7137401035811320E-02 a        58     0     3     1    18
 -2.2249345290280437E-01 a        59     0     3     1    19
 -6.2230491352890749E-01 a        60     0     3     1    20
 -1.5665807009918209E-01 a        61     0     4     1     1
 -5.4858135588558135E-02 a        62     0     4     1     2
  1.8904097750499854E-01 a        63     0     4     1     3
  2.6372942378862196E-01 a        64     0     4     1     4
 -2.6989871826025430E-01 a        65     0     4     1     5
  2.3116047567586406E-01 a        66     0     4     1     6
  4.6766198961025646E-01 a        67     0     4     1     7
 -4.0262651917852665E-01 a        68     0     4     1     8
 -4.3318478280582007E-01 a        69     0     4     1     9
 -5.1828156679601600E-01 a        70     0     4     1    10
 -5.4623112855751499E-01 a        71     0     4     1    11
 -2.2575702382168947E-01 a        72     0     4     1    12
 -1.9680039831219887E-01 a        73     0     4     1    13
 -2.4573648960598038E-01 a        74     0     4     1    14
 -3.8751551808252360E-01 a        75     0     4     1    15
 -5.8180498071286735E-01 a        76     0     4     1    16
 -1.0521282362154721E-01 a        77     0     4     1    17
 -1.5355172093605221E-01 a        78     0     4     1    18
 -1.4813953003327870E-01 a        79     0     4     1    19
 -8.2726722773674641E-03 a        80     0     4     1    20
  5.0510921206496018E-01 a        81     0     5     1     1
  1.2050223400598940E-02 a        82     0     5     1     2
  2.8091643196584948E-01 a        83     0     5     1     3
 -2.9104852129465470E-02 a        84     0     5     1     4
  1.5902799127876038E-01 a        85     0     5     1     5
 -5.4878075741558885E-01 a        86     0     5     1     6
  4.8619939754668534E-01 a        87     0     5     1     7
  6.6717334883850524E-02 a        88     0     5     1     8
  5.6683622266666100E-01 a        89     0     5     1     9
  1.7961627594145480E-02 a        90     0     5     1    10
 -5.6972915164110327E-01 a        91     0     5     1    11
  2.6325600199012084E-01 a        92     0     5     1    12
  5.1465134396681422E-01 a        93     0     5     1    13
  1.3348597605439297E-01 a        94     0     5     1    14
 -1.2356077695288405E-01 a        95     0     5     1    15
 -4.1640608756424231E-02 a        96     0     5     1    16
  3.0075173620566398E-01 a        97     0     5     1    17
 -3.0071549258834512E-01 a        98     0     5     1    18
 -2.2610429934559151E-01 a        99     0     5     1    19
  4.6215690385631986E-01 a       100     0     5     1    20
  3.2131073293288576E-01 a       101     0     6     1     1
 -3.0397509429225550E-01 a       102     0     6     1     2
  4.9134010970710673E-01 a       103     0     6     1     3
 -3.0779230007333791E-01 a       104     0     6     1     4
  5.8133092548059617E-01 a       105     0     6     1     5
 -2.2298645683864426E-01 a       106     0     6     1     6
  5.6376180792661246E-01 a       107     0     6     1     7
 -1.7074551758294101E-01 a       108     0     6     1     8
  5.5950726954655183E-01 a       109     0     6     1     9
 -1.9747561787689752E-01 a       110     0     6     1    10
 -6.7347396334537635E-01 a       111     0     6     1    11
 -2.1693470418308047E-01 a       112     0     6     1    12
  5.6305178073309170E-01 a       113     0     6     1    13
  6.5354669216620553E-01 a       114     0     6     1    14
 -3.7219480212309319E-01 a       115     0     6     1    15
 -1.4487342569722791E-01 a       116     0     6     1    16
 -3.8442103317351717E-01 a       117     0     6     1    17
 -3.0473541454534608E-01 a       118     0     6     1    18
  2.7042046438217771E-02 a       119     0     6     1    19
  2.8468626208971493E-01 a       120     0     6     1    20
  3.2873168486516158E-01 a       121     0     7     1     1
  6.6833382886889697E-02 a       122     0     7     1     2
  2.1637639803059197E-01 a       123     0     7     1     3
 -1.3507941517675934E-01 a       124     0     7     1     4
  1.5773810773315367E-01 a       125     0     7     1     5
  1.8975774168559559E-01 a       126     0     7     1     6
  1.2189714762828364E-01 a       127     0     7     1     7
 -1.5810902783285025E-01 a       128     0     7     1     8
  2.1343000273573512E-01 a       129     0     7     1     9
 -2.3637016518883264E-01 a       130     0     7     1    10
 -1.0781007749080065E-01 a       131     0     7     1    11
  1.8969940585087697E-01 a       132     0     7     1    12
  8.7540750113082100E-02 a       133     0     7     1    13
 -2.3739891731262108E-01 a       134     0     7     1    14
  6.0954000087157234E-01 a       135     0     7     1    15
  3.7420649852384391E-01 a       136     0     7     1    16
  5.6278648894696148E-01 a       137     0     7     1    17
  5.7685173145768198E-01 a       138     0     7     1    18
 -1.7536969691327087E-01 a       139     0     7     1    19
 -9.4251319830792810E-02 a       140     0     7     1    20
 -3.6759503986300002E-01 a       141     0     8     1     1
 -5.2477549680991042E-01 a       142     0     8     1     2
 -2.9335480829643029E-01 a       143     0     8     1     3
 -4.9442239136210583E-03 a       144     0     8     1     4
  1.3729527412865525E-01 a       145     0     8     1     5
 -1.9289721317760350E-01 a       146     0     8     1     6
  1.9828158949767247E-01 a       147     0     8     1     7
  3.4182281949236021E-01 a       148     0     8     1     8
 -1.8942737417963412E-01 a       149     0     8     1     9
  2.1095700309893320E-01 a       150     0     8     1    10
  2.2972548256319173E-02 a       151     0     8     1    11
 -2.3472105033959209E-01 a       152     0     8     1    12
 -5.8459252408539797E-01 a       153     0     8     1    13
  1.0446323268222345E-01 a       154     0     8     1    14
 -2.7060324869141550E-01 a       155     0     8     1    15
 -8.3508331250643386E-02 a       156     0     8     1    16
 -1.7437318269112312E-01 a       157     0     8     1    17
 -4.1488618109685382E-01 a       158     0     8     1    18
  5.8397825570541319E-03 a       159     0     8     1    19
  8.6964708235667168E-02 a       160     0     8     1    20
 -3.1313195988849074E-01 a       161     0     9     1     1
 -2.6899536148274894E-01 a       162     0     9     1     2
 -7.6517246783507024E-03 a       163     0     9     1     3
 -2.6088612067040723E-01 a       164     0     9     1     4
  3.0578389175618376E-01 a       165     0     9     1     5
 -1.5355926213717336E-01 a       166     0     9     1     6
  2.5209812191880867E-02 a       167     0     9     1     7
  1.8292399640072154E-01 a       168     0     9     1     8
 -2.0412043842187202E-01 a       169     0     9     1     9
  3.4324570917696984E-01 a       170     0     9     1    10
  2.1563935928796718E-01 a       171     0     9     1    11
  4.5826395688500283E-02 a       172     0     9     1    12
  8.6399764755001940E-02 a       173     0     9     1    13
  3.3272751634474856E-01 a       174     0     9     1    14
 -5.4901254179363856E-01 a       175     0     9     1    15
 -4.7676202415620705E-01 a       176     0     9     1    16
  1.6711837399444471E-01 a       177     0     9     1    17
  2.2356437180869540E-01 a       178     0     9     1    18
 -2.1107943171926105E-01 a       179     0     9     1    19
 -5.2233876849950393E-02 a       180     0     9     1    20
  6.6784289195716509E-02 a       181     0    10     1     1
  8.6068046698285466E-02 a       182     0    10     1     2
 -4.1148741745488010E-01 a       183     0    10     1     3
 -1.3727221359150291E-01 a       184     0    10     1     4
  5.7551199477554660E-02 a       185     0    10     1     5
 -1.4691214923361981E-01 a       186     0    10     1     6
  6.3998376534209825E-02 a       187     0    10     1     7
 -5.1114109189360535E-01 a       188     0    10     1     8
  2.2195977908973531E-02 a       189     0    10     1     9
  3.2184325955644399E-01 a       190     0    10     1    10
  7.0770057890736190E-02 a       191     0    10     1    11
  3.6135169220786800E-01 a       192     0    10     1    12
 -1.4295164233865221E-01 a       193     0    10     1    13
 -2.8957525829706154E-01 a       194     0    10     1    14
  3.6138367902079138E-01 a       195     0    10     1    15
  9.4467978486237572E-02 a       196     0    10     1    16
  2.5144498663478732E-01 a       197     0    10     1    17
 -9.0056365824170162E-02 a       198     0    10     1    18
 -8.2555242555234234E-02 a       199     0    10     1    19
 -2.4995017285290089E-05 a       200     0    10     1    20
 -3.9437170231172922E-02 a       201     0    11     1     1
 -2.3748393462899714E-01 a       202     0    11     1     2
 -1.9354069661909945E-01 a       203     0    11     1     3
 -6.4112942595626637E-02 a       204     0    11     1     4
 -3.1405780746720197E-01 a       205     0    11     1     5
  1.9484817049358041E-01 a       206     0    11     1     6
  1.4165790118719274E-01 a       207     0    11     1     7
  6.8571725464339706E-02 a       208     0    11     1     8
  1.4459333783041872E-01 a       209     0    11     1     9
  2.5719449468714867E-01 a       210     0    11     1    10
 -1.1495459747833907E-01 a       211     0    11     1    11
 -8.0428904292356301E-02 a       212     0    11     1    12
  6.0931330379926985E-02 a       213     0    11     1    13
 -2.6410655820323298E-01 a       214     0    11     1    14
  2.3424512980125661E-01 a       215     0    11     1    15
  4.6384945146804252E-01 a       216     0    11     1    16
  2.3735874200426124E-01 a       217     0    11     1    17
 -2.1584681819315327E-01 a       218     0    11     1    18
  1.1785930453442642E-01 a       219     0    11     1    19
 -1.2027871719877199E-01 a       220     0    11     1    20
 -2.4410895845996877E-03 a       221     0    12     1     1
  3.3081357935846815E-02 a       222     0    12     1     2
  3.9027673818782266E-01 a       223     0    12     1     3
  4.3280148281851061E-01 a       224     0    12     1     4
  3.5621721857520008E-02 a       225     0    12     1     5
  8.7529316160567736E-02 a       226     0    12     1     6
  1.4414851071631557E-01 a       227     0    12     1     7
 -1.9453832080096761E-01 a       228     0    12     1     8
 -2.9008781456430301E-02 a       229     0    12     1     9
 -1.8943108454267540E-01 a       230     0    12     1    10
 -2.7487863515035288E-01 a       231     0    12     1    11
 -7.0976063026601477E-02 a       232     0    12     1    12
  3.5069315972072336E-02 a       233     0    12     1    13
 -4.4877147764701544E-02 a       234     0    12     1    14
  1.9549095211898593E-01 a       235     0    12     1    15
  3.7297894321848857E-01 a       236     0    12     1    16
 -3.3063882290064411E-01 a       237     0    12     1    17
 -5.7931881689769260E-01 a       238     0    12     1    18
  2.7680028804743428E-01 a       239     0    12     1    19
  3.2040630788156654E-01 a       240     0    12     1    20
  2.9253665380914423E-01 a       241     0    13     1     1
  1.2324628725330451E-02 a       242     0    13     1     2
  1.3751679086161659E-02 a       243     0    13     1     3
 -2.9815084130120705E-02 a       244     0    13     1     4
  2.2281730165090041E-01 a       245     0    13     1     5
  6.2778403864030025E-02 a       246     0    13     1     6
  3.2344197440190697E-01 a       247     0    13     1     7
 -4.2003895452186840E-01 a       248     0    13     1     8
  2.2633618496820540E-01 a       249     0    13     1     9
 -3.6507766117286067E-01 a       250     0    13     1    10
 -1.5051401023164368E-01 a       251     0    13     1    11
  6.2221634205504095E-01 a       252     0    13     1    12
  9.2047909388545276E-02 a       253     0    13     1    13
 -2.6947584494410863E-02 a       254     0    13     1    14
  4.2743488925446943E-01 a       255     0    13     1    15
  1.6691810860358527E-01 a       256     0    13     1    16
 -1.4933439334296400E-01 a       257     0    13     1    17
 -6.4805187999072522E-01 a       258     0    13     1    18
 -4.9723682992404838E-01 a       259     0    13     1    19
 -7.6671174795556518E-02 a       260     0    13     1    20
 -3.4254423663579711E-02 a       261     0    14     1     1
  1.6459482764750383E-01 a       262     0    14     1     2
  1.4454173407972837E-01 a       263     0    14     1     3
  1.1213294038111558E-01 a       264     0    14     1     4
 -4.5534905930905162E-01 a       265     0    14     1     5
  1.1541057801763063E-01 a       266     0    14     1     6
 -1.5734479197603526E-02 a       267     0    14     1     7
  1.4775057083373426E-02 a       268     0    14     1     8
 -1.3431553439822747E-01 a       269     0    14     1     9
 -4.6525204390538123E-02 a       270     0    14     1    10
 -5.2401010164628156E-02 a       271     0    14     1    11
 -7.8139384202535367E-01 a       272     0    14     1    12
 -7.8611173122490918E-01 a       273     0    14     1    13
 -2.0599368936369919E-01 a       274     0    14     1    14
 -3.1234104058835277E-01 a       275     0    14     1    15
 -1.6208369630760422E-01 a       276     0    14     1    16
  2.0544586247892852E-02 a       277     0    14     1    17
  3.5827497910940720E-01 a       278     0    14     1    18
  1.8002797335711873E-01 a       279     0    14     1    19
 -2.1603743120598193E-01 a       280     0    14     1    20
 -1.5195833676816531E-01 a       281     0    15     1     1
  6.2612446335042105E-01 a       282     0    15     1     2
 -4.8231803401645228E-02 a       283     0    15     1     3
  1.8374989925196938E-01 a       284     0    15     1     4
 -3.1025554803458921E-01 a       285     0    15     1     5
 -2.2978009830198554E-01 a       286     0    15     1     6
 -3.7971399744958328E-01 a       287     0    15     1     7
  2.0737972382630993E-01 a       288     0    15     1     8
 -2.8739180151744531E-01 a       289     0    15     1     9
  1.1437788388534788E-01 a       290     0    15     1    10
  1.1073560239645343E-02 a       291     0    15     1    11
 -6.2626786001846943E-02 a       292     0    15     1    12
  4.9865205149175162E-01 a       293     0    15     1    13
  1.4213016756108759E-01 a       294     0    15     1    14
 -4.4487943688004361E-01 a       295     0    15     1    15
  2.5419740532403340E-02 a       296     0    15     1    16
 -1.8380493434147613E-01 a       297     0    15     1    17
  4.5088716570197795E-01 a       298     0    15     1    18
 -2.8141845118961528E-01 a       299     0    15     1    19
 -3.1707362012817636E-01 a       300     0    15     1    20
  1.0942892506078186E+00 a       301     0    16     1     1
  3.0050695494808305E-01 a       302     0    16     1     2
 -4.8417351210374876E-01 a       303     0    16     1     3
 -1.8865347918355599E-01 a       304     0    16     1     4
  4.6349242214951453E-01 a       305     0    16     1     5
  1.4544688631705105E-01 a       306     0    16     1     6
 -6.8161397789646883E-01 a       307     0    16     1     7
  5.0459845821910221E-01 a       308     0    16     1     8
  8.7349458871278751E-01 a       309     0    16     1     9
  4.8909136244689128E-01 a       310     0    16     1    10
 -3.1365925197882760E-01 a       311     0    16     1    11
  7.4882959262298454E-01 a       312     0    16     1    12
 -2.9287569602720909E-01 a       313     0    16     1    13
  1.7289649683339728E-01 a       314     0    16     1    14
  3.6356028756199593E-01 a       315     0    16     1    15
 -1.4765718744145470E-01 a       316     0    16     1    16
  1.9204056236365259E+00 a       317     0    16     1    17
 -4.7757376605925916E-01 a       318     0    16     1    18
 -4.3745965262941588E-01 a       319     0    16     1    19
 -2.5060633045310471E-01 a       320     0    16     1    20
 -8.0655280711114885E-01 a       321     0    17     1     1
  4.9776061291236691E-02 a       322     0    17     1     2
  1.1451530593331374E+00 a       323     0    17     1     3
 -1.6063331747209675E-01 a       324     0    17     1     4
 -8.0881154170259664E-02 a       325     0    17     1     5
 -3.1350138218705820E-01 a       326     0    17     1     6
  7.1229697304922179E-01 a       327     0    17     1     7
 -4.3596646278029988E-01 a       328     0    17     1     8
 -1.1064080179949112E+00 a       329     0    17     1     9
 -1.0289783529314624E-01 a       330     0    17     1    10
  9.5133957785361826E-03 a       331     0    17     1    11
 -4.8484593283960775E-01 a       332     0    17     1    12
 -1.7185247626336528E-01 a       333     0    17     1    13
 -1.4791998741910981E-01 a       334     0    17     1    14
 -6.1883839152629916E-01 a       335     0    17     1    15
  4.5458675794363676E-02 a       336     0    17     1    16
 -1.8572606285647888E+00 a       337     0    17     1    17
  2.9134291144358665E-01 a       338     0    17     1    18
  7.4290999550306061E-02 a       339     0    17     1    19
  3.7133672943402141E-01 a       340     0    17     1    20
 -4.3592911572733589E-01 a       341     0    18     1     1
 -3.7804153722590222E-01 a       342     0    18     1     2
  1.2476453745040732E-01 a       343     0    18     1     3
  7.2310459399027261E-03 a       344     0    18     1     4
 -3.9578063542094072E-01 a       345     0    18     1     5
  2.4361886152310472E-01 a       346     0    18     1     6
 -1.6961773308536782E-01 a       347     0    18     1     7
 -1.2733006767008864E-01 a       348     0    18     1     8
  9.6604873156424964E-02 a       349     0    18     1     9
 -1.5498794839533320E-01 a       350     0    18     1    10
  1.3154730651993468E-01 a       351     0    18     1    11
 -1.9878370106141144E-01 a       352     0    18     1    12
 -9.5706262438198644E-02 a       353     0    18     1    13
  6.9672106481945639E-01 a       354     0    18     1    14
  1.8883940043517392E-01 a       355     0    18     1    15
 -1.0763249608898502E-01 a       356     0    18     1    16
 -1.3731557992904173E-01 a       357     0    18     1    17
  8.0966497406380078E-01 a       358     0    18     1    18
 -1.2049493355904473E-01 a       359     0    18     1    19
 -1.9783454649475199E-01 a       360     0    18     1    20
  2.7299085786708092E-02 a       361     0    19     1     1
  5.5611159828594858E-03 a       362     0    19     1     2
 -4.8116216972545471E-02 a       363     0    19     1     3
 -2.9728570021090267E-01 a       364     0    19     1     4
 -1.1230652050757406E-01 a       365     0    19     1     5
 -7.6444127009617932E-02 a       366     0    19     1     6
  1.2039928204408591E-01 a       367     0    19     1     7
  2.7488784324063095E-02 a       368     0    19     1     8
 -1.0116657947643573E-01 a       369     0    19     1     9
 -3.0991201070522484E-01 a       370     0    19     1    10
  6.8835011242110458E-02 a       371     0    19     1    11
  7.4136311167023949E-01 a       372     0    19     1    12
  6.0650990420860340E-01 a       373     0    19     1    13
 -1.1085773224683588E+00 a       374     0    19     1    14
  1.8715523227770606E-02 a       375     0    19     1    15
  8.9865014558666564E-02 a       376     0    19     1    16
  3.8648108447170010E-01 a       377     0    19     1    17
 -6.1040698141913485E-01 a       378     0    19     1    18
 -1.8090863740431179E-01 a       379     0    19     1    19
  5.7648310097965727E-01 a       380     0    19     1    20
 -3.0297781811291941E-01 a       381     0    20     1     1
 -3.0694865622686827E-02 a       382     0    20     1     2
 -2.5589196122153701E-01 a       383     0    20     1     3
 -1.1957051454490905E-01 a       384     0    20     1     4
 -3.3008931901002503E-01 a       385     0    20     1     5
 -4.3714197208043920E-01 a       386     0    20     1     6
  6.3729541484683594E-01 a       387     0    20     1     7
 -2.5111757220878334E-01 a       388     0    20     1     8
  1.0023914417946413E-01 a       389     0    20     1     9
 -2.0822704425381294E-01 a       390     0    20     1    10
  1.4840383796131684E-01 a       391     0    20     1    11
 -7.5175985593582006E-01 a       392     0    20     1    12
 -4.8204834786051970E-01 a       393     0    20     1    13
  4.9594076235489831E-01 a       394     0    20     1    14
  4.4173658708697223E-02 a       395     0    20     1    15
  4.0619744303932570E-01 a       396     0    20     1    16
 -9.5919265094321549E-01 a       397     0    20     1    17
  1.7181693605797574E-01 a       398     0    20     1    18
  8.8459060524421529E-01 a       399     0    20     1    19
 -2.8064781568651755E-02 a       400     0    20     1    20
  4.6115454690296859E-01 a       401     0    21     1     1
  3.2644730818059431E-01 a       402     0    21     1     2
 -2.5619918494213878E-01 a       403     0    21     1     3
  3.2054383589441227E-01 a       404     0    21     1     4
 -2.7199494307933586E-01 a       405     0    21     1     5
  6.6999731606472479E-01 a       406     0    21     1     6
 -2.9221010500972400E-01 a       407     0    21     1     7
  7.4532947217946566E-01 a       408     0    21     1     8
  2.2326201489914596E-01 a       409     0    21     1     9
  2.7617691071096229E-01 a       410     0    21     1    10
  1.7865821138172913E-01 a       411     0    21     1    11
  4.3652817897266166E-01 a       412     0    21     1    12
  4.2749368063813042E-01 a       413     0    21     1    13
  4.8876549894591748E-01 a       414     0    21     1    14
  6.6772947891520718E-01 a       415     0    21     1    15
 -3.4371178405633618E-01 a       416     0    21     1    16
  8.8698847141956705E-01 a       417     0    21     1    17
  2.2108797617110029E-01 a       418     0    21     1    18
 -3.9573404131331104E-03 a       419     0    21     1    19
 -5.0631002933092795E-01 a       420     0    21     1    20
  9.5096632813417203E-01 a       421     0    22     1     1
  3.8438946446610495E-01 a       422     0    22     1     2
 -3.3089090935152815E-01 a       423     0    22     1     3
 -5.6623681762615652E-01 a       424     0    22     1     4
  2.4252785613789396E-01 a       425     0    22     1     5
  2.8162181001257149E-02 a       426     0    22     1     6
  5.0680357146308808E-01 a       427     0    22     1     7
  7.4302126849668986E-03 a       428     0    22     1     8
 -7.1908808702396010E-01 a       429     0    22     1     9
  1.2560780386045378E-01 a       430     0    22     1    10
 -5.6763176595834053E-01 a       431     0    22     1    11
  3.8569530772271776E-01 a       432     0    22     1    12
  2.4289879580452564E-01 a       433     0    22     1    13
 -6.8190497028367836E-01 a       434     0    22     1    14
  1.0639350028411942E-01 a       435     0    22     1    15
 -5.3429293138215794E-01 a       436     0    22     1    16
  3.0334047552795079E-01 a       437     0    22     1    17
 -8.1581480936067929E-01 a       438     0    22     1    18
  4.3145395616229576E-01 a       439     0    22     1    19
 -5.1907180578254115E-02 a       440     0    22     1    20
 -4.8905536446460379E-01 a       441     0    23     1     1
  1.2327393720143430E-01 a       442     0    23     1     2
  1.4959174116482460E-01 a       443     0    23     1     3
  2.0874129963863550E-01 a       444     0    23     1     4
  7.3237023135610768E-01 a       445     0    23     1     5
 -8.3539015568596153E-01 a       446     0    23     1     6
  3.2213040359812806E-01 a       447     0    23     1     7
 -4.6528287226411599E-02 a       448     0    23     1     8
  2.5301353791882486E-01 a       449     0    23     1     9
  1.3752913876616384E-02 a       450     0    23     1    10
  1.8015655080911663E-01 a       451     0    23     1    11
 -1.2560558098121657E+00 a       452     0    23     1    12
 -1.9157354086863929E-01 a       453     0    23     1    13
  3.6200333750235451E-02 a       454     0    23     1    14
 -6.4376106977794478E-01 a       455     0    23     1    15
  3.5477186746923861E-01 a       456     0    23     1    16
 -1.2443057774233630E+00 a       457     0    23     1    17
  4.1147714079805359E-01 a       458     0    23     1    18
 -5.7027793317620479E-01 a       459     0    23     1    19
 -5.9391277831953926E-01 a       460     0    23     1    20
  3.2610491943769099E-01 a       461     0    24     1     1
 -1.1653126164452093E-01 a       462     0    24     1     2
  2.4320449899266763E-01 a       463     0    24     1     3
 -2.1261737513448187E-01 a       464     0    24     1     4
 -1.9024472451908836E-01 a       465     0    24     1     5
 -3.7402857657766703E-01 a       466     0    24     1     6
  1.9832191764888224E-01 a       467     0    24     1     7
  1.1570625136464673E-01 a       468     0    24     1     8
  9.4807166305475532E-02 a       469     0    24     1     9
  9.7028633246587129E-02 a       470     0    24     1    10
 -3.6231666213797992E-01 a       471     0    24     1    11
 -2.4121406261315634E-02 a       472     0    24     1    12
 -4.6192183908092704E-01 a       473     0    24     1    13
  2.5194560745241662E-01 a       474     0    24     1    14
  7.7233129399694816E-02 a       475     0    24     1    15
 -1.2951127314666197E-01 a       476     0    24     1    16
 -1.2217029028587604E-02 a       477     0    24     1    17
 -4.1442151587793691E-01 a       478     0    24     1    18
 -2.6871480742373777E-01 a       479     0    24     1    19
  7.5631031820828878E-02 a       480     0    24     1    20
  3.9141348663868497E-01 a       481     0    25     1     1
 -9.9067421304804129E-02 a       482     0    25     1     2
 -4.6199401290927067E-01 a       483     0    25     1     3
  4.5531755598416435E-02 a       484     0    25     1     4
  9.3369343905377850E-02 a       485     0    25     1     5
 -3.8194348004160572E-01 a       486     0    25     1     6
 -6.8159858238178606E-01 a       487     0    25     1     7
  2.4938723102181512E-01 a       488     0    25     1     8
 -5.3214429801788032E-01 a       489     0    25     1     9
  4.0668237888505732E-01 a       490     0    25     1    10
 -5.5284966460460128E-01 a       491     0    25     1    11
 -4.7939694106080527E-01 a       492     0    25     1    12
  2.6167440914738604E-01 a       493     0    25     1    13
  1.0085186316022570E+00 a       494     0    25     1    14
 -4.1462986704903820E-01 a       495     0    25     1    15
  3.6450883181774398E-02 a       496     0    25     1    16
 -8.5390848072811987E-01 a       497     0    25     1    17
 -1.0463103575851618E-01 a       498     0    25     1    18
  4.2064432225604348E-01 a       499     0    25     1    19
  4.9257926514551775E-01 a       500     0    25     1    20
  5.1710066492295992E-01 a       501     0    26     1     1
 -2.5070737015262509E-02 a       502     0    26     1     2
  2.0032227492179244E-01 a       503     0    26     1     3
 -4.5279243604872865E-01 a       504     0    26     1     4
  4.6031444794472998E-01 a       505     0    26     1     5
  3.2002913251892739E-01 a       506     0    26     1     6
  3.4140550655777924E-01 a       507     0    26     1     7
  2.9973163192405006E-01 a       508     0    26     1     8
 -4.0701192228117744E-01 a       509     0    26     1     9
 -2.8779069325770806E-01 a       510     0    26     1    10
 -2.2447419119229275E-02 a       511     0    26     1    11
 -1.4569936011704224E-01 a       512     0    26     1    12
 -2.5015256932536056E-01 a       513     0    26     1    13
  7.9687202279841696E-01 a       514     0    26     1    14
 -4.1516343287627050E-01 a       515     0    26     1    15
 -5.9106766046088655E-01 a       516     0    26     1    16
  4.7206320635594740E-02 a       517     0    26     1    17
  8.5014989585166434E-01 a       518     0    26     1    18
  3.6574432374006161E-01 a       519     0    26     1    19
 -2.1506187472814609E-01 a       520     0    26     1    20
  6.0674284722917826E-01 a       521     0    27     1     1
 -6.4324655371119566E-01 a       522     0    27     1     2
 -6.7840667017825107E-01 a       523     0    27     1     3
 -1.4386171666221292E-01 a       524     0    27     1     4
  4.8195521749488945E-01 a       525     0    27     1     5
 -1.1801910312549313E-01 a       526     0    27     1     6
 -1.0167137208488630E+00 a       527     0    27     1     7
 -1.8175272274013896E-01 a       528     0    27     1     8
 -1.2192037491908785E+00 a       529     0    27     1     9
  1.3430220054345063E-01 a       530     0    27     1    10
 -2.6631440371042037E-02 a       531     0    27     1    11
  5.5156921472202280E-01 a       532     0    27     1    12
  3.2426451523098454E-01 a       533     0    27     1    13
 -1.0557980263914057E+00 a       534     0    27     1    14
 -3.3116204110050770E-02 a       535     0    27     1    15
 -2.3456704983771548E-01 a       536     0    27     1    16
  1.5731200393083533E-01 a       537     0    27     1    17
 -5.6333377069694220E-02 a       538     0    27     1    18
 -1.0574612031359125E-01 a       539     0    27     1    19
 -3.3867528335375030E-01 a       540     0    27     1    20
 -3.4748275507372089E-01 a       541     0    28     1     1
  1.6710921734390860E-01 a       542     0    28     1     2
 -8.4128594106299470E-02 a       543     0    28     1     3
 -8.5095344371877255E-02 a       544     0    28     1     4
  3.2359245134506542E-01 a       545     0    28     1     5
 -9.3287365512668446E-02 a       546     0    28     1     6
 -2.7403178745966378E-01 a       547     0    28     1     7
 -2.2436113497728075E-01 a       548     0    28     1     8
  3.2983849331048781E-01 a       549     0    28     1     9
 -2.5862862871820113E-02 a       550     0    28     1    10
  1.6611059951253674E-02 a       551     0    28     1    11
  1.7837026318003005E-01 a       552     0    28     1    12
  5.4517954726462503E-01 a       553     0    28     1    13
 -3.7424359012805958E-01 a       554     0    28     1    14
 -1.4493853109269275E-01 a       555     0    28     1    15
 -2.3534061646400047E-02 a       556     0    28     1    16
  5.1049924804728718E-02 a       557     0    28     1    17
 -5.1964300327453188E-02 a       558     0    28     1    18
 -2.9060622480695020E-01 a       559     0    28     1    19
 -3.1828625969790539E-02 a       560     0    28     1    20
  3.4223497969460906E-02 a       561     0    29     1     1
  2.4606031379711049E-01 a       562     0    29     1     2
  4.6623136409241976E-02 a       563     0    29     1     3
 -1.9765541369020226E-01 a       564     0    29     1     4
 -3.8863714031611529E-01 a       565     0    29     1     5
 -1.3431581012346647E-01 a       566     0    29     1     6
  3.1025031741924097E-01 a       567     0    29     1     7
 -7.5850911679272559E-01 a       568     0    29     1     8
  7.7010562004309169E-02 a       569     0    29     1     9
 -1.3938182519702268E-02 a       570     0    29     1    10
 -4.2883317990996173E-01 a       571     0    29     1    11
 -3.4077995926267651E-01 a       572     0    29     1    12
  7.6481593706074075E-02 a       573     0    29     1    13
 -8.2510127815229606E-01 a       574     0    29     1    14
  3.8569931651452623E-02 a       575     0    29     1    15
  2.0593993483504550E-01 a       576     0    29     1    16
  5.2225627425520793E-01 a       577     0    29     1    17
  1.1833053554394737E+00 a       578     0    29     1    18
 -2.9002010075017309E-01 a       579     0    29     1    19
 -1.7028780536565358E-01 a       580     0    29     1    20
 -2.2927316457536040E-01 a       581     0    30     1     1
 -2.5936791251640329E-01 a       582     0    30     1     2
 -4.0497072368075976E-01 a       583     0    30     1     3
  3.9735409552509227E-01 a       584     0    30     1     4
 -2.1837301673419635E-01 a       585     0    30     1     5
  4.0893768889595339E-01 a       586     0    30     1     6
 -4.2922502244877830E-01 a       587     0    30     1     7
  8.9720284495030986E-02 a       588     0    30     1     8
 -2.6524726288818962E-01 a       589     0    30     1     9
 -7.2187631332426686E-02 a       590     0    30     1    10
  4.1105215707927456E-01 a       591     0    30     1    11
  6.2466633792549930E-01 a       592     0    30     1    12
 -1.3171246924305013E-01 a       593     0    30     1    13
  1.2106886374146110E-01 a       594     0    30     1    14
  1.6410821738183382E-01 a       595     0    30     1    15
 -1.9962871596211132E-01 a       596     0    30     1    16
 -2.5892920615815684E-01 a       597     0    30     1    17
 -4.6341368528473835E-02 a       598     0    30     1    18
 -1.8743253897237902E-01 a       599     0    30     1    19
 -8.0724339020940162E-03 a       600     0    30     1    20
  2.4887767562378871E-01 a       601     0    31     1     1
 -1.1515551669154361E-01 a       602     0    31     1     2
 -3.2791238222223978E-01 a       603     0    31     1     3
  5.9515084143568819E-01 a       604     0    31     1     4
  5.7295489569594116E-01 a       605     0    31     1     5
  1.3684270190068959E-02 a       606     0    31     1     6
  4.0123958566952450E-01 a       607     0    31     1     7
  2.9020785951143080E-01 a       608     0    31     1     8
  2.4701646557339466E-01 a       609     0    31     1     9
 -3.5365908972304440E-02 a       610     0    31     1    10
  4.5898970369110936E-01 a       611     0    31     1    11
  8.0187322893536761E-01 a       612     0    31     1    12
  2.4521072521227794E-01 a       613     0    31     1    13
  4.2775956763578493E-01 a       614     0    31     1    14
  2.7298229948449487E-01 a       615     0    31     1    15
  2.8700177302460123E-01 a       616     0    31     1    16
 -7.6184964714773831E-02 a       617     0    31     1    17
 -4.0302971450968512E-02 a       618     0    31     1    18
  2.3166620270984090E-01 a       619     0    31     1    19
 -4.1422870035786646E-01 a       620     0    31     1    20
 -7.3240694498613826E-02 a       621     0    32     1     1
  6.3404152567940478E-02 a       622     0    32     1     2
 -2.2730511451915739E-02 a       623     0    32     1     3
 -1.1988113364935274E-01 a       624     0    32     1     4
  4.3170177775013324E-01 a       625     0    32     1     5
 -5.9445587291276059E-01 a       626     0    32     1     6
  1.2505204394100364E-01 a       627     0    32     1     7
  2.5892843398332566E-01 a       628     0    32     1     8
 -7.1559810337509200E-01 a       629     0    32     1     9
  1.0790290948368925E-01 a       630     0    32     1    10
 -2.5303266754024006E-01 a       631     0    32     1    11
  1.4508089777145525E-01 a       632     0    32     1    12
  1.7734977399003621E-01 a       633     0    32     1    13
  8.9084880550580531E-02 a       634     0    32     1    14
 -1.7473008224453382E-01 a       635     0    32     1    15
 -1.6305878048737059E-02 a       636     0    32     1    16
 -1.6064359104055223E-01 a       637     0    32     1    17
  5.8726577739214647E-01 a       638     0    32     1    18
 -3.7378502403714547E-01 a       639     0    32     1    19
  1.2229118903002158E-01 a       640     0    32     1    20
  9.6076124129112588E-03 a       641     0    33     1     1
 -8.0214669106194547E-01 a       642     0    33     1     2
 -5.6844860378479045E-01 a       643     0    33     1     3
 -2.4730740486807637E-01 a       644     0    33     1     4
 -2.8815398435864048E-01 a       645     0    33     1     5
  2.3315743363618671E-01 a       646     0    33     1     6
  5.6874837542497829E-02 a       647     0    33     1     7
 -1.6598318389786634E-02 a       648     0    33     1     8
  5.0733806913980872E-01 a       649     0    33     1     9
  6.5216436591632543E-01 a       650     0    33     1    10
  4.6002411372015678E-01 a       651     0    33     1    11
 -3.4958785169261597E-01 a       652     0    33     1    12
  3.6904380554365712E-01 a       653     0    33     1    13
  3.4548929170570390E-02 a       654     0    33     1    14
  1.7208771028849501E-01 a       655     0    33     1    15
  2.4806023155401660E-01 a       656     0    33     1    16
  8.5289482607798695E-01 a       657     0    33     1    17
 -2.8656787091644792E-01 a       658     0    33     1    18
 -9.9311491737947608E-02 a       659     0    33     1    19
  4.8909991452942538E-02 a       660     0    33     1    20
 -2.3452956677983564E-01 a       661     0    34     1     1
  2.7980708152165989E-01 a       662     0    34     1     2
  4.1812475959643425E-01 a       663     0    34     1     3
  2.2487547572649430E-01 a       664     0    34     1     4
 -3.9402450241382303E-01 a       665     0    34     1     5
 -3.1808182557908771E-01 a       666     0    34     1     6
 -1.2794446932883677E-01 a       667     0    34     1     7
 -1.1582891299490073E-03 a       668     0    34     1     8
 -7.6208378981981073E-01 a       669     0    34     1     9
 -6.0009691354638794E-02 a       670     0    34     1    10
  2.6263698497452383E-02 a       671     0    34     1    11
 -5.4588293134260002E-01 a       672     0    34     1    12
  5.2581362674903431E-01 a       673     0    34     1    13
 -3.9279214101405524E-01 a       674     0    34     1    14
 -3.1992888357810800E-01 a       675     0    34     1    15
 -4.5411771680127749E-01 a       676     0    34     1    16
  2.8717482972155572E-01 a       677     0    34     1    17
  1.0870436243201398E-01 a       678     0    34     1    18
  1.1489512791076741E-01 a       679     0    34     1    19
  3.3084039025120754E-01 a       680     0    34     1    20
 -1.1487638091795629E-01 a       681     0    35     1     1
  6.3903595930659654E-02 a       682     0    35     1     2
  1.6309961760129565E-01 a       683     0    35     1     3
 -3.4639548300244938E-01 a       684     0    35     1     4
  8.0837786868165029E-01 a       685     0    35     1     5
  1.2702181458146139E-01 a       686     0    35     1     6
 -1.3475247566380441E-01 a       687     0    35     1     7
 -4.5588624113864923E-01 a       688     0    35     1     8
  3.3505108306416492E-01 a       689     0    35     1     9
  8.8397699806304209E-01 a       690     0    35     1    10
 -1.1001082611245640E-01 a       691     0    35     1    11
  6.4557589472556909E-01 a       692     0    35     1    12
 -1.5833297834059684E-01 a       693     0    35     1    13
 -1.0943786628331691E-01 a       694     0    35     1    14
 -9.8977258477115415E-02 a       695     0    35     1    15
  5.1719343125873396E-01 a       696     0    35     1    16
 -2.2299634599341550E-01 a       697     0    35     1    17
 -1.4772864362161425E-01 a       698     0    35     1    18
  1.0071632881763630E-01 a       699     0    35     1    19
 -4.5739078237430336E-01 a       700     0    35     1    20
 -3.5064394965727341E-01 a       701     0    36     1     1
  9.8347331480655123E-02 a       702     0    36     1     2
  4.2557982962431168E-01 a       703     0    36     1     3
 -1.9818275937970151E-01 a       704     0    36     1     4
  6.0359220903179622E-01 a       705     0    36     1     5
 -1.6919508672514652E-01 a       706     0    36     1     6
 -1.9188720270128248E-01 a       707     0    36     1     7
 -6.6924496157793334E-01 a       708     0    36     1     8
  6.0478150880122976E-02 a       709     0    36     1     9
 -7.6254157661976629E-01 a       710     0    36     1    10
 -2.7640084225303202E-01 a       711     0    36     1    11
 -4.8026665376689948E-01 a       712     0    36     1    12
 -1.8597696846964401E-01 a       713     0    36     1    13
 -4.1760949266813219E-01 a       714     0    36     1    14
 -5.4877055392286300E-01 a       715     0    36     1    15
  1.7971372435161323E-01 a       716     0    36     1    16
 -6.1972727777593484E-01 a       717     0    36     1    17
 -1.0112584794797079E+00 a       718     0    36     1    18
  1.1324855740660240E-01 a       719     0    36     1    19
  4.7063833966947421E-01 a       720     0    36     1    20
 -5.5463126000152463E-01 a       721     0    37     1     1
  1.7894698937420478E-01 a       722     0    37     1     2
 -1.2176384257467814E-01 a       723     0    37     1     3
  1.3742585928399878E-01 a       724     0    37     1     4
 -6.8791441733205227E-02 a       725     0    37     1     5
  2.9509601723878304E-02 a       726     0    37     1     6
  4.8314512152858957E-01 a       727     0    37     1     7
 -3.6978038022236420E-01 a       728     0    37     1     8
  4.7097152285096966E-01 a       729     0    37     1     9
  4.9603736385946368E-01 a       730     0    37     1    10
  3.4616808670456101E-01 a       731     0    37     1    11
 -6.6044574210756257E-01 a       732     0    37     1    12
 -2.4475303072100680E-03 a       733     0    37     1    13
  9.7000421792169222E-02 a       734     0    37     1    14
 -5.6926714916203568E-02 a       735     0    37     1    15
 -3.4907899023821506E-02 a       736     0    37     1    16
 -8.9867362620173430E-01 a       737     0    37     1    17
 -9.6293513445805168E-02 a       738     0    37     1    18
 -4.6008761370125956E-01 a       739     0    37     1    19
  6.0243013047447773E-03 a       740     0    37     1    20
  4.3405081400771428E-01 a       741     0    38     1     1
  2.8348991319375616E-01 a       742     0    38     1     2
 -2.1187235977232063E-01 a       743     0    38     1     3
  3.0423088406284349E-01 a       744     0    38     1     4
  6.7937621506711732E-01 a       745     0    38     1     5
  1.9332433926544168E-01 a       746     0    38     1     6
 -5.3817181442001982E-01 a       747     0    38     1     7
 -3.4045661755346533E-02 a       748     0    38     1     8
 -4.8808661305471693E-02 a       749     0    38     1     9
 -5.5638069319681405E-01 a       750     0    38     1    10
 -2.7282901474272331E-01 a       751     0    38     1    11
  2.2939884329587112E-01 a       752     0    38     1    12
 -4.2391025635940588E-01 a       753     0    38     1    13
  4.5150085817276614E-01 a       754     0    38     1    14
  4.6034073764792421E-01 a       755     0    38     1    15
  1.7405344510608856E-01 a       756     0    38     1    16
 -3.9432592373301253E-03 a       757     0    38     1    17
  1.3043421251975318E-01 a       758     0    38     1    18
 -1.7327437098231532E-02 a       759     0    38     1    19
  3.9770416701106409E-01 a       760     0    38     1    20
 -3.5349740172110067E-01 a       761     0    39     1     1
  1.2275204511359665E-01 a       762     0    39     1     2
  3.5049249710809116E-01 a       763     0    39     1     3
  4.3577183847757645E-01 a       764     0    39     1     4
 -2.7146403430771793E-01 a       765     0    39     1     5
 -9.5229319469938248E-02 a       766     0    39     1     6
  1.0436138971310338E-01 a       767     0    39     1     7
  3.6967360163092308E-02 a       768     0    39     1     8
  8.2513282523796416E-02 a       769     0    39     1     9
  3.8757375996510929E-01 a       770     0    39     1    10
  2.1659870468618869E-01 a       771     0    39     1    11
 -5.7545260919304519E-01 a       772     0    39     1    12
  1.5228211617262021E-02 a       773     0    39     1    13
  4.2836570598924206E-01 a       774     0    39     1    14
  3.7213484978232203E-01 a       775     0    39     1    15
 -1.3534521099698396E-01 a       776     0    39     1    16
 -8.2819216624902192E-01 a       777     0    39     1    17
  2.0885773449142656E-01 a       778     0    39     1    18
  1.9229210275408640E-02 a       779     0    39     1    19
  2.9581146972485489E-01 a       780     0    39     1    20
 -1.5175223575989180E-01 a       781     0    40     1     1
 -2.9663797224869759E-01 a       782     0    40     1     2
 -8.5770990605634378E-01 a       783     0    40     1     3
 -2.6481374930416474E-01 a       784     0    40     1     4
 -2.7030296942841064E-01 a       785     0    40     1     5
 -9.9043894088026718E-03 a       786     0    40     1     6
 -2.0639085757039988E-01 a       787     0    40     1     7
  6.1543791204628007E-01 a       788     0    40     1     8
  3.8732660142527070E-01 a       789     0    40     1     9
  3.3656083159761163E-01 a       790     0    40     1    10
  4.2703269379182845E-01 a       791     0    40     1    11
 -3.0875979909015905E-01 a       792     0    40     1    12
  1.8577599546517345E-01 a       793     0    40     1    13
 -3.1263073863499991E-01 a       794     0    40     1    14
  1.1085135228644731E-01 a       795     0    40     1    15
  1.4268384771517922E-01 a       796     0    40     1    16
  5.1464183681405129E-01 a       797     0    40     1    17
  2.8719724635695465E-01 a       798     0    40     1    18
 -2.8746160442247481E-01 a       799     0    40     1    19
 -6.6785387484356540E-01 a       800     0    40     1    20
  1.0641495372507294E-01 a       801     0    41     1     1
 -1.7401051445896967E-01 a       802     0    41     1     2
  4.1752092894173304E-01 a       803     0    41     1     3
  1.4770785693314090E-01 a       804     0    41     1     4
 -3.9599865049473920E-01 a       805     0    41     1     5
 -1.8385059231193972E-02 a       806     0    41     1     6
  5.2491407123047129E-01 a       807     0    41     1     7
 -2.3152938962694702E-01 a       808     0    41     1     8
  1.5645097604728103E-01 a       809     0    41     1     9
 -2.6385726243147234E-01 a       810     0    41     1    10
 -2.3035838540205755E-01 a       811     0    41     1    11
 -1.6441971043089451E-01 a       812     0    41     1    12
  1.3612569346845999E-01 a       813     0    41     1    13
  1.0003044003570269E-01 a       814     0    41     1    14
  1.1498745730618121E-01 a       815     0    41     1    15
 -1.3151704127176872E-01 a       816     0    41     1    16
 -1.8675712154042734E-01 a       817     0    41     1    17
 -1.1589395395020687E-01 a       818     0    41     1    18
  1.7104983570699439E-01 a       819     0    41     1    19
  3.7563028832606649E-02 a       820     0    41     1    20
  2.2522746532107540E-01 a       821     0    42     1     1
  5.7651356277475724E-02 a       822     0    42     1     2
 -1.0360114362445716E-01 a       823     0    42     1     3
 -5.5035342921625119E-01 a       824     0    42     1     4
  1.2441591940904366E-01 a       825     0    42     1     5
  4.4079146954843447E-02 a       826     0    42     1     6
  2.3542359234302909E-01 a       827     0    42     1     7
  1.8256199269723489E-01 a       828     0    42     1     8
 -9.3748818173808118E-02 a       829     0    42     1     9
 -5.7119257809625078E-03 a       830     0    42     1    10
  1.1869870130844436E-01 a       831     0    42     1    11
 -4.1475352221519801E-01 a       832     0    42     1    12
 -2.9648763711502513E-01 a       833     0    42     1    13
  1.3119343833804167E-02 a       834     0    42     1    14
  1.3819737508932979E-02 a       835     0    42     1    15
 -1.8788719992065211E-01 a       836     0    42     1    16
 -3.5742722102475755E-01 a       837     0    42     1    17
 -6.9260976236735550E-02 a       838     0    42     1    18
  6.8741302122775294E-02 a       839     0    42     1    19
 -2.2699136772577944E-01 a       840     0    42     1    20
 -1.0887487465142899E-01 a       841     0    43     1     1
  1.3492233483497731E-01 a       842     0    43     1     2
  2.0532048443482470E-01 a       843     0    43     1     3
  2.4359407579180425E-01 a       844     0    43     1     4
  7.0652138835939409E-03 a       845     0    43     1     5
 -7.2498636024100980E-03 a       846     0    43     1     6
  1.3114179578574622E-01 a       847     0    43     1     7
  3.0683145572060512E-03 a       848     0    43     1     8
 -1.0967938440898234E-01 a       849     0    43     1     9
 -3.2552036057077377E-02 a       850     0    43     1    10
 -3.3943862105378786E-01 a       851     0    43     1    11
 -7.1628747552960961E-03 a       852     0    43     1    12
 -2.9079233090736645E-01 a       853     0    43     1    13
 -9.2313520673918861E-02 a       854     0    43     1    14
 -1.4599664107902521E-01 a       855     0    43     1    15
 -2.9760106145549786E-01 a       856     0    43     1    16
 -1.3265687187762892E-01 a       857     0    43     1    17
 -8.0018506194826367E-02 a       858     0    43     1    18
 -2.0850350939913512E-01 a       859     0    43     1    19
  2.1905688231428570E-02 a       860     0    43     1    20
 -3.0696222451104072E-01 a       861     0    44     1     1
 -8.5808321869313520E-01 a       862     0    44     1     2
  1.4429178140425811E-01 a       863     0    44     1     3
 -3.2764169107569263E-01 a       864     0    44     1     4
  1.9529446053693678E-01 a       865     0    44     1     5
  1.2755591414305362E-01 a       866     0    44     1     6
 -2.8521706507478406E-01 a       867     0    44     1     7
 -1.8184249648164535E-01 a       868     0    44     1     8
  2.0917622571380878E-01 a       869     0    44     1     9
 -2.1372515481132703E-01 a       870     0    44     1    10
  2.4889394206599039E-01 a       871     0    44     1    11
  1.7878848921013882E-01 a       872     0    44     1    12
 -8.2621012116204651E-01 a       873     0    44     1    13
  6.2418463299463246E-02 a       874     0    44     1    14
 -2.3759257318682581E-01 a       875     0    44     1    15
  4.9460503621599095E-01 a       876     0    44     1    16
  6.8294870187775469E-01 a       877     0    44     1    17
  2.1292071544949287E-01 a       878     0    44     1    18
 -3.1937501091820142E-01 a       879     0    44     1    19
  3.2100543755504907E-01 a       880     0    44     1    20
  1.8922137086795562E-02 a       881     0    45     1     1
 -3.5044017041382980E-01 a       882     0    45     1     2
  4.1240977880176838E-01 a       883     0    45     1     3
  2.6000042976951976E-01 a       884     0    45     1     4
 -9.0519942233718298E-01 a       885     0    45     1     5
 -1.4664853951731771E-01 a       886     0    45     1     6
 -4.1863871148939225E-01 a       887     0    45     1     7
  3.6478831652138927E-01 a       888     0    45     1     8
  5.8901927761440720E-01 a       889     0    45     1     9
  2.7873702553614335E-02 a       890     0    45     1    10
  1.0202691419622750E-01 a       891     0    45     1    11
  1.4186886609723395E-01 a       892     0    45     1    12
  7.6812514270493598E-02 a       893     0    45     1    13
  4.8297828462215686E-01 a       894     0    45     1    14
  5.4363806722633901E-01 a       895     0    45     1    15
 -5.3625187160382247E-02 a       896     0    45     1    16
  1.4924278679369316E-01 a       897     0    45     1    17
  3.2310519943658716E-01 a       898     0    45     1    18
 -2.3697901442328351E-01 a       899     0    45     1    19
 -2.1103528288414075E-01 a       900     0    45     1    20
  4.9852536447970636E-01 a       901     0    46     1     1
 -2.7091800323847032E-01 a       902     0    46     1     2
 -2.1389609195600034E-01 a       903     0    46     1     3
 -3.9743926022619253E-01 a       904     0    46     1     4
  1.5095706605823794E-01 a       905     0    46     1     5
  5.3793241637039391E-01 a       906     0    46     1     6
  5.8015228452112189E-01 a       907     0    46     1     7
 -9.4186143726112549E-03 a       908     0    46     1     8
  2.7631663118543875E-01 a       909     0    46     1     9
 -2.5030758192583030E-01 a       910     0    46     1    10
 -2.0149615762006126E-01 a       911     0    46     1    11
 -5.0410758046063653E-02 a       912     0    46     1    12
 -2.1390521240708579E-01 a       913     0    46     1    13
  2.5665407641960271E-02 a       914     0    46     1    14
  4.1421217803446382E-02 a       915     0    46     1    15
 -1.7921538074956743E-02 a       916     0    46     1    16
  7.6980899820404602E-01 a       917     0    46     1    17
 -2.1655019822488691E-01 a       918     0    46     1    18
  2.0404909302982774E-01 a       919     0    46     1    19
 -2.9552665794562283E-01 a       920     0    46     1    20
  3.4334536396794185E-01 a       921     0    47     1     1
  3.7058043516886818E-01 a       922     0    47     1     2
  3.3566276364348385E-01 a       923     0    47     1     3
  6.3089994443559755E-02 a       924     0    47     1     4
  8.3160400564494208E-01 a       925     0    47     1     5
  3.4359616275588584E-01 a       926     0    47     1     6
 -5.6988803869416460E-01 a       927     0    47     1     7
 -4.2062947510100102E-01 a       928     0    47     1     8
 -7.2155788160524481E-01 a       929     0    47     1     9
  9.3263994421595914E-02 a       930     0    47     1    10
 -1.4475721163439695E-01 a       931     0    47     1    11
  3.6315376725807613E-01 a       932     0    47     1    12
  9.4842430508603762E-02 a       933     0    47     1    13
 -3.5915845561933940E-01 a       934     0    47     1    14
 -3.9954782211620132E-02 a       935     0    47     1    15
  6.9108461240976027E-01 a       936     0    47     1    16
  2.1882774520990617E-01 a       937     0    47     1    17
  4.3172804821833818E-02 a       938     0    47     1    18
  3.0499020308708547E-01 a       939     0    47     1    19
  4.8685092604428154E-01 a       940     0    47     1    20
 -3.2379198967266970E-01 a       941     0    48     1     1
  1.7872245326196295E-01 a       942     0    48     1     2
 -1.3413517935564362E-01 a       943     0    48     1     3
 -8.1548820379070630E-02 a       944     0    48     1     4
 -1.6322435571068575E-01 a       945     0    48     1     5
 -8.2065182933394196E-02 a       946     0    48     1     6
 -5.4118016618929465E-01 a       947     0    48     1     7
 -7.0403570547420006E-03 a       948     0    48     1     8
  3.0856843517114516E-02 a       949     0    48     1     9
  1.9169598597471091E-01 a       950     0    48     1    10
  2.5386780944629761E-02 a       951     0    48     1    11
  2.1319787568843501E-01 a       952     0    48     1    12
 -7.9108885621831299E-02 a       953     0    48     1    13
 -8.2555307917739795E-02 a       954     0    48     1    14
 -1.8094524793593139E-01 a       955     0    48     1    15
 -9.7207574312118641E-02 a       956     0    48     1    16
 -1.3275363006684451E-01 a       957     0    48     1    17
 -1.4081062659913932E-01 a       958     0    48     1    18
  6.1387297057053578E-02 a       959     0    48     1    19
  2.4968781385378960E-01 a       960     0    48     1    20
 -5.5847349466481566E-01 a       961     0    49     1     1
 -2.0148842575562984E-01 a       962     0    49     1     2
  4.3278552318330138E-01 a       963     0    49     1     3
 -3.5092068982013801E-02 a       964     0    49     1     4
 -1.0597429223357611E+00 a       965     0    49     1     5
 -4.6422509319328578E-02 a       966     0    49     1     6
 -1.3957405376647097E-01 a       967     0    49     1     7
  3.3422203212507984E-01 a       968     0    49     1     8
 -5.6693284543049804E-01 a       969     0    49     1     9
  1.9748553018466009E-01 a       970     0    49     1    10
  1.3363572015301186E-02 a       971     0    49     1    11
 -7.6329806481185780E-01 a       972     0    49     1    12
  1.3122557757483019E-01 a       973     0    49     1    13
 -1.0484252543185200E+00 a       974     0    49     1    14
 -4.9012169005755102E-01 a       975     0    49     1    15
 -1.0219906369115078E-01 a       976     0    49     1    16
 -8.9245737919685719E-01 a       977     0    49     1    17
  1.3488087034079657E+00 a       978     0    49     1    18
  2.7315611541052914E-01 a       979     0    49     1    19
 -2.8488006949406442E-02 a       980     0    49     1    20
  6.5540247374659666E-01 a       981     0    50     1     1
 -6.5413355014301733E-02 a       982     0    50     1     2
 -7.6173895913634393E-01 a       983     0    50     1     3
  1.5984045662055171E-01 a       984     0    50     1     4
 -3.3931416820056032E-01 a       985     0    50     1     5
  8.1492728464332742E-01 a       986     0    50     1     6
 -3.9072249324988428E-02 a       987     0    50     1     7
  4.1344485094784794E-01 a       988     0    50     1     8
  6.6023765227347664E-01 a       989     0    50     1     9
 -1.1986224724307255E+00 a       990     0    50     1    10
  1.1739063501600935E-01 a       991     0    50     1    11
  1.1626532719727107E+00 a       992     0    50     1    12
  1.8326569517959504E-01 a       993     0    50     1    13
  6.6261042855533936E-01 a       994     0    50     1    14
  5.1085812021700461E-01 a       995     0    50     1    15
 -3.8648556385933447E-01 a       996     0    50     1    16
  2.2145787010579854E+00 a       997     0    50     1    17
 -1.3192063360933874E+00 a       998     0    50     1    18
 -1.4489485888883258E-01 a       999     0    50     1    19
 -4.4953264888597111E-01 a      1000     0    50     1    20
 -1.8489922336397421E-01 a      1001     0    51     1     1
 -2.4802572489147251E-01 a      1002     0    51     1     2
 -1.2668748266498958E-01 a      1003     0    51     1     3
  2.6218818548074613E-01 a      1004     0    51     1     4
 -1.1988514587320566E-01 a      1005     0    51     1     5
  1.9870629296940295E-01 a      1006     0    51     1     6
 -1.3481553301471372E-01 a      1007     0    51     1     7
  2.8102058948732911E-02 a      1008     0    51     1     8
  2.9663881770538353E-01 a      1009     0    51     1     9
  1.3723605550835760E-01 a      1010     0    51     1    10
  2.9184695543857297E-01 a      1011     0    51     1    11
 -2.0179295083810012E-01 a      1012     0    51     1    12
 -5.4775789517838114E-01 a      1013     0    51     1    13
  1.0706999508611255E-01 a      1014     0    51     1    14
  6.5297485915802506E-02 a      1015     0    51     1    15
  2.2069937508520163E-01 a      1016     0    51     1    16
  1.3198986544367380E-01 a      1017     0    51     1    17
 -4.6905040251282388E-03 a      1018     0    51     1    18
  3.9400082597923947E-01 a      1019     0    51     1    19
  2.4947582892895520E-01 a      1020     0    51     1    20
 -7.5458333709650216E-01 b      1021     1     1
 -1.3663562232807369E+00 b      1022     1     2
  1.1479288253656279E+00 b      1023     1     3
 -1.5644861212526304E+00 b      1024     1     4
 -1.0794766373580819E-01 b      1025     1     5
  2.4617712426783964E-01 b      1026     1     6
 -1.2258641765052118E+00 b      1027     1     7
 -1.1497846013036070E-01 b      1028     1     8
 -1.3731711594257938E+00 b      1029     1     9
  6.8648937543887983E-02 b      1030     1    10
 -7.5947600027663498E-01 b      1031     1    11
 -2.8904466557368708E-01 b      1032     1    12
 -1.6583591373359732E+00 b      1033     1    13
  1.0634473361842933E+00 b      1034     1    14
  5.8453468725629443E-01 b      1035     1    15
  8.6239603897702610E-01 b      1036     1    16
  7.8228889285887504E-01 b      1037     1    17
 -5.2426668632315210E-01 b      1038     1    18
 -1.4414720564637091E+00 b      1039     1    19
 -3.2643176335108653E-01 b      1040     1    20
 -1.2672936187755268E-01 a      1041     1     1     2     1
 -8.7323680555579264E-01 a      1042     1     1     2     2
 -4.2466315967265428E-01 a      1043     1     1     2     3
 -2.8206927411183924E-01 a      1044     1     1     2     4
  2.6695615312031934E-01 a      1045     1     1     2     5
  3.5495816413832521E-01 a      1046     1     1     2     6
  7.2631368897513746E-02 a      1047     1     1     2     7
  5.3000102493986490E-01 a      1048     1     1     2     8
 -6.4175819294854453E-01 a      1049     1     1     2     9
 -6.9517587602042474E-01 a      1050     1     1     2    10
  3.5749587994901255E-01 a      1051     1     1     2    11
  4.4871429550656011E-01 a      1052     1     1     2    12
 -1.4993300855974206E-01 a      1053     1     1     2    13
 -2.5259620253926607E-01 a      1054     1     1     2    14
 -4.7790496769150127E-02 a      1055     1     1     2    15
  6.6879358646616149E-01 a      1056     1     1     2    16
 -1.6777938517693339E-01 a      1057     1     1     2    17
 -5.4888133407232909E-01 a      1058     1     1     2    18
  1.6376234979935134E-01 a      1059     1     1     2    19
 -5.7330364849778707E-02 a      1060     1     1     2    20
 -2.4095092506866764E-01 a      1061     1     2     2     1
  6.1845804755231371E-01 a      1062     1     2     2     2
  4.9212896369446274E-01 a      1063     1     2     2     3
  1.9174177154888111E-01 a      1064     1     2     2     4
 -5.1024904515382568E-03 a      1065     1     2     2     5
 -4.8247681160417977E-01 a      1066     1     2     2     6
 -1.4569078311536141E-01 a      1067     1     2     2     7
 -2.2283430076909710E-01 a      1068     1     2     2     8
 -5.8960796845071017E-01 a      1069     1     2     2     9
  3.3213238314949961E-02 a      1070     1     2     2    10
  7.2019685790458310E-01 a      1071     1     2     2    11
  3.7433686737860039E-01 a      1072     1     2     2    12
  3.8212610962525756E-01 a      1073     1     2     2    13
  1.0454591143649662E-01 a      1074     1     2     2    14
 -6.7745531167846973E-01 a      1075     1     2     2    15
 -8.9757114523434056E-01 a      1076     1     2     2    16
 -3.0531281934064342E-01 a      1077     1     2     2    17
 -4.3520963848395738E-01 a      1078     1     2     2    18
  6.1739009186826688E-01 a      1079     1     2     2    19
 -3.5768047991404128E-01 a      1080     1     2     2    20
  4.0211273759674176E-02 a      1081     1     3     2     1
  6.4010615081849243E-02 a      1082     1     3     2     2
 -2.1034851855379427E-01 a      1083     1     3     2     3
 -5.8142278154379112E-01 a      1084     1     3     2     4
  2.7002972122630098E-01 a      1085     1     3     2     5
 -5.1734713136085603E-02 a      1086     1     3     2     6
 -2.9998250675040078E-01 a      1087     1     3     2     7
  6.0333620111062525E-01 a      1088     1     3     2     8
 -3.0878334381144817E-01 a      1089     1     3     2     9
 -5.1694993849144188E-01 a      1090     1     3     2    10
 -5.8467952683747770E-01 a      1091     1     3     2    11
  2.7895265060515184E-01 a      1092     1     3     2    12
  3.0179656181205416E-01 a      1093     1     3     2    13
 -1.8512302974223194E-01 a      1094     1     3     2    14
 -9.5276563376925666E-02 a      1095     1     3     2    15
  1.9920821864945168E-01 a      1096     1     3     2    16
  1.8096278005063340E-01 a      1097     1     3     2    17
 -4.2622687532261633E-01 a      1098     1     3     2    18
 -5.2928182396385004E-01 a      1099     1     3     2    19
  5.4068888473520860E-01 a      1100     1     3     2    20
 -4.2807209572369659E-01 a      1101     1     4     2     1
  3.8108071001004873E-01 a      1102     1     4     2     2
 -6.9116112300702054E-02 a      1103     1     4     2     3
 -2.7566429361363493E-01 a      1104     1     4     2     4
  1.6967509715948823E-01 a      1105     1     4     2     5
 -1.5925844060065250E-01 a      1106     1     4     2     6
 -1.2075584414529212E+00 a      1107     1     4     2     7
 -4.5548876190483395E-01 a      1108     1     4     2     8
 -3.4204810438898303E-01 a      1109     1     4     2     9
  9.8469728737471207E-01 a      1110     1     4     2    10
  5.3732213145356822E-01 a      1111     1     4     2    11
  2.3047401081188548E-01 a      1112     1     4     2    12
 -5.1718702971160391E-01 a      1113     1     4     2    13
 -7.9589855925796904E-01 a      1114     1     4     2    14
  1.5832287435600217E-01 a      1115     1     4     2    15
  1.9966858968618420E-01 a      1116     1     4     2    16
  3.1592575225018471E-01 a      1117     1     4     2    17
 -3.0493468850625649E-01 a      1118     1     4     2    18
 -3.0127989785351383E-01 a      1119     1     4     2    19
  7.4446897209380292E-01 a      1120     1     4     2    20
  5.4995084439057562E-01 a      1121     1     5     2     1
  5.6056178193638195E-01 a      1122     1     5     2     2
  1.9475188178136005E-01 a      1123     1     5     2     3
 -4.0322359135553359E-01 a      1124     1     5     2     4
  6.6400096044193141E-02 a      1125     1     5     2     5
 -2.7046086287043575E-01 a      1126     1     5     2     6
 -3.3711121692631896E-01 a      1127     1     5     2     7
  4.2149215068935203E-01 a      1128     1     5     2     8
 -3.2981615656235908E-01 a      1129     1     5     2     9
  1.9522043057322799E-01 a      1130     1     5     2    10
 -1.0702881477493953E-01 a      1131     1     5     2    11
  8.5227336560033909E-02 a      1132     1     5     2    12
 -2.5855504690599762E-01 a      1133     1     5     2    13
  2.0488293404006183E-01 a      1134     1     5     2    14
 -9.8208877763688557E-02 a      1135     1     5     2    15
  3.9082301180514639E-01 a      1136     1     5     2    16
 -3.5425581583589627E-01 a      1137     1     5     2    17
  3.2227997557123481E-02 a      1138     1     5     2    18
  5.1452923725114375E-01 a      1139     1     5     2    19
 -8.0397323005209076E-02 a      1140     1     5     2    20
 -3.7007715337561081E-01 a      1141     1     6     2     1
  2.9613221283637065E-01 a      1142     1     6     2     2
  6.0988279162683046E-01 a      1143     1     6     2     3
 -2.3444658370872160E-01 a      1144     1     6     2     4
  4.9128515261767181E-01 a      1145     1     6     2     5
  2.9198716719705214E-01 a      1146     1     6     2     6
 -1.0139102152276568E-01 a      1147     1     6     2     7
  6.9278977668897077E-03 a      1148     1     6     2     8
  5.7357778231977560E-02 a      1149     1     6     2     9
 -2.7313974727186868E-01 a      1150     1     6     2    10
 -5.5405236127883742E-02 a      1151     1     6     2    11
  1.2012932126912590E-01 a      1152     1     6     2    12
  4.0552272884450491E-01 a      1153     1     6     2    13
 -9.9137725076617791E-02 a      1154     1     6     2    14
 -1.3240590331466934E-01 a      1155     1     6     2    15
 -3.1622103574065313E-01 a      1156     1     6     2    16
 -3.3744653186610968E-01 a      1157     1     6     2    17
  2.8128859657232486E-01 a      1158     1     6     2    18
  7.8551230936091521E-01 a      1159     1     6     2    19
 -4.8897738742476154E-01 a      1160     1     6     2    20
  8.3428679494234026E-01 a      1161     1     7     2     1
  3.2782916423331990E-02 a      1162     1     7     2     2
 -1.9168251096739142E-01 a      1163     1     7     2     3
 -1.7620679689611007E-02 a      1164     1     7     2     4
 -1.8986599205964107E-02 a      1165     1     7     2     5
 -2.9836259443477492E-01 a      1166     1     7     2     6
  1.7895761724767636E-01 a      1167     1     7     2     7
 -2.4588794488926505E-01 a      1168     1     7     2     8
 -2.8985450724004913E-01 a      1169     1     7     2     9
 -1.9486513786295181E-01 a      1170     1     7     2    10
  7.0592236046643131E-01 a      1171     1     7     2    11
  8.4211306292433918E-01 a      1172     1     7     2    12
  9.8562494817738683E-02 a      1173     1     7     2    13
  6.6693238754756212E-01 a      1174     1     7     2    14
  2.9067775156915721E-01 a      1175     1     7     2    15
  1.0182900488136508E+00 a      1176     1     7     2    16
 -2.9789395312640055E-01 a      1177     1     7     2    17
 -7.5418075547512273E-02 a      1178     1     7     2    18
 -3.2942541714588958E-01 a      1179     1     7     2    19
 -2.7170527604595368E-01 a      1180     1     7     2    20
  8.2370886938352456E-02 a      1181     1     8     2     1
 -4.5062660058427273E-01 a      1182     1     8     2     2
  3.7677917316127421E-02 a      1183     1     8     2     3
 -3.1154222709133750E-01 a      1184     1     8     2     4
 -2.9950734478978314E-01 a      1185     1     8     2     5
  4.7640523491209189E-02 a      1186     1     8     2     6
 -3.0316444949742150E-01 a      1187     1     8     2     7
  2.4027896990485828E-01 a      1188     1     8     2     8
 -7.5720069869910089E-01 a      1189     1     8     2     9
 -7.6688972812296985E-01 a      1190     1     8     2    10
  2.8088587172021134E-01 a      1191     1     8     2    11
 -3.5399936515094134E-02 a      1192     1     8     2    12
 -8.9065413258773196E-01 a      1193     1     8     2    13
  9.5097410475205424E-02 a      1194     1     8     2    14
  3.6557627022435299E-02 a      1195     1     8     2    15
 -4.4824528569400246E-01 a      1196     1     8     2    16
 -8.8446842187112940E-01 a      1197     1     8     2    17
 -2.6527628326743985E-01 a      1198     1     8     2    18
 -1.6231249537343381E-01 a      1199     1     8     2    19
  5.9798650526382569E-01 a      1200     1     8     2    20
  1.1947811073608164E-01 a      1201     1     9     2     1
  1.0064469596130723E+00 a      1202     1     9     2     2
  2.0123582876795645E-01 a      1203     1     9     2     3
  3.7802536775349055E-01 a      1204     1     9     2     4
 -6.4256149501950011E-01 a      1205     1     9     2     5
 -4.3333785390182522E-01 a      1206     1     9     2     6
 -4.3324318331492184E-01 a      1207     1     9     2     7
  1.7152300830731762E-01 a      1208     1     9     2     8
 -6.5600857227511888E-01 a      1209     1     9     2     9
  6.4921432194407480E-01 a      1210     1     9     2    10
  3.7499926786874771E-01 a      1211     1     9     2    11
 -2.4952977016233147E-01 a      1212     1     9     2    12
 -1.2199902399246799E-01 a      1213     1     9     2    13
  6.4075232272131333E-01 a      1214     1     9     2    14
  1.7598727433548955E-01 a      1215     1     9     2    15
 -2.1626032322462269E-01 a      1216     1     9     2    16
 -4.3929786008223121E-01 a      1217     1     9     2    17
 -8.8812536259887956E-02 a      1218     1     9     2    18
  6.0823863243699672E-01 a      1219     1     9     2    19
 -5.5063245324755228E-01 a      1220     1     9     2    20
  7.5344334276676505E-03 a      1221     1    10     2     1
  1.4910728159233810E-01 a      1222     1    10     2     2
 -4.5523040370987526E-02 a      1223     1    10     2     3
 -9.9745055565479954E-02 a      1224     1    10     2     4
  4.1492191544190110E-01 a      1225     1    10     2     5
  2.1009855736197486E-01 a      1226     1    10     2     6
 -4.2465978612842896E-02 a      1227     1    10     2     7
 -6.8515488500075639E-01 a      1228     1    10     2     8
 -1.8546672825084855E-02 a      1229     1    10     2     9
  2.4264143966633259E-01 a      1230     1    10     2    10
  2.4344607412870764E-01 a      1231     1    10     2    11
 -1.5695827599764217E-01 a      1232     1    10     2    12
  3.6018443137501283E-01 a      1233     1    10     2    13
 -1.6747519943669884E-01 a      1234     1    10     2    14
 -4.9490949879614604E-01 a      1235     1    10     2    15
 -6.0287149352297664E-01 a      1236     1    10     2    16
  4.0718360641645290E-01 a      1237     1    10     2    17
 -6.6051542657291473E-01 a      1238     1    10     2    18
  9.6772869045190321E-02 a      1239     1    10     2    19
  7.5302686343434488E-01 a      1240     1    10     2    20
  9.3960903248766822E-03 a      1241     1    11     2     1
 -4.3544171230917424E-02 a      1242     1    11     2     2
 -7.4231252322612823E-02 a      1243     1    11     2     3
  3.9832176587833240E-01 a      1244     1    11     2     4
 -1.4153588633217312E-01 a      1245     1    11     2     5
  2.5852455767297938E-01 a      1246     1    11     2     6
  4.0341544330809287E-01 a      1247     1    11     2     7
  6.2227728370169022E-01 a      1248     1    11     2     8
 -2.0566013054463744E-01 a      1249     1    11     2     9
  5.8352064418799166E-01 a      1250     1    11     2    10
 -5.3822404929086437E-02 a      1251     1    11     2    11
  3.1299400849634357E-01 a      1252     1    11     2    12
  2.4259083598483813E-01 a      1253     1    11     2    13
  1.1176473468593186E-02 a      1254     1    11     2    14
 -4.9648813316685164E-01 a      1255     1    11     2    15
  4.2623872825291970E-01 a      1256     1    11     2    16
  3.8252076118621336E-01 a      1257     1    11     2    17
  1.1869672434882593E-01 a      1258     1    11     2    18
  6.6574506008257706E-01 a      1259     1    11     2    19
  1.0269952488671210E+00 a      1260     1    11     2    20
  5.6549367501990105E-02 a      1261     1    12     2     1
  3.1838161039828205E-03 a      1262     1    12     2     2
  5.0366410751685164E-01 a      1263     1    12     2     3
 -8.4497479349295468E-02 a      1264     1    12     2     4
  2.0771777546069800E-01 a      1265     1    12     2     5
  2.9221059862212195E-01 a      1266     1    12     2     6
 -3.0436083733071123E-01 a      1267     1    12     2     7
  1.9357286025433071E-01 a      1268     1    12     2     8
  2.8110284583475975E-01 a      1269     1    12     2     9
  2.8054836727268845E-01 a      1270     1    12     2    10
 -6.8796360538912804E-02 a      1271     1    12     2    11
  5.6992189219193778E-01 a      1272     1    12     2    12
 -2.3996215797960610E-01 a      1273     1    12     2    13
  2.9876685762609984E-01 a      1274     1    12     2    14
  3.5532531697518820E-02 a      1275     1    12     2    15
  1.1203664890670930E+00 a      1276     1    12     2    16
  3.6205564590072420E-01 a      1277     1    12     2    17
  3.8593049340356700E-01 a      1278     1    12     2    18
  9.0667459587249000E-01 a      1279     1    12     2    19
  1.9618223608423754E-01 a      1280     1    12     2    20
  1.4147406384638300E-02 a      1281     1    13     2     1
 -4.5315002579365371E-01 a      1282     1    13     2     2
  2.9172928578351170E-01 a      1283     1    13     2     3
  7.7277907926344191E-01 a      1284     1    13     2     4
 -2.0499574445740784E-01 a      1285     1    13     2     5
  1.9101165626832789E-01 a      1286     1    13     2     6
 -4.6931896801209577E-01 a      1287     1    13     2     7
 -7.4055587467031170E-01 a      1288     1    13     2     8
 -5.2955722591435694E-01 a      1289     1    13     2     9
  3.4188983299477160E-01 a      1290     1    13     2    10
  7.8282517307002175E-01 a      1291     1    13     2    11
  3.7207376844715062E-01 a      1292     1    13     2    12
 -1.0422712313398885E+00 a      1293     1    13     2    13
 -7.5670237604604029E-01 a      1294     1    13     2    14
 -5.1612482479415223E-01 a      1295     1    13     2    15
  4.7112583526390001E-01 a      1296     1    13     2    16
 -6.6650791473841031E-01 a      1297     1    13     2    17
 -3.0808689190979566E-01 a      1298     1    13     2    18
 -7.2366479845686205E-01 a      1299     1    13     2    19
 -9.0587286679432466E-01 a      1300     1    13     2    20
 -1.1803531233718431E-01 a      1301     1    14     2     1
  7.3447984486301143E-01 a      1302     1    14     2     2
 -2.8909254597114592E-01 a      1303     1    14     2     3
  2.0881598179602368E-01 a      1304     1    14     2     4
 -7.8614988944612629E-01 a      1305     1    14     2     5
  6.4021185888341636E-01 a      1306     1    14     2     6
 -1.5087768974563105E+00 a      1307     1    14     2     7
 -6.2094477098880085E-01 a      1308     1    14     2     8
 -5.3027522685341923E-02 a      1309     1    14     2     9
 -2.8883315652854613E-01 a      1310     1    14     2    10
 -6.3191982743134401E-01 a      1311     1    14     2    11
 -4.7473614780903950E-01 a      1312     1    14     2    12
 -3.8920356171296866E-01 a      1313     1    14     2    13
  1.9696737319868310E-01 a      1314     1    14     2    14
 -3.3326023625265516E-01 a      1315     1    14     2    15
 -6.0615156544731696E-01 a      1316     1    14     2    16
  6.7472709619225435E-01 a      1317     1    14     2    17
 -7.3879506604954448E-01 a      1318     1    14     2    18
  2.5206754923037922E-01 a      1319     1    14     2    19
  1.1154157472231299E+00 a      1320     1    14     2    20
  3.4955105629277161E-01 a      1321     1    15     2     1
  3.3642936339406415E-01 a      1322     1    15     2     2
 -4.6421590350762598E-01 a      1323     1    15     2     3
 -2.5389521389033781E-01 a      1324     1    15     2     4
  4.2390118855969272E-01 a      1325     1    15     2     5
 -1.0311375066363443E-01 a      1326     1    15     2     6
 -6.2368761993846444E-01 a      1327     1    15     2     7
 -2.5789683890409942E-01 a      1328     1    15     2     8
  7.4865444689457702E-02 a      1329     1    15     2     9
 -3.0355482248538751E-01 a      1330     1    15     2    10
  3.7393026460960382E-01 a      1331     1    15     2    11
 -4.8060002464305951E-01 a      1332     1    15     2    12
 -1.1054189801962946E+00 a      1333     1    15     2    13
 -1.2592353537910470E-01 a      1334     1    15     2    14
 -7.9318925960629519E-02 a      1335     1    15     2    15
  3.7407130208113509E-01 a      1336     1    15     2    16
 -7.8417459337224896E-02 a      1337     1    15     2    17
  5.9590287648221374E-01 a      1338     1    15     2    18
 -4.7658039209217476E-02 a      1339     1    15     2    19
  3.3406584811864837E-01 a      1340     1    15     2    20
 -5.3063654736966437E-01 a      1341     1    16     2     1
 -1.8039481037904270E-01 a      1342     1    16     2     2
  6.0657863920442556E-01 a      1343     1    16     2     3
 -1.8301563659817829E-01 a      1344     1    16     2     4
 -1.0822844257484010E-01 a      1345     1    16     2     5
 -1.4318976652379065E-01 a      1346     1    16     2     6
  2.7526068294967782E-01 a      1347     1    16     2     7
  5.9695092868721134E-01 a      1348     1    16     2     8
  3.8899974527291864E-01 a      1349     1    16     2     9
  5.9132715205069664E-01 a      1350     1    16     2    10
 -3.8931884159358576E-01 a      1351     1    16     2    11
 -5.5465973463995710E-01 a      1352     1    16     2    12
  4.1130556492674736E-01 a      1353     1    16     2    13
  2.5852026986650523E-01 a      1354     1    16     2    14
  4.2862396315435536E-02 a      1355     1    16     2    15
 -5.9466843033109812E-02 a      1356     1    16     2    16
  8.5146322962677745E-01 a      1357     1    16     2    17
 -4.1468938432380525E-01 a      1358     1    16     2    18
  1.5003620789357491E-01 a      1359     1    16     2    19
  1.6119723142182671E-01 a      1360     1    16     2    20
 -6.1572795111280965E-01 a      1361     1    17     2     1
 -6.0058371477397088E-01 a      1362     1    17     2     2
  3.9973394536102613E-01 a      1363     1    17     2     3
  1.7035438607436751E-01 a      1364     1    17     2     4
  2.2984372659006813E-01 a      1365     1    17     2     5
 -3.9933750679685742E-02 a      1366     1    17     2     6
 -4.3969183917383647E-01 a      1367     1    17     2     7
 -5.9721069084930334E-01 a      1368     1    17     2     8
  2.6479402309812144E-01 a      1369     1    17     2     9
 -5.0403348296414052E-01 a      1370     1    17     2    10
 -1.2979684730002672E-01 a      1371     1    17     2    11
  4.0806476092441607E-01 a      1372     1    17     2    12
 -1.0601481852017838E+00 a      1373     1    17     2    13
  3.0564345794215048E-01 a      1374     1    17     2    14
 -3.8558518118536073E-01 a      1375     1    17     2    15
  8.5146211076670320E-01 a      1376     1    17     2    16
  7.1615644605123630E-01 a      1377     1    17     2    17
  6.5522465648791262E-01 a      1378     1    17     2    18
 -1.0172353608783442E+00 a      1379     1    17     2    19
  3.4318360437999940E-01 a      1380     1    17     2    20
  4.8980163832217677E-01 a      1381     1    18     2     1
  5.2291216045297051E-01 a      1382     1    18     2     2
 -6.2386801166258343E-01 a      1383     1    18     2     3
  1.3186078026894166E-01 a      1384     1    18     2     4
  3.9405732756303513E-01 a      1385     1    18     2     5
  3.6913489946692413E-01 a      1386     1    18     2     6
 -3.2791729639927664E-01 a      1387     1    18     2     7
  2.4646962404607364E-01 a      1388     1    18     2     8
  7.2629081619857949E-01 a      1389     1    18     2     9
 -2.3129305988104907E-03 a      1390     1    18     2    10
  4.7189352573703292E-01 a      1391     1    18     2    11
 -3.5787297589595481E-03 a      1392     1    18     2    12
 -9.8335545355508813E-02 a      1393     1    18     2    13
 -5.7793796224003746E-01 a      1394     1    18     2    14
 -4.0522896375549033E-01 a      1395     1    18     2    15
 -7.2892855250193422E-01 a      1396     1    18     2    16
  2.9050588698989344E-01 a      1397     1    18     2    17
  5.7856662487316435E-01 a      1398     1    18     2    18
  1.9255958256739290E-02 a      1399     1    18     2    19
  2.9537235156959718E-01 a      1400     1    18     2    20
  8.8735437935273456E-02 a      1401     1    19     2     1
 -1.6891196165301231E-01 a      1402     1    19     2     2
  4.9472790257160465E-01 a      1403     1    19     2     3
  1.1559695051209040E+00 a      1404     1    19     2     4
  2.2724247978437542E-01 a      1405     1    19     2     5
  7.1948209697339796E-02 a      1406     1    19     2     6
 -3.0587926367135265E-01 a      1407     1    19     2     7
 -4.6042380547132022E-01 a      1408     1    19     2     8
 -2.0477026623495157E-02 a      1409     1    19     2     9
  8.0347691061107118E-01 a      1410     1    19     2    10
 -2.2497562518481379E-01 a      1411     1    19     2    11
 -1.7510630387064094E-01 a      1412     1    19     2    12
  5.0213649827935869E-01 a      1413     1    19     2    13
  7.9667616012838408E-02 a      1414     1    19     2    14
  6.1728142744139258E-01 a      1415     1    19     2    15
 -3.0075841675265907E-01 a      1416     1    19     2    16
  6.3882946646057190E-02 a      1417     1    19     2    17
 -4.7821215228518155E-01 a      1418     1    19     2    18
  2.5078467686219861E-03 a      1419     1    19     2    19
  7.9744126146577576E-01 a      1420     1    19     2    20
 -1.4689458367501057E-01 a      1421     1    20     2     1
 -1.2234181247026592E-02 a      1422     1    20     2     2
 -2.1046523652057927E-01 a      1423     1    20     2     3
  1.0763506419362204E-01 a      1424     1    20     2     4
 -2.5648669629151261E-01 a      1425     1    20     2     5
 -3.9902636940378067E-01 a      1426     1    20     2     6
  1.4732426184082309E-01 a      1427     1    20     2     7
  2.1366709159110245E-01 a      1428     1    20     2     8
 -6.5783426255399069E-01 a      1429     1    20     2     9
 -2.2794731005741542E-01 a      1430     1    20     2    10
  3.8139991348122215E-01 a      1431     1    20     2    11
  3.5829721698322442E-01 a      1432     1    20     2    12
  6.4504333926330530E-03 a      1433     1    20     2    13
  1.6372906847323462E-01 a      1434     1    20     2    14
 -1.6904809040710830E-01 a      1435     1    20     2    15
 -1.1217737694452468E+00 a      1436     1    20     2    16
 -2.5571843253874144E-01 a      1437     1    20     2    17
 -8.1177155335444584E-01 a      1438     1    20     2    18
 -5.7218816232781267E-01 a      1439     1    20     2    19
  1.6745147826964291E-01 a      1440     1    20     2    20
 -7.4100366342672974E-01 b      1441     2     1
  6.3381967380887805E-01 b      1442     2     2
  8.0533131227847499E-01 b      1443     2     3
  6.4878576599702298E-01 b      1444     2     4
 -1.4006019540156576E+00 b      1445     2     5
  3.7166275261847848E-01 b      1446     2     6
  4.4491670899978686E-01 b      1447     2     7
 -6.6865082262286130E-02 b      1448     2     8
 -3.8282258741825720E-01 b      1449     2     9
 -3.2607982566944899E-01 b      1450     2    10
  2.7267244151882239E-02 b      1451     2    11
 -1.3920873294274339E+00 b      1452     2    12
  3.5486199170172861E-01 b      1453     2    13
  8.6842377082401101E-01 b      1454     2    14
  7.8133104279269883E-01 b      1455     2    15
  3.6813158174320820E-02 b      1456     2    16
  3.2307820370993251E-01 b      1457     2    17
 -1.2931008180172432E+00 b      1458     2    18
 -2.2032414727170369E-02 b      1459     2    19
 -7.5723038009716725E-01 b      1460     2    20
 -1.1297657550975992E+00 a      1461     2     1     3     1
  5.8513112594589245E-01 a      1462     2     2     3     1
  2.2039078605713764E-02 a      1463     2     3     3     1
 -1.3907547669947145E+00 a      1464     2     4     3     1
 -1.0070633936932700E+00 a      1465     2     5     3     1
  2.2214772804256278E+00 a      1466     2     6     3     1
  4.2797941383447091E-01 a      1467     2     7     3     1
  1.8049376353271987E-02 a      1468     2     8     3     1
  2.1202607687108754E+00 a      1469     2     9     3     1
 -2.6632411220723111E+00 a      1470     2    10     3     1
 -1.7700316760479273E+00 a      1471     2    11     3     1
 -2.4168392222818293E+00 a      1472     2    12     3     1
 -4.6032587189106994E-01 a      1473     2    13     3     1
  1.3040335267428154E+00 a      1474     2    14     3     1
  4.9206471509121791E-01 a      1475     2    15     3     1
  1.4669454201217924E-01 a      1476     2    16     3     1
  2.1462307548834514E+00 a      1477     2    17     3     1
 -7.8112786512960786E-01 a      1478     2    18     3     1
  2.6439632030168403E-01 a      1479     2    19     3     1
 -6.4007818910938846E-02 a      1480     2    20     3     1
  1.8500682168810887E+00 b      1481     3     1
