################################################################################
# Neural network connection values (weights and biases).
################################################################################
# Col  Name       Description
################################################################################
# 1    connection Neural network connection value.
# 2    t          Connection type (a = weight, b = bias).
# 3    index      Index enumerating weights.
# 4    l_s        Starting point layer (end point layer for biases).
# 5    n_s        Starting point neuron in starting layer (end point neuron for biases).
# 6    l_e        End point layer.
# 7    n_e        End point neuron in end layer.
################################################################################
#                      1 2         3     4     5     6     7
#             connection t     index   l_s   n_s   l_e   n_e
############################################################
  2.0385151262438414E-01 a         1     0     1     1     1
 -1.2762444547593987E-01 a         2     0     1     1     2
  3.7633679594726976E-01 a         3     0     1     1     3
 -3.6566984906224376E-01 a         4     0     1     1     4
 -2.8772112510117087E-01 a         5     0     1     1     5
  2.5069725930552823E-02 a         6     0     1     1     6
 -4.3519093491441424E-02 a         7     0     1     1     7
  3.7289577382510736E-01 a         8     0     1     1     8
  1.8655935191576931E-01 a         9     0     1     1     9
 -1.1313337217197224E-01 a        10     0     1     1    10
 -4.8101761999150799E-01 a        11     0     1     1    11
  3.4635206553185899E-01 a        12     0     1     1    12
 -3.8380486732387795E-02 a        13     0     1     1    13
  1.2621131463477403E-01 a        14     0     1     1    14
  1.5522781158818008E-02 a        15     0     1     1    15
 -3.9373788424530383E-02 a        16     0     1     1    16
 -1.5876884005991232E-01 a        17     0     1     1    17
  1.1586619110647235E-01 a        18     0     1     1    18
  1.2485550775769794E-01 a        19     0     1     1    19
  7.8056755208452649E-02 a        20     0     1     1    20
  1.1506142743324381E-01 a        21     0     2     1     1
 -4.3056959799909655E-01 a        22     0     2     1     2
  5.0813187681977567E-01 a        23     0     2     1     3
 -3.5228422766459162E-02 a        24     0     2     1     4
  2.1455349977321492E-01 a        25     0     2     1     5
 -3.7580761225550963E-01 a        26     0     2     1     6
  2.2964506713239610E-01 a        27     0     2     1     7
  1.3171331521158737E-02 a        28     0     2     1     8
  1.4974660255589169E-02 a        29     0     2     1     9
 -2.5470027136036799E-01 a        30     0     2     1    10
 -7.8987931212981310E-02 a        31     0     2     1    11
  3.3153909232905560E-01 a        32     0     2     1    12
 -1.5918750559857497E-01 a        33     0     2     1    13
 -8.2908087468803723E-02 a        34     0     2     1    14
  7.8167410629448708E-02 a        35     0     2     1    15
  3.0341824888946622E-01 a        36     0     2     1    16
  2.2529530858069333E-01 a        37     0     2     1    17
  7.9884574236155040E-02 a        38     0     2     1    18
  1.8985381617149366E-01 a        39     0     2     1    19
 -3.1801646858086886E-03 a        40     0     2     1    20
 -1.0467118913220221E-01 a        41     0     3     1     1
  1.7490929195264412E-01 a        42     0     3     1     2
 -2.9095625813260539E-01 a        43     0     3     1     3
  5.0255613818074052E-01 a        44     0     3     1     4
 -1.7099699656301034E-02 a        45     0     3     1     5
  2.2218112711751800E-01 a        46     0     3     1     6
 -6.5514646212124009E-02 a        47     0     3     1     7
 -2.1399004518636125E-01 a        48     0     3     1     8
  1.7763423387541044E-01 a        49     0     3     1     9
  2.5090939642728710E-01 a        50     0     3     1    10
 -1.3607453213880202E-01 a        51     0     3     1    11
 -3.5029373388697876E-01 a        52     0     3     1    12
  2.3407079860765864E-01 a        53     0     3     1    13
 -3.4075622445304779E-02 a        54     0     3     1    14
 -2.7942184618608551E-01 a        55     0     3     1    15
  3.1852853830960415E-01 a        56     0     3     1    16
 -2.4648513333947446E-02 a        57     0     3     1    17
 -2.7112093688361327E-01 a        58     0     3     1    18
 -2.7010485528466111E-01 a        59     0     3     1    19
 -3.8098036129741925E-01 a        60     0     3     1    20
 -3.2479782394153184E-01 a        61     0     4     1     1
  3.7795308767532898E-01 a        62     0     4     1     2
 -8.4955460159163734E-02 a        63     0     4     1     3
  6.9612533821569553E-02 a        64     0     4     1     4
 -2.0150456930274738E-01 a        65     0     4     1     5
 -2.5758383382576705E-01 a        66     0     4     1     6
 -3.8833294567252435E-01 a        67     0     4     1     7
 -2.9155426637115450E-01 a        68     0     4     1     8
  3.4431085626138302E-01 a        69     0     4     1     9
  1.8547552042347246E-01 a        70     0     4     1    10
  1.2016040714166246E-01 a        71     0     4     1    11
 -1.0844752264459423E-01 a        72     0     4     1    12
  1.2194878150737849E-01 a        73     0     4     1    13
  6.5125635669228618E-02 a        74     0     4     1    14
 -5.5170739653358325E-01 a        75     0     4     1    15
  1.8465160790835042E-01 a        76     0     4     1    16
  5.6826628811631652E-01 a        77     0     4     1    17
 -3.3292522944204889E-01 a        78     0     4     1    18
 -3.2068402365125759E-01 a        79     0     4     1    19
  8.8212112714774277E-02 a        80     0     4     1    20
 -3.3182320722179415E-02 a        81     0     5     1     1
 -4.3811103060037099E-01 a        82     0     5     1     2
 -3.3616287875724360E-01 a        83     0     5     1     3
 -3.7090393722021198E-01 a        84     0     5     1     4
  9.2614104053633586E-02 a        85     0     5     1     5
  2.7041637643568550E-01 a        86     0     5     1     6
  1.9386316210671614E-01 a        87     0     5     1     7
  1.6072638432755701E-01 a        88     0     5     1     8
 -4.1721808193150922E-01 a        89     0     5     1     9
 -1.9883406018968358E-01 a        90     0     5     1    10
  4.0344322869545002E-01 a        91     0     5     1    11
  2.2728104240220917E-01 a        92     0     5     1    12
  7.9086256266526725E-02 a        93     0     5     1    13
 -1.1907876770450594E-01 a        94     0     5     1    14
 -1.5955476290166806E-01 a        95     0     5     1    15
  1.4092148410734091E-02 a        96     0     5     1    16
 -2.0680595212133948E-01 a        97     0     5     1    17
  3.4993657114171789E-01 a        98     0     5     1    18
  2.5947510646828592E-01 a        99     0     5     1    19
  2.2385950932584217E-01 a       100     0     5     1    20
 -3.0721626674216512E-01 a       101     0     6     1     1
  4.1734271747087742E-01 a       102     0     6     1     2
 -9.4303281834187025E-01 a       103     0     6     1     3
 -1.7844015863217058E-01 a       104     0     6     1     4
  6.4921453117930808E-02 a       105     0     6     1     5
 -1.9068863043461875E-02 a       106     0     6     1     6
  1.1458402736262231E-01 a       107     0     6     1     7
 -3.7079517714051757E-01 a       108     0     6     1     8
 -1.6013705778054563E-01 a       109     0     6     1     9
  2.7556238446189740E-01 a       110     0     6     1    10
 -1.9901250431172659E-02 a       111     0     6     1    11
  1.6233392392470744E-01 a       112     0     6     1    12
 -4.8025667516515907E-01 a       113     0     6     1    13
 -2.1309193097038734E-01 a       114     0     6     1    14
 -4.2837307145189879E-01 a       115     0     6     1    15
 -1.0006316713066396E-01 a       116     0     6     1    16
 -6.6395946379559645E-02 a       117     0     6     1    17
  2.2202426896381774E-01 a       118     0     6     1    18
 -4.0117553980390536E-01 a       119     0     6     1    19
  1.1816708812102339E-01 a       120     0     6     1    20
 -1.3462678034464842E-01 a       121     0     7     1     1
  3.5176001841134569E-01 a       122     0     7     1     2
  6.8581681519958881E-01 a       123     0     7     1     3
  2.9075154105114454E-01 a       124     0     7     1     4
 -1.7362106997792875E-01 a       125     0     7     1     5
  4.5940502424211238E-01 a       126     0     7     1     6
 -3.3458704969811831E-01 a       127     0     7     1     7
 -4.4338631333557654E-01 a       128     0     7     1     8
  3.9497811799633943E-02 a       129     0     7     1     9
 -7.9189789282203671E-01 a       130     0     7     1    10
 -3.6900673890427199E-01 a       131     0     7     1    11
 -2.5649331678975362E-01 a       132     0     7     1    12
 -1.9645014662170529E-01 a       133     0     7     1    13
  2.0737926929998232E-01 a       134     0     7     1    14
  4.4758637175681282E-01 a       135     0     7     1    15
 -3.2674072370607576E-01 a       136     0     7     1    16
  7.6055280894303592E-02 a       137     0     7     1    17
  7.9839269554304496E-02 a       138     0     7     1    18
 -6.2987044262592481E-02 a       139     0     7     1    19
  8.6679124853075561E-03 a       140     0     7     1    20
  2.1052522689499292E-01 a       141     0     8     1     1
 -1.2568673651249479E-01 a       142     0     8     1     2
  8.3616758886461057E-02 a       143     0     8     1     3
  9.2553948570617654E-03 a       144     0     8     1     4
 -8.0161480428080356E-02 a       145     0     8     1     5
 -2.2829688953022553E-01 a       146     0     8     1     6
  7.5075709581447575E-02 a       147     0     8     1     7
  1.5633604946329724E-01 a       148     0     8     1     8
  4.1905118520934997E-01 a       149     0     8     1     9
  3.2600322010888427E-01 a       150     0     8     1    10
 -4.6501681980959934E-02 a       151     0     8     1    11
  1.2331206876801154E-01 a       152     0     8     1    12
  1.9115493431425790E-01 a       153     0     8     1    13
 -7.6655591144373467E-02 a       154     0     8     1    14
 -3.9207678734104479E-01 a       155     0     8     1    15
  2.0862373835637721E-01 a       156     0     8     1    16
  1.0700838723175579E-01 a       157     0     8     1    17
 -6.5142819856447931E-02 a       158     0     8     1    18
  1.0635909350892536E-02 a       159     0     8     1    19
  3.8472699791006849E-02 a       160     0     8     1    20
  2.9503416119425158E-01 a       161     0     9     1     1
  2.6726201278212702E-01 a       162     0     9     1     2
 -3.8915694242261240E-01 a       163     0     9     1     3
 -1.4451596486590468E-01 a       164     0     9     1     4
  1.0598565466266682E-02 a       165     0     9     1     5
 -7.1922581816771702E-01 a       166     0     9     1     6
 -1.9518453454506449E-01 a       167     0     9     1     7
 -2.8566621531376918E-01 a       168     0     9     1     8
  1.6359674381362848E+00 a       169     0     9     1     9
 -2.4525877468120710E-01 a       170     0     9     1    10
  4.4625503664812449E-01 a       171     0     9     1    11
  2.9702474209544654E-03 a       172     0     9     1    12
 -1.4876660210358264E-01 a       173     0     9     1    13
  4.3129779092821602E-01 a       174     0     9     1    14
 -6.5961774063315370E-01 a       175     0     9     1    15
 -7.4549713187495215E-01 a       176     0     9     1    16
  8.9055099747530753E-01 a       177     0     9     1    17
  4.3120337506114359E-01 a       178     0     9     1    18
 -4.1515171602969392E-01 a       179     0     9     1    19
  2.5716586140642358E-02 a       180     0     9     1    20
 -5.9864054807122880E-01 a       181     0    10     1     1
  5.9506758657111879E-02 a       182     0    10     1     2
  1.3356464278763108E-01 a       183     0    10     1     3
 -1.0213573243929155E-01 a       184     0    10     1     4
 -3.9562324401864613E-01 a       185     0    10     1     5
  6.8886373621607466E-01 a       186     0    10     1     6
  4.4010550369483414E-01 a       187     0    10     1     7
  2.5292024640213356E-01 a       188     0    10     1     8
 -1.9167085109361153E+00 a       189     0    10     1     9
 -1.8008040038150114E-01 a       190     0    10     1    10
 -5.9933223995880247E-01 a       191     0    10     1    11
  8.4950234266849972E-02 a       192     0    10     1    12
  7.5006855899241928E-02 a       193     0    10     1    13
 -7.6860141185823561E-01 a       194     0    10     1    14
  4.8494624427577609E-01 a       195     0    10     1    15
  4.3733250498082937E-01 a       196     0    10     1    16
 -9.9856245405166288E-01 a       197     0    10     1    17
 -2.8844921092962961E-01 a       198     0    10     1    18
  5.4071795610017948E-01 a       199     0    10     1    19
  2.1888203167747905E-01 a       200     0    10     1    20
  3.0909029493965956E-01 a       201     0    11     1     1
 -1.0956605203211458E+00 a       202     0    11     1     2
  6.9060199422626062E-02 a       203     0    11     1     3
  2.7683768208913484E-01 a       204     0    11     1     4
  2.9692146132295277E-01 a       205     0    11     1     5
  2.3076527222443268E-02 a       206     0    11     1     6
  5.0720064186247782E-01 a       207     0    11     1     7
 -5.0116000397137928E-01 a       208     0    11     1     8
  5.7777224771074587E-01 a       209     0    11     1     9
 -5.5793730178001677E-01 a       210     0    11     1    10
  2.6604857056791074E-02 a       211     0    11     1    11
 -7.9726192637749285E-02 a       212     0    11     1    12
  4.7327853302162770E-01 a       213     0    11     1    13
  1.2748624743494383E-01 a       214     0    11     1    14
 -4.5124952833567467E-01 a       215     0    11     1    15
 -1.2605951196289028E-01 a       216     0    11     1    16
  3.5629884814061319E-01 a       217     0    11     1    17
  1.4604306818726970E-01 a       218     0    11     1    18
 -5.4201215539520431E-01 a       219     0    11     1    19
 -4.8425393948627166E-01 a       220     0    11     1    20
  1.8449628890978989E-01 a       221     0    12     1     1
  7.8481882578618745E-01 a       222     0    12     1     2
 -1.5142580244294476E-01 a       223     0    12     1     3
  1.0335313341636530E-01 a       224     0    12     1     4
  1.6751112836886661E-01 a       225     0    12     1     5
 -1.2589811279615337E-01 a       226     0    12     1     6
 -6.8429759113624966E-01 a       227     0    12     1     7
  6.7722185393668222E-01 a       228     0    12     1     8
 -1.6383169913530540E-01 a       229     0    12     1     9
  4.8273936705311671E-01 a       230     0    12     1    10
  1.0075144389543579E-01 a       231     0    12     1    11
 -2.5913537236088222E-02 a       232     0    12     1    12
 -3.0108513949575461E-01 a       233     0    12     1    13
  1.0843093436645450E-01 a       234     0    12     1    14
 -3.5309783456683119E-01 a       235     0    12     1    15
  4.4644006565765704E-01 a       236     0    12     1    16
  1.6039378290372761E-01 a       237     0    12     1    17
  2.9132290351646745E-01 a       238     0    12     1    18
  2.3489626818109952E-01 a       239     0    12     1    19
  5.3143592137804209E-02 a       240     0    12     1    20
 -8.3962879997258835E-02 a       241     0    13     1     1
 -4.3517832345398144E-01 a       242     0    13     1     2
 -1.2625472600989332E-01 a       243     0    13     1     3
  1.1766129933153387E-01 a       244     0    13     1     4
 -2.0950381975836413E-01 a       245     0    13     1     5
 -8.3118782035217748E-02 a       246     0    13     1     6
  3.1010596643585026E-01 a       247     0    13     1     7
  4.3187580020702898E-01 a       248     0    13     1     8
  2.5656374433773349E-01 a       249     0    13     1     9
 -3.4499434215473046E-01 a       250     0    13     1    10
  3.0793020149589084E-01 a       251     0    13     1    11
 -5.4776487050979783E-01 a       252     0    13     1    12
  2.4052779416701520E-01 a       253     0    13     1    13
 -4.1400575428759315E-02 a       254     0    13     1    14
 -4.2523465687973006E-01 a       255     0    13     1    15
 -2.8681894684854370E-01 a       256     0    13     1    16
  2.9680820888586423E-01 a       257     0    13     1    17
  4.6028322115411185E-01 a       258     0    13     1    18
 -1.2493816652667020E-01 a       259     0    13     1    19
 -6.3306720653729975E-01 a       260     0    13     1    20
  4.6458001020410589E-01 a       261     0    14     1     1
  9.3909606575793059E-02 a       262     0    14     1     2
  4.8891436072333605E-01 a       263     0    14     1     3
  1.9556766981560975E-01 a       264     0    14     1     4
 -3.6844785490946351E-02 a       265     0    14     1     5
 -1.1852720285623418E-01 a       266     0    14     1     6
  3.4742035328048163E-02 a       267     0    14     1     7
  9.8719002762489669E-02 a       268     0    14     1     8
  2.4413921675290155E-02 a       269     0    14     1     9
  5.9224456334727360E-01 a       270     0    14     1    10
 -1.5661478544863111E-01 a       271     0    14     1    11
  1.8670189648200078E-01 a       272     0    14     1    12
 -4.2914096613892516E-01 a       273     0    14     1    13
  2.2711953018716721E-01 a       274     0    14     1    14
  2.1636777747074087E-01 a       275     0    14     1    15
 -1.9741329236712205E-01 a       276     0    14     1    16
  3.3674992904353052E-01 a       277     0    14     1    17
 -6.4022086522662780E-02 a       278     0    14     1    18
 -1.1932571628720354E-01 a       279     0    14     1    19
 -2.2958458801038567E-01 a       280     0    14     1    20
  1.9554031903347310E-02 a       281     0    15     1     1
 -2.9345697971264722E-02 a       282     0    15     1     2
 -3.0991319929082506E-01 a       283     0    15     1     3
 -2.3311152340482109E-02 a       284     0    15     1     4
 -1.2110294101803409E-01 a       285     0    15     1     5
  3.8020141465631124E-01 a       286     0    15     1     6
  3.9458032755404820E-01 a       287     0    15     1     7
  1.6641747389899028E-01 a       288     0    15     1     8
 -7.1624636474783135E-02 a       289     0    15     1     9
 -1.6195284056866097E-01 a       290     0    15     1    10
 -3.9511761224341685E-01 a       291     0    15     1    11
 -2.7701213299348532E-01 a       292     0    15     1    12
  2.2290294979560171E-01 a       293     0    15     1    13
  2.6517892868844783E-01 a       294     0    15     1    14
  1.8822671342097283E-01 a       295     0    15     1    15
 -3.3558931553226451E-01 a       296     0    15     1    16
  2.9068450316456829E-02 a       297     0    15     1    17
 -9.4474566662849618E-02 a       298     0    15     1    18
  1.4171073017292879E-01 a       299     0    15     1    19
 -2.2352462893812342E-01 a       300     0    15     1    20
  5.7543898570188295E-02 a       301     0    16     1     1
  3.4819736609764435E-01 a       302     0    16     1     2
 -1.4886850992274617E-01 a       303     0    16     1     3
 -2.4878657412815042E-01 a       304     0    16     1     4
  2.1589855352506629E-01 a       305     0    16     1     5
 -2.9652598155649040E-01 a       306     0    16     1     6
 -1.4176166485660890E-01 a       307     0    16     1     7
 -5.0318117445106704E-02 a       308     0    16     1     8
  9.1615450600002951E-02 a       309     0    16     1     9
 -1.2027529964803925E-01 a       310     0    16     1    10
  4.1829536320795124E-01 a       311     0    16     1    11
 -4.0566326517441287E-01 a       312     0    16     1    12
 -3.4207851466427641E-01 a       313     0    16     1    13
 -1.2187862629591484E-01 a       314     0    16     1    14
 -5.6504120869533159E-01 a       315     0    16     1    15
 -4.6397676101824220E-01 a       316     0    16     1    16
  4.4169760904018618E-01 a       317     0    16     1    17
  9.8967154672141000E-01 a       318     0    16     1    18
 -1.2559484596141562E-01 a       319     0    16     1    19
 -4.6432586895532224E-01 a       320     0    16     1    20
 -6.7221137910991186E-02 a       321     0    17     1     1
 -3.6493667376006872E-01 a       322     0    17     1     2
  4.4432066827455330E-01 a       323     0    17     1     3
 -5.1234682350758530E-02 a       324     0    17     1     4
  2.3373647305178077E-01 a       325     0    17     1     5
 -8.7729386254255207E-02 a       326     0    17     1     6
  7.0900360283991870E-01 a       327     0    17     1     7
 -5.8640506371006684E-01 a       328     0    17     1     8
  5.4177944934969545E-02 a       329     0    17     1     9
 -6.6623327954110412E-01 a       330     0    17     1    10
 -5.7864629207282547E-01 a       331     0    17     1    11
  4.2677040774638450E-02 a       332     0    17     1    12
 -1.0448945991952469E-01 a       333     0    17     1    13
  1.6566576589273013E-01 a       334     0    17     1    14
  1.2304001853721516E-01 a       335     0    17     1    15
 -4.0019090551853664E-01 a       336     0    17     1    16
 -5.4288354833508419E-03 a       337     0    17     1    17
 -6.8179434026061403E-01 a       338     0    17     1    18
 -2.2371063755487176E-02 a       339     0    17     1    19
 -4.9170370746209580E-01 a       340     0    17     1    20
 -3.4616090318307792E-02 a       341     0    18     1     1
  2.6222508034969488E-01 a       342     0    18     1     2
 -7.5767279305460122E-01 a       343     0    18     1     3
  1.0092767280755555E-01 a       344     0    18     1     4
 -1.8256309537156840E-01 a       345     0    18     1     5
 -1.2145498707678304E-01 a       346     0    18     1     6
 -6.7444886597953957E-01 a       347     0    18     1     7
  7.8044437885866691E-01 a       348     0    18     1     8
  5.9874076944637566E-01 a       349     0    18     1     9
  4.1092648730676162E-01 a       350     0    18     1    10
 -1.7310233440164716E-01 a       351     0    18     1    11
 -5.2882984646723452E-01 a       352     0    18     1    12
 -2.0253725384539675E-01 a       353     0    18     1    13
  1.8699047696624788E-01 a       354     0    18     1    14
 -2.2971505466180106E-01 a       355     0    18     1    15
  3.1162534450781636E-02 a       356     0    18     1    16
  1.9508968638123267E-01 a       357     0    18     1    17
  4.3066531189862078E-01 a       358     0    18     1    18
 -2.7934001217501090E-02 a       359     0    18     1    19
  6.4678696166253802E-01 a       360     0    18     1    20
 -9.4756134750973631E-01 a       361     0    19     1     1
  3.8417462370421672E-02 a       362     0    19     1     2
 -4.5470706474551559E-01 a       363     0    19     1     3
 -4.7116460167032337E-01 a       364     0    19     1     4
  1.8339954945926484E-01 a       365     0    19     1     5
  2.5506012158128072E-01 a       366     0    19     1     6
 -4.0597567977647915E-02 a       367     0    19     1     7
 -3.7860261004857393E-01 a       368     0    19     1     8
 -1.0068410151334266E-01 a       369     0    19     1     9
 -5.6004087934639631E-02 a       370     0    19     1    10
 -6.7500818100693041E-02 a       371     0    19     1    11
  1.3506438001010662E-01 a       372     0    19     1    12
 -1.1374949892882000E-01 a       373     0    19     1    13
 -1.9945349032405049E-02 a       374     0    19     1    14
  1.8292428157657925E-01 a       375     0    19     1    15
 -2.4022564554461373E-01 a       376     0    19     1    16
 -7.0346151761422698E-02 a       377     0    19     1    17
 -3.9356454118763273E-01 a       378     0    19     1    18
 -1.9244892120982440E-01 a       379     0    19     1    19
  7.0412036312455850E-01 a       380     0    19     1    20
  3.1922870941689824E-01 a       381     0    20     1     1
 -8.4054701652623326E-02 a       382     0    20     1     2
  1.8293551811275788E-01 a       383     0    20     1     3
  2.6744274286820485E-01 a       384     0    20     1     4
  1.5983754754577517E-01 a       385     0    20     1     5
  9.6053515250047305E-03 a       386     0    20     1     6
 -2.5114444136563913E-02 a       387     0    20     1     7
 -3.2534782173670485E-01 a       388     0    20     1     8
  7.7805161113596824E-02 a       389     0    20     1     9
  8.9668361237396799E-02 a       390     0    20     1    10
  7.6659937709524367E-02 a       391     0    20     1    11
 -6.9822614343309108E-02 a       392     0    20     1    12
 -8.9795033593557099E-03 a       393     0    20     1    13
  1.0745958621240026E-02 a       394     0    20     1    14
  3.6632902551359758E-01 a       395     0    20     1    15
  5.9023686446802011E-02 a       396     0    20     1    16
 -2.7144390429100046E-01 a       397     0    20     1    17
  2.2061322619800158E-01 a       398     0    20     1    18
 -1.8910028273072205E-03 a       399     0    20     1    19
 -2.9643518865385005E-01 a       400     0    20     1    20
  7.6987123581079217E-02 a       401     0    21     1     1
  1.8523623397639702E-01 a       402     0    21     1     2
  1.5416989108691703E-01 a       403     0    21     1     3
 -4.6062268966391889E-01 a       404     0    21     1     4
  2.4067861012615835E-01 a       405     0    21     1     5
 -2.5426931154114590E-01 a       406     0    21     1     6
  3.1570181120994373E-01 a       407     0    21     1     7
  5.8293045493321216E-01 a       408     0    21     1     8
 -1.4445713041112643E-01 a       409     0    21     1     9
  3.5837118126296041E-01 a       410     0    21     1    10
  1.2453641052537817E-04 a       411     0    21     1    11
  1.6408126976837201E-01 a       412     0    21     1    12
 -8.7040101258933439E-02 a       413     0    21     1    13
  3.5511765490757208E-01 a       414     0    21     1    14
 -4.8942509275595091E-02 a       415     0    21     1    15
 -1.7098376348442645E-01 a       416     0    21     1    16
 -5.2915646846588416E-01 a       417     0    21     1    17
 -3.0725559008254185E-02 a       418     0    21     1    18
  3.7147062391980450E-02 a       419     0    21     1    19
 -2.3259504454727117E-01 a       420     0    21     1    20
 -3.4873146442563209E-02 a       421     0    22     1     1
  5.6591897718039505E-02 a       422     0    22     1     2
 -2.0135239392818263E-02 a       423     0    22     1     3
 -2.4594304143710755E-01 a       424     0    22     1     4
 -2.8693170632016651E-01 a       425     0    22     1     5
  1.9225737328070211E-01 a       426     0    22     1     6
  1.4722934300564630E-01 a       427     0    22     1     7
  1.7874598439141015E-01 a       428     0    22     1     8
 -8.3909836200031707E-01 a       429     0    22     1     9
  7.4068830376952510E-03 a       430     0    22     1    10
  2.0887787404809943E-01 a       431     0    22     1    11
  3.4853624812737982E-01 a       432     0    22     1    12
 -9.2167308982624235E-02 a       433     0    22     1    13
  1.1099361863056616E-01 a       434     0    22     1    14
  9.9054488458039258E-01 a       435     0    22     1    15
 -2.6414261775410636E-01 a       436     0    22     1    16
  9.1586388345041875E-02 a       437     0    22     1    17
 -2.0098852197297534E-01 a       438     0    22     1    18
  1.6657621831157138E-01 a       439     0    22     1    19
  1.2226192146862942E-01 a       440     0    22     1    20
 -4.9438791378809904E-01 a       441     0    23     1     1
  4.9132897556097532E-01 a       442     0    23     1     2
 -7.1307707942893717E-01 a       443     0    23     1     3
 -1.8780558953466855E-01 a       444     0    23     1     4
 -7.9271776809381000E-01 a       445     0    23     1     5
 -2.7220600940979206E-01 a       446     0    23     1     6
 -4.0092955660397828E-01 a       447     0    23     1     7
 -6.0038574561430691E-02 a       448     0    23     1     8
  3.4356895974400101E-02 a       449     0    23     1     9
 -1.1413575116278289E-01 a       450     0    23     1    10
  8.8932101993880019E-02 a       451     0    23     1    11
 -6.3770142816643033E-02 a       452     0    23     1    12
  6.1559824966573340E-01 a       453     0    23     1    13
 -3.5861769919601133E-01 a       454     0    23     1    14
  1.7383959330652579E-01 a       455     0    23     1    15
 -6.2837941211846271E-02 a       456     0    23     1    16
  2.4802302949871080E-01 a       457     0    23     1    17
  3.8041693339473304E-01 a       458     0    23     1    18
  1.0173541735806947E-01 a       459     0    23     1    19
 -2.2051733486643874E-01 a       460     0    23     1    20
 -1.6267624808207948E-01 a       461     0    24     1     1
 -8.8259187313143611E-02 a       462     0    24     1     2
 -4.0757077657013385E-01 a       463     0    24     1     3
 -9.1481998284033261E-03 a       464     0    24     1     4
 -1.9802359224760696E-01 a       465     0    24     1     5
  1.9984528933875478E-01 a       466     0    24     1     6
 -3.1019147826219118E-01 a       467     0    24     1     7
 -2.3827131511307159E-01 a       468     0    24     1     8
  4.2830939715495009E-02 a       469     0    24     1     9
  1.9315889336960398E-01 a       470     0    24     1    10
  3.6704317000494141E-01 a       471     0    24     1    11
 -1.0567282408610845E-01 a       472     0    24     1    12
 -3.8506085902240576E-02 a       473     0    24     1    13
  2.0970526693848318E-01 a       474     0    24     1    14
  3.0358032646780114E-01 a       475     0    24     1    15
  1.1906175952266689E-02 a       476     0    24     1    16
 -1.8506647975803470E-01 a       477     0    24     1    17
 -1.9050457320321629E-01 a       478     0    24     1    18
  5.1310508589566672E-01 a       479     0    24     1    19
  3.2889350420688329E-01 a       480     0    24     1    20
 -3.5868851862774792E-01 a       481     0    25     1     1
 -2.3670076649960506E-01 a       482     0    25     1     2
 -1.0602370540846804E+00 a       483     0    25     1     3
 -2.6930322439404625E-01 a       484     0    25     1     4
  4.5584732723257743E-01 a       485     0    25     1     5
 -8.3212002406551799E-01 a       486     0    25     1     6
  7.8036156962642059E-03 a       487     0    25     1     7
 -9.5271982139038563E-02 a       488     0    25     1     8
  8.5735860318042981E-03 a       489     0    25     1     9
  3.0723124652440015E-01 a       490     0    25     1    10
 -7.6856383965111508E-01 a       491     0    25     1    11
  2.1928368792732011E-01 a       492     0    25     1    12
 -4.3559729926426666E-01 a       493     0    25     1    13
 -4.6177870127658288E-01 a       494     0    25     1    14
  2.3583436839268951E-01 a       495     0    25     1    15
 -2.0401155284620995E-01 a       496     0    25     1    16
 -3.3569398381470805E-01 a       497     0    25     1    17
 -2.7655724673407339E-01 a       498     0    25     1    18
 -1.1324146665096306E-01 a       499     0    25     1    19
  4.3729846724748084E-01 a       500     0    25     1    20
  9.2415948243128099E-02 a       501     0    26     1     1
 -3.1530229809031765E-02 a       502     0    26     1     2
  4.3305776198567236E-02 a       503     0    26     1     3
  1.4336064122174741E-01 a       504     0    26     1     4
  2.4353307540038882E-01 a       505     0    26     1     5
  3.5089952801020630E-01 a       506     0    26     1     6
  2.5000888578054198E-01 a       507     0    26     1     7
  2.8558696174427706E-01 a       508     0    26     1     8
 -1.4651831116729694E-01 a       509     0    26     1     9
 -1.0523400931769504E-01 a       510     0    26     1    10
 -1.6850917592512690E-01 a       511     0    26     1    11
  2.0056401194445048E-01 a       512     0    26     1    12
 -3.3334565801467964E-01 a       513     0    26     1    13
 -5.2760732469143857E-03 a       514     0    26     1    14
 -2.1645660288336760E-01 a       515     0    26     1    15
 -2.6254353050745760E-01 a       516     0    26     1    16
  2.0927910276627998E-01 a       517     0    26     1    17
 -7.8091363536493166E-02 a       518     0    26     1    18
 -7.5045530434996136E-02 a       519     0    26     1    19
  1.0841869311372887E-01 a       520     0    26     1    20
 -1.8517982015331719E-01 a       521     0    27     1     1
  2.1985905748910969E-01 a       522     0    27     1     2
  9.0966844857287577E-01 a       523     0    27     1     3
 -2.7934650054970096E-02 a       524     0    27     1     4
  3.3202784118111150E-01 a       525     0    27     1     5
  9.0060251569587646E-01 a       526     0    27     1     6
 -3.1676603087752070E-01 a       527     0    27     1     7
  1.7521363300421100E-01 a       528     0    27     1     8
 -4.0233622948684611E-01 a       529     0    27     1     9
 -1.5205425881939237E-02 a       530     0    27     1    10
  4.8846401803292333E-01 a       531     0    27     1    11
 -2.2348155134176265E-01 a       532     0    27     1    12
  4.4863193848262178E-02 a       533     0    27     1    13
  3.5939228269226636E-01 a       534     0    27     1    14
 -7.6566373543833346E-02 a       535     0    27     1    15
 -7.1711660641322528E-01 a       536     0    27     1    16
  1.1336887856842547E-01 a       537     0    27     1    17
 -1.3286272603822305E-01 a       538     0    27     1    18
  4.3869777438165247E-01 a       539     0    27     1    19
 -2.9042108428938224E-01 a       540     0    27     1    20
  2.9762205758830151E-01 a       541     0    28     1     1
 -2.3050276596443997E-01 a       542     0    28     1     2
  2.6057237999428079E-02 a       543     0    28     1     3
  4.5131286399885055E-02 a       544     0    28     1     4
  3.6055485307583979E-01 a       545     0    28     1     5
  7.9510556125280824E-02 a       546     0    28     1     6
 -5.1386599085010365E-01 a       547     0    28     1     7
  8.1338848282853010E-02 a       548     0    28     1     8
  3.7782110699244609E-01 a       549     0    28     1     9
  1.9708697203760925E-01 a       550     0    28     1    10
 -1.7848630423952308E-01 a       551     0    28     1    11
 -9.2852917123010928E-02 a       552     0    28     1    12
  1.8763400410695130E-01 a       553     0    28     1    13
 -6.4719419174935205E-02 a       554     0    28     1    14
 -4.0345681996568815E-02 a       555     0    28     1    15
  3.6546580043816279E-01 a       556     0    28     1    16
  7.3284332458259216E-02 a       557     0    28     1    17
 -1.6174186833075960E-01 a       558     0    28     1    18
  1.8540076888891396E-01 a       559     0    28     1    19
 -9.9427116014322595E-02 a       560     0    28     1    20
 -3.2336784049146705E-01 a       561     0    29     1     1
 -8.3461479653955908E-02 a       562     0    29     1     2
 -3.0690390670509472E-02 a       563     0    29     1     3
  7.4043416936123527E-02 a       564     0    29     1     4
  3.9621474055406569E-01 a       565     0    29     1     5
  6.4052659363630984E-02 a       566     0    29     1     6
  2.7885133478745281E-03 a       567     0    29     1     7
  4.0593446402125483E-01 a       568     0    29     1     8
  7.4031275901690591E-02 a       569     0    29     1     9
  2.8985737817662921E-01 a       570     0    29     1    10
  1.4923138325742225E-01 a       571     0    29     1    11
 -1.4414191983922867E-01 a       572     0    29     1    12
  3.4794824866173013E-01 a       573     0    29     1    13
 -2.5164948124266467E-01 a       574     0    29     1    14
  9.6433686718216005E-02 a       575     0    29     1    15
 -4.2191831336846453E-02 a       576     0    29     1    16
  3.2288574346235310E-01 a       577     0    29     1    17
 -8.7402232088947512E-02 a       578     0    29     1    18
 -1.3949441104809945E-01 a       579     0    29     1    19
 -4.5262082570757134E-01 a       580     0    29     1    20
 -2.3752950602681111E-01 a       581     0    30     1     1
  1.2513112731887910E-01 a       582     0    30     1     2
 -2.2137163491405867E-01 a       583     0    30     1     3
  4.7372353046440108E-02 a       584     0    30     1     4
 -6.6164420882673813E-01 a       585     0    30     1     5
 -2.1398953448560276E-01 a       586     0    30     1     6
  3.3906504452576897E-01 a       587     0    30     1     7
  1.1537736564253008E-01 a       588     0    30     1     8
 -7.3918804776629737E-02 a       589     0    30     1     9
 -1.4755130501879085E-01 a       590     0    30     1    10
  3.4209035113177211E-01 a       591     0    30     1    11
 -8.1551350949049362E-02 a       592     0    30     1    12
  1.3395653162800458E-02 a       593     0    30     1    13
 -1.8940879154803292E-01 a       594     0    30     1    14
 -2.2240900236695224E-01 a       595     0    30     1    15
 -1.1785465874116170E-02 a       596     0    30     1    16
  3.1030932764748059E-01 a       597     0    30     1    17
  1.3225258185421812E-01 a       598     0    30     1    18
 -6.4703957852772565E-01 a       599     0    30     1    19
 -5.6345205803992315E-01 a       600     0    30     1    20
  1.5265222685717666E-01 a       601     0    31     1     1
 -1.6611945069272804E-01 a       602     0    31     1     2
  1.3073095738370233E-01 a       603     0    31     1     3
  3.9744756880354982E-02 a       604     0    31     1     4
 -2.0921567890323425E-01 a       605     0    31     1     5
 -3.1685810509044804E-01 a       606     0    31     1     6
  5.8061752241471509E-01 a       607     0    31     1     7
  3.1085546700802491E-01 a       608     0    31     1     8
 -1.0649207014819674E-01 a       609     0    31     1     9
 -5.3263414389669961E-01 a       610     0    31     1    10
 -1.0038828214636822E-02 a       611     0    31     1    11
  2.6042557021127982E-01 a       612     0    31     1    12
  1.3842758686213261E-01 a       613     0    31     1    13
 -4.7988222024109524E-02 a       614     0    31     1    14
 -2.5983004824082373E-01 a       615     0    31     1    15
  6.7615628701547678E-02 a       616     0    31     1    16
  3.8336111429734276E-01 a       617     0    31     1    17
  3.0568219140314956E-01 a       618     0    31     1    18
 -3.6097952742582923E-01 a       619     0    31     1    19
 -3.4190383505244615E-02 a       620     0    31     1    20
  1.1478930210057765E+00 a       621     0    32     1     1
 -1.5329648003620985E-01 a       622     0    32     1     2
  7.9077850739914934E-01 a       623     0    32     1     3
  3.2569704474307332E-01 a       624     0    32     1     4
 -4.1122204897880510E-01 a       625     0    32     1     5
  4.2400872942821588E-01 a       626     0    32     1     6
  2.0279732521698424E-01 a       627     0    32     1     7
 -2.9939563238411410E-01 a       628     0    32     1     8
  2.5904505130002464E-01 a       629     0    32     1     9
 -1.0005279322799170E-01 a       630     0    32     1    10
  3.3848065524340151E-02 a       631     0    32     1    11
 -1.4171679219140898E-01 a       632     0    32     1    12
 -4.9681616002795886E-02 a       633     0    32     1    13
  7.1550724000956634E-02 a       634     0    32     1    14
 -2.0313630062699709E-01 a       635     0    32     1    15
  4.4549512666867169E-01 a       636     0    32     1    16
  3.5410659677308198E-01 a       637     0    32     1    17
  4.3221062688662842E-01 a       638     0    32     1    18
 -2.7780399424804616E-02 a       639     0    32     1    19
  4.9369816244848458E-01 a       640     0    32     1    20
 -3.9332416571397105E-01 a       641     0    33     1     1
  2.9182962694849147E-02 a       642     0    33     1     2
  4.8647402030382557E-02 a       643     0    33     1     3
 -3.4685737440383951E-01 a       644     0    33     1     4
 -1.6223264068715698E-01 a       645     0    33     1     5
 -4.0782889856592353E-01 a       646     0    33     1     6
  9.1732769032034034E-02 a       647     0    33     1     7
 -2.5848394358119597E-01 a       648     0    33     1     8
 -2.6042281752098256E-01 a       649     0    33     1     9
 -3.5824197460144475E-01 a       650     0    33     1    10
  4.7776151941442968E-02 a       651     0    33     1    11
 -8.5872967902660954E-02 a       652     0    33     1    12
  2.1401587014261556E-01 a       653     0    33     1    13
 -8.7988666066760340E-02 a       654     0    33     1    14
  1.6483741847687125E-02 a       655     0    33     1    15
  5.6488556203270000E-02 a       656     0    33     1    16
  3.6899297732160913E-01 a       657     0    33     1    17
  1.2270424412431830E-01 a       658     0    33     1    18
 -3.6222472572989894E-01 a       659     0    33     1    19
  3.9490409608094890E-01 a       660     0    33     1    20
 -3.0893050595847089E-02 a       661     0    34     1     1
  8.1689990697676435E-02 a       662     0    34     1     2
 -4.6054703202272784E-02 a       663     0    34     1     3
 -3.7021666490382132E-02 a       664     0    34     1     4
 -1.0970229048205936E-01 a       665     0    34     1     5
  7.7641022310315222E-02 a       666     0    34     1     6
 -1.1337829683907366E-01 a       667     0    34     1     7
 -1.3466033408452374E-01 a       668     0    34     1     8
  1.4677858695734375E-01 a       669     0    34     1     9
  1.7107396034751754E-01 a       670     0    34     1    10
  1.1684315820590252E-01 a       671     0    34     1    11
  4.9603440103271758E-02 a       672     0    34     1    12
  3.4090533357779675E-03 a       673     0    34     1    13
 -6.6981442502615826E-02 a       674     0    34     1    14
  4.5021056700799572E-01 a       675     0    34     1    15
  1.2997508659515153E-03 a       676     0    34     1    16
 -2.6166381458322685E-01 a       677     0    34     1    17
 -8.2294042548927832E-02 a       678     0    34     1    18
  1.3657955563068305E-01 a       679     0    34     1    19
  1.8051334864076168E-01 a       680     0    34     1    20
 -1.0619116210168358E-02 a       681     0    35     1     1
  3.7830834408424163E-02 a       682     0    35     1     2
 -4.3106488776288521E-01 a       683     0    35     1     3
 -2.6163337528644085E-02 a       684     0    35     1     4
  3.4170113292733034E-01 a       685     0    35     1     5
  5.3584802896133510E-01 a       686     0    35     1     6
 -1.5132984831641982E-01 a       687     0    35     1     7
  4.0306280602246397E-01 a       688     0    35     1     8
  4.0986855691058449E-01 a       689     0    35     1     9
  2.3342082724087640E-01 a       690     0    35     1    10
 -6.4303942290739080E-01 a       691     0    35     1    11
 -1.4491886110640362E-02 a       692     0    35     1    12
  1.4590678167313539E-01 a       693     0    35     1    13
 -5.1627990193337825E-01 a       694     0    35     1    14
  9.3832318395397218E-01 a       695     0    35     1    15
 -9.9974044486146219E-02 a       696     0    35     1    16
 -7.3491524242131001E-01 a       697     0    35     1    17
 -2.8530047391157842E-01 a       698     0    35     1    18
  5.9419033343033567E-01 a       699     0    35     1    19
 -3.4702377162020633E-02 a       700     0    35     1    20
 -1.0645054994947464E-01 a       701     0    36     1     1
 -5.3349801744229139E-02 a       702     0    36     1     2
  2.4114685581348819E-01 a       703     0    36     1     3
 -4.1424563326284629E-02 a       704     0    36     1     4
  2.9920887888264896E-02 a       705     0    36     1     5
 -2.7954359381259658E-01 a       706     0    36     1     6
 -1.9977368181696833E-01 a       707     0    36     1     7
 -1.5499543666695290E-01 a       708     0    36     1     8
 -2.5694980903817505E-01 a       709     0    36     1     9
  2.0854265430636254E-01 a       710     0    36     1    10
  3.2030470320559784E-01 a       711     0    36     1    11
  2.3751825970451463E-02 a       712     0    36     1    12
  8.2324433216563603E-02 a       713     0    36     1    13
  1.8435366163300118E-01 a       714     0    36     1    14
 -1.1306239233406490E-01 a       715     0    36     1    15
  1.6381518802217573E-01 a       716     0    36     1    16
 -1.8036232165618565E-01 a       717     0    36     1    17
 -3.3319700226431392E-03 a       718     0    36     1    18
 -2.9790010016036018E-02 a       719     0    36     1    19
 -1.1813965656877727E-01 a       720     0    36     1    20
  1.6604899934868460E-02 a       721     0    37     1     1
 -1.4275483356699245E-01 a       722     0    37     1     2
  1.0501839669764747E-01 a       723     0    37     1     3
  4.3920787803574134E-02 a       724     0    37     1     4
 -6.9431810426827487E-02 a       725     0    37     1     5
  8.9804339801795904E-02 a       726     0    37     1     6
 -1.1307021122392553E-01 a       727     0    37     1     7
  8.0627631301188427E-02 a       728     0    37     1     8
  5.1982885567128190E-01 a       729     0    37     1     9
  5.2267448912348147E-01 a       730     0    37     1    10
 -2.8758784322131525E-01 a       731     0    37     1    11
  2.3973004600889727E-01 a       732     0    37     1    12
 -1.9344428846711042E-02 a       733     0    37     1    13
  1.6162727832007087E-01 a       734     0    37     1    14
  2.3301575626216350E-01 a       735     0    37     1    15
 -1.7116763495639623E-02 a       736     0    37     1    16
 -4.5554101014535087E-01 a       737     0    37     1    17
 -2.7285266663916524E-01 a       738     0    37     1    18
  1.7213716963904777E-01 a       739     0    37     1    19
 -2.7878779415665955E-01 a       740     0    37     1    20
 -5.7618250648483893E-01 a       741     0    38     1     1
  2.5682964649377188E-01 a       742     0    38     1     2
 -1.6594273681335259E-01 a       743     0    38     1     3
 -2.0598886240987094E-01 a       744     0    38     1     4
  3.5407169549068904E-02 a       745     0    38     1     5
 -1.5723425840040781E-01 a       746     0    38     1     6
 -1.8189428935135896E-01 a       747     0    38     1     7
 -2.4443103769826258E-01 a       748     0    38     1     8
 -4.5298059104888305E-01 a       749     0    38     1     9
 -4.4457018308126692E-02 a       750     0    38     1    10
  2.6008903157201974E-01 a       751     0    38     1    11
  8.9630954602747826E-03 a       752     0    38     1    12
  1.1732178717270351E-01 a       753     0    38     1    13
 -7.0172848511821137E-02 a       754     0    38     1    14
  4.6505010577415667E-01 a       755     0    38     1    15
  4.8352354343482074E-01 a       756     0    38     1    16
  1.7267358269433425E-01 a       757     0    38     1    17
 -3.7435111671821819E-01 a       758     0    38     1    18
 -3.2961497938787881E-01 a       759     0    38     1    19
  4.2925446726798144E-01 a       760     0    38     1    20
 -3.5416122517207979E-02 a       761     0    39     1     1
  2.3834463121935509E-01 a       762     0    39     1     2
 -5.8092105959654772E-01 a       763     0    39     1     3
  5.6363820191267483E-02 a       764     0    39     1     4
 -6.3744352495331502E-02 a       765     0    39     1     5
 -1.5885269272580613E-01 a       766     0    39     1     6
 -3.5218687895580070E-01 a       767     0    39     1     7
  8.9565582832535989E-02 a       768     0    39     1     8
 -2.7500880020347412E-01 a       769     0    39     1     9
 -2.6663090802479383E-01 a       770     0    39     1    10
 -2.7109377843782245E-01 a       771     0    39     1    11
  1.1317781717744920E-02 a       772     0    39     1    12
  6.1580158632093329E-01 a       773     0    39     1    13
 -5.0946283839901095E-02 a       774     0    39     1    14
  3.7867589277969604E-01 a       775     0    39     1    15
 -2.9613265564495250E-01 a       776     0    39     1    16
 -2.4477332317234332E-01 a       777     0    39     1    17
 -3.6313237461977010E-01 a       778     0    39     1    18
  2.0289085711290736E-01 a       779     0    39     1    19
  7.0691125537152666E-01 a       780     0    39     1    20
 -8.4400145224848871E-02 a       781     0    40     1     1
 -7.1624404343073711E-02 a       782     0    40     1     2
  9.9816412890795647E-01 a       783     0    40     1     3
  1.5268113020659025E-02 a       784     0    40     1     4
 -3.6300966092783110E-01 a       785     0    40     1     5
  5.8568044674135444E-01 a       786     0    40     1     6
  3.9016226258807435E-01 a       787     0    40     1     7
  3.4526013944019357E-01 a       788     0    40     1     8
 -5.8601691772284337E-01 a       789     0    40     1     9
  5.7893201517183679E-01 a       790     0    40     1    10
  2.9067340666593933E-01 a       791     0    40     1    11
  1.7869520127738614E-01 a       792     0    40     1    12
 -4.5601855097069433E-01 a       793     0    40     1    13
 -2.7862508247267387E-01 a       794     0    40     1    14
 -2.2387160731867276E-01 a       795     0    40     1    15
 -5.1540704701306596E-02 a       796     0    40     1    16
  3.8112176745929627E-01 a       797     0    40     1    17
  7.8286327894617813E-02 a       798     0    40     1    18
 -1.2014758512146459E-01 a       799     0    40     1    19
  3.9737368831875181E-01 a       800     0    40     1    20
  3.0516627328374124E-01 a       801     0    41     1     1
 -6.7620546303751042E-02 a       802     0    41     1     2
 -7.3340555649826111E-02 a       803     0    41     1     3
  1.4867062448312496E-01 a       804     0    41     1     4
  6.1464172274516365E-02 a       805     0    41     1     5
  4.9347499858176319E-01 a       806     0    41     1     6
  2.6470471944953222E-02 a       807     0    41     1     7
 -2.2131654879127874E-01 a       808     0    41     1     8
  2.3275119418389403E-01 a       809     0    41     1     9
 -2.6975379536725151E-02 a       810     0    41     1    10
  1.0876856989406007E-01 a       811     0    41     1    11
  3.2720110210273219E-02 a       812     0    41     1    12
 -1.3050806928434228E-01 a       813     0    41     1    13
  2.0340088953456842E-01 a       814     0    41     1    14
  4.3698718775119674E-02 a       815     0    41     1    15
 -1.1825655368968628E-01 a       816     0    41     1    16
 -2.3376947510879344E-02 a       817     0    41     1    17
 -9.5054989854527552E-02 a       818     0    41     1    18
  3.6757314888050549E-02 a       819     0    41     1    19
  2.6356028461257136E-01 a       820     0    41     1    20
  5.1816908168751585E-01 a       821     0    42     1     1
  9.2606656667326998E-03 a       822     0    42     1     2
  4.5109237089063736E-01 a       823     0    42     1     3
  2.7347036266439145E-01 a       824     0    42     1     4
 -9.0342209518348926E-02 a       825     0    42     1     5
  3.1147577762236017E-01 a       826     0    42     1     6
 -1.0277132449079597E-01 a       827     0    42     1     7
 -5.0443531425148869E-01 a       828     0    42     1     8
  4.7546745959909847E-01 a       829     0    42     1     9
  4.0539666348244019E-01 a       830     0    42     1    10
  1.6169829482010817E-01 a       831     0    42     1    11
 -3.2399535456639217E-01 a       832     0    42     1    12
 -4.7115521266331950E-01 a       833     0    42     1    13
  2.0767761685851835E-01 a       834     0    42     1    14
  4.0668268652325196E-01 a       835     0    42     1    15
  4.5707821744586297E-01 a       836     0    42     1    16
 -6.6334895518107384E-01 a       837     0    42     1    17
 -2.1637727901879934E-02 a       838     0    42     1    18
  9.4407910486725796E-02 a       839     0    42     1    19
  2.7525981918008563E-01 a       840     0    42     1    20
  1.6242811690136261E-01 a       841     0    43     1     1
  4.0562937483938119E-02 a       842     0    43     1     2
 -3.4997706645629739E-01 a       843     0    43     1     3
  1.7780222198690621E-01 a       844     0    43     1     4
  2.7512500873556534E-01 a       845     0    43     1     5
 -3.0461264885715700E-01 a       846     0    43     1     6
 -5.5953486280939579E-01 a       847     0    43     1     7
 -8.4067373586539662E-01 a       848     0    43     1     8
 -1.4220446832950222E+00 a       849     0    43     1     9
 -3.3384482770192297E-01 a       850     0    43     1    10
  1.5851718004842039E-01 a       851     0    43     1    11
  8.8140205710365149E-01 a       852     0    43     1    12
  1.3033298619747943E-01 a       853     0    43     1    13
 -1.8794225087852315E-01 a       854     0    43     1    14
  2.0913894589464410E-01 a       855     0    43     1    15
  2.3482768125934061E-01 a       856     0    43     1    16
 -6.6480520670220700E-01 a       857     0    43     1    17
  4.0800799250035924E-01 a       858     0    43     1    18
 -5.6101737948736199E-02 a       859     0    43     1    19
 -7.8452556273202700E-01 a       860     0    43     1    20
  9.4906854468579535E-02 a       861     0    44     1     1
  5.2584662593698601E-02 a       862     0    44     1     2
 -4.1442057141975375E-01 a       863     0    44     1     3
  3.0766393180000493E-02 a       864     0    44     1     4
 -8.4023837337108775E-02 a       865     0    44     1     5
  4.9450174183316035E-02 a       866     0    44     1     6
  3.4466220418662530E-01 a       867     0    44     1     7
 -3.9685376967584327E-02 a       868     0    44     1     8
  4.3896373223054819E-01 a       869     0    44     1     9
 -2.1964618006737685E-01 a       870     0    44     1    10
 -2.1127524315908622E-01 a       871     0    44     1    11
 -2.0490741875869153E-01 a       872     0    44     1    12
 -1.6238288663883521E-01 a       873     0    44     1    13
  1.8631521153844760E-01 a       874     0    44     1    14
 -1.0571135374444117E-01 a       875     0    44     1    15
 -2.7809379053053301E-01 a       876     0    44     1    16
  4.6861466274887170E-01 a       877     0    44     1    17
  2.2616605782283858E-01 a       878     0    44     1    18
  1.1411707002510732E-01 a       879     0    44     1    19
  2.0936799560085459E-01 a       880     0    44     1    20
 -2.6037583671927050E-01 a       881     0    45     1     1
 -4.6178245134316837E-01 a       882     0    45     1     2
  2.4456672838983001E-01 a       883     0    45     1     3
 -1.9401606183804331E-02 a       884     0    45     1     4
  3.8533843032181547E-01 a       885     0    45     1     5
 -1.5863393032426748E-01 a       886     0    45     1     6
  6.7601410196604106E-01 a       887     0    45     1     7
  8.5890729626307616E-02 a       888     0    45     1     8
  2.9687671100535101E-01 a       889     0    45     1     9
 -5.5651958928189138E-01 a       890     0    45     1    10
  2.9469333028602029E-01 a       891     0    45     1    11
 -3.4627434373209603E-01 a       892     0    45     1    12
 -3.4872413648095779E-01 a       893     0    45     1    13
  5.9552166856642397E-01 a       894     0    45     1    14
  3.9364905408708732E-02 a       895     0    45     1    15
 -1.3462990017558424E-01 a       896     0    45     1    16
 -2.6904682321179385E-01 a       897     0    45     1    17
  4.0204506940186402E-01 a       898     0    45     1    18
  1.3037521005660427E-01 a       899     0    45     1    19
 -5.0025338499663501E-02 a       900     0    45     1    20
  2.5436199634287554E-01 a       901     0    46     1     1
  4.1806722064425994E-01 a       902     0    46     1     2
  6.3326939357371131E-02 a       903     0    46     1     3
 -3.3341730212219073E-01 a       904     0    46     1     4
 -1.0476817371493499E-01 a       905     0    46     1     5
 -3.4876563244536318E-01 a       906     0    46     1     6
 -2.3943499107504473E-01 a       907     0    46     1     7
 -2.5921594585137597E-01 a       908     0    46     1     8
  7.4828833880693252E-02 a       909     0    46     1     9
 -7.2374329232149454E-02 a       910     0    46     1    10
 -5.8844656863932732E-01 a       911     0    46     1    11
 -1.4167698311728641E-01 a       912     0    46     1    12
  9.5094456105498520E-02 a       913     0    46     1    13
 -6.1321047555982076E-02 a       914     0    46     1    14
 -5.5409222506150868E-01 a       915     0    46     1    15
 -3.5143509926416133E-01 a       916     0    46     1    16
  9.4052620824446029E-02 a       917     0    46     1    17
  1.0006125479306163E-01 a       918     0    46     1    18
  2.5220773654916195E-01 a       919     0    46     1    19
 -4.1687637054622556E-01 a       920     0    46     1    20
  2.2920471050610375E-01 b       921     1     1
  1.0516179795784226E+00 b       922     1     2
 -1.5644129867614582E+00 b       923     1     3
 -5.8335788118067078E-01 b       924     1     4
 -1.4371268766608587E+00 b       925     1     5
 -4.0103119856268715E-01 b       926     1     6
 -9.1181451779464295E-01 b       927     1     7
 -1.5635603047624456E+00 b       928     1     8
 -1.1281808500357950E+00 b       929     1     9
 -8.0791247563437685E-01 b       930     1    10
  8.1479628661587722E-01 b       931     1    11
  1.1673293352915097E+00 b       932     1    12
 -5.2304968178560958E-02 b       933     1    13
 -1.9093506068246385E-01 b       934     1    14
  1.0839337968901837E+00 b       935     1    15
 -1.3813740844132394E+00 b       936     1    16
 -1.0213806334677311E+00 b       937     1    17
  7.5628731514840286E-01 b       938     1    18
 -3.1207499200401850E-01 b       939     1    19
  5.1191294804360643E-01 b       940     1    20
 -4.9738299381332823E-01 a       941     1     1     2     1
  1.4582633824634103E-03 a       942     1     1     2     2
  2.8210676974479900E-02 a       943     1     1     2     3
 -4.7190017056407357E-01 a       944     1     1     2     4
 -1.6507360070438842E-01 a       945     1     1     2     5
 -7.6223187475152401E-02 a       946     1     1     2     6
 -4.9069990539005859E-01 a       947     1     1     2     7
 -3.5326484151642196E-01 a       948     1     1     2     8
 -7.4829129473522688E-02 a       949     1     1     2     9
  7.6359849487605810E-02 a       950     1     1     2    10
 -2.3095724937775294E-01 a       951     1     1     2    11
  1.6986956866712226E-03 a       952     1     1     2    12
  3.2243116999048910E-01 a       953     1     1     2    13
  1.0773707819811571E+00 a       954     1     1     2    14
  1.4404079617298798E-01 a       955     1     1     2    15
 -2.6865572048586789E-01 a       956     1     1     2    16
  5.9461348668056813E-01 a       957     1     1     2    17
 -2.4816761793470535E-02 a       958     1     1     2    18
 -2.2067994745214153E-01 a       959     1     1     2    19
 -7.1446319059309216E-01 a       960     1     1     2    20
  5.4004542185724957E-01 a       961     1     2     2     1
  5.4660737628352596E-01 a       962     1     2     2     2
  5.9084264025697109E-01 a       963     1     2     2     3
 -2.3699403044410347E-01 a       964     1     2     2     4
 -1.1711888462497685E-01 a       965     1     2     2     5
  3.4814714085868459E-01 a       966     1     2     2     6
  1.8040923479920398E-01 a       967     1     2     2     7
  2.1200205824474311E-01 a       968     1     2     2     8
 -2.5199089648091654E-02 a       969     1     2     2     9
 -8.1271872545956206E-02 a       970     1     2     2    10
 -6.3440157232539729E-01 a       971     1     2     2    11
 -5.3046899357132682E-01 a       972     1     2     2    12
  3.1878430683000458E-01 a       973     1     2     2    13
 -6.6976413867625861E-01 a       974     1     2     2    14
  2.7915919112454018E-01 a       975     1     2     2    15
 -4.6746807666191992E-01 a       976     1     2     2    16
 -3.8322594957336198E-02 a       977     1     2     2    17
  3.9906971182430334E-01 a       978     1     2     2    18
 -6.3963786717480131E-01 a       979     1     2     2    19
  1.3453049447392365E-01 a       980     1     2     2    20
  1.1344436454794973E-01 a       981     1     3     2     1
  1.5980343585714515E-01 a       982     1     3     2     2
 -3.7600312662535784E-01 a       983     1     3     2     3
 -3.4442634870956702E-02 a       984     1     3     2     4
 -2.7735720272232500E-01 a       985     1     3     2     5
  1.4672019034235645E-01 a       986     1     3     2     6
  6.1308092233814360E-01 a       987     1     3     2     7
 -4.3845453757562836E-01 a       988     1     3     2     8
  7.9129253597825661E-02 a       989     1     3     2     9
 -4.5589924463174086E-01 a       990     1     3     2    10
  1.4825916399570374E-01 a       991     1     3     2    11
 -8.4053853551534330E-01 a       992     1     3     2    12
 -3.4916733362593266E-01 a       993     1     3     2    13
  3.3596231959789176E-02 a       994     1     3     2    14
  4.7304952171865443E-02 a       995     1     3     2    15
  2.2992402332155384E-01 a       996     1     3     2    16
 -5.3924185908331257E-01 a       997     1     3     2    17
  2.8779418232221798E-01 a       998     1     3     2    18
 -8.0083347515006370E-02 a       999     1     3     2    19
 -7.7229332749129631E-02 a      1000     1     3     2    20
  2.8577299886287244E-01 a      1001     1     4     2     1
 -7.8538114074212600E-02 a      1002     1     4     2     2
  3.3831603336488014E-01 a      1003     1     4     2     3
 -1.6305615403531976E-01 a      1004     1     4     2     4
  2.0080112438130553E-02 a      1005     1     4     2     5
 -2.6238450489250814E-01 a      1006     1     4     2     6
  7.0562731802243106E-01 a      1007     1     4     2     7
  1.8443591540100366E-02 a      1008     1     4     2     8
  3.1840885621722853E-01 a      1009     1     4     2     9
  3.1863381280317210E-01 a      1010     1     4     2    10
  4.5965279379162588E-01 a      1011     1     4     2    11
  4.3964160087361903E-01 a      1012     1     4     2    12
 -6.8537391643409573E-01 a      1013     1     4     2    13
  4.0978688184091455E-01 a      1014     1     4     2    14
  1.5388672390652530E-01 a      1015     1     4     2    15
  1.5554353918240102E-01 a      1016     1     4     2    16
 -3.5854228201182436E-01 a      1017     1     4     2    17
 -3.1903523752592244E-01 a      1018     1     4     2    18
  1.3982359197447369E-01 a      1019     1     4     2    19
  1.3848494619133106E-01 a      1020     1     4     2    20
 -2.9127767660850989E-01 a      1021     1     5     2     1
 -5.4424420072031499E-01 a      1022     1     5     2     2
 -8.0579541757097162E-01 a      1023     1     5     2     3
 -1.6644390973140832E-01 a      1024     1     5     2     4
  5.2915379578139976E-01 a      1025     1     5     2     5
  3.9113178742063404E-01 a      1026     1     5     2     6
  1.0311715967695287E-01 a      1027     1     5     2     7
 -1.7213396620719293E-01 a      1028     1     5     2     8
  8.8353338930195990E-01 a      1029     1     5     2     9
  9.9516649471330668E-02 a      1030     1     5     2    10
  5.9200912164102437E-01 a      1031     1     5     2    11
 -6.1920354040134018E-01 a      1032     1     5     2    12
 -5.9318911299902377E-01 a      1033     1     5     2    13
 -1.6397821717657279E-01 a      1034     1     5     2    14
  2.8293031440999800E-01 a      1035     1     5     2    15
  7.2626701688905471E-01 a      1036     1     5     2    16
  3.0008099029472263E-01 a      1037     1     5     2    17
  1.4037362339842090E-02 a      1038     1     5     2    18
 -5.2184136181653307E-01 a      1039     1     5     2    19
 -3.3707083173261521E-01 a      1040     1     5     2    20
  7.3106988906744907E-01 a      1041     1     6     2     1
 -4.0075022371023711E-01 a      1042     1     6     2     2
 -1.9172891800874861E-01 a      1043     1     6     2     3
  3.2673947601168690E-01 a      1044     1     6     2     4
  3.6090009123527156E-01 a      1045     1     6     2     5
  3.4193046866379173E-01 a      1046     1     6     2     6
 -2.8756940941972770E-01 a      1047     1     6     2     7
 -2.3421266513464598E-01 a      1048     1     6     2     8
 -1.7445982859602388E-01 a      1049     1     6     2     9
 -2.5262298214281637E-01 a      1050     1     6     2    10
 -5.5031401968126881E-01 a      1051     1     6     2    11
  2.2049531640554673E-01 a      1052     1     6     2    12
  6.2541183849966631E-01 a      1053     1     6     2    13
 -2.4361150492402930E-01 a      1054     1     6     2    14
 -6.3400524129423175E-01 a      1055     1     6     2    15
  1.6915601690668391E-01 a      1056     1     6     2    16
 -6.9847153048342203E-01 a      1057     1     6     2    17
  3.9904332912997648E-01 a      1058     1     6     2    18
 -1.7095703824891648E-01 a      1059     1     6     2    19
 -6.1837486492042482E-01 a      1060     1     6     2    20
 -1.6631504531749636E-01 a      1061     1     7     2     1
 -1.0510826198171833E-01 a      1062     1     7     2     2
 -2.2293941050304064E-02 a      1063     1     7     2     3
  4.9269781619014758E-01 a      1064     1     7     2     4
  6.2208519730709000E-01 a      1065     1     7     2     5
  3.6597244724770828E-01 a      1066     1     7     2     6
  2.4380219820550542E-01 a      1067     1     7     2     7
  5.8236936229477854E-01 a      1068     1     7     2     8
 -3.4445824246728357E-01 a      1069     1     7     2     9
  3.6410977830841884E-01 a      1070     1     7     2    10
 -4.2151230723768773E-01 a      1071     1     7     2    11
  8.9703555843568505E-01 a      1072     1     7     2    12
 -4.2253513787807612E-01 a      1073     1     7     2    13
  3.9118754347792695E-01 a      1074     1     7     2    14
  6.7916114879145573E-01 a      1075     1     7     2    15
  2.1772581607049250E-02 a      1076     1     7     2    16
  2.4803066404624671E-01 a      1077     1     7     2    17
 -1.4295641588428784E-01 a      1078     1     7     2    18
  6.5948511410054989E-01 a      1079     1     7     2    19
  5.5635105706290744E-01 a      1080     1     7     2    20
 -7.3325136297934868E-01 a      1081     1     8     2     1
 -5.6712986072041560E-01 a      1082     1     8     2     2
 -3.3684816368478365E-01 a      1083     1     8     2     3
  2.4430059982486776E-01 a      1084     1     8     2     4
 -4.0478332707490189E-01 a      1085     1     8     2     5
 -3.2377956004615649E-01 a      1086     1     8     2     6
  1.9493584365908801E-02 a      1087     1     8     2     7
 -6.3393017146559072E-01 a      1088     1     8     2     8
  2.4182452189897249E-01 a      1089     1     8     2     9
 -3.2954750787338372E-01 a      1090     1     8     2    10
  2.4772457183561530E-01 a      1091     1     8     2    11
 -2.3596268791613098E-01 a      1092     1     8     2    12
  1.7835728567876574E-01 a      1093     1     8     2    13
  1.3326651241027149E-01 a      1094     1     8     2    14
 -1.0772608576052196E-01 a      1095     1     8     2    15
  5.1485747104043977E-01 a      1096     1     8     2    16
  1.0093700097215426E+00 a      1097     1     8     2    17
  9.0364077842567114E-01 a      1098     1     8     2    18
  1.2407890355080950E-01 a      1099     1     8     2    19
  3.9458891582124173E-01 a      1100     1     8     2    20
  6.6753317027632697E-01 a      1101     1     9     2     1
  5.0140821636304725E-03 a      1102     1     9     2     2
 -1.7651896179359184E-02 a      1103     1     9     2     3
  2.2423536497261012E-01 a      1104     1     9     2     4
 -1.0579064421945089E-01 a      1105     1     9     2     5
  3.1460861023742165E-01 a      1106     1     9     2     6
 -1.0501434296739184E-01 a      1107     1     9     2     7
  1.0528384906014132E-01 a      1108     1     9     2     8
  3.4138307104520049E-01 a      1109     1     9     2     9
 -1.9904076730180797E-02 a      1110     1     9     2    10
 -7.0270497284141364E-02 a      1111     1     9     2    11
  6.3163709513376098E-01 a      1112     1     9     2    12
  4.5944195109158559E-01 a      1113     1     9     2    13
 -8.1636091175294079E-02 a      1114     1     9     2    14
 -1.6175416431847719E-01 a      1115     1     9     2    15
 -4.1227638651108289E-02 a      1116     1     9     2    16
 -5.3375648567277356E-01 a      1117     1     9     2    17
  7.8520323882117049E-01 a      1118     1     9     2    18
  2.3200999678076925E-01 a      1119     1     9     2    19
 -1.0463480157071331E-01 a      1120     1     9     2    20
  6.9264727111100946E-02 a      1121     1    10     2     1
 -3.9872973750381879E-01 a      1122     1    10     2     2
 -1.3749242806694134E-01 a      1123     1    10     2     3
 -2.5808619746824885E-01 a      1124     1    10     2     4
  2.0071179917799278E-01 a      1125     1    10     2     5
 -4.6922560119321566E-01 a      1126     1    10     2     6
 -6.7423685445393744E-01 a      1127     1    10     2     7
 -3.6596762098938712E-01 a      1128     1    10     2     8
  7.7250991359154120E-01 a      1129     1    10     2     9
  6.7528286629937873E-01 a      1130     1    10     2    10
 -2.9492464958344572E-01 a      1131     1    10     2    11
  2.6729327523541307E-01 a      1132     1    10     2    12
 -1.6645165656384769E-02 a      1133     1    10     2    13
  2.0813548468482634E-01 a      1134     1    10     2    14
 -4.1215941322165428E-01 a      1135     1    10     2    15
  5.6943446374987317E-01 a      1136     1    10     2    16
  1.4863142389825632E-01 a      1137     1    10     2    17
 -6.5714207977876904E-01 a      1138     1    10     2    18
 -5.9814115223410702E-01 a      1139     1    10     2    19
  2.6558478130571436E-02 a      1140     1    10     2    20
 -6.6397101482740606E-01 a      1141     1    11     2     1
 -3.4142278811523752E-01 a      1142     1    11     2     2
 -8.6930771883527283E-02 a      1143     1    11     2     3
 -1.2641122586462827E-01 a      1144     1    11     2     4
  4.6418075651856662E-02 a      1145     1    11     2     5
  3.7834773371282654E-01 a      1146     1    11     2     6
 -1.2756630272291763E-01 a      1147     1    11     2     7
  3.4340172420668175E-01 a      1148     1    11     2     8
  1.5101515891959072E-01 a      1149     1    11     2     9
 -4.3691726074607712E-01 a      1150     1    11     2    10
  2.7844677283963382E-01 a      1151     1    11     2    11
  7.6352085592516217E-02 a      1152     1    11     2    12
 -3.1968095691687848E-01 a      1153     1    11     2    13
  2.1338047344241420E-01 a      1154     1    11     2    14
 -7.2665702585575795E-02 a      1155     1    11     2    15
 -5.1991575873722773E-01 a      1156     1    11     2    16
  1.9683029950961770E-01 a      1157     1    11     2    17
  2.3133086787881058E-01 a      1158     1    11     2    18
 -2.7968260848937548E-01 a      1159     1    11     2    19
 -3.8714061998789434E-01 a      1160     1    11     2    20
 -1.0256923136317622E-01 a      1161     1    12     2     1
 -1.3309119801343400E-01 a      1162     1    12     2     2
  7.4365419056184753E-02 a      1163     1    12     2     3
  2.8883322024556179E-01 a      1164     1    12     2     4
  2.5589226450421088E-01 a      1165     1    12     2     5
  2.7934204596123607E-01 a      1166     1    12     2     6
 -4.1943907779142314E-01 a      1167     1    12     2     7
 -5.1689555727059733E-01 a      1168     1    12     2     8
  2.6392995417882004E-01 a      1169     1    12     2     9
  4.6242791475282974E-01 a      1170     1    12     2    10
  1.5472446993016567E-01 a      1171     1    12     2    11
  2.2478400948478461E-01 a      1172     1    12     2    12
 -6.6141286716725131E-02 a      1173     1    12     2    13
 -7.2960179073153969E-02 a      1174     1    12     2    14
  5.8998088236900925E-01 a      1175     1    12     2    15
 -1.0395796967989103E-01 a      1176     1    12     2    16
  3.0943352000689689E-01 a      1177     1    12     2    17
  1.8895408212416365E-01 a      1178     1    12     2    18
 -1.9773153032971033E-01 a      1179     1    12     2    19
  2.7389010031382111E-01 a      1180     1    12     2    20
  2.7206961931142498E-01 a      1181     1    13     2     1
 -1.8174571062237599E-01 a      1182     1    13     2     2
 -1.0280099026569250E-03 a      1183     1    13     2     3
  7.9100858740804880E-01 a      1184     1    13     2     4
  2.6324554000663575E-01 a      1185     1    13     2     5
 -5.1520983748604987E-01 a      1186     1    13     2     6
  5.0690684605197345E-01 a      1187     1    13     2     7
 -5.5051745909109617E-01 a      1188     1    13     2     8
 -5.7429314382690988E-01 a      1189     1    13     2     9
  4.9421422739318110E-01 a      1190     1    13     2    10
  1.3018781130594079E-01 a      1191     1    13     2    11
 -5.0104786142153723E-01 a      1192     1    13     2    12
  2.3700447361856164E-01 a      1193     1    13     2    13
 -3.8946326540418746E-01 a      1194     1    13     2    14
  2.9342611934659102E-01 a      1195     1    13     2    15
  3.4828878649604023E-01 a      1196     1    13     2    16
 -3.5651670086411291E-01 a      1197     1    13     2    17
  3.6903840824733920E-02 a      1198     1    13     2    18
 -2.9848958394556746E-01 a      1199     1    13     2    19
 -5.1746572467678231E-01 a      1200     1    13     2    20
 -6.3013306283951320E-01 a      1201     1    14     2     1
 -5.5230003135738570E-01 a      1202     1    14     2     2
  3.8574672376502578E-01 a      1203     1    14     2     3
  2.4198485164610972E-01 a      1204     1    14     2     4
  1.3326267491701588E-01 a      1205     1    14     2     5
  1.9860727921354249E-01 a      1206     1    14     2     6
 -9.6343442849427613E-02 a      1207     1    14     2     7
  3.1702607773424973E-01 a      1208     1    14     2     8
 -2.4508571000385442E-02 a      1209     1    14     2     9
  2.6886953892559073E-02 a      1210     1    14     2    10
  8.6066668159349713E-02 a      1211     1    14     2    11
 -7.3064982821371161E-01 a      1212     1    14     2    12
 -8.8013827491951835E-01 a      1213     1    14     2    13
 -7.6125372240055666E-01 a      1214     1    14     2    14
  6.6434571224616612E-01 a      1215     1    14     2    15
 -6.8181274283242131E-03 a      1216     1    14     2    16
  3.1958814243339834E-01 a      1217     1    14     2    17
 -1.1014798654036627E-01 a      1218     1    14     2    18
 -6.4714184917676984E-02 a      1219     1    14     2    19
  3.2693372634723489E-01 a      1220     1    14     2    20
 -1.8660923184445125E-02 a      1221     1    15     2     1
  2.5917128943075507E-01 a      1222     1    15     2     2
 -4.5804227960284417E-03 a      1223     1    15     2     3
  5.3238670147968794E-03 a      1224     1    15     2     4
 -6.3577336058753930E-01 a      1225     1    15     2     5
 -6.0300397300175723E-01 a      1226     1    15     2     6
 -3.7002379968554983E-01 a      1227     1    15     2     7
  4.9678856196416238E-01 a      1228     1    15     2     8
 -2.4237660780772807E-01 a      1229     1    15     2     9
  6.0438838600486522E-01 a      1230     1    15     2    10
 -5.2441551088267047E-01 a      1231     1    15     2    11
  1.1048481370686065E-01 a      1232     1    15     2    12
 -5.1281289653756235E-01 a      1233     1    15     2    13
  5.2286127516245495E-01 a      1234     1    15     2    14
 -7.2638332309393161E-01 a      1235     1    15     2    15
  4.2944973682324675E-03 a      1236     1    15     2    16
 -1.3128676927130600E-02 a      1237     1    15     2    17
  6.2017632911026987E-01 a      1238     1    15     2    18
  2.6765262822244734E-01 a      1239     1    15     2    19
  7.0113538659367769E-01 a      1240     1    15     2    20
 -3.1330969722843105E-01 a      1241     1    16     2     1
 -6.4525312253901138E-02 a      1242     1    16     2     2
  6.4506385151305712E-01 a      1243     1    16     2     3
  6.0879561099525892E-01 a      1244     1    16     2     4
  5.7894968197080746E-02 a      1245     1    16     2     5
 -1.6239593942020833E-01 a      1246     1    16     2     6
  6.6077742903291081E-01 a      1247     1    16     2     7
 -1.6177716870761150E-01 a      1248     1    16     2     8
  5.5690406652931601E-01 a      1249     1    16     2     9
 -3.2902610330495607E-01 a      1250     1    16     2    10
  6.1184716090996205E-01 a      1251     1    16     2    11
  2.5282223948289917E-01 a      1252     1    16     2    12
 -7.8594268193704153E-01 a      1253     1    16     2    13
  5.9173241950985400E-01 a      1254     1    16     2    14
 -7.7426519776852845E-02 a      1255     1    16     2    15
  5.9360491722092464E-02 a      1256     1    16     2    16
 -8.2066268366111350E-01 a      1257     1    16     2    17
 -4.6721369972310189E-02 a      1258     1    16     2    18
  5.9207952929446772E-01 a      1259     1    16     2    19
  3.4918732670469455E-01 a      1260     1    16     2    20
  7.1424232039034183E-02 a      1261     1    17     2     1
  4.9720278457366129E-01 a      1262     1    17     2     2
  8.0774330627394442E-01 a      1263     1    17     2     3
  7.1643769111908318E-01 a      1264     1    17     2     4
 -5.1478335021701103E-03 a      1265     1    17     2     5
 -4.9010302488009978E-02 a      1266     1    17     2     6
  2.0113016986983498E-01 a      1267     1    17     2     7
 -4.9234817806626618E-01 a      1268     1    17     2     8
  5.9868440188000682E-01 a      1269     1    17     2     9
 -6.0601398022004849E-01 a      1270     1    17     2    10
 -7.1187315200436488E-02 a      1271     1    17     2    11
  2.1593922531503149E-01 a      1272     1    17     2    12
 -7.3641586974831652E-01 a      1273     1    17     2    13
  3.5455977505279967E-01 a      1274     1    17     2    14
  5.7658504046490899E-01 a      1275     1    17     2    15
 -1.5856871256771765E-02 a      1276     1    17     2    16
 -6.7598714704277296E-01 a      1277     1    17     2    17
  4.2629310178020241E-01 a      1278     1    17     2    18
  7.1401674449276545E-02 a      1279     1    17     2    19
  1.4817400421621171E-01 a      1280     1    17     2    20
 -4.3491310176759135E-01 a      1281     1    18     2     1
  2.9600013890049376E-01 a      1282     1    18     2     2
 -5.6960073456261397E-02 a      1283     1    18     2     3
  2.7875097488476448E-02 a      1284     1    18     2     4
  5.9183707001895208E-02 a      1285     1    18     2     5
  6.1530353077389133E-01 a      1286     1    18     2     6
 -1.9015316317263581E-01 a      1287     1    18     2     7
 -3.3952294106185338E-01 a      1288     1    18     2     8
  6.9635333660017729E-02 a      1289     1    18     2     9
  4.4087461668590489E-01 a      1290     1    18     2    10
  3.7342999924433490E-01 a      1291     1    18     2    11
  4.1037785458736614E-01 a      1292     1    18     2    12
  1.0581191985824911E-01 a      1293     1    18     2    13
 -5.2008781121448577E-01 a      1294     1    18     2    14
  5.3455409730171810E-01 a      1295     1    18     2    15
  4.6358166133780065E-01 a      1296     1    18     2    16
  3.5067371152841370E-01 a      1297     1    18     2    17
 -7.6304861778434804E-02 a      1298     1    18     2    18
  1.9828305673802896E-01 a      1299     1    18     2    19
  6.2424637857607967E-01 a      1300     1    18     2    20
 -8.2088315069657150E-02 a      1301     1    19     2     1
 -7.6708166677001699E-02 a      1302     1    19     2     2
  1.1964861668890604E-01 a      1303     1    19     2     3
  7.3890288953855715E-02 a      1304     1    19     2     4
 -2.2569891956413052E-01 a      1305     1    19     2     5
 -3.9693696097872329E-02 a      1306     1    19     2     6
 -1.2085682441204718E-01 a      1307     1    19     2     7
  5.3956037110644517E-01 a      1308     1    19     2     8
  1.7271339407380859E-01 a      1309     1    19     2     9
  3.5110071727317255E-02 a      1310     1    19     2    10
 -1.7566990728415843E-01 a      1311     1    19     2    11
 -7.5191551463003797E-02 a      1312     1    19     2    12
 -1.3675039574440606E-01 a      1313     1    19     2    13
 -3.3658063895773033E-01 a      1314     1    19     2    14
  4.3602769579062478E-02 a      1315     1    19     2    15
 -2.0228917234231117E-01 a      1316     1    19     2    16
 -2.0550766060940254E-01 a      1317     1    19     2    17
 -4.4301227340410038E-01 a      1318     1    19     2    18
  3.2008444362623262E-01 a      1319     1    19     2    19
 -1.1281160922135287E-01 a      1320     1    19     2    20
 -4.7764931884629230E-01 a      1321     1    20     2     1
  2.8539650405586336E-01 a      1322     1    20     2     2
  2.0618252220955019E-01 a      1323     1    20     2     3
 -4.5918917068600440E-01 a      1324     1    20     2     4
 -1.3912934198965576E-01 a      1325     1    20     2     5
  8.8610097409771993E-01 a      1326     1    20     2     6
  9.1173716592781159E-02 a      1327     1    20     2     7
 -2.7658553182345262E-03 a      1328     1    20     2     8
 -4.8280263548263525E-01 a      1329     1    20     2     9
 -3.6443193674132646E-01 a      1330     1    20     2    10
 -1.2649002502304740E-01 a      1331     1    20     2    11
 -4.7414689335472326E-01 a      1332     1    20     2    12
 -2.8119056622963973E-01 a      1333     1    20     2    13
 -3.3866293982623722E-03 a      1334     1    20     2    14
 -2.3120386234003107E-03 a      1335     1    20     2    15
  7.0380245160107074E-02 a      1336     1    20     2    16
  6.6037954207570349E-01 a      1337     1    20     2    17
 -5.0154062278634015E-01 a      1338     1    20     2    18
 -2.6221062921297883E-01 a      1339     1    20     2    19
 -1.6246390751428069E-02 a      1340     1    20     2    20
  8.4225600435587433E-01 b      1341     2     1
  4.8729614795861248E-01 b      1342     2     2
  1.1608513859185596E+00 b      1343     2     3
  9.9164926592209046E-01 b      1344     2     4
  2.6194911583060204E-01 b      1345     2     5
  5.3175524299407162E-01 b      1346     2     6
 -4.9456493090242803E-01 b      1347     2     7
  7.9129603241941604E-01 b      1348     2     8
  7.6819998623131092E-01 b      1349     2     9
  4.7194379863454933E-01 b      1350     2    10
 -1.6201812303953140E+00 b      1351     2    11
  1.7058166036887208E+00 b      1352     2    12
  3.7069058220087675E-01 b      1353     2    13
 -6.3313299324509043E-01 b      1354     2    14
  2.6440841961486983E-01 b      1355     2    15
  7.6259714015062130E-01 b      1356     2    16
 -1.7276036465062838E+00 b      1357     2    17
 -8.7029507869187206E-01 b      1358     2    18
  1.7315521408269610E-01 b      1359     2    19
 -3.3104928628790026E-01 b      1360     2    20
  7.0197091503657105E-01 a      1361     2     1     3     1
  7.5306769427028486E-01 a      1362     2     2     3     1
  1.9185804651588654E+00 a      1363     2     3     3     1
 -6.9898329947142412E-01 a      1364     2     4     3     1
 -1.3112604569902730E+00 a      1365     2     5     3     1
 -1.0560493468285352E-01 a      1366     2     6     3     1
 -1.1051000704265048E+00 a      1367     2     7     3     1
  8.3320966886888015E-01 a      1368     2     8     3     1
 -1.2877057894492561E+00 a      1369     2     9     3     1
  6.5057907084434230E-01 a      1370     2    10     3     1
 -1.6840401567830737E-01 a      1371     2    11     3     1
  7.6370033806145188E-01 a      1372     2    12     3     1
  1.2414286075377963E+00 a      1373     2    13     3     1
 -4.2132987589578880E-01 a      1374     2    14     3     1
  7.9542469892865342E-01 a      1375     2    15     3     1
 -1.2177524172178726E+00 a      1376     2    16     3     1
 -1.0455134898300902E+00 a      1377     2    17     3     1
 -1.0779239369012728E+00 a      1378     2    18     3     1
 -1.5645325141870852E+00 a      1379     2    19     3     1
 -5.8197027981473866E-02 a      1380     2    20     3     1
  6.8764831772158352E-01 b      1381     3     1
