################################################################################
# Neural network connection values (weights and biases).
################################################################################
# Col  Name       Description
################################################################################
# 1    connection Neural network connection value.
# 2    t          Connection type (a = weight, b = bias).
# 3    index      Index enumerating weights.
# 4    l_s        Starting point layer (end point layer for biases).
# 5    n_s        Starting point neuron in starting layer (end point neuron for biases).
# 6    l_e        End point layer.
# 7    n_e        End point neuron in end layer.
################################################################################
#                      1 2         3     4     5     6     7
#             connection t     index   l_s   n_s   l_e   n_e
############################################################
 -2.4037952980632982E-01 a         1     0     1     1     1
 -4.3504449585219446E-01 a         2     0     1     1     2
  1.1583102297908632E-01 a         3     0     1     1     3
 -4.2329083513761467E-01 a         4     0     1     1     4
 -2.6087553855671292E-01 a         5     0     1     1     5
  1.7046649616566506E-01 a         6     0     1     1     6
 -7.0780803177137669E-02 a         7     0     1     1     7
 -2.0528103085904173E-01 a         8     0     1     1     8
 -3.0277438885245583E-01 a         9     0     1     1     9
  1.1454213720189946E-01 a        10     0     1     1    10
  2.3373586018426973E-01 a        11     0     1     1    11
 -1.4750696315486049E-03 a        12     0     1     1    12
 -1.8916092626175882E-01 a        13     0     1     1    13
 -3.2946116159790428E-01 a        14     0     1     1    14
 -9.5178639311632660E-02 a        15     0     1     1    15
 -4.5997850405148338E-02 a        16     0     1     1    16
 -2.3473058798122556E-01 a        17     0     1     1    17
  1.1225357078712475E-01 a        18     0     1     1    18
  2.3901886088155916E-01 a        19     0     1     1    19
 -1.1376738891515609E-02 a        20     0     1     1    20
 -1.4253963777144002E-01 a        21     0     2     1     1
 -9.5467663610966064E-02 a        22     0     2     1     2
  6.1681514102040645E-03 a        23     0     2     1     3
  1.9512243826871956E-01 a        24     0     2     1     4
 -5.6679342289711510E-01 a        25     0     2     1     5
  1.0982423757032199E-01 a        26     0     2     1     6
  3.1574907135024977E-01 a        27     0     2     1     7
  2.1061355588935896E-01 a        28     0     2     1     8
 -3.6685243108150184E-01 a        29     0     2     1     9
  6.1087428270819484E-03 a        30     0     2     1    10
  2.4491422324839054E-01 a        31     0     2     1    11
  2.5957066666660578E-02 a        32     0     2     1    12
  4.1173234768784067E-02 a        33     0     2     1    13
 -1.1874069688243913E-01 a        34     0     2     1    14
  1.3532696152798376E-01 a        35     0     2     1    15
  2.5761432157308184E-01 a        36     0     2     1    16
 -9.8465989467162132E-02 a        37     0     2     1    17
  3.1370518763344631E-02 a        38     0     2     1    18
  1.4501457090247608E-01 a        39     0     2     1    19
 -1.5954023704251269E-01 a        40     0     2     1    20
 -2.3164671277845156E-01 a        41     0     3     1     1
  3.9137368149485513E-01 a        42     0     3     1     2
 -1.5218786154751660E-01 a        43     0     3     1     3
 -2.1529288470315222E-01 a        44     0     3     1     4
 -1.1716921760026133E-01 a        45     0     3     1     5
 -8.4961968571884816E-02 a        46     0     3     1     6
  6.9491929484720563E-02 a        47     0     3     1     7
  8.0193107883112652E-02 a        48     0     3     1     8
 -5.2928737433076328E-02 a        49     0     3     1     9
  3.8101802368944254E-01 a        50     0     3     1    10
  1.8468208035118405E-01 a        51     0     3     1    11
 -5.7028823563945175E-02 a        52     0     3     1    12
  1.4800895936166117E-01 a        53     0     3     1    13
  2.5098847644558270E-01 a        54     0     3     1    14
 -1.5606928921718974E-01 a        55     0     3     1    15
 -2.8497469509176954E-01 a        56     0     3     1    16
  2.1728300614306109E-01 a        57     0     3     1    17
  1.6688967914031169E-01 a        58     0     3     1    18
 -8.8877132447758828E-02 a        59     0     3     1    19
  1.3182094203881040E-01 a        60     0     3     1    20
  2.4731818801332148E-01 a        61     0     4     1     1
  4.2946863991465944E-01 a        62     0     4     1     2
  6.4059341779292497E-02 a        63     0     4     1     3
  1.0303084475702916E-01 a        64     0     4     1     4
  1.2450962498785012E-01 a        65     0     4     1     5
 -2.4743112404671885E-01 a        66     0     4     1     6
  1.8655720159146444E-01 a        67     0     4     1     7
  2.5472118468584987E-01 a        68     0     4     1     8
  3.8550063749148483E-01 a        69     0     4     1     9
  2.0446493588560113E-01 a        70     0     4     1    10
 -1.0635330281136904E-01 a        71     0     4     1    11
  3.5896725641396354E-01 a        72     0     4     1    12
 -1.5217194017145980E-01 a        73     0     4     1    13
 -7.5551484185031159E-02 a        74     0     4     1    14
  2.0652537369450868E-01 a        75     0     4     1    15
 -2.7594279719671594E-01 a        76     0     4     1    16
 -4.8934645804893574E-02 a        77     0     4     1    17
 -1.5738310191569824E-01 a        78     0     4     1    18
  2.3365348021324794E-01 a        79     0     4     1    19
  1.8088602381158500E-01 a        80     0     4     1    20
 -2.5479155507033763E-01 a        81     0     5     1     1
 -3.3028389059667346E-01 a        82     0     5     1     2
 -3.4525306730579386E-01 a        83     0     5     1     3
  3.7840357509949032E-02 a        84     0     5     1     4
  5.0952462688585842E-01 a        85     0     5     1     5
  1.9045672704371780E-01 a        86     0     5     1     6
 -2.4742251620215308E-01 a        87     0     5     1     7
 -3.5728251470488459E-01 a        88     0     5     1     8
 -6.6000924451786028E-02 a        89     0     5     1     9
 -7.2453056700025642E-01 a        90     0     5     1    10
 -5.9366095630070906E-02 a        91     0     5     1    11
 -3.5646519890225675E-01 a        92     0     5     1    12
 -2.4506585711039638E-01 a        93     0     5     1    13
  8.8463337092272408E-03 a        94     0     5     1    14
  2.9826139773180771E-01 a        95     0     5     1    15
  1.6507350437179585E-01 a        96     0     5     1    16
 -1.1012846997216438E-01 a        97     0     5     1    17
 -3.7780341512125731E-01 a        98     0     5     1    18
 -2.4446047933384502E-01 a        99     0     5     1    19
 -2.6523159007602737E-01 a       100     0     5     1    20
 -1.0854330336081054E-01 a       101     0     6     1     1
  5.8834900305689863E-01 a       102     0     6     1     2
  2.7964556174770000E-01 a       103     0     6     1     3
 -2.4793205340224356E-01 a       104     0     6     1     4
  3.3449513431894541E-02 a       105     0     6     1     5
  4.3215693870176597E-01 a       106     0     6     1     6
 -5.4590692004866992E-02 a       107     0     6     1     7
 -3.4710517925964446E-01 a       108     0     6     1     8
  6.5874312612414887E-01 a       109     0     6     1     9
 -4.8358889511413766E-01 a       110     0     6     1    10
 -1.6656893376331675E-01 a       111     0     6     1    11
 -3.4483346798801391E-02 a       112     0     6     1    12
  1.5015551063062887E-01 a       113     0     6     1    13
  2.0309121489311235E-01 a       114     0     6     1    14
  6.3224723327208243E-01 a       115     0     6     1    15
 -1.0066998954709294E-01 a       116     0     6     1    16
 -3.1830609147765637E-01 a       117     0     6     1    17
  4.0529254317878038E-01 a       118     0     6     1    18
  1.0639628164572587E-01 a       119     0     6     1    19
  2.5629555215986288E-01 a       120     0     6     1    20
 -3.1676110835646054E-01 a       121     0     7     1     1
 -3.9237746885316838E-01 a       122     0     7     1     2
  2.7853536479158375E-01 a       123     0     7     1     3
  2.7451418276315687E-01 a       124     0     7     1     4
  5.7093841566863104E-02 a       125     0     7     1     5
  7.6965830906821575E-02 a       126     0     7     1     6
  9.3065705907848822E-02 a       127     0     7     1     7
  1.7540759554178573E-01 a       128     0     7     1     8
 -7.7305154424039235E-02 a       129     0     7     1     9
 -5.3321135935897834E-01 a       130     0     7     1    10
  4.0072979033407195E-02 a       131     0     7     1    11
 -2.2621638303782199E-01 a       132     0     7     1    12
  5.6917888725138188E-01 a       133     0     7     1    13
  2.0443502508384667E-01 a       134     0     7     1    14
  1.6659069332641213E-01 a       135     0     7     1    15
  3.8607850934851765E-02 a       136     0     7     1    16
  1.0271306142951224E-01 a       137     0     7     1    17
  1.5141919524366196E-01 a       138     0     7     1    18
 -5.6341907377948230E-01 a       139     0     7     1    19
 -2.0754036901069192E-01 a       140     0     7     1    20
  7.3319619903938996E-02 a       141     0     8     1     1
 -5.0180746816336767E-02 a       142     0     8     1     2
  1.5855241523882460E-01 a       143     0     8     1     3
 -1.8042888930865844E-01 a       144     0     8     1     4
 -2.5556822968935272E-01 a       145     0     8     1     5
  1.5529272562046176E-01 a       146     0     8     1     6
  1.4320643352976919E-01 a       147     0     8     1     7
 -5.1381490047366707E-01 a       148     0     8     1     8
  1.0289308685100078E-01 a       149     0     8     1     9
  7.7585321761110149E-01 a       150     0     8     1    10
  4.1493263402338293E-01 a       151     0     8     1    11
  5.2014499845643025E-01 a       152     0     8     1    12
 -3.2144730546720157E-01 a       153     0     8     1    13
 -2.1965719902182484E-01 a       154     0     8     1    14
  8.4553203306898944E-02 a       155     0     8     1    15
  1.0777411607682866E-01 a       156     0     8     1    16
  5.5217701874413543E-02 a       157     0     8     1    17
  1.1816400890819684E-01 a       158     0     8     1    18
  4.7938398946007993E-01 a       159     0     8     1    19
  3.3219732491494358E-01 a       160     0     8     1    20
  1.5644294126368663E-01 a       161     0     9     1     1
  4.6391612927954844E-02 a       162     0     9     1     2
  7.3618697215292378E-02 a       163     0     9     1     3
  3.0126133506712566E-01 a       164     0     9     1     4
 -2.0111022561033524E-03 a       165     0     9     1     5
  1.3208412741975126E-01 a       166     0     9     1     6
  1.0705131632193046E-01 a       167     0     9     1     7
 -3.1513621125190033E-01 a       168     0     9     1     8
 -9.2393933893506665E-03 a       169     0     9     1     9
 -2.1028389275887882E-01 a       170     0     9     1    10
  5.9415857076549738E-01 a       171     0     9     1    11
  8.4888377567841983E-02 a       172     0     9     1    12
  2.1348384750486910E-01 a       173     0     9     1    13
  5.9520166223594309E-02 a       174     0     9     1    14
 -4.3057568940942964E-01 a       175     0     9     1    15
 -4.5803730797564439E-02 a       176     0     9     1    16
  7.2559004029967511E-02 a       177     0     9     1    17
  2.6487696639373498E-01 a       178     0     9     1    18
 -2.8156844974808160E-01 a       179     0     9     1    19
 -4.4421693496872883E-01 a       180     0     9     1    20
  7.1690221011661656E-02 a       181     0    10     1     1
  1.5496712066852683E-01 a       182     0    10     1     2
 -1.7185796652302518E-01 a       183     0    10     1     3
  1.7775610742509304E-01 a       184     0    10     1     4
 -1.8419772728600328E-01 a       185     0    10     1     5
  1.4344469191864442E-01 a       186     0    10     1     6
 -5.0769593358745348E-02 a       187     0    10     1     7
 -1.2993312766646450E-01 a       188     0    10     1     8
 -7.6617900049188517E-02 a       189     0    10     1     9
  2.0003007150177046E-01 a       190     0    10     1    10
  1.9353494697815926E-01 a       191     0    10     1    11
 -3.1092296539958580E-02 a       192     0    10     1    12
 -8.1911995522705713E-02 a       193     0    10     1    13
  4.1984582483086796E-01 a       194     0    10     1    14
  1.1636064567864182E-01 a       195     0    10     1    15
  2.6398515548697360E-01 a       196     0    10     1    16
  2.3131215342943331E-01 a       197     0    10     1    17
  3.6076027211897920E-03 a       198     0    10     1    18
 -4.5109940973890227E-02 a       199     0    10     1    19
 -1.1616473080775980E-01 a       200     0    10     1    20
 -1.6900009453686113E-01 a       201     0    11     1     1
 -1.3913302392452712E-01 a       202     0    11     1     2
 -1.7459733886298559E-01 a       203     0    11     1     3
  6.9653555330694839E-02 a       204     0    11     1     4
  1.1491212592654587E-01 a       205     0    11     1     5
  3.2245634855025573E-01 a       206     0    11     1     6
  1.4269294803365887E-01 a       207     0    11     1     7
  1.4726793654994233E-01 a       208     0    11     1     8
  4.0760590467681462E-02 a       209     0    11     1     9
 -7.3309707518051062E-02 a       210     0    11     1    10
 -5.9922565318609325E-03 a       211     0    11     1    11
 -1.8198026466003117E-01 a       212     0    11     1    12
 -6.8435860501298948E-02 a       213     0    11     1    13
 -9.3844366457695463E-02 a       214     0    11     1    14
 -1.0887969473339912E-01 a       215     0    11     1    15
 -7.8465876450946881E-02 a       216     0    11     1    16
 -1.3937130710508205E-01 a       217     0    11     1    17
  1.6501557552103474E-01 a       218     0    11     1    18
  3.2829247732109745E-01 a       219     0    11     1    19
  1.1813687713656838E-02 a       220     0    11     1    20
 -4.1957126793239646E-01 a       221     0    12     1     1
 -1.0425995449962190E-01 a       222     0    12     1     2
  3.2900314121572966E-01 a       223     0    12     1     3
  3.0622331405723374E-01 a       224     0    12     1     4
  1.0424959094246361E-01 a       225     0    12     1     5
  1.1671795806593989E-01 a       226     0    12     1     6
  1.8813937810234069E-01 a       227     0    12     1     7
  7.6435626922200017E-02 a       228     0    12     1     8
 -3.0402970525854239E-01 a       229     0    12     1     9
 -1.8156750208122097E-01 a       230     0    12     1    10
 -3.7615449693392239E-01 a       231     0    12     1    11
 -1.6309502223686581E-01 a       232     0    12     1    12
 -3.4514507352096063E-01 a       233     0    12     1    13
 -2.2739398097351510E-01 a       234     0    12     1    14
  1.0632522622232018E-01 a       235     0    12     1    15
 -1.2103128448693998E-01 a       236     0    12     1    16
  3.4125554643476136E-01 a       237     0    12     1    17
 -7.5242752659439846E-02 a       238     0    12     1    18
 -2.7887609442513467E-01 a       239     0    12     1    19
  2.0000622145098751E-01 a       240     0    12     1    20
 -9.8203799028600908E-02 a       241     0    13     1     1
 -7.2907750697730148E-03 a       242     0    13     1     2
  3.9121728751345264E-01 a       243     0    13     1     3
  2.3165783262006381E-01 a       244     0    13     1     4
 -3.0574001233737225E-01 a       245     0    13     1     5
  7.3221053285141377E-02 a       246     0    13     1     6
  2.3571066491166801E-01 a       247     0    13     1     7
 -2.5552908842938976E-01 a       248     0    13     1     8
 -8.3505054565706886E-03 a       249     0    13     1     9
 -2.9490763335980708E-02 a       250     0    13     1    10
 -4.3142315765648892E-02 a       251     0    13     1    11
  2.0904117224813631E-01 a       252     0    13     1    12
  3.1899199382859311E-01 a       253     0    13     1    13
  5.9861890960291195E-02 a       254     0    13     1    14
 -7.4096810916835384E-02 a       255     0    13     1    15
 -1.7472141711917158E-01 a       256     0    13     1    16
  4.7459772249833443E-01 a       257     0    13     1    17
 -3.3700492535951376E-01 a       258     0    13     1    18
 -3.3773907000891340E-01 a       259     0    13     1    19
 -4.2070703972058104E-01 a       260     0    13     1    20
  1.6751416622002571E-01 a       261     0    14     1     1
  2.6707255198697560E-01 a       262     0    14     1     2
  8.9034562818224083E-02 a       263     0    14     1     3
 -1.0500974226713509E-01 a       264     0    14     1     4
  8.3732837082449096E-01 a       265     0    14     1     5
 -2.2888087589010805E-01 a       266     0    14     1     6
 -1.5224759180867350E-02 a       267     0    14     1     7
  4.0240983171529338E-01 a       268     0    14     1     8
 -2.7998022294273534E-01 a       269     0    14     1     9
 -8.5056593486549273E-02 a       270     0    14     1    10
  3.5208388460538165E-03 a       271     0    14     1    11
 -1.8622455626357644E-03 a       272     0    14     1    12
 -6.4851458661972089E-02 a       273     0    14     1    13
 -1.3625016291748163E-01 a       274     0    14     1    14
  3.5165217469219578E-01 a       275     0    14     1    15
 -3.8540166910371831E-01 a       276     0    14     1    16
 -2.5662893716626550E-01 a       277     0    14     1    17
  1.6168479322568857E-01 a       278     0    14     1    18
  2.7435099680103459E-01 a       279     0    14     1    19
 -2.5684683195409352E-01 a       280     0    14     1    20
  3.6263085731173976E-02 a       281     0    15     1     1
 -3.4762519795048595E-02 a       282     0    15     1     2
 -4.8340139788489505E-03 a       283     0    15     1     3
 -6.7987555373844863E-02 a       284     0    15     1     4
 -1.2368203707626813E-01 a       285     0    15     1     5
 -7.9214060958366639E-03 a       286     0    15     1     6
  2.8341602305482400E-02 a       287     0    15     1     7
  4.5643787683010939E-01 a       288     0    15     1     8
  1.9309796550909908E-01 a       289     0    15     1     9
  2.3766619538682057E-01 a       290     0    15     1    10
 -2.1763832079060214E-01 a       291     0    15     1    11
 -1.0484375347150252E-01 a       292     0    15     1    12
 -4.7944279410758928E-01 a       293     0    15     1    13
  6.5970276086899107E-02 a       294     0    15     1    14
  1.3744150225386961E-01 a       295     0    15     1    15
 -2.1115736657456446E-02 a       296     0    15     1    16
 -1.3249995652637250E-01 a       297     0    15     1    17
 -2.1687056320981798E-01 a       298     0    15     1    18
 -5.6210278918563818E-02 a       299     0    15     1    19
  4.1410305243434781E-01 a       300     0    15     1    20
  4.6752728499147695E-04 a       301     0    16     1     1
 -8.2706307565047565E-01 a       302     0    16     1     2
  2.7597381675712970E-04 a       303     0    16     1     3
  2.0759032272331221E-01 a       304     0    16     1     4
 -3.8909955875359409E-03 a       305     0    16     1     5
 -3.6942099030574704E-01 a       306     0    16     1     6
 -2.1486692789978021E-01 a       307     0    16     1     7
 -4.9877868413178816E-01 a       308     0    16     1     8
  1.1850805527940522E-01 a       309     0    16     1     9
 -4.5032849791137464E-01 a       310     0    16     1    10
 -4.2944383930073254E-01 a       311     0    16     1    11
  5.3519862261976525E-01 a       312     0    16     1    12
 -5.4465275560000892E-01 a       313     0    16     1    13
 -2.0429915883606523E-01 a       314     0    16     1    14
  2.5260276079067906E-01 a       315     0    16     1    15
  5.1137770709881214E-01 a       316     0    16     1    16
 -5.9649500253601551E-01 a       317     0    16     1    17
  7.8276651826146765E-02 a       318     0    16     1    18
  6.5827315621860880E-02 a       319     0    16     1    19
  4.5215942632422756E-01 a       320     0    16     1    20
  2.6550054568615290E-02 a       321     0    17     1     1
  9.2872455004239651E-01 a       322     0    17     1     2
  1.8849494358162144E-01 a       323     0    17     1     3
 -5.7538817994441271E-01 a       324     0    17     1     4
  2.2995224034029710E-01 a       325     0    17     1     5
  1.0346866153198293E-01 a       326     0    17     1     6
  3.7408709873557111E-01 a       327     0    17     1     7
 -1.0029147535559273E-01 a       328     0    17     1     8
  3.9066114159569487E-01 a       329     0    17     1     9
  7.2828236084054021E-01 a       330     0    17     1    10
  1.8623014834452506E-01 a       331     0    17     1    11
 -5.6277269218768644E-01 a       332     0    17     1    12
 -1.3183480247434845E-01 a       333     0    17     1    13
 -3.2847219226331842E-01 a       334     0    17     1    14
 -1.7957259768828483E-02 a       335     0    17     1    15
 -1.9762263849484699E-01 a       336     0    17     1    16
  4.5392166200348683E-01 a       337     0    17     1    17
  3.8063577805101800E-01 a       338     0    17     1    18
 -8.4774616661482005E-02 a       339     0    17     1    19
 -2.1805836137460166E-01 a       340     0    17     1    20
  6.5838491083443729E-01 a       341     0    18     1     1
  1.3192566363705618E-01 a       342     0    18     1     2
 -2.7366683130849303E-02 a       343     0    18     1     3
  6.7608121330600901E-01 a       344     0    18     1     4
  3.4788597575257096E-01 a       345     0    18     1     5
 -1.4171994050728218E-01 a       346     0    18     1     6
  2.2724128194779741E-01 a       347     0    18     1     7
  5.5885133441612345E-01 a       348     0    18     1     8
 -3.7718237194983029E-01 a       349     0    18     1     9
 -2.2057527635206592E-01 a       350     0    18     1    10
  4.5870434448421642E-02 a       351     0    18     1    11
  1.2281282180792076E-01 a       352     0    18     1    12
  7.5045622902593104E-02 a       353     0    18     1    13
 -1.2530509800445272E-01 a       354     0    18     1    14
 -2.8781165648769230E-01 a       355     0    18     1    15
  4.1242574258792804E-02 a       356     0    18     1    16
  2.1468796162841852E-01 a       357     0    18     1    17
  3.3578490975242525E-01 a       358     0    18     1    18
  3.9009509862898950E-01 a       359     0    18     1    19
 -2.4323365431183666E-01 a       360     0    18     1    20
 -3.2677151813700966E-01 a       361     0    19     1     1
 -4.3474538460730128E-01 a       362     0    19     1     2
 -5.5593559421383630E-02 a       363     0    19     1     3
 -2.0345206792061501E-02 a       364     0    19     1     4
 -5.1714211031913115E-01 a       365     0    19     1     5
  1.0129357623923961E-01 a       366     0    19     1     6
 -5.2675053757950718E-01 a       367     0    19     1     7
 -1.3751099820451246E-01 a       368     0    19     1     8
 -1.6305782924359083E-01 a       369     0    19     1     9
 -3.1595932614375427E-01 a       370     0    19     1    10
 -1.6738045080184150E-01 a       371     0    19     1    11
 -6.0756087020641802E-01 a       372     0    19     1    12
  4.9327812016119416E-01 a       373     0    19     1    13
  8.3752763583208722E-01 a       374     0    19     1    14
 -2.3691027669206222E-01 a       375     0    19     1    15
 -6.4873063842158227E-02 a       376     0    19     1    16
 -3.0207512085763583E-01 a       377     0    19     1    17
 -6.9566427037572443E-01 a       378     0    19     1    18
 -5.0434878069183808E-01 a       379     0    19     1    19
  3.1091428923281039E-02 a       380     0    19     1    20
  1.5441720481533264E-01 a       381     0    20     1     1
  4.9144121694220888E-01 a       382     0    20     1     2
 -1.2038347502811246E-01 a       383     0    20     1     3
  4.5385767666373467E-01 a       384     0    20     1     4
  4.0703880737211651E-02 a       385     0    20     1     5
 -4.5383464666037027E-01 a       386     0    20     1     6
  6.0942171223636148E-02 a       387     0    20     1     7
  2.8629845832517448E-01 a       388     0    20     1     8
 -4.3393827258444991E-02 a       389     0    20     1     9
  1.4297261653753052E-01 a       390     0    20     1    10
  2.8320306290468977E-01 a       391     0    20     1    11
 -6.6577834732117980E-01 a       392     0    20     1    12
  2.7842178172711352E-01 a       393     0    20     1    13
 -4.0120560185857697E-02 a       394     0    20     1    14
  4.0665517337442586E-01 a       395     0    20     1    15
 -4.1337982844210197E-02 a       396     0    20     1    16
  5.9999939476703668E-01 a       397     0    20     1    17
  2.0520182127315875E-01 a       398     0    20     1    18
  1.8443445135427652E-01 a       399     0    20     1    19
 -2.2660283015749763E-01 a       400     0    20     1    20
  8.0349553931540932E-02 a       401     0    21     1     1
 -3.9642604998096986E-01 a       402     0    21     1     2
  2.8221974623582652E-01 a       403     0    21     1     3
 -1.0798888886862305E-01 a       404     0    21     1     4
 -8.3931628857514290E-02 a       405     0    21     1     5
  4.6957279045899936E-01 a       406     0    21     1     6
  1.1919393807850812E-01 a       407     0    21     1     7
  2.4106308365404902E-01 a       408     0    21     1     8
 -1.7780160488945582E-01 a       409     0    21     1     9
 -2.6451323220003187E-01 a       410     0    21     1    10
 -1.7717357118450458E-01 a       411     0    21     1    11
  3.6750262490051128E-01 a       412     0    21     1    12
  3.4585959507654357E-01 a       413     0    21     1    13
 -8.2140865444473174E-02 a       414     0    21     1    14
 -1.0761340222725074E-01 a       415     0    21     1    15
 -1.7700283460149027E-01 a       416     0    21     1    16
 -1.0076617218821837E-02 a       417     0    21     1    17
  6.8671719807391535E-02 a       418     0    21     1    18
 -1.0019787197666610E-01 a       419     0    21     1    19
  3.2473189617247372E-01 a       420     0    21     1    20
  3.0063297313638487E-01 a       421     0    22     1     1
 -4.1380299818418187E-01 a       422     0    22     1     2
 -2.2360354943722410E-01 a       423     0    22     1     3
  2.4323909005063296E-01 a       424     0    22     1     4
  3.3636591569919666E-01 a       425     0    22     1     5
 -4.1294630899243795E-01 a       426     0    22     1     6
 -4.0317545890241213E-01 a       427     0    22     1     7
 -1.6273512984088093E-01 a       428     0    22     1     8
 -1.0079095317130149E-01 a       429     0    22     1     9
  1.3172524773672564E-01 a       430     0    22     1    10
  1.9093610031406061E-01 a       431     0    22     1    11
 -5.4509957690947008E-01 a       432     0    22     1    12
 -4.6226388326817980E-01 a       433     0    22     1    13
 -1.3052553455703231E-01 a       434     0    22     1    14
  2.9732440146797845E-01 a       435     0    22     1    15
  5.5781627909620268E-01 a       436     0    22     1    16
 -4.1063518350992989E-01 a       437     0    22     1    17
 -2.3190822791687399E-01 a       438     0    22     1    18
  1.2277340409818945E-01 a       439     0    22     1    19
 -2.9625775177033764E-01 a       440     0    22     1    20
 -4.3146178126267037E-01 a       441     0    23     1     1
  7.2645891282734776E-01 a       442     0    23     1     2
 -5.3883634572980406E-02 a       443     0    23     1     3
  8.3658049081176730E-02 a       444     0    23     1     4
  4.5090237318062487E-01 a       445     0    23     1     5
  6.3613911844670445E-01 a       446     0    23     1     6
 -1.5090761017202389E-01 a       447     0    23     1     7
 -3.9000998124180397E-01 a       448     0    23     1     8
  4.0915906977937927E-01 a       449     0    23     1     9
  5.6382490702585009E-01 a       450     0    23     1    10
 -1.4254994279429170E-01 a       451     0    23     1    11
 -2.6012033077815931E-02 a       452     0    23     1    12
 -4.1076735471177456E-01 a       453     0    23     1    13
 -2.6008747676671118E-01 a       454     0    23     1    14
 -1.4594097236660343E-02 a       455     0    23     1    15
 -4.8557591258054728E-01 a       456     0    23     1    16
  6.2163037206666133E-02 a       457     0    23     1    17
  5.3183453018670923E-01 a       458     0    23     1    18
  3.0387761666169899E-01 a       459     0    23     1    19
 -1.1833875623249678E-01 a       460     0    23     1    20
 -1.3760902490096963E-01 a       461     0    24     1     1
 -1.8144433896701448E-01 a       462     0    24     1     2
 -2.8591345299028520E-01 a       463     0    24     1     3
 -9.2578839056870782E-02 a       464     0    24     1     4
 -1.5548178903002588E-01 a       465     0    24     1     5
  3.0276494402612769E-01 a       466     0    24     1     6
 -1.4399400073168750E-01 a       467     0    24     1     7
 -2.3134070237984813E-01 a       468     0    24     1     8
  3.1463417844508551E-01 a       469     0    24     1     9
 -1.8641286942537194E-01 a       470     0    24     1    10
  2.4879514229661387E-01 a       471     0    24     1    11
  2.3438151223729306E-01 a       472     0    24     1    12
 -7.5807236809853684E-02 a       473     0    24     1    13
 -4.6736527593704158E-01 a       474     0    24     1    14
  5.1530764425681963E-01 a       475     0    24     1    15
  3.2916644438596671E-01 a       476     0    24     1    16
  1.6643903051274911E-01 a       477     0    24     1    17
 -1.1913301978454169E-01 a       478     0    24     1    18
 -2.6098349202279608E-01 a       479     0    24     1    19
  4.8306015287449815E-02 a       480     0    24     1    20
  3.2652423446372619E-01 a       481     0    25     1     1
  4.3980732814360540E-01 a       482     0    25     1     2
 -3.3776901984563526E-02 a       483     0    25     1     3
 -2.7026384159067035E-01 a       484     0    25     1     4
  8.5305061759420001E-02 a       485     0    25     1     5
 -1.9570898202645556E-01 a       486     0    25     1     6
  3.7873046281650120E-02 a       487     0    25     1     7
  3.0920269904059727E-01 a       488     0    25     1     8
  2.4029321717463753E-01 a       489     0    25     1     9
 -2.0294200132454321E-01 a       490     0    25     1    10
 -8.3561487009164177E-03 a       491     0    25     1    11
  9.5445623618867548E-02 a       492     0    25     1    12
 -1.2727889781574916E-01 a       493     0    25     1    13
 -8.1688792456033132E-01 a       494     0    25     1    14
 -2.2585302383159664E-01 a       495     0    25     1    15
  7.4496709657230265E-01 a       496     0    25     1    16
  3.3374832365559387E-01 a       497     0    25     1    17
  1.9146575825375231E-01 a       498     0    25     1    18
 -5.4407238797546598E-01 a       499     0    25     1    19
  1.0360677258120263E+00 a       500     0    25     1    20
  1.7550441472409564E-01 a       501     0    26     1     1
  3.8019333166065261E-02 a       502     0    26     1     2
  1.8917619165566979E-01 a       503     0    26     1     3
 -1.5106937648825688E-01 a       504     0    26     1     4
 -1.2051000421804155E-01 a       505     0    26     1     5
 -2.6534028147636851E-01 a       506     0    26     1     6
 -7.5633538933642622E-02 a       507     0    26     1     7
  5.0490020471606681E-02 a       508     0    26     1     8
 -2.2420033317428337E-01 a       509     0    26     1     9
 -3.1400747609990159E-01 a       510     0    26     1    10
 -4.7666523810413991E-01 a       511     0    26     1    11
  1.0692479603985625E-01 a       512     0    26     1    12
 -2.2302441091502040E-01 a       513     0    26     1    13
  4.5478445746670888E-03 a       514     0    26     1    14
 -1.2569428468196250E-01 a       515     0    26     1    15
  4.6369920822987459E-01 a       516     0    26     1    16
  1.1737996628362071E-01 a       517     0    26     1    17
  1.3241493002615370E-01 a       518     0    26     1    18
 -1.1055674630662903E-01 a       519     0    26     1    19
 -3.7973361080640767E-04 a       520     0    26     1    20
 -4.7298669270008659E-01 a       521     0    27     1     1
  2.7654596204248760E-01 a       522     0    27     1     2
 -2.6100258832001066E-01 a       523     0    27     1     3
  4.1470867387158733E-01 a       524     0    27     1     4
  9.5429416610700368E-02 a       525     0    27     1     5
  1.8413542353415496E-01 a       526     0    27     1     6
 -1.0856671250609574E-01 a       527     0    27     1     7
 -5.4246126890807977E-01 a       528     0    27     1     8
  8.1119144423576511E-02 a       529     0    27     1     9
  6.6569384723963809E-01 a       530     0    27     1    10
 -3.6107355641890104E-01 a       531     0    27     1    11
 -6.7426953441661419E-01 a       532     0    27     1    12
  4.9433818907649325E-03 a       533     0    27     1    13
  6.7276143448759429E-01 a       534     0    27     1    14
  4.3813304077439869E-01 a       535     0    27     1    15
 -2.9987074738422353E-01 a       536     0    27     1    16
 -1.6903061956183538E-01 a       537     0    27     1    17
 -5.1732664807177031E-01 a       538     0    27     1    18
  2.0840014205043164E-01 a       539     0    27     1    19
  2.2217671488313114E-02 a       540     0    27     1    20
  1.8828884617164443E-01 a       541     0    28     1     1
  5.3764899468476721E-02 a       542     0    28     1     2
  7.7001445052805553E-02 a       543     0    28     1     3
  1.5054178051021244E-01 a       544     0    28     1     4
 -2.2671725106494497E-01 a       545     0    28     1     5
 -4.3643655694304083E-02 a       546     0    28     1     6
 -1.9822553897550982E-01 a       547     0    28     1     7
  2.1388113456942354E-01 a       548     0    28     1     8
 -7.2079466419084970E-02 a       549     0    28     1     9
 -1.1836478802917035E-01 a       550     0    28     1    10
  2.1002139051460778E-01 a       551     0    28     1    11
  7.0688782699910052E-02 a       552     0    28     1    12
  3.3318335119229547E-01 a       553     0    28     1    13
  1.1709799070327584E-01 a       554     0    28     1    14
 -2.3474932756603931E-01 a       555     0    28     1    15
  1.2503751639792181E-02 a       556     0    28     1    16
 -2.7278543361168633E-01 a       557     0    28     1    17
  5.2489781939727996E-02 a       558     0    28     1    18
  4.1760226607681084E-01 a       559     0    28     1    19
  3.8179576916346913E-01 a       560     0    28     1    20
  3.2096314045271873E-01 a       561     0    29     1     1
  2.5145823792070443E-01 a       562     0    29     1     2
  6.4640827995519401E-02 a       563     0    29     1     3
  1.7586163062412724E-01 a       564     0    29     1     4
  3.7555220210220636E-01 a       565     0    29     1     5
 -2.4542356280009206E-01 a       566     0    29     1     6
 -4.0827164154697121E-01 a       567     0    29     1     7
  1.1090577868231902E-01 a       568     0    29     1     8
 -3.3148926620644131E-01 a       569     0    29     1     9
 -3.5459162168001407E-01 a       570     0    29     1    10
 -4.1290528692085621E-01 a       571     0    29     1    11
  3.3697819388843572E-02 a       572     0    29     1    12
 -8.8917688895330013E-02 a       573     0    29     1    13
  6.2644539521449105E-01 a       574     0    29     1    14
 -2.9315395968453700E-01 a       575     0    29     1    15
 -3.8778270623022149E-01 a       576     0    29     1    16
 -6.5379365089562724E-01 a       577     0    29     1    17
  1.5072248159026078E-01 a       578     0    29     1    18
 -2.5186941416814729E-01 a       579     0    29     1    19
 -4.4059951590866536E-01 a       580     0    29     1    20
 -1.2702467147259841E-01 a       581     0    30     1     1
 -3.2611985706860319E-01 a       582     0    30     1     2
  3.1971591481804638E-02 a       583     0    30     1     3
  5.1690587867585708E-02 a       584     0    30     1     4
  7.7769036626690602E-02 a       585     0    30     1     5
 -3.4867245791938528E-01 a       586     0    30     1     6
 -2.6576798225899995E-01 a       587     0    30     1     7
  2.6259759379741610E-01 a       588     0    30     1     8
  2.0141049244024761E-01 a       589     0    30     1     9
  1.4799629719289778E-01 a       590     0    30     1    10
 -4.0534246963361498E-02 a       591     0    30     1    11
 -9.5276576804444513E-02 a       592     0    30     1    12
 -1.3544726183274536E-01 a       593     0    30     1    13
 -1.9479371909563120E-01 a       594     0    30     1    14
  5.9667686653908585E-02 a       595     0    30     1    15
 -2.4806761266248867E-01 a       596     0    30     1    16
  6.0302461215310077E-01 a       597     0    30     1    17
 -2.3819197431006059E-01 a       598     0    30     1    18
 -2.3038213258569790E-01 a       599     0    30     1    19
 -4.2906670343221204E-01 a       600     0    30     1    20
  6.6464515424311449E-02 a       601     0    31     1     1
 -5.4677046624665038E-01 a       602     0    31     1     2
  4.8374374629969435E-02 a       603     0    31     1     3
 -3.9206126105849871E-02 a       604     0    31     1     4
 -4.8925430781337742E-01 a       605     0    31     1     5
 -2.9764342253529091E-01 a       606     0    31     1     6
  1.6500936660471138E-01 a       607     0    31     1     7
 -2.7963028360802988E-01 a       608     0    31     1     8
  2.0928160660749684E-01 a       609     0    31     1     9
  5.1059780155816403E-01 a       610     0    31     1    10
  7.6109958266207822E-01 a       611     0    31     1    11
 -7.7096201932965558E-01 a       612     0    31     1    12
  2.0518519437737054E-01 a       613     0    31     1    13
 -2.2142094766861065E-02 a       614     0    31     1    14
  1.5073449938070244E-01 a       615     0    31     1    15
 -1.7119435155138032E-01 a       616     0    31     1    16
  1.8061689850054055E-01 a       617     0    31     1    17
  2.3439859651719733E-01 a       618     0    31     1    18
 -6.8389102221564260E-02 a       619     0    31     1    19
  1.4873635692218456E-01 a       620     0    31     1    20
  2.4901683989091014E-01 a       621     0    32     1     1
  3.4021222511294086E-01 a       622     0    32     1     2
 -2.2849713092265106E-01 a       623     0    32     1     3
 -3.0215406526785554E-01 a       624     0    32     1     4
 -2.0564178321987919E-01 a       625     0    32     1     5
 -4.6263497750852101E-01 a       626     0    32     1     6
 -2.5433184797552279E-02 a       627     0    32     1     7
 -1.2887698854133159E-01 a       628     0    32     1     8
  9.7368353689974443E-02 a       629     0    32     1     9
  5.3404310200882665E-01 a       630     0    32     1    10
 -1.0675192631685709E-01 a       631     0    32     1    11
  2.5982202793053216E-01 a       632     0    32     1    12
  6.3860814675457886E-02 a       633     0    32     1    13
 -7.1796894629795868E-02 a       634     0    32     1    14
  8.9424330752159345E-02 a       635     0    32     1    15
 -6.5719666868252133E-02 a       636     0    32     1    16
 -1.4382645488765755E-01 a       637     0    32     1    17
  2.6182586662636087E-01 a       638     0    32     1    18
 -8.8606473641630407E-02 a       639     0    32     1    19
 -7.5916551685151828E-03 a       640     0    32     1    20
  2.6232741496627011E-02 a       641     0    33     1     1
  1.4583054060459183E-01 a       642     0    33     1     2
  1.1378436383187929E-01 a       643     0    33     1     3
  2.0857415626876089E-01 a       644     0    33     1     4
  1.6132945098248219E-01 a       645     0    33     1     5
  1.3732964804117551E-01 a       646     0    33     1     6
  6.0526767685849669E-01 a       647     0    33     1     7
 -2.9980462227308968E-01 a       648     0    33     1     8
 -8.3998330840684504E-02 a       649     0    33     1     9
 -9.5439479306439401E-01 a       650     0    33     1    10
  9.3918337491700130E-02 a       651     0    33     1    11
  1.2330106735503223E-01 a       652     0    33     1    12
  2.4238038018636746E-01 a       653     0    33     1    13
 -9.9989980069654913E-02 a       654     0    33     1    14
 -7.2928610479776201E-01 a       655     0    33     1    15
  5.6875514951225947E-01 a       656     0    33     1    16
  6.5158529802661416E-02 a       657     0    33     1    17
 -8.4395631323256920E-02 a       658     0    33     1    18
  1.4756423741434399E-01 a       659     0    33     1    19
 -8.5437299635928790E-02 a       660     0    33     1    20
  3.4055089139555628E-02 a       661     0    34     1     1
  3.0028152174159339E-01 a       662     0    34     1     2
 -1.0455865949647728E-02 a       663     0    34     1     3
  7.1992682524098420E-02 a       664     0    34     1     4
  2.0784135864678402E-01 a       665     0    34     1     5
  1.3443658880787308E-02 a       666     0    34     1     6
 -2.7201622200487868E-01 a       667     0    34     1     7
  3.0666433200864068E-01 a       668     0    34     1     8
 -3.2327008262460227E-01 a       669     0    34     1     9
  3.0300600690971885E-01 a       670     0    34     1    10
 -4.2709876853188466E-01 a       671     0    34     1    11
  4.2608293943770520E-01 a       672     0    34     1    12
 -9.1108565391178647E-02 a       673     0    34     1    13
  5.7790383802126088E-01 a       674     0    34     1    14
 -2.0596095289707902E-01 a       675     0    34     1    15
 -1.8398871486009094E-01 a       676     0    34     1    16
  8.0364503637868040E-02 a       677     0    34     1    17
 -1.2838748412071507E-01 a       678     0    34     1    18
 -7.3742256956675245E-02 a       679     0    34     1    19
 -2.0765470698410360E-01 a       680     0    34     1    20
  6.5982496786343964E-02 a       681     0    35     1     1
 -4.7898372771439622E-02 a       682     0    35     1     2
 -3.6486315941223568E-01 a       683     0    35     1     3
 -2.8832191790971778E-02 a       684     0    35     1     4
 -3.2444992487146901E-01 a       685     0    35     1     5
  3.1106215642446577E-01 a       686     0    35     1     6
 -1.2945298699878921E-01 a       687     0    35     1     7
 -8.5035816767602107E-02 a       688     0    35     1     8
  4.3321214460445540E-01 a       689     0    35     1     9
 -2.0845104813526330E-01 a       690     0    35     1    10
  2.6519642704470625E-01 a       691     0    35     1    11
  1.7151123089851953E-02 a       692     0    35     1    12
  1.2753679287239114E-01 a       693     0    35     1    13
 -4.5341777718120660E-02 a       694     0    35     1    14
 -1.5172575506109317E-02 a       695     0    35     1    15
 -1.0235465629114532E-01 a       696     0    35     1    16
  1.5279880703772314E-01 a       697     0    35     1    17
 -2.3185921336260656E-01 a       698     0    35     1    18
  3.5948796532056332E-01 a       699     0    35     1    19
 -1.6864420383669318E-01 a       700     0    35     1    20
  2.6832470126824476E-01 a       701     0    36     1     1
 -7.0398648696734500E-01 a       702     0    36     1     2
  4.6456674194076210E-02 a       703     0    36     1     3
 -4.1320021478561710E-02 a       704     0    36     1     4
 -2.0041987564828345E-02 a       705     0    36     1     5
 -2.1255909565594586E-01 a       706     0    36     1     6
  1.0683251269990521E-01 a       707     0    36     1     7
 -4.5665368805410667E-01 a       708     0    36     1     8
  6.0209787293804329E-02 a       709     0    36     1     9
  3.9938752368496339E-01 a       710     0    36     1    10
  1.7052420059144557E-01 a       711     0    36     1    11
 -4.0904824487655111E-01 a       712     0    36     1    12
  9.1627177732183970E-02 a       713     0    36     1    13
  2.9921690689453211E-02 a       714     0    36     1    14
  2.3856910368097800E-01 a       715     0    36     1    15
 -2.3235023523326570E-01 a       716     0    36     1    16
  6.6920626517918302E-02 a       717     0    36     1    17
 -7.0459447090999172E-01 a       718     0    36     1    18
  9.9638369920623956E-02 a       719     0    36     1    19
 -1.5362238843601433E-01 a       720     0    36     1    20
  1.5703728693323999E-02 a       721     0    37     1     1
  3.7959401920438518E-01 a       722     0    37     1     2
  8.8373139583554763E-02 a       723     0    37     1     3
 -1.2493574401849430E-01 a       724     0    37     1     4
 -3.1544172348671302E-02 a       725     0    37     1     5
  2.0688257487056126E-02 a       726     0    37     1     6
 -9.0218203058432339E-02 a       727     0    37     1     7
  5.2378175702265835E-02 a       728     0    37     1     8
 -4.3678398462979537E-02 a       729     0    37     1     9
 -2.9106633315286001E-01 a       730     0    37     1    10
 -1.4639726944397277E-01 a       731     0    37     1    11
 -1.0167276714402074E-01 a       732     0    37     1    12
  3.6823335944200997E-01 a       733     0    37     1    13
 -9.6360501144527211E-02 a       734     0    37     1    14
  4.4923279808648062E-02 a       735     0    37     1    15
 -5.3097612898103741E-01 a       736     0    37     1    16
  2.9788441976857888E-01 a       737     0    37     1    17
  1.8216165493579453E-03 a       738     0    37     1    18
  2.1842270664836222E-01 a       739     0    37     1    19
 -3.0221766335216649E-01 a       740     0    37     1    20
  7.3613880963312173E-02 a       741     0    38     1     1
 -3.0881212617545606E-01 a       742     0    38     1     2
 -5.2238736246810813E-01 a       743     0    38     1     3
 -8.2028621293050372E-02 a       744     0    38     1     4
  5.3593053524775147E-01 a       745     0    38     1     5
 -1.0477928224803004E-02 a       746     0    38     1     6
 -1.3285228849283831E-01 a       747     0    38     1     7
 -2.1540803239154602E-01 a       748     0    38     1     8
 -1.0316711355049859E-02 a       749     0    38     1     9
  2.0298173130785716E-01 a       750     0    38     1    10
  6.5770093522336281E-01 a       751     0    38     1    11
 -2.7365706431541897E-01 a       752     0    38     1    12
 -6.5108121237967986E-01 a       753     0    38     1    13
 -3.1344147965577257E-01 a       754     0    38     1    14
  6.3922839139393939E-01 a       755     0    38     1    15
  8.7215072091616636E-02 a       756     0    38     1    16
 -1.7992685081336623E-01 a       757     0    38     1    17
  1.6057367819053217E-01 a       758     0    38     1    18
  2.6453809263440636E-01 a       759     0    38     1    19
  1.6927289852059094E-01 a       760     0    38     1    20
 -5.3318474999264565E-02 a       761     0    39     1     1
 -1.5292000678202472E-01 a       762     0    39     1     2
 -1.0292281010910884E-02 a       763     0    39     1     3
  3.5967945463899220E-01 a       764     0    39     1     4
 -2.1260802180010449E-01 a       765     0    39     1     5
 -4.3272446688142223E-02 a       766     0    39     1     6
  2.1663584112985437E-01 a       767     0    39     1     7
  9.3289223673135455E-02 a       768     0    39     1     8
 -2.0791956610701878E-02 a       769     0    39     1     9
  8.2361056440637834E-02 a       770     0    39     1    10
 -4.8569990898587428E-01 a       771     0    39     1    11
 -6.2662850341202767E-02 a       772     0    39     1    12
 -1.0494771690189732E-01 a       773     0    39     1    13
  7.8064532854365360E-03 a       774     0    39     1    14
 -3.6496298498870428E-02 a       775     0    39     1    15
 -1.2753561996444293E-01 a       776     0    39     1    16
  4.4618248950227879E-01 a       777     0    39     1    17
  1.2133978007470125E-01 a       778     0    39     1    18
  3.5191417822783250E-01 a       779     0    39     1    19
  3.6119474778977934E-01 a       780     0    39     1    20
  1.7593115360430209E-02 a       781     0    40     1     1
 -1.2911850096027333E-01 a       782     0    40     1     2
  1.9750840861366498E-01 a       783     0    40     1     3
  2.1425210609006273E-01 a       784     0    40     1     4
 -9.2946716335482293E-02 a       785     0    40     1     5
  1.6620904331269354E-01 a       786     0    40     1     6
 -2.8651764690373732E-01 a       787     0    40     1     7
  3.0864414752141994E-01 a       788     0    40     1     8
 -2.3288719391569509E-02 a       789     0    40     1     9
  2.9728479113499125E-02 a       790     0    40     1    10
  2.3637436154177341E-01 a       791     0    40     1    11
 -3.0706533974033295E-01 a       792     0    40     1    12
  5.4511830564067221E-01 a       793     0    40     1    13
 -3.9331771362358547E-02 a       794     0    40     1    14
 -2.7754635154260660E-01 a       795     0    40     1    15
  1.7395970250413728E-01 a       796     0    40     1    16
 -1.8145044167545188E-01 a       797     0    40     1    17
  4.2257969977333720E-01 a       798     0    40     1    18
 -3.5925837337288997E-02 a       799     0    40     1    19
 -1.3870736748371931E-01 a       800     0    40     1    20
  1.5140008052093862E-01 a       801     0    41     1     1
  2.7664357111506133E-01 a       802     0    41     1     2
  5.3864254438637231E-02 a       803     0    41     1     3
 -2.4572619399963488E-01 a       804     0    41     1     4
 -1.1894600967108582E-01 a       805     0    41     1     5
 -1.9303847324967394E-01 a       806     0    41     1     6
  4.0598236506642282E-01 a       807     0    41     1     7
 -3.3237312249265245E-02 a       808     0    41     1     8
 -7.7491141780008918E-02 a       809     0    41     1     9
 -3.4279640341110168E-01 a       810     0    41     1    10
  5.6713576977138899E-02 a       811     0    41     1    11
 -6.9306106235817996E-02 a       812     0    41     1    12
  1.1509838351087022E-01 a       813     0    41     1    13
 -2.7731032562656494E-02 a       814     0    41     1    14
  1.0571132426949921E-01 a       815     0    41     1    15
  1.4954195750560953E-01 a       816     0    41     1    16
  1.2106506293436718E-01 a       817     0    41     1    17
 -6.7654416725914782E-02 a       818     0    41     1    18
  1.3976808687820186E-01 a       819     0    41     1    19
 -1.6422123212420559E-01 a       820     0    41     1    20
 -4.3035485059489592E-02 a       821     0    42     1     1
  2.7194709710114229E-01 a       822     0    42     1     2
 -1.7539739246358060E-01 a       823     0    42     1     3
  5.2259229336959201E-02 a       824     0    42     1     4
 -1.8375049506695770E-01 a       825     0    42     1     5
  7.4547116407760766E-02 a       826     0    42     1     6
  4.2846919527672805E-02 a       827     0    42     1     7
 -9.5680369585251002E-02 a       828     0    42     1     8
  4.9579599536941812E-02 a       829     0    42     1     9
  3.2398941236743323E-01 a       830     0    42     1    10
 -3.4873639652948936E-02 a       831     0    42     1    11
 -9.8871199350953676E-02 a       832     0    42     1    12
 -2.2294736237513910E-02 a       833     0    42     1    13
 -2.8141771531343357E-01 a       834     0    42     1    14
 -1.3973811033333805E-01 a       835     0    42     1    15
 -4.5428805758089906E-02 a       836     0    42     1    16
  1.1513458580758057E-01 a       837     0    42     1    17
  7.3494246539105731E-02 a       838     0    42     1    18
  3.6303314108214074E-01 a       839     0    42     1    19
  5.9387826132181326E-02 a       840     0    42     1    20
 -1.0248094748570191E-01 a       841     0    43     1     1
 -1.4943063920110686E-01 a       842     0    43     1     2
 -1.5864292159618487E-01 a       843     0    43     1     3
  1.8439163567173117E-01 a       844     0    43     1     4
  6.6840750852190781E-02 a       845     0    43     1     5
 -3.7883720461758662E-02 a       846     0    43     1     6
 -1.9635600990476137E-01 a       847     0    43     1     7
  1.2001024491649802E-01 a       848     0    43     1     8
 -7.8616827862088998E-02 a       849     0    43     1     9
  1.7361329352436378E-01 a       850     0    43     1    10
 -2.7571488790888495E-02 a       851     0    43     1    11
  6.6517771207145818E-02 a       852     0    43     1    12
  4.0565509152903384E-02 a       853     0    43     1    13
  8.1697095705595552E-02 a       854     0    43     1    14
  1.1383042971045566E-01 a       855     0    43     1    15
 -5.1257127635795699E-04 a       856     0    43     1    16
 -3.2119338377618392E-02 a       857     0    43     1    17
  2.3461249347960459E-02 a       858     0    43     1    18
  1.4567399094953939E-02 a       859     0    43     1    19
  9.8647821516297002E-02 a       860     0    43     1    20
 -8.9474039159734273E-02 a       861     0    44     1     1
 -7.6023028108210888E-01 a       862     0    44     1     2
  1.9484001881981433E-01 a       863     0    44     1     3
 -8.6658562055236754E-02 a       864     0    44     1     4
 -5.4625447181025251E-02 a       865     0    44     1     5
 -1.6266061054410749E-01 a       866     0    44     1     6
  1.5667220050734937E-01 a       867     0    44     1     7
 -8.5857644508453762E-02 a       868     0    44     1     8
 -1.1725106169459659E-01 a       869     0    44     1     9
 -1.0637247231104244E-02 a       870     0    44     1    10
  2.3842770173736796E-01 a       871     0    44     1    11
  5.3032979587030893E-01 a       872     0    44     1    12
  6.7041313565734936E-02 a       873     0    44     1    13
  7.3174201391935745E-01 a       874     0    44     1    14
 -1.1892358659880864E-01 a       875     0    44     1    15
  8.8725999804844718E-02 a       876     0    44     1    16
 -4.7889973964433258E-01 a       877     0    44     1    17
 -3.5671466626869175E-01 a       878     0    44     1    18
 -3.4167580161672606E-01 a       879     0    44     1    19
 -2.0930015316541767E-01 a       880     0    44     1    20
 -5.7582850277578501E-01 a       881     0    45     1     1
  4.5479885898478672E-01 a       882     0    45     1     2
  3.9406355740640103E-01 a       883     0    45     1     3
  5.9730395827531346E-01 a       884     0    45     1     4
 -1.3174393586818597E-01 a       885     0    45     1     5
  6.7397250580091703E-02 a       886     0    45     1     6
  1.7451846686960384E-01 a       887     0    45     1     7
 -1.3821730106639371E-01 a       888     0    45     1     8
 -4.2753714965456961E-03 a       889     0    45     1     9
  3.9842436224360589E-01 a       890     0    45     1    10
 -3.1101943483389083E-01 a       891     0    45     1    11
  3.5848787934520970E-01 a       892     0    45     1    12
  5.3753460570109568E-01 a       893     0    45     1    13
  4.7198740809218813E-02 a       894     0    45     1    14
 -1.9995353098941127E-01 a       895     0    45     1    15
 -1.4726496233506134E-01 a       896     0    45     1    16
  3.3674015100115495E-01 a       897     0    45     1    17
 -6.0425483023113256E-02 a       898     0    45     1    18
  4.8437797472314865E-02 a       899     0    45     1    19
  3.6057783668717874E-01 a       900     0    45     1    20
  3.6309696648177414E-01 a       901     0    46     1     1
 -4.8141112338956260E-01 a       902     0    46     1     2
 -2.0513884998213060E-02 a       903     0    46     1     3
  4.3684938459423389E-01 a       904     0    46     1     4
  1.7080621609046592E-02 a       905     0    46     1     5
 -5.0402275213798864E-01 a       906     0    46     1     6
 -3.5761990088222917E-01 a       907     0    46     1     7
  4.3942286773424860E-01 a       908     0    46     1     8
 -1.0230611786481617E-01 a       909     0    46     1     9
 -4.7999671801250987E-01 a       910     0    46     1    10
 -1.6209061023212343E-01 a       911     0    46     1    11
  2.9518565658326645E-01 a       912     0    46     1    12
  3.8614059192668415E-02 a       913     0    46     1    13
 -1.0675048545306171E-01 a       914     0    46     1    14
 -9.5086338584175353E-02 a       915     0    46     1    15
  2.3863387779898063E-01 a       916     0    46     1    16
 -3.4719957801867907E-01 a       917     0    46     1    17
  1.5473260004467454E-01 a       918     0    46     1    18
 -8.0531996339720455E-02 a       919     0    46     1    19
 -5.4382663715887425E-01 a       920     0    46     1    20
  1.5848939045432789E-01 a       921     0    47     1     1
  1.1928771244406779E-01 a       922     0    47     1     2
 -4.3964719465035862E-01 a       923     0    47     1     3
 -7.6153909233426487E-01 a       924     0    47     1     4
  1.7095008558778064E-02 a       925     0    47     1     5
  8.8307516951659415E-01 a       926     0    47     1     6
 -1.4844529388255573E-01 a       927     0    47     1     7
  3.3012975746077433E-01 a       928     0    47     1     8
  2.6552945112537840E-01 a       929     0    47     1     9
 -1.5843008108709575E-01 a       930     0    47     1    10
  3.4088112480655103E-01 a       931     0    47     1    11
  4.8709063223287469E-02 a       932     0    47     1    12
 -3.2973332897602131E-01 a       933     0    47     1    13
 -2.5838121397114194E-01 a       934     0    47     1    14
 -1.7351267362506714E-01 a       935     0    47     1    15
  5.9103754385407790E-02 a       936     0    47     1    16
 -7.0487966448657194E-02 a       937     0    47     1    17
 -5.3130788636375846E-02 a       938     0    47     1    18
 -2.5076663969518270E-01 a       939     0    47     1    19
  7.5604975783509942E-02 a       940     0    47     1    20
 -1.9298313873801901E-01 a       941     0    48     1     1
  2.6696592131153407E-01 a       942     0    48     1     2
 -2.5616923002058915E-02 a       943     0    48     1     3
 -1.4100716049494094E-01 a       944     0    48     1     4
  4.4444828526734287E-02 a       945     0    48     1     5
 -4.4161915333749563E-01 a       946     0    48     1     6
 -2.6365122739546992E-01 a       947     0    48     1     7
 -3.2400339162654762E-01 a       948     0    48     1     8
  5.1273446398588669E-02 a       949     0    48     1     9
 -2.7545927134319587E-01 a       950     0    48     1    10
 -1.2167098677646905E-01 a       951     0    48     1    11
  3.0049436417607706E-01 a       952     0    48     1    12
 -2.1417915158387593E-01 a       953     0    48     1    13
  9.7551025537386440E-02 a       954     0    48     1    14
  3.4692150428877666E-01 a       955     0    48     1    15
 -2.9935714061537227E-01 a       956     0    48     1    16
  2.9137388602416830E-01 a       957     0    48     1    17
  2.1857611853265901E-02 a       958     0    48     1    18
 -2.6790351679958146E-01 a       959     0    48     1    19
  3.0011094592935489E-01 a       960     0    48     1    20
  1.9378475422282213E-01 a       961     0    49     1     1
  1.4257014887793362E+00 a       962     0    49     1     2
 -2.1765258265433121E-01 a       963     0    49     1     3
 -6.8659003078273009E-02 a       964     0    49     1     4
  1.5695604810498845E-01 a       965     0    49     1     5
  1.2363124484628231E-01 a       966     0    49     1     6
 -3.8552872818268961E-02 a       967     0    49     1     7
  3.1895494273870251E-01 a       968     0    49     1     8
  2.8077303693556088E-01 a       969     0    49     1     9
 -1.3486923447670077E-01 a       970     0    49     1    10
 -1.0502913174136996E+00 a       971     0    49     1    11
  4.2907609059737278E-01 a       972     0    49     1    12
  2.0438099840194485E-01 a       973     0    49     1    13
  9.0213765898598441E-01 a       974     0    49     1    14
 -3.9085481170656333E-01 a       975     0    49     1    15
  1.7820222172257361E-01 a       976     0    49     1    16
 -3.9817678976780360E-02 a       977     0    49     1    17
  3.0307424660491734E-02 a       978     0    49     1    18
  3.1541934723921894E-01 a       979     0    49     1    19
  2.3045103230067226E-01 a       980     0    49     1    20
  1.7867015360136998E-01 a       981     0    50     1     1
 -1.3280585203396860E+00 a       982     0    50     1     2
  5.2765663174737321E-01 a       983     0    50     1     3
 -5.1369356124531418E-02 a       984     0    50     1     4
  2.1908287688885880E-01 a       985     0    50     1     5
 -6.1176124911994789E-01 a       986     0    50     1     6
  7.3721013378030276E-02 a       987     0    50     1     7
 -1.1214600529368039E-01 a       988     0    50     1     8
 -2.2795233011908245E-01 a       989     0    50     1     9
 -3.2703533277414010E-01 a       990     0    50     1    10
  4.0086057705803879E-01 a       991     0    50     1    11
  4.3450295131927654E-03 a       992     0    50     1    12
 -4.4238485898468166E-01 a       993     0    50     1    13
 -7.3420546688272237E-01 a       994     0    50     1    14
 -1.0445866853603245E-01 a       995     0    50     1    15
  6.2812685195570173E-01 a       996     0    50     1    16
 -1.1473643807242238E+00 a       997     0    50     1    17
 -2.7686150678723276E-01 a       998     0    50     1    18
  1.0267669791182446E-01 a       999     0    50     1    19
  3.1016282072356199E-01 a      1000     0    50     1    20
 -2.5317333134474157E-01 a      1001     0    51     1     1
 -1.5634467297747845E-01 a      1002     0    51     1     2
 -5.2691434300365360E-02 a      1003     0    51     1     3
  6.0133375585898201E-02 a      1004     0    51     1     4
  3.2123297239182169E-01 a      1005     0    51     1     5
  4.6523677612297404E-01 a      1006     0    51     1     6
  2.1786115971148054E-01 a      1007     0    51     1     7
 -6.8227326619160214E-02 a      1008     0    51     1     8
  1.9799914324295936E-02 a      1009     0    51     1     9
 -4.9637657826191316E-04 a      1010     0    51     1    10
 -8.3538256351598117E-02 a      1011     0    51     1    11
  1.5736993206587671E-01 a      1012     0    51     1    12
 -1.2566815202200798E-01 a      1013     0    51     1    13
 -9.9524488209795675E-02 a      1014     0    51     1    14
 -7.8012625067347435E-02 a      1015     0    51     1    15
  6.4504042581917049E-03 a      1016     0    51     1    16
  5.2328325204600179E-02 a      1017     0    51     1    17
 -1.0483141806536266E-01 a      1018     0    51     1    18
 -2.2771422641649100E-01 a      1019     0    51     1    19
  1.7694416051216671E-01 a      1020     0    51     1    20
  1.0506498016280723E+00 b      1021     1     1
  1.2487526897401953E+00 b      1022     1     2
  8.8374200039646833E-01 b      1023     1     3
  1.2845231117847298E+00 b      1024     1     4
  6.7556448667520375E-01 b      1025     1     5
 -1.1921701899354336E+00 b      1026     1     6
 -5.0472291699208749E-01 b      1027     1     7
 -1.1256128583665694E+00 b      1028     1     8
  8.7157385345095861E-01 b      1029     1     9
 -1.0251788286819159E+00 b      1030     1    10
  5.7771801277739510E-01 b      1031     1    11
  5.1193673936160999E-01 b      1032     1    12
  3.3352971225793848E-01 b      1033     1    13
 -8.6919503110291596E-01 b      1034     1    14
  1.4712615039298205E+00 b      1035     1    15
 -1.3664295854485628E-01 b      1036     1    16
 -5.8531820029648951E-01 b      1037     1    17
  3.0975064581403428E-01 b      1038     1    18
  7.0864408614869556E-01 b      1039     1    19
 -1.0164041369932379E+00 b      1040     1    20
  4.7675630088056259E-01 a      1041     1     1     2     1
  3.8736210628345968E-01 a      1042     1     1     2     2
 -1.4287870680037418E-01 a      1043     1     1     2     3
  5.8849073665009022E-01 a      1044     1     1     2     4
  3.1778056800275128E-01 a      1045     1     1     2     5
 -8.2565394938368031E-01 a      1046     1     1     2     6
 -7.7888497406106783E-01 a      1047     1     1     2     7
  1.6496168259481383E-02 a      1048     1     1     2     8
 -1.9227000821757226E-01 a      1049     1     1     2     9
 -6.7636366695556582E-01 a      1050     1     1     2    10
 -2.6137239765803144E-01 a      1051     1     1     2    11
 -5.9707943304079381E-01 a      1052     1     1     2    12
 -6.0495104094265473E-01 a      1053     1     1     2    13
  2.5892487166867778E-01 a      1054     1     1     2    14
  6.9303673051805581E-01 a      1055     1     1     2    15
  6.6028160588227924E-01 a      1056     1     1     2    16
  4.4912196377248131E-01 a      1057     1     1     2    17
 -4.2732471993536081E-01 a      1058     1     1     2    18
 -3.0904440055305260E-01 a      1059     1     1     2    19
  5.0947273981440788E-01 a      1060     1     1     2    20
  7.4843606952416472E-02 a      1061     1     2     2     1
  2.9280341868218418E-01 a      1062     1     2     2     2
  6.4763814487048510E-01 a      1063     1     2     2     3
 -2.6227400944370932E-01 a      1064     1     2     2     4
 -1.4343665521230894E-01 a      1065     1     2     2     5
 -3.6997342904905063E-02 a      1066     1     2     2     6
 -3.7304883742341416E-01 a      1067     1     2     2     7
  2.6328025479301181E-01 a      1068     1     2     2     8
  1.7272215861376821E-02 a      1069     1     2     2     9
 -9.7500401592587427E-01 a      1070     1     2     2    10
  6.0294030976784274E-01 a      1071     1     2     2    11
 -5.2678556039787183E-01 a      1072     1     2     2    12
  1.2333914373063540E-01 a      1073     1     2     2    13
  8.1324711929824378E-02 a      1074     1     2     2    14
  3.5585697764171992E-01 a      1075     1     2     2    15
  7.8978947998293381E-01 a      1076     1     2     2    16
  6.1713891395802523E-01 a      1077     1     2     2    17
  1.8544792545444419E-01 a      1078     1     2     2    18
  1.1552145089561532E-02 a      1079     1     2     2    19
  4.9286363623774404E-01 a      1080     1     2     2    20
  5.0689277658121823E-01 a      1081     1     3     2     1
  4.4673253018335085E-01 a      1082     1     3     2     2
 -1.0032375393625846E-01 a      1083     1     3     2     3
 -4.9165920374220229E-01 a      1084     1     3     2     4
 -1.1522959871749843E+00 a      1085     1     3     2     5
 -7.1909322673008103E-01 a      1086     1     3     2     6
 -4.2912661498875043E-01 a      1087     1     3     2     7
 -1.1093900068370031E-01 a      1088     1     3     2     8
  4.8747879657592891E-01 a      1089     1     3     2     9
  1.1612539818876046E-01 a      1090     1     3     2    10
  6.8216717637130886E-01 a      1091     1     3     2    11
 -2.4702704767413503E-01 a      1092     1     3     2    12
  1.6434491676622037E-01 a      1093     1     3     2    13
  2.7350350047620514E-01 a      1094     1     3     2    14
  2.1068078689213374E-01 a      1095     1     3     2    15
  5.0505862741741203E-01 a      1096     1     3     2    16
 -4.3059182988808598E-01 a      1097     1     3     2    17
  1.6143784823847146E-01 a      1098     1     3     2    18
 -2.9047001960135460E-01 a      1099     1     3     2    19
  5.0474354106595509E-01 a      1100     1     3     2    20
 -1.9362991703658422E-01 a      1101     1     4     2     1
  1.2809211784411120E-01 a      1102     1     4     2     2
 -5.5719240887260357E-01 a      1103     1     4     2     3
  2.0855027944516474E-01 a      1104     1     4     2     4
  3.0503483887379773E-01 a      1105     1     4     2     5
 -3.7148566128217037E-01 a      1106     1     4     2     6
  4.1520794652034725E-02 a      1107     1     4     2     7
  3.0283616185832546E-01 a      1108     1     4     2     8
 -8.0213271789218998E-01 a      1109     1     4     2     9
 -2.4069363448749218E-01 a      1110     1     4     2    10
  1.0230931637245888E-01 a      1111     1     4     2    11
  2.3161704085645540E-01 a      1112     1     4     2    12
  6.9773583912846138E-01 a      1113     1     4     2    13
 -9.4020921144035552E-01 a      1114     1     4     2    14
  3.1300881073702336E-01 a      1115     1     4     2    15
  3.0346186381073437E-03 a      1116     1     4     2    16
 -3.1171113088487340E-01 a      1117     1     4     2    17
 -4.2840672487397230E-01 a      1118     1     4     2    18
 -9.7236957008390723E-01 a      1119     1     4     2    19
  2.8831565007189008E-01 a      1120     1     4     2    20
 -3.5458130473240229E-01 a      1121     1     5     2     1
 -4.2324314763291504E-01 a      1122     1     5     2     2
  3.9367839288959749E-01 a      1123     1     5     2     3
  2.2839848548015243E-01 a      1124     1     5     2     4
 -2.6158773979870754E-02 a      1125     1     5     2     5
 -3.2765556133133150E-01 a      1126     1     5     2     6
  5.6719339074530628E-01 a      1127     1     5     2     7
 -6.7508843567923127E-01 a      1128     1     5     2     8
 -6.6400827310732685E-02 a      1129     1     5     2     9
 -3.5329333031053928E-01 a      1130     1     5     2    10
  7.4448076489254000E-02 a      1131     1     5     2    11
  4.6326175594959496E-01 a      1132     1     5     2    12
 -4.4597828264942058E-01 a      1133     1     5     2    13
  4.8038018660459508E-01 a      1134     1     5     2    14
  1.2517858686268246E-01 a      1135     1     5     2    15
  8.3840036863955483E-02 a      1136     1     5     2    16
  3.5799806815856067E-01 a      1137     1     5     2    17
 -1.3127997639683062E-01 a      1138     1     5     2    18
 -4.1798158143021852E-01 a      1139     1     5     2    19
  5.9255907442988109E-01 a      1140     1     5     2    20
 -4.8122841611539141E-01 a      1141     1     6     2     1
 -5.8556236112794320E-02 a      1142     1     6     2     2
 -1.6036749497865388E-01 a      1143     1     6     2     3
  2.8219446392143360E-01 a      1144     1     6     2     4
  4.8482461416694919E-02 a      1145     1     6     2     5
 -3.8520477823798700E-02 a      1146     1     6     2     6
 -2.0011233871053444E-01 a      1147     1     6     2     7
  1.1754756276548807E-01 a      1148     1     6     2     8
  1.1187927366831483E+00 a      1149     1     6     2     9
 -3.8209326819823267E-02 a      1150     1     6     2    10
 -7.0763842471642802E-02 a      1151     1     6     2    11
  5.4725064447336169E-01 a      1152     1     6     2    12
 -3.4548069536524323E-01 a      1153     1     6     2    13
  2.9005772777301975E-01 a      1154     1     6     2    14
 -6.3898179839767344E-01 a      1155     1     6     2    15
 -5.0886396782289178E-01 a      1156     1     6     2    16
 -3.4964976166458556E-01 a      1157     1     6     2    17
  5.3866124528289561E-01 a      1158     1     6     2    18
 -4.9087504717478136E-01 a      1159     1     6     2    19
 -6.3360115051757493E-01 a      1160     1     6     2    20
  3.7778882701167454E-01 a      1161     1     7     2     1
 -1.2463294135615929E-01 a      1162     1     7     2     2
 -7.4128675344077388E-01 a      1163     1     7     2     3
  4.9899542556840348E-01 a      1164     1     7     2     4
 -2.3051796815563586E-01 a      1165     1     7     2     5
  6.3019838248768389E-01 a      1166     1     7     2     6
  4.7436612504988163E-01 a      1167     1     7     2     7
  9.8503606847439598E-02 a      1168     1     7     2     8
 -4.8975064810699631E-01 a      1169     1     7     2     9
  1.8941793376340793E-01 a      1170     1     7     2    10
  3.2431271754184909E-01 a      1171     1     7     2    11
  1.8093259134275691E-01 a      1172     1     7     2    12
  1.6042810317454859E-01 a      1173     1     7     2    13
  2.0395467741760570E-01 a      1174     1     7     2    14
  5.3156864695885553E-01 a      1175     1     7     2    15
  5.0481540370711642E-01 a      1176     1     7     2    16
  1.9973123844396337E-01 a      1177     1     7     2    17
 -3.7585797678847299E-01 a      1178     1     7     2    18
 -4.9163982264443051E-01 a      1179     1     7     2    19
  4.9532511617501895E-01 a      1180     1     7     2    20
  5.0353482552949091E-01 a      1181     1     8     2     1
 -1.5523675255548339E-01 a      1182     1     8     2     2
  1.1782475593085369E-01 a      1183     1     8     2     3
  4.2307787310478207E-01 a      1184     1     8     2     4
  7.4733267406306703E-01 a      1185     1     8     2     5
 -1.7622909994942745E-01 a      1186     1     8     2     6
 -7.0053645362717396E-02 a      1187     1     8     2     7
  1.2169817532379384E-01 a      1188     1     8     2     8
 -5.9992748147468855E-01 a      1189     1     8     2     9
 -5.8883048076325099E-02 a      1190     1     8     2    10
  6.6060573403212641E-01 a      1191     1     8     2    11
  1.7658403850719726E-01 a      1192     1     8     2    12
 -7.7490191370229866E-01 a      1193     1     8     2    13
  5.5645004747135152E-01 a      1194     1     8     2    14
 -2.7535919419065674E-01 a      1195     1     8     2    15
 -1.4786311121374723E-01 a      1196     1     8     2    16
 -1.6971392519896980E-01 a      1197     1     8     2    17
 -1.6762864526048518E-01 a      1198     1     8     2    18
 -6.9793275121565287E-02 a      1199     1     8     2    19
  2.1657061639565331E-01 a      1200     1     8     2    20
  2.5505131553809516E-02 a      1201     1     9     2     1
 -1.5787781060945991E-01 a      1202     1     9     2     2
 -1.4232562445619498E-01 a      1203     1     9     2     3
 -6.3697224996853175E-01 a      1204     1     9     2     4
  4.4792534960997410E-01 a      1205     1     9     2     5
  4.1934229221641146E-02 a      1206     1     9     2     6
  3.6496687107509845E-01 a      1207     1     9     2     7
 -6.4419630953125862E-01 a      1208     1     9     2     8
  2.7929093764151014E-01 a      1209     1     9     2     9
  6.2536737827106434E-02 a      1210     1     9     2    10
  3.3858390438983248E-02 a      1211     1     9     2    11
  5.9264831537267393E-01 a      1212     1     9     2    12
 -8.6854729058007119E-01 a      1213     1     9     2    13
  5.7119465756532883E-01 a      1214     1     9     2    14
 -5.3729372465034575E-01 a      1215     1     9     2    15
  4.9731481655875465E-01 a      1216     1     9     2    16
  3.9868068220279362E-01 a      1217     1     9     2    17
 -5.2966575406857563E-01 a      1218     1     9     2    18
  5.4351299175810990E-02 a      1219     1     9     2    19
 -2.1221068189546355E-01 a      1220     1     9     2    20
  4.6498747845137434E-01 a      1221     1    10     2     1
 -1.0217017098168041E-01 a      1222     1    10     2     2
 -8.7836697513844031E-01 a      1223     1    10     2     3
  9.3859678807059643E-02 a      1224     1    10     2     4
 -3.3511300223688734E-01 a      1225     1    10     2     5
 -3.3669784901879957E-01 a      1226     1    10     2     6
  2.3131750687553015E-01 a      1227     1    10     2     7
  2.8599513388679371E-01 a      1228     1    10     2     8
  4.5061452049850298E-01 a      1229     1    10     2     9
  3.2952847426714414E-02 a      1230     1    10     2    10
  7.3186782990433019E-01 a      1231     1    10     2    11
  4.7403431078689562E-01 a      1232     1    10     2    12
 -2.6093106173070130E-01 a      1233     1    10     2    13
  8.8905236580322330E-02 a      1234     1    10     2    14
 -2.3026725239092741E-01 a      1235     1    10     2    15
 -5.6781040512637471E-01 a      1236     1    10     2    16
  6.1995297783031145E-01 a      1237     1    10     2    17
  2.0043537415024060E-01 a      1238     1    10     2    18
 -7.2083293997921771E-01 a      1239     1    10     2    19
  4.4066506934908434E-01 a      1240     1    10     2    20
  9.0553666993648874E-01 a      1241     1    11     2     1
  1.8946328414010533E-01 a      1242     1    11     2     2
  9.3489921927290032E-01 a      1243     1    11     2     3
 -2.2403920585224751E-01 a      1244     1    11     2     4
  4.1583365953906648E-01 a      1245     1    11     2     5
 -8.2556634659111472E-01 a      1246     1    11     2     6
 -2.7824353284254499E-01 a      1247     1    11     2     7
  2.9765833292603144E-01 a      1248     1    11     2     8
 -1.6575404470880939E-01 a      1249     1    11     2     9
  1.2245018370886203E-01 a      1250     1    11     2    10
 -2.1219738801273078E-01 a      1251     1    11     2    11
 -2.7133317300478878E-02 a      1252     1    11     2    12
 -2.6763132659110977E-01 a      1253     1    11     2    13
  1.8497005815511861E-01 a      1254     1    11     2    14
  1.9603953828362133E-01 a      1255     1    11     2    15
 -1.2271603674417129E-01 a      1256     1    11     2    16
  4.9239303985080296E-01 a      1257     1    11     2    17
 -4.6905815801518674E-01 a      1258     1    11     2    18
 -2.9628144715219262E-01 a      1259     1    11     2    19
  5.9476352449530079E-01 a      1260     1    11     2    20
  5.1174588739679845E-02 a      1261     1    12     2     1
 -2.9469367466905561E-01 a      1262     1    12     2     2
  6.6628990601045282E-02 a      1263     1    12     2     3
 -3.5586158548220115E-01 a      1264     1    12     2     4
 -1.0789767984967200E-01 a      1265     1    12     2     5
 -4.6374173736395768E-01 a      1266     1    12     2     6
 -6.0168923711137834E-01 a      1267     1    12     2     7
 -4.0665863826007098E-01 a      1268     1    12     2     8
  1.7990717571391102E-01 a      1269     1    12     2     9
 -6.0718274425545049E-01 a      1270     1    12     2    10
  3.1645430668527263E-01 a      1271     1    12     2    11
 -2.2456573343906439E-02 a      1272     1    12     2    12
 -1.8983701398415892E-01 a      1273     1    12     2    13
  4.0085206525163543E-02 a      1274     1    12     2    14
 -2.6706690870991229E-01 a      1275     1    12     2    15
  4.2227796506307945E-02 a      1276     1    12     2    16
  2.1348187941706995E-01 a      1277     1    12     2    17
 -3.1631437212165991E-01 a      1278     1    12     2    18
 -7.3615302855745551E-02 a      1279     1    12     2    19
 -1.0782592039890191E-03 a      1280     1    12     2    20
  2.9473584050724877E-01 a      1281     1    13     2     1
 -5.3644559094143529E-01 a      1282     1    13     2     2
 -1.1303352815487306E+00 a      1283     1    13     2     3
 -5.5017647586329199E-01 a      1284     1    13     2     4
  2.3664894716088020E-01 a      1285     1    13     2     5
  1.4198416293117533E-01 a      1286     1    13     2     6
  6.6564569151247449E-02 a      1287     1    13     2     7
 -2.0844829561098793E-01 a      1288     1    13     2     8
 -3.1406023596324001E-01 a      1289     1    13     2     9
 -4.4114219142879574E-01 a      1290     1    13     2    10
  2.9359625689453833E-01 a      1291     1    13     2    11
  5.7267672587665630E-01 a      1292     1    13     2    12
  3.5800960190583575E-01 a      1293     1    13     2    13
 -2.7848277028222873E-01 a      1294     1    13     2    14
 -3.5009584755000200E-01 a      1295     1    13     2    15
  5.5339727702083708E-01 a      1296     1    13     2    16
  3.5764436263372829E-01 a      1297     1    13     2    17
 -4.1511682130008865E-01 a      1298     1    13     2    18
  3.4410436132733251E-02 a      1299     1    13     2    19
  1.4312448322490051E-01 a      1300     1    13     2    20
 -3.6264306634989935E-01 a      1301     1    14     2     1
 -3.0370549050158513E-01 a      1302     1    14     2     2
  2.6050822433274701E-01 a      1303     1    14     2     3
 -1.0003115830018489E-01 a      1304     1    14     2     4
 -4.0260687454725691E-01 a      1305     1    14     2     5
  4.3375036146527146E-01 a      1306     1    14     2     6
  7.6611083249519107E-01 a      1307     1    14     2     7
  5.4689254297668033E-01 a      1308     1    14     2     8
  7.7436668180212487E-01 a      1309     1    14     2     9
  4.2966118764262978E-01 a      1310     1    14     2    10
 -4.3675729417348413E-01 a      1311     1    14     2    11
  3.2154870951319070E-01 a      1312     1    14     2    12
 -9.7351526227436053E-03 a      1313     1    14     2    13
  9.1694854094246181E-01 a      1314     1    14     2    14
  1.4447045702850327E-02 a      1315     1    14     2    15
  6.7874241762233956E-01 a      1316     1    14     2    16
 -1.1573065818080150E+00 a      1317     1    14     2    17
  7.0705693927020630E-01 a      1318     1    14     2    18
  1.9466255876558075E-01 a      1319     1    14     2    19
  5.1348284704354742E-02 a      1320     1    14     2    20
  6.5238912520425951E-01 a      1321     1    15     2     1
  4.0137444140570777E-01 a      1322     1    15     2     2
 -6.5304160396383093E-02 a      1323     1    15     2     3
 -4.4466492833722837E-02 a      1324     1    15     2     4
  1.3699026346910972E-01 a      1325     1    15     2     5
 -2.6760967376870370E-01 a      1326     1    15     2     6
 -9.3258856141705246E-02 a      1327     1    15     2     7
 -7.3817117033178936E-01 a      1328     1    15     2     8
 -3.0897477457071382E-01 a      1329     1    15     2     9
  6.0941899647976383E-01 a      1330     1    15     2    10
 -1.0240762800820440E+00 a      1331     1    15     2    11
 -6.9654828485794895E-01 a      1332     1    15     2    12
 -4.0759088950560834E-01 a      1333     1    15     2    13
  3.7104842122962223E-01 a      1334     1    15     2    14
 -2.4440259085421712E-01 a      1335     1    15     2    15
 -4.1747903090883741E-02 a      1336     1    15     2    16
 -9.9496320930896331E-02 a      1337     1    15     2    17
 -3.9174129187117025E-02 a      1338     1    15     2    18
 -3.7723715464194857E-01 a      1339     1    15     2    19
 -2.8530374767512423E-01 a      1340     1    15     2    20
  9.8082168578427512E-02 a      1341     1    16     2     1
 -4.8504982660444512E-01 a      1342     1    16     2     2
  6.3920584238756251E-01 a      1343     1    16     2     3
 -7.1015134464042828E-01 a      1344     1    16     2     4
 -5.9599661540419802E-01 a      1345     1    16     2     5
 -6.1181842944567899E-01 a      1346     1    16     2     6
 -3.4426630698542326E-01 a      1347     1    16     2     7
 -7.5557997133971555E-01 a      1348     1    16     2     8
  1.6917421280749351E-01 a      1349     1    16     2     9
 -3.7239776200587449E-01 a      1350     1    16     2    10
  4.1651401765889867E-01 a      1351     1    16     2    11
  3.0201904304933669E-01 a      1352     1    16     2    12
 -4.2168990534713252E-01 a      1353     1    16     2    13
 -1.8703295356715691E-01 a      1354     1    16     2    14
 -6.7927012644531459E-01 a      1355     1    16     2    15
 -6.7118748894456592E-01 a      1356     1    16     2    16
 -6.4009316408970049E-02 a      1357     1    16     2    17
  3.1865123038115990E-03 a      1358     1    16     2    18
  1.2141654173546199E-01 a      1359     1    16     2    19
 -5.9342832732165918E-01 a      1360     1    16     2    20
 -3.4514777655467466E-01 a      1361     1    17     2     1
 -1.8299121534639964E-01 a      1362     1    17     2     2
 -4.2041254127961680E-01 a      1363     1    17     2     3
 -1.8734839587378657E-01 a      1364     1    17     2     4
  4.0355749872599128E-01 a      1365     1    17     2     5
  2.8645386500981013E-01 a      1366     1    17     2     6
 -2.7524527679291816E-01 a      1367     1    17     2     7
 -5.5837409851648556E-01 a      1368     1    17     2     8
 -1.8698601010442970E-01 a      1369     1    17     2     9
  8.6505097422386684E-02 a      1370     1    17     2    10
 -6.9711379961252740E-01 a      1371     1    17     2    11
 -5.3244387441073668E-02 a      1372     1    17     2    12
 -4.2865044265157670E-01 a      1373     1    17     2    13
 -8.3730476928869039E-03 a      1374     1    17     2    14
 -1.6489529093002153E-01 a      1375     1    17     2    15
  3.4889151386463885E-01 a      1376     1    17     2    16
 -1.5321148714039109E-01 a      1377     1    17     2    17
  1.4283948220416384E-01 a      1378     1    17     2    18
  6.1993771681373433E-01 a      1379     1    17     2    19
 -1.6029701655672865E-01 a      1380     1    17     2    20
  7.3045634273925319E-01 a      1381     1    18     2     1
 -1.2944268552115473E-01 a      1382     1    18     2     2
 -2.8796235817807730E-01 a      1383     1    18     2     3
 -3.5946049776086875E-01 a      1384     1    18     2     4
 -2.7423150759251922E-02 a      1385     1    18     2     5
 -7.4245342588321758E-02 a      1386     1    18     2     6
  5.4172439022747054E-01 a      1387     1    18     2     7
  3.5447673300672483E-01 a      1388     1    18     2     8
 -1.6051169938350324E-01 a      1389     1    18     2     9
 -4.9300211948220402E-01 a      1390     1    18     2    10
  5.2813583412914544E-01 a      1391     1    18     2    11
  4.6309811213791174E-01 a      1392     1    18     2    12
 -7.3863813622235097E-01 a      1393     1    18     2    13
  3.3629420392508608E-01 a      1394     1    18     2    14
  3.0365648794426114E-01 a      1395     1    18     2    15
  1.3016689572010709E-01 a      1396     1    18     2    16
  1.8498766861981492E-01 a      1397     1    18     2    17
 -3.5286549402408979E-01 a      1398     1    18     2    18
 -1.9020340144979467E-01 a      1399     1    18     2    19
  3.1154562760334920E-01 a      1400     1    18     2    20
 -1.3514006303448303E-01 a      1401     1    19     2     1
 -3.3897139072087523E-01 a      1402     1    19     2     2
 -1.5815606016206799E-01 a      1403     1    19     2     3
 -2.5545055574427999E-01 a      1404     1    19     2     4
 -4.8051734044801825E-01 a      1405     1    19     2     5
  1.9361287574069899E-01 a      1406     1    19     2     6
  1.4145313737069479E-01 a      1407     1    19     2     7
 -2.4765832198149159E-03 a      1408     1    19     2     8
  2.7004489294894357E-01 a      1409     1    19     2     9
  4.4719986631565561E-01 a      1410     1    19     2    10
 -2.0604782123559623E-02 a      1411     1    19     2    11
 -2.2372575513077603E-02 a      1412     1    19     2    12
 -2.4128491184870451E-02 a      1413     1    19     2    13
  6.8395634846189668E-01 a      1414     1    19     2    14
 -9.7468994121710686E-02 a      1415     1    19     2    15
  3.0114942047361471E-02 a      1416     1    19     2    16
 -6.4181706930224913E-01 a      1417     1    19     2    17
  5.7949394101539164E-01 a      1418     1    19     2    18
 -1.1402081500500627E-01 a      1419     1    19     2    19
 -2.1451480180302093E-01 a      1420     1    19     2    20
  4.8170735842093876E-01 a      1421     1    20     2     1
 -4.1790846848863977E-01 a      1422     1    20     2     2
 -5.4369316042373772E-01 a      1423     1    20     2     3
  2.6319593899870691E-01 a      1424     1    20     2     4
 -2.1174120862763682E-01 a      1425     1    20     2     5
  6.4638968247817521E-02 a      1426     1    20     2     6
 -5.6222936221135067E-01 a      1427     1    20     2     7
  7.2545088187001161E-01 a      1428     1    20     2     8
 -2.7290983658900764E-01 a      1429     1    20     2     9
  3.4279524663732625E-01 a      1430     1    20     2    10
  2.6306458779978859E-01 a      1431     1    20     2    11
  1.7433182165954844E-01 a      1432     1    20     2    12
 -6.4421589481299890E-02 a      1433     1    20     2    13
 -6.1436871830925929E-02 a      1434     1    20     2    14
  1.8672999602978455E-01 a      1435     1    20     2    15
 -5.5548229935678935E-02 a      1436     1    20     2    16
  3.4057866389995001E-01 a      1437     1    20     2    17
 -3.9828635046247958E-02 a      1438     1    20     2    18
 -1.0845369638531072E-02 a      1439     1    20     2    19
  5.7006503125457553E-01 a      1440     1    20     2    20
 -6.7473428223735732E-01 b      1441     2     1
  1.0017816109059556E+00 b      1442     2     2
 -8.5850893180640953E-01 b      1443     2     3
  3.5802239337190811E-01 b      1444     2     4
 -1.8376602112534413E+00 b      1445     2     5
  3.8756479439725156E-01 b      1446     2     6
 -1.5426530048097808E+00 b      1447     2     7
 -7.6746359004078102E-01 b      1448     2     8
 -1.5266661738338494E+00 b      1449     2     9
  1.7706705719828690E+00 b      1450     2    10
 -9.8899259354057045E-01 b      1451     2    11
 -5.8612633507199208E-01 b      1452     2    12
 -1.2243689007551590E+00 b      1453     2    13
 -1.0735122509636676E+00 b      1454     2    14
  1.6469397931156708E+00 b      1455     2    15
  1.1315489947499098E+00 b      1456     2    16
  4.7791974187494518E-01 b      1457     2    17
 -7.5432181105643692E-01 b      1458     2    18
 -1.3583879833176220E+00 b      1459     2    19
  1.2508849847941637E+00 b      1460     2    20
 -1.6898778804977906E-03 a      1461     2     1     3     1
  1.7373925773642946E+00 a      1462     2     2     3     1
 -2.4670952437283455E-01 a      1463     2     3     3     1
 -8.7899825673350607E-01 a      1464     2     4     3     1
 -1.5219515849540646E+00 a      1465     2     5     3     1
 -5.6960738890247697E-01 a      1466     2     6     3     1
 -1.4057824902723397E+00 a      1467     2     7     3     1
 -2.2009899579991901E+00 a      1468     2     8     3     1
 -2.5001613054961234E+00 a      1469     2     9     3     1
  3.9699304425025816E-01 a      1470     2    10     3     1
 -8.0524210467693524E-01 a      1471     2    11     3     1
 -1.0208439933559519E+00 a      1472     2    12     3     1
 -1.2928289299592057E+00 a      1473     2    13     3     1
 -1.4027702433666001E+00 a      1474     2    14     3     1
  1.7037767983688179E+00 a      1475     2    15     3     1
  2.1614444300726552E+00 a      1476     2    16     3     1
  1.0515948327161266E+00 a      1477     2    17     3     1
 -1.4633921224890121E+00 a      1478     2    18     3     1
 -1.6395070986134497E+00 a      1479     2    19     3     1
  1.5304377643266454E+00 a      1480     2    20     3     1
  2.0405731133051206E+00 b      1481     3     1
