################################################################################
# Neural network connection values (weights and biases).
################################################################################
# Col  Name       Description
################################################################################
# 1    connection Neural network connection value.
# 2    t          Connection type (a = weight, b = bias).
# 3    index      Index enumerating weights.
# 4    l_s        Starting point layer (end point layer for biases).
# 5    n_s        Starting point neuron in starting layer (end point neuron for biases).
# 6    l_e        End point layer.
# 7    n_e        End point neuron in end layer.
################################################################################
#                      1 2         3     4     5     6     7
#             connection t     index   l_s   n_s   l_e   n_e
############################################################
 -3.1435617435349089E-01 a         1     0     1     1     1
 -1.3850562824477597E-01 a         2     0     1     1     2
  8.3386503035380699E-02 a         3     0     1     1     3
 -1.6707647528967717E-01 a         4     0     1     1     4
 -5.1301301515896116E-03 a         5     0     1     1     5
  1.0756812535971542E-01 a         6     0     1     1     6
 -3.4986209772793220E-01 a         7     0     1     1     7
 -3.7553960949646953E-01 a         8     0     1     1     8
 -1.2771545071872553E-01 a         9     0     1     1     9
 -3.4406671446041165E-01 a        10     0     1     1    10
 -1.7472001548517771E-01 a        11     0     1     1    11
 -2.2726096050533179E-01 a        12     0     1     1    12
  2.0128758873419614E-01 a        13     0     1     1    13
 -2.5664743617745794E-01 a        14     0     1     1    14
 -9.1187433843458732E-02 a        15     0     1     1    15
 -4.6297252569781122E-01 a        16     0     1     1    16
  2.5485681526211379E-01 a        17     0     1     1    17
  1.6199126773452560E-01 a        18     0     1     1    18
 -3.4774865716733055E-01 a        19     0     1     1    19
 -5.6644733237170775E-01 a        20     0     1     1    20
  4.2825049160852502E-01 a        21     0     2     1     1
 -1.4416140263036265E-01 a        22     0     2     1     2
 -2.3482819567399413E-01 a        23     0     2     1     3
  9.4251372825316898E-02 a        24     0     2     1     4
 -1.1217345060075939E-01 a        25     0     2     1     5
  3.1040891555860051E-01 a        26     0     2     1     6
  1.0411834269722468E-01 a        27     0     2     1     7
 -4.9194916623713857E-02 a        28     0     2     1     8
  1.4709517223869223E-01 a        29     0     2     1     9
 -1.7680209511418932E-01 a        30     0     2     1    10
  2.3674830805119833E-02 a        31     0     2     1    11
  7.9900554361598472E-02 a        32     0     2     1    12
  3.4362922498188192E-01 a        33     0     2     1    13
 -2.0251723270368788E-01 a        34     0     2     1    14
 -5.0751774800027209E-03 a        35     0     2     1    15
 -4.0515709313127385E-01 a        36     0     2     1    16
  2.8592706266907841E-01 a        37     0     2     1    17
  9.3376453261166739E-02 a        38     0     2     1    18
  1.6565507510435137E-01 a        39     0     2     1    19
 -1.3484724225400330E-03 a        40     0     2     1    20
  1.3614899527880292E-01 a        41     0     3     1     1
  3.1020640721949910E-01 a        42     0     3     1     2
 -1.5561549797209809E-01 a        43     0     3     1     3
  3.9382387271804525E-01 a        44     0     3     1     4
  3.1678259403155695E-01 a        45     0     3     1     5
 -3.6501570995256455E-01 a        46     0     3     1     6
  4.0943109570937802E-02 a        47     0     3     1     7
  3.8355812301338266E-01 a        48     0     3     1     8
  5.1505973767126456E-01 a        49     0     3     1     9
 -1.8983227987736404E-01 a        50     0     3     1    10
  3.6067481477109781E-01 a        51     0     3     1    11
  1.7614162400696395E-02 a        52     0     3     1    12
  3.8308480391642863E-02 a        53     0     3     1    13
  2.4609488331617491E-01 a        54     0     3     1    14
 -4.1442895326370877E-01 a        55     0     3     1    15
 -2.0282350245966368E-01 a        56     0     3     1    16
 -2.0525134425122243E-01 a        57     0     3     1    17
 -1.8685573943195025E-01 a        58     0     3     1    18
 -3.5273591755674322E-01 a        59     0     3     1    19
  5.1533539829776398E-01 a        60     0     3     1    20
 -1.1893716468748472E-01 a        61     0     4     1     1
  2.2034524135848838E-01 a        62     0     4     1     2
  1.2267275201134052E-01 a        63     0     4     1     3
 -1.3194242810832005E-01 a        64     0     4     1     4
  8.4078190037796305E-02 a        65     0     4     1     5
 -1.4135931164850837E-01 a        66     0     4     1     6
  2.2368565992306977E-01 a        67     0     4     1     7
  4.2105352407529445E-01 a        68     0     4     1     8
 -2.4128756480430477E-01 a        69     0     4     1     9
 -7.7892074272221765E-02 a        70     0     4     1    10
 -5.5950956318921788E-02 a        71     0     4     1    11
  1.1153871025049149E-01 a        72     0     4     1    12
 -3.7549179627817225E-01 a        73     0     4     1    13
  2.8233691823206841E-01 a        74     0     4     1    14
 -9.0787239288574149E-03 a        75     0     4     1    15
 -1.4758988774697274E-01 a        76     0     4     1    16
 -1.5966449083013848E-01 a        77     0     4     1    17
  9.4025401446716644E-02 a        78     0     4     1    18
  1.8762907134786427E-01 a        79     0     4     1    19
  3.9561307401707613E-01 a        80     0     4     1    20
 -1.2829285057367604E-01 a        81     0     5     1     1
 -3.8156630068313817E-02 a        82     0     5     1     2
  4.9210457669855884E-01 a        83     0     5     1     3
  1.0685043642025065E-01 a        84     0     5     1     4
 -3.5154347294734001E-01 a        85     0     5     1     5
 -1.3840667889374872E-01 a        86     0     5     1     6
 -3.5696972048352393E-01 a        87     0     5     1     7
  8.6798434837369029E-02 a        88     0     5     1     8
 -2.5163815406596729E-01 a        89     0     5     1     9
 -2.9774621645016897E-01 a        90     0     5     1    10
 -1.1384865487704968E-01 a        91     0     5     1    11
 -2.6306874801518110E-01 a        92     0     5     1    12
  3.5583913183915983E-01 a        93     0     5     1    13
 -5.0764631669864080E-01 a        94     0     5     1    14
 -2.1362825023813195E-01 a        95     0     5     1    15
  2.1232502087105229E-01 a        96     0     5     1    16
 -6.0372225035161264E-02 a        97     0     5     1    17
  6.7722622353134435E-02 a        98     0     5     1    18
  4.1185625952914978E-01 a        99     0     5     1    19
 -5.2221639515300911E-01 a       100     0     5     1    20
 -5.9412733902810499E-01 a       101     0     6     1     1
  4.6037123415084848E-02 a       102     0     6     1     2
  6.8007764914786117E-01 a       103     0     6     1     3
 -3.0626235397864559E-02 a       104     0     6     1     4
  2.2582428158820056E-01 a       105     0     6     1     5
 -5.1647122601115192E-01 a       106     0     6     1     6
 -3.5651753520948615E-01 a       107     0     6     1     7
  5.2720720994435033E-01 a       108     0     6     1     8
  1.4179273016610155E-02 a       109     0     6     1     9
  1.7067869546950310E-03 a       110     0     6     1    10
  2.3585121700959405E-01 a       111     0     6     1    11
 -3.6824980394836465E-01 a       112     0     6     1    12
  7.2541860288004523E-02 a       113     0     6     1    13
  5.6186382837167359E-01 a       114     0     6     1    14
 -2.1165987284140465E-02 a       115     0     6     1    15
  4.4360116220445084E-02 a       116     0     6     1    16
 -1.5205917866105909E-01 a       117     0     6     1    17
 -2.1502219176897053E-01 a       118     0     6     1    18
  3.0422175192605649E-01 a       119     0     6     1    19
 -1.5134462292350659E-01 a       120     0     6     1    20
  6.9410906702491626E-01 a       121     0     7     1     1
 -4.3220738377314954E-01 a       122     0     7     1     2
  3.5895448098396188E-01 a       123     0     7     1     3
 -5.3777645620476311E-01 a       124     0     7     1     4
 -3.3313777905942904E-01 a       125     0     7     1     5
  2.9522418477024126E-01 a       126     0     7     1     6
  2.7586998571614613E-01 a       127     0     7     1     7
 -1.8412589006009662E-02 a       128     0     7     1     8
 -7.0604662359637493E-01 a       129     0     7     1     9
  2.7948613715513465E-01 a       130     0     7     1    10
 -2.5427290249746293E-01 a       131     0     7     1    11
 -3.3235397632162439E-01 a       132     0     7     1    12
 -8.6857175071015577E-03 a       133     0     7     1    13
 -5.9282460689914018E-01 a       134     0     7     1    14
  4.1456935412469365E-01 a       135     0     7     1    15
  4.9888942225356364E-01 a       136     0     7     1    16
  2.1539464123542695E-01 a       137     0     7     1    17
  3.3952953978773204E-01 a       138     0     7     1    18
 -1.5178686947694067E-01 a       139     0     7     1    19
  1.1776742990558471E-01 a       140     0     7     1    20
 -3.2927503842864597E-01 a       141     0     8     1     1
  3.8448599872321598E-01 a       142     0     8     1     2
 -8.0912633508024734E-01 a       143     0     8     1     3
  1.9993528737543237E-01 a       144     0     8     1     4
  7.8957351101640028E-01 a       145     0     8     1     5
  2.1769990750556523E-01 a       146     0     8     1     6
 -1.8992932190169123E-01 a       147     0     8     1     7
  3.6595492407932484E-01 a       148     0     8     1     8
  6.4533664830767645E-01 a       149     0     8     1     9
 -1.5133057755471205E-01 a       150     0     8     1    10
  5.9602166059373651E-01 a       151     0     8     1    11
  1.2902197648083241E-01 a       152     0     8     1    12
  1.7084254407092832E-02 a       153     0     8     1    13
  1.6212985345658151E-01 a       154     0     8     1    14
 -2.0339607955981578E-01 a       155     0     8     1    15
 -1.3055668914984131E-01 a       156     0     8     1    16
  5.7369151062385146E-02 a       157     0     8     1    17
 -2.7362327237323611E-02 a       158     0     8     1    18
 -2.8400456049833458E-02 a       159     0     8     1    19
 -8.0197524722589578E-02 a       160     0     8     1    20
 -3.8933288154431250E-01 a       161     0     9     1     1
  5.2247120851715334E-01 a       162     0     9     1     2
 -1.7545484952566481E-01 a       163     0     9     1     3
  2.3399084756779501E-01 a       164     0     9     1     4
  3.0166085622176536E-01 a       165     0     9     1     5
  2.3404540135533114E-01 a       166     0     9     1     6
  2.6008415809358071E-01 a       167     0     9     1     7
 -2.7116901460711934E-01 a       168     0     9     1     8
 -2.3345846222472302E-01 a       169     0     9     1     9
  9.2629330720987904E-02 a       170     0     9     1    10
  1.8354110945756702E-01 a       171     0     9     1    11
  1.8743337246803515E-01 a       172     0     9     1    12
  1.2859602533221542E-01 a       173     0     9     1    13
  3.9607525779973944E-02 a       174     0     9     1    14
 -2.9803583743272927E-01 a       175     0     9     1    15
  4.2323986730478158E-01 a       176     0     9     1    16
 -4.5629937557218730E-01 a       177     0     9     1    17
  1.5976643082079800E-02 a       178     0     9     1    18
 -2.4390437757060762E-01 a       179     0     9     1    19
 -3.0222015198814867E-01 a       180     0     9     1    20
  3.1426664235729695E-01 a       181     0    10     1     1
  5.1100993013356300E-01 a       182     0    10     1     2
  9.6184561382246792E-02 a       183     0    10     1     3
  4.2703132428528370E-02 a       184     0    10     1     4
 -1.1468089142742549E-01 a       185     0    10     1     5
  4.4891146785486016E-02 a       186     0    10     1     6
  3.9851569379112634E-01 a       187     0    10     1     7
 -1.0886643747300705E-01 a       188     0    10     1     8
 -3.5305681714201492E-01 a       189     0    10     1     9
 -1.0198466415669102E-01 a       190     0    10     1    10
  1.0666021664280934E-01 a       191     0    10     1    11
 -1.9907602941932775E-02 a       192     0    10     1    12
 -8.8846680015537555E-02 a       193     0    10     1    13
 -1.1908121965248852E-01 a       194     0    10     1    14
 -2.9672676562275280E-01 a       195     0    10     1    15
  3.0851565210527515E-01 a       196     0    10     1    16
 -1.3302914359590587E-01 a       197     0    10     1    17
 -4.6832975556733526E-02 a       198     0    10     1    18
 -1.0336411815653310E-01 a       199     0    10     1    19
  2.3757660413985976E-01 a       200     0    10     1    20
 -2.8857573087795746E-01 a       201     0    11     1     1
 -2.0299868287142067E-01 a       202     0    11     1     2
 -9.7974343607975471E-03 a       203     0    11     1     3
 -5.0667980328160545E-01 a       204     0    11     1     4
  4.5431530730552783E-02 a       205     0    11     1     5
 -2.1381483333797291E-01 a       206     0    11     1     6
 -2.9133970200081122E-01 a       207     0    11     1     7
 -5.8340639081680204E-02 a       208     0    11     1     8
  2.2512572346553039E-01 a       209     0    11     1     9
 -3.3239060839997953E-01 a       210     0    11     1    10
 -2.1847774766725367E-01 a       211     0    11     1    11
 -2.6988053404553064E-01 a       212     0    11     1    12
  2.2254916574063202E-01 a       213     0    11     1    13
  1.7312523633087548E-01 a       214     0    11     1    14
  3.1857966874793259E-01 a       215     0    11     1    15
 -1.8071558263151927E-01 a       216     0    11     1    16
  3.6327445949112608E-01 a       217     0    11     1    17
  1.4211599926614304E-01 a       218     0    11     1    18
 -4.1146910314831309E-02 a       219     0    11     1    19
  1.7379262489409797E-01 a       220     0    11     1    20
 -3.6746495612316293E-01 a       221     0    12     1     1
 -3.2246529536157899E-02 a       222     0    12     1     2
  1.2320251676565297E-01 a       223     0    12     1     3
 -4.7290744045840705E-01 a       224     0    12     1     4
  1.6267708062439995E-01 a       225     0    12     1     5
 -1.3755320763575615E-01 a       226     0    12     1     6
 -3.3018091568724800E-01 a       227     0    12     1     7
  1.3486992488262492E-01 a       228     0    12     1     8
  2.2353667658868234E-01 a       229     0    12     1     9
 -1.8012667131174245E-01 a       230     0    12     1    10
 -5.2019502946699203E-01 a       231     0    12     1    11
  1.5340530318615807E-02 a       232     0    12     1    12
 -2.7827977113753320E-02 a       233     0    12     1    13
 -9.4773584313401674E-02 a       234     0    12     1    14
  4.6515258275534338E-01 a       235     0    12     1    15
 -2.6107385464329702E-01 a       236     0    12     1    16
  1.0449715379733025E-01 a       237     0    12     1    17
  5.8713366479473721E-02 a       238     0    12     1    18
 -1.2903605110848482E-01 a       239     0    12     1    19
  4.1992135092879235E-01 a       240     0    12     1    20
  3.2202201860350960E-01 a       241     0    13     1     1
 -1.1265809835262670E-01 a       242     0    13     1     2
  1.5742384700302456E-01 a       243     0    13     1     3
 -2.1666721209281220E-01 a       244     0    13     1     4
 -2.1952314687738628E-01 a       245     0    13     1     5
  3.3579140957728615E-01 a       246     0    13     1     6
  7.4299197058359370E-02 a       247     0    13     1     7
 -3.7710980245687203E-01 a       248     0    13     1     8
 -1.6940446204369175E-01 a       249     0    13     1     9
 -1.9725533978769746E-01 a       250     0    13     1    10
  2.5433277482740230E-01 a       251     0    13     1    11
 -3.3564914224000947E-01 a       252     0    13     1    12
 -6.2511234534658311E-01 a       253     0    13     1    13
 -3.9073918060809627E-02 a       254     0    13     1    14
 -5.4354076189347478E-01 a       255     0    13     1    15
  3.2534579394156493E-01 a       256     0    13     1    16
  1.1408691015247809E-01 a       257     0    13     1    17
  1.4195128825857298E-01 a       258     0    13     1    18
  2.2809526094487351E-01 a       259     0    13     1    19
  5.4805022613529253E-01 a       260     0    13     1    20
 -2.9706032278909134E-01 a       261     0    14     1     1
 -2.6009686904868906E-02 a       262     0    14     1     2
  5.0194166798890016E-01 a       263     0    14     1     3
  3.7280337138880452E-02 a       264     0    14     1     4
  1.6618542641865172E-02 a       265     0    14     1     5
  4.0138297263292227E-01 a       266     0    14     1     6
  2.7724609863020472E-01 a       267     0    14     1     7
  6.1644498424043526E-01 a       268     0    14     1     8
 -2.4430230933467162E-01 a       269     0    14     1     9
  2.1933201326746432E-01 a       270     0    14     1    10
 -1.3458501530367976E-03 a       271     0    14     1    11
  4.4979770503405619E-01 a       272     0    14     1    12
  5.1770772652271113E-01 a       273     0    14     1    13
 -1.7152467039399327E-01 a       274     0    14     1    14
 -2.1454908393678182E-01 a       275     0    14     1    15
  3.2680897472098847E-01 a       276     0    14     1    16
 -2.0980223453380303E-01 a       277     0    14     1    17
 -1.6827809517165654E-01 a       278     0    14     1    18
 -3.2967627313165432E-01 a       279     0    14     1    19
  6.1489287110795293E-02 a       280     0    14     1    20
 -1.3261253207856427E-01 a       281     0    15     1     1
  1.9013041423830004E-01 a       282     0    15     1     2
 -5.2215954522363550E-01 a       283     0    15     1     3
 -2.1414759621976254E-01 a       284     0    15     1     4
 -2.7854460778870027E-01 a       285     0    15     1     5
 -5.5841895877404713E-01 a       286     0    15     1     6
 -2.6328676888043648E-02 a       287     0    15     1     7
 -9.0061643204745301E-02 a       288     0    15     1     8
  9.0770792359559597E-03 a       289     0    15     1     9
 -1.2751725320804118E-02 a       290     0    15     1    10
 -4.7573982480124699E-01 a       291     0    15     1    11
  2.3155599261956217E-01 a       292     0    15     1    12
 -1.8442335766427073E-01 a       293     0    15     1    13
  8.5395804081105697E-02 a       294     0    15     1    14
 -1.3250766978188494E-02 a       295     0    15     1    15
 -2.7779663379189218E-01 a       296     0    15     1    16
 -3.3613920191601070E-05 a       297     0    15     1    17
 -1.1386477910508143E-01 a       298     0    15     1    18
 -2.8737544284076394E-01 a       299     0    15     1    19
 -1.2191335442731242E-01 a       300     0    15     1    20
  1.4009427547136970E+00 a       301     0    16     1     1
  3.6487981709365687E-02 a       302     0    16     1     2
  5.6441369971548006E-01 a       303     0    16     1     3
 -1.3132193114000137E-01 a       304     0    16     1     4
  1.2813215687655821E-01 a       305     0    16     1     5
  6.7497499127763344E-02 a       306     0    16     1     6
 -5.2604031956198505E-01 a       307     0    16     1     7
 -9.6026041268246476E-01 a       308     0    16     1     8
  3.9823828373772008E-01 a       309     0    16     1     9
  9.1817674205586697E-01 a       310     0    16     1    10
  6.0682347598256782E-02 a       311     0    16     1    11
 -1.3353306210092666E+00 a       312     0    16     1    12
  2.2873987834983997E-01 a       313     0    16     1    13
 -2.4086963167802120E-01 a       314     0    16     1    14
 -4.3772292964987325E-01 a       315     0    16     1    15
  5.6717689179056607E-01 a       316     0    16     1    16
  7.5154678807682640E-01 a       317     0    16     1    17
  4.6290328943721976E-01 a       318     0    16     1    18
  3.9487069680396658E-01 a       319     0    16     1    19
  2.9528929230609030E-01 a       320     0    16     1    20
 -1.5091551581783118E+00 a       321     0    17     1     1
  3.5259510741570427E-01 a       322     0    17     1     2
 -9.7882401768961536E-01 a       323     0    17     1     3
 -2.9963643452140809E-01 a       324     0    17     1     4
 -1.2361196879965629E-01 a       325     0    17     1     5
  2.9202606044147927E-01 a       326     0    17     1     6
  1.3934517962588047E-01 a       327     0    17     1     7
  7.0448301353335685E-01 a       328     0    17     1     8
 -1.4719219739846981E-01 a       329     0    17     1     9
 -2.9378403201871561E-01 a       330     0    17     1    10
 -4.3684272996284640E-01 a       331     0    17     1    11
  1.4371833432774452E+00 a       332     0    17     1    12
 -2.6615504596937284E-01 a       333     0    17     1    13
 -3.2528709609596512E-01 a       334     0    17     1    14
  2.7628555175938957E-01 a       335     0    17     1    15
 -7.3180556094246418E-01 a       336     0    17     1    16
 -1.2053821002202609E+00 a       337     0    17     1    17
 -3.9818204969095078E-01 a       338     0    17     1    18
 -8.9312440214655744E-02 a       339     0    17     1    19
 -2.2742396279797780E-01 a       340     0    17     1    20
 -1.3014680015201416E-01 a       341     0    18     1     1
 -4.9172265185738318E-01 a       342     0    18     1     2
  1.6241510016199764E-01 a       343     0    18     1     3
  8.7606743036657372E-02 a       344     0    18     1     4
  5.6204166238110909E-01 a       345     0    18     1     5
  1.0941898406595031E-01 a       346     0    18     1     6
  4.3528361725564874E-01 a       347     0    18     1     7
  2.7164407492723232E-02 a       348     0    18     1     8
 -1.9658921991331759E-02 a       349     0    18     1     9
  3.9058845453596386E-01 a       350     0    18     1    10
  2.0295306876690913E-01 a       351     0    18     1    11
  6.6078482499001667E-01 a       352     0    18     1    12
 -6.7676602461626489E-01 a       353     0    18     1    13
  8.4102501469920732E-01 a       354     0    18     1    14
 -1.7303904594528313E-01 a       355     0    18     1    15
  1.5686373402984993E-01 a       356     0    18     1    16
 -3.4374101078351355E-01 a       357     0    18     1    17
 -1.1347913592719634E-01 a       358     0    18     1    18
  1.3848458670680486E-01 a       359     0    18     1    19
 -2.0754255334341078E-02 a       360     0    18     1    20
  6.1120521340356268E-02 a       361     0    19     1     1
  5.8594332909222446E-01 a       362     0    19     1     2
 -6.5277570635909415E-02 a       363     0    19     1     3
  2.1395671489355775E-01 a       364     0    19     1     4
 -4.0303012390149584E-01 a       365     0    19     1     5
 -1.7853300134546052E-01 a       366     0    19     1     6
  2.6064765540948776E-01 a       367     0    19     1     7
 -2.6567964334982136E-01 a       368     0    19     1     8
 -5.6459470252629751E-01 a       369     0    19     1     9
 -5.5988919625358669E-01 a       370     0    19     1    10
 -1.1563708280101045E-01 a       371     0    19     1    11
 -9.3869546221133171E-01 a       372     0    19     1    12
  9.8672610328128596E-01 a       373     0    19     1    13
 -2.4243021086683758E-01 a       374     0    19     1    14
  3.4127726410452747E-01 a       375     0    19     1    15
  4.3647020109288792E-01 a       376     0    19     1    16
  4.4939283382770540E-01 a       377     0    19     1    17
  3.1500555120246820E-01 a       378     0    19     1    18
 -3.2941924021197694E-02 a       379     0    19     1    19
  4.5138522078897708E-01 a       380     0    19     1    20
 -8.7516271351179398E-01 a       381     0    20     1     1
 -8.4563251139500528E-01 a       382     0    20     1     2
 -5.0357595517700005E-01 a       383     0    20     1     3
  2.8215251134622976E-01 a       384     0    20     1     4
  1.5245099268101386E-01 a       385     0    20     1     5
  6.6723585775492367E-01 a       386     0    20     1     6
  2.5298302479824744E-02 a       387     0    20     1     7
  3.6034620774144066E-01 a       388     0    20     1     8
  1.6438842864832037E-01 a       389     0    20     1     9
  4.4094538584815053E-02 a       390     0    20     1    10
  6.0420042523220685E-01 a       391     0    20     1    11
  3.2157995636776382E-01 a       392     0    20     1    12
  8.1990264009955266E-02 a       393     0    20     1    13
  2.8662373048452966E-01 a       394     0    20     1    14
  4.2556520666912262E-01 a       395     0    20     1    15
  3.3543753436353886E-02 a       396     0    20     1    16
 -2.6867695475871889E-01 a       397     0    20     1    17
 -4.6311520544236817E-01 a       398     0    20     1    18
 -2.8539072983451635E-01 a       399     0    20     1    19
 -4.4047964078311264E-01 a       400     0    20     1    20
  8.3730459176571670E-01 a       401     0    21     1     1
 -1.0295125636025412E-01 a       402     0    21     1     2
  3.0494947848751969E-01 a       403     0    21     1     3
 -1.2292374165673632E-01 a       404     0    21     1     4
 -3.2469327927988145E-01 a       405     0    21     1     5
 -7.7913485729801246E-01 a       406     0    21     1     6
 -2.1849321469281596E-01 a       407     0    21     1     7
  1.4647025282226109E-01 a       408     0    21     1     8
  3.1059693879484651E-01 a       409     0    21     1     9
 -6.4226733543109288E-02 a       410     0    21     1    10
 -5.0619930827789006E-01 a       411     0    21     1    11
  2.0493325999601492E-02 a       412     0    21     1    12
 -4.8071502163089785E-01 a       413     0    21     1    13
 -3.0260006977712268E-02 a       414     0    21     1    14
 -1.6534498313462365E-01 a       415     0    21     1    15
  1.7129434329888513E-01 a       416     0    21     1    16
  5.3242891921520497E-01 a       417     0    21     1    17
  4.1680445998396498E-01 a       418     0    21     1    18
 -3.8504036340578612E-01 a       419     0    21     1    19
 -1.3372535808847523E-02 a       420     0    21     1    20
  5.8973782830272395E-02 a       421     0    22     1     1
  2.3919071274024611E-01 a       422     0    22     1     2
 -3.0548649575817877E-01 a       423     0    22     1     3
 -4.3089898853085257E-01 a       424     0    22     1     4
  1.0813459494758412E-01 a       425     0    22     1     5
 -5.4229778652908490E-02 a       426     0    22     1     6
 -2.2689741593564561E-01 a       427     0    22     1     7
 -2.8534644963401401E-01 a       428     0    22     1     8
  8.9797164352748218E-02 a       429     0    22     1     9
  1.9756758035042507E-01 a       430     0    22     1    10
 -1.1959343316098639E-01 a       431     0    22     1    11
 -4.7558606921131408E-01 a       432     0    22     1    12
  1.9143564095042587E-01 a       433     0    22     1    13
 -1.8047646929320851E-01 a       434     0    22     1    14
 -4.2459756883629844E-02 a       435     0    22     1    15
  3.2594722735943760E-01 a       436     0    22     1    16
 -2.5007960476846197E-02 a       437     0    22     1    17
  3.9942778162277282E-01 a       438     0    22     1    18
 -2.1946637028862334E-01 a       439     0    22     1    19
  5.8910183245525494E-01 a       440     0    22     1    20
 -5.2732428240689477E-01 a       441     0    23     1     1
 -7.6612436271743478E-01 a       442     0    23     1     2
  1.6604880793494636E-01 a       443     0    23     1     3
 -8.6218133168433422E-02 a       444     0    23     1     4
 -6.6631447864391347E-02 a       445     0    23     1     5
  2.2978395300170062E-01 a       446     0    23     1     6
 -1.0025776853549603E-01 a       447     0    23     1     7
  7.6655324635413702E-01 a       448     0    23     1     8
  2.2999793083880082E-01 a       449     0    23     1     9
  1.9310885856072751E-01 a       450     0    23     1    10
  2.8430035066803294E-01 a       451     0    23     1    11
  4.1927881715910981E-01 a       452     0    23     1    12
  2.6953884944692008E-01 a       453     0    23     1    13
  6.9280231028811701E-01 a       454     0    23     1    14
 -2.2513927046994181E-01 a       455     0    23     1    15
 -2.8132404751775986E-01 a       456     0    23     1    16
 -9.7072132605426048E-02 a       457     0    23     1    17
 -8.8484388658770419E-01 a       458     0    23     1    18
  7.5909813324203934E-01 a       459     0    23     1    19
 -5.8393929245017584E-01 a       460     0    23     1    20
 -1.3624372107928939E-01 a       461     0    24     1     1
 -2.3443626323963754E-01 a       462     0    24     1     2
  5.0885110646653131E-01 a       463     0    24     1     3
  4.9738847133527636E-01 a       464     0    24     1     4
  2.9190308099119178E-01 a       465     0    24     1     5
  2.7768389389371356E-01 a       466     0    24     1     6
 -4.9834106888159985E-01 a       467     0    24     1     7
  3.6467170697987639E-01 a       468     0    24     1     8
 -1.6208393833233489E-01 a       469     0    24     1     9
  1.8688563885072693E-01 a       470     0    24     1    10
 -1.4965809989223250E-01 a       471     0    24     1    11
 -1.0544595473866106E-01 a       472     0    24     1    12
  4.4601779850505070E-02 a       473     0    24     1    13
 -1.1458760707810844E-01 a       474     0    24     1    14
 -8.4920838069640667E-02 a       475     0    24     1    15
 -1.3518526720419789E-02 a       476     0    24     1    16
 -4.8234291227037385E-01 a       477     0    24     1    17
 -9.6863925658531733E-02 a       478     0    24     1    18
  2.1410654310682828E-01 a       479     0    24     1    19
 -5.1571260430176413E-01 a       480     0    24     1    20
 -6.3312359149906891E-02 a       481     0    25     1     1
 -3.6628589332951550E-01 a       482     0    25     1     2
 -9.9764398539459089E-03 a       483     0    25     1     3
  3.7764214259271811E-01 a       484     0    25     1     4
  1.8957292017109242E-01 a       485     0    25     1     5
  8.2810578155376580E-01 a       486     0    25     1     6
 -5.0934268436856711E-01 a       487     0    25     1     7
 -1.7527115195914744E-01 a       488     0    25     1     8
  2.8839062916228497E-01 a       489     0    25     1     9
  5.2351260160512475E-02 a       490     0    25     1    10
 -7.9004871659668963E-01 a       491     0    25     1    11
  2.7736614904778056E-01 a       492     0    25     1    12
 -4.9538706199342430E-01 a       493     0    25     1    13
  6.1701849419184807E-01 a       494     0    25     1    14
 -3.4952247717204998E-01 a       495     0    25     1    15
 -2.1100273039292211E-01 a       496     0    25     1    16
 -7.1906731656575462E-01 a       497     0    25     1    17
 -4.5207730293517034E-01 a       498     0    25     1    18
  5.4537724902831118E-02 a       499     0    25     1    19
 -2.9749763209453106E-01 a       500     0    25     1    20
 -1.5952569706575895E-01 a       501     0    26     1     1
 -1.2381147512493544E-01 a       502     0    26     1     2
 -2.8528779998279080E-01 a       503     0    26     1     3
  7.9059324072202342E-01 a       504     0    26     1     4
  4.3977584805304543E-01 a       505     0    26     1     5
  4.1069940030491375E-01 a       506     0    26     1     6
  3.4342855737873390E-01 a       507     0    26     1     7
  1.7061571433523046E-01 a       508     0    26     1     8
 -4.1617544682569219E-01 a       509     0    26     1     9
  3.4968560551194694E-01 a       510     0    26     1    10
 -5.1558751796733060E-01 a       511     0    26     1    11
 -1.0922325800838412E-01 a       512     0    26     1    12
  2.7448982136240768E-01 a       513     0    26     1    13
  3.9546754907192383E-01 a       514     0    26     1    14
 -2.0151291462291096E-02 a       515     0    26     1    15
 -1.4457003108230856E-01 a       516     0    26     1    16
 -1.5082827782063810E-01 a       517     0    26     1    17
  3.1020658631223058E-01 a       518     0    26     1    18
  2.8479738508377664E-02 a       519     0    26     1    19
 -7.2550294630806492E-02 a       520     0    26     1    20
 -6.6408254067178407E-01 a       521     0    27     1     1
 -2.0162751080998456E-01 a       522     0    27     1     2
 -8.0515628278003493E-01 a       523     0    27     1     3
  6.0458370496046229E-02 a       524     0    27     1     4
 -4.5498696445567527E-01 a       525     0    27     1     5
 -2.0957302540335734E-01 a       526     0    27     1     6
  3.3285064078891563E-01 a       527     0    27     1     7
  3.8919535961813334E-01 a       528     0    27     1     8
  2.9402655615323511E-02 a       529     0    27     1     9
 -7.1546847540192124E-02 a       530     0    27     1    10
 -7.7630033742070503E-01 a       531     0    27     1    11
 -3.8905178910113281E-01 a       532     0    27     1    12
  7.5945554162412332E-01 a       533     0    27     1    13
 -6.4532753514926022E-01 a       534     0    27     1    14
 -5.3430176045793332E-01 a       535     0    27     1    15
  8.9379767757760431E-01 a       536     0    27     1    16
 -4.3633162458776581E-01 a       537     0    27     1    17
 -1.9257344105447723E-02 a       538     0    27     1    18
 -3.2024972836095528E-01 a       539     0    27     1    19
  4.6488591493471337E-01 a       540     0    27     1    20
  2.9592408505698567E-02 a       541     0    28     1     1
 -7.7196521735584389E-02 a       542     0    28     1     2
 -3.2117427972942386E-01 a       543     0    28     1     3
  4.3241314552340021E-01 a       544     0    28     1     4
  1.4328842670690234E-01 a       545     0    28     1     5
 -5.7434229500804657E-01 a       546     0    28     1     6
  4.6908521771051301E-02 a       547     0    28     1     7
 -3.3642996078904551E-02 a       548     0    28     1     8
  1.3616826051399600E-01 a       549     0    28     1     9
 -2.9679639977495442E-01 a       550     0    28     1    10
 -6.4954742663916751E-02 a       551     0    28     1    11
 -3.3427125766484178E-01 a       552     0    28     1    12
  3.2855371668207101E-01 a       553     0    28     1    13
 -2.0388405545208421E-01 a       554     0    28     1    14
  2.5216818918994272E-01 a       555     0    28     1    15
 -6.9687065355802727E-02 a       556     0    28     1    16
  1.0130204688109339E-01 a       557     0    28     1    17
 -4.4556520265016158E-01 a       558     0    28     1    18
  6.9472236908316928E-02 a       559     0    28     1    19
 -2.0728527434678512E-02 a       560     0    28     1    20
  6.4335213198680052E-01 a       561     0    29     1     1
 -7.3357385210434209E-02 a       562     0    29     1     2
  6.4646798475219569E-01 a       563     0    29     1     3
  6.1517173523005630E-01 a       564     0    29     1     4
  2.8737345736053060E-02 a       565     0    29     1     5
  9.1975383858018622E-02 a       566     0    29     1     6
  6.6007700255001833E-01 a       567     0    29     1     7
 -5.7766143941921803E-02 a       568     0    29     1     8
 -8.4874398372522336E-02 a       569     0    29     1     9
  8.6012194292785685E-02 a       570     0    29     1    10
 -1.0860555469472026E-01 a       571     0    29     1    11
  1.1343826419224405E+00 a       572     0    29     1    12
  4.8161113381456566E-01 a       573     0    29     1    13
 -3.5221155235260532E-01 a       574     0    29     1    14
 -6.0270428101951871E-02 a       575     0    29     1    15
  3.5161386473081307E-01 a       576     0    29     1    16
  5.5445698897421114E-01 a       577     0    29     1    17
 -4.0852187132730056E-01 a       578     0    29     1    18
  1.4211793985486201E-01 a       579     0    29     1    19
  4.2463469447400087E-01 a       580     0    29     1    20
 -3.4692615744985023E-01 a       581     0    30     1     1
 -4.5299673266183185E-02 a       582     0    30     1     2
 -3.8976438223754517E-01 a       583     0    30     1     3
 -2.9793741789811545E-01 a       584     0    30     1     4
 -5.5905369153519091E-01 a       585     0    30     1     5
 -1.4512391774358685E-01 a       586     0    30     1     6
  1.2523467127053076E-01 a       587     0    30     1     7
  4.4633466132047182E-02 a       588     0    30     1     8
 -5.5862493280874581E-01 a       589     0    30     1     9
  1.9074002233969006E-01 a       590     0    30     1    10
  4.7214761392288626E-02 a       591     0    30     1    11
 -5.1711661922568031E-01 a       592     0    30     1    12
 -6.7100168422452267E-01 a       593     0    30     1    13
 -1.3109430299534627E-01 a       594     0    30     1    14
  2.6522521318934222E-01 a       595     0    30     1    15
 -9.1603003434114816E-02 a       596     0    30     1    16
 -6.7170386691353542E-02 a       597     0    30     1    17
  2.9462384740623843E-01 a       598     0    30     1    18
  4.5597711176816541E-01 a       599     0    30     1    19
 -6.5886300609677331E-02 a       600     0    30     1    20
 -1.9120537606021312E-01 a       601     0    31     1     1
  2.0093787826710235E-01 a       602     0    31     1     2
 -5.3726021396228750E-02 a       603     0    31     1     3
 -2.4993740557403279E-01 a       604     0    31     1     4
 -2.9186630548314502E-01 a       605     0    31     1     5
 -6.3330599189951514E-02 a       606     0    31     1     6
  1.4485610622791251E-01 a       607     0    31     1     7
 -2.6829923540263495E-01 a       608     0    31     1     8
 -5.9065618876779177E-02 a       609     0    31     1     9
 -5.6470209891881749E-02 a       610     0    31     1    10
 -7.8608991205342482E-02 a       611     0    31     1    11
 -5.5331310807407075E-01 a       612     0    31     1    12
 -6.5005514873823667E-02 a       613     0    31     1    13
  4.3185959074968905E-01 a       614     0    31     1    14
 -1.4872042476018785E-01 a       615     0    31     1    15
 -3.0456903491562282E-01 a       616     0    31     1    16
  2.3075472281584050E-01 a       617     0    31     1    17
  1.7266786257455473E-02 a       618     0    31     1    18
  2.3062259487811809E-01 a       619     0    31     1    19
 -2.6506893068607490E-01 a       620     0    31     1    20
 -1.1535881041941311E-01 a       621     0    32     1     1
  8.9593977107658462E-01 a       622     0    32     1     2
 -5.1993497448492243E-01 a       623     0    32     1     3
 -4.3229877669526587E-02 a       624     0    32     1     4
 -3.1716131671962111E-01 a       625     0    32     1     5
 -2.0980835501295492E-01 a       626     0    32     1     6
  6.6767377539724171E-01 a       627     0    32     1     7
 -1.1490635664841052E-01 a       628     0    32     1     8
  7.4413168818395242E-02 a       629     0    32     1     9
  2.9706800014444495E-01 a       630     0    32     1    10
 -3.5453422110076360E-01 a       631     0    32     1    11
  6.3519398310912904E-03 a       632     0    32     1    12
 -3.2938673601473273E-01 a       633     0    32     1    13
  2.9490924280747405E-01 a       634     0    32     1    14
 -2.1952003803067787E-02 a       635     0    32     1    15
 -3.4063020438639335E-01 a       636     0    32     1    16
 -4.0181174557780547E-01 a       637     0    32     1    17
 -1.4278610747148648E-01 a       638     0    32     1    18
 -4.5306317203041979E-01 a       639     0    32     1    19
 -2.6594939373255699E-01 a       640     0    32     1    20
  6.9002972084338077E-01 a       641     0    33     1     1
 -6.1572153666685758E-01 a       642     0    33     1     2
  7.7510726543412589E-01 a       643     0    33     1     3
 -1.2882514191422340E-01 a       644     0    33     1     4
  5.5106412689832229E-01 a       645     0    33     1     5
  2.1337349330648706E-01 a       646     0    33     1     6
 -6.6120541018819257E-02 a       647     0    33     1     7
 -3.9585675213954147E-01 a       648     0    33     1     8
 -3.0011177744871234E-02 a       649     0    33     1     9
 -1.1685545667277111E-01 a       650     0    33     1    10
  6.5527540432864673E-01 a       651     0    33     1    11
 -8.8604674565374339E-02 a       652     0    33     1    12
 -1.0935183527156754E-01 a       653     0    33     1    13
 -1.3516865172516147E-02 a       654     0    33     1    14
  2.8733554921429416E-01 a       655     0    33     1    15
  1.5911148864164301E-01 a       656     0    33     1    16
  1.0837749565226754E-01 a       657     0    33     1    17
  6.2276593207561057E-02 a       658     0    33     1    18
 -1.3699786038958492E-01 a       659     0    33     1    19
  1.3173264758348027E-01 a       660     0    33     1    20
  1.8870685458594938E-01 a       661     0    34     1     1
  5.5765500406222301E-01 a       662     0    34     1     2
 -3.8268990296401401E-01 a       663     0    34     1     3
  1.9595374265017475E-02 a       664     0    34     1     4
 -1.2787001091771810E-01 a       665     0    34     1     5
  3.2540175609841282E-01 a       666     0    34     1     6
  1.8519116381420109E-01 a       667     0    34     1     7
 -1.7443898317336228E-03 a       668     0    34     1     8
 -3.3195393649666433E-01 a       669     0    34     1     9
  1.2401516963765719E-01 a       670     0    34     1    10
 -5.0814220761504147E-01 a       671     0    34     1    11
  6.7063255550334544E-01 a       672     0    34     1    12
  2.9837296946681957E-01 a       673     0    34     1    13
 -3.5890859527750549E-02 a       674     0    34     1    14
 -1.6851317828883328E-01 a       675     0    34     1    15
  2.3999659421105665E-01 a       676     0    34     1    16
 -7.5087884733809385E-01 a       677     0    34     1    17
 -4.3082618306344378E-01 a       678     0    34     1    18
 -3.2224666649567452E-01 a       679     0    34     1    19
  1.7116757792789777E-01 a       680     0    34     1    20
 -1.0049276877270297E+00 a       681     0    35     1     1
  2.7365125292379655E-01 a       682     0    35     1     2
  3.9781894124934924E-01 a       683     0    35     1     3
  7.1969239186513279E-01 a       684     0    35     1     4
  5.1633137734871415E-01 a       685     0    35     1     5
 -2.2507024503676254E-01 a       686     0    35     1     6
  2.4126125278876153E-02 a       687     0    35     1     7
 -2.5980167066775733E-01 a       688     0    35     1     8
 -5.6982573071699807E-02 a       689     0    35     1     9
 -4.2322270842375243E-01 a       690     0    35     1    10
  1.4417550331774465E-01 a       691     0    35     1    11
 -8.0598442641304432E-02 a       692     0    35     1    12
 -7.5453187246281930E-02 a       693     0    35     1    13
 -7.4292902829985197E-01 a       694     0    35     1    14
 -5.8878494741871246E-01 a       695     0    35     1    15
  6.4968347680394622E-01 a       696     0    35     1    16
  4.0046607297216252E-01 a       697     0    35     1    17
  3.2915031049847548E-01 a       698     0    35     1    18
  2.3476691185349949E-01 a       699     0    35     1    19
 -4.0932319655182831E-01 a       700     0    35     1    20
 -4.0260421401128249E-01 a       701     0    36     1     1
 -4.7725329628509242E-02 a       702     0    36     1     2
  7.1804315044260464E-02 a       703     0    36     1     3
  2.1120397550703343E-01 a       704     0    36     1     4
 -2.1452318530254491E-01 a       705     0    36     1     5
  1.8821407415974845E-01 a       706     0    36     1     6
  1.2561137275357234E-01 a       707     0    36     1     7
  5.2608606783829570E-01 a       708     0    36     1     8
 -3.3110154811730512E-02 a       709     0    36     1     9
 -1.8877636511156715E-01 a       710     0    36     1    10
  3.9370367356783220E-01 a       711     0    36     1    11
 -2.7266652219092757E-01 a       712     0    36     1    12
  2.5049340346845517E-01 a       713     0    36     1    13
 -6.4014104443804032E-01 a       714     0    36     1    14
 -8.0902875633942176E-02 a       715     0    36     1    15
 -3.0401625311820069E-01 a       716     0    36     1    16
 -3.9964014971819678E-01 a       717     0    36     1    17
 -2.2421512326612331E-01 a       718     0    36     1    18
 -2.3498366252325589E-01 a       719     0    36     1    19
 -4.9051802483666036E-03 a       720     0    36     1    20
 -7.1576748364295639E-01 a       721     0    37     1     1
 -3.0448705099553097E-01 a       722     0    37     1     2
  3.6431070996245130E-01 a       723     0    37     1     3
 -1.8175399941989046E-01 a       724     0    37     1     4
 -2.0395391760160978E-02 a       725     0    37     1     5
  5.9388927663984326E-01 a       726     0    37     1     6
  2.0856654509280134E-01 a       727     0    37     1     7
  5.9836109229218171E-01 a       728     0    37     1     8
  4.8752852880003866E-01 a       729     0    37     1     9
 -1.0647358928744259E-01 a       730     0    37     1    10
  8.1533604573420626E-02 a       731     0    37     1    11
  5.2628252466469394E-01 a       732     0    37     1    12
 -2.0056005719936973E-01 a       733     0    37     1    13
  1.2788695210456552E-01 a       734     0    37     1    14
 -1.2170962609764088E-01 a       735     0    37     1    15
 -1.8881968739794183E-01 a       736     0    37     1    16
 -1.1656750078711381E-01 a       737     0    37     1    17
 -4.0798496658797517E-01 a       738     0    37     1    18
 -1.8634179116887978E-01 a       739     0    37     1    19
 -3.4949847577518550E-01 a       740     0    37     1    20
  4.5880334705438458E-01 a       741     0    38     1     1
 -6.1936955126436122E-01 a       742     0    38     1     2
 -2.6300009445562406E-01 a       743     0    38     1     3
  8.5248754191569673E-02 a       744     0    38     1     4
  2.2387136413227449E-01 a       745     0    38     1     5
  4.3902865295094767E-01 a       746     0    38     1     6
  1.3512039277836008E-01 a       747     0    38     1     7
  1.7463821404964653E-02 a       748     0    38     1     8
  2.9336178615186892E-01 a       749     0    38     1     9
 -6.0143410225431293E-01 a       750     0    38     1    10
 -2.7723884986996594E-01 a       751     0    38     1    11
 -5.7445782328653705E-01 a       752     0    38     1    12
 -1.2204748504212790E-01 a       753     0    38     1    13
  4.3503371278689257E-01 a       754     0    38     1    14
 -2.5993327172348885E-02 a       755     0    38     1    15
 -3.7323744053743729E-01 a       756     0    38     1    16
  1.4911784735090125E-01 a       757     0    38     1    17
  4.2876914724827747E-01 a       758     0    38     1    18
  5.5829162492479267E-01 a       759     0    38     1    19
 -2.1986885017239142E-02 a       760     0    38     1    20
 -8.4125442595253652E-01 a       761     0    39     1     1
 -4.5385007819284129E-01 a       762     0    39     1     2
  1.7286518392002664E-02 a       763     0    39     1     3
  2.1358689191438596E-01 a       764     0    39     1     4
 -7.0948111935141112E-02 a       765     0    39     1     5
  1.1294718519488771E-01 a       766     0    39     1     6
  2.3330748171145604E-01 a       767     0    39     1     7
 -3.4452975981392832E-02 a       768     0    39     1     8
  8.1548751980972778E-01 a       769     0    39     1     9
 -2.5247927884214022E-01 a       770     0    39     1    10
 -2.3005591883073509E-01 a       771     0    39     1    11
  4.3074413192109462E-01 a       772     0    39     1    12
  1.0516418388033676E-01 a       773     0    39     1    13
  7.6333491196424852E-01 a       774     0    39     1    14
 -3.2380899961207454E-01 a       775     0    39     1    15
  1.7738922064506993E-01 a       776     0    39     1    16
  1.8905942511898891E-01 a       777     0    39     1    17
 -7.5772980521444455E-01 a       778     0    39     1    18
  1.1686032193949893E-01 a       779     0    39     1    19
 -8.1519707693513666E-01 a       780     0    39     1    20
  6.0918958394179057E-01 a       781     0    40     1     1
 -8.5955457305489780E-01 a       782     0    40     1     2
 -5.9935954335136925E-02 a       783     0    40     1     3
 -3.7310629685354207E-01 a       784     0    40     1     4
 -1.4023514424652933E-01 a       785     0    40     1     5
 -1.0723885223373865E-01 a       786     0    40     1     6
 -6.1970773076462937E-01 a       787     0    40     1     7
 -1.6025735894204468E-01 a       788     0    40     1     8
  9.9450364231983140E-02 a       789     0    40     1     9
  1.0944737261106530E+00 a       790     0    40     1    10
  7.9084666500731438E-01 a       791     0    40     1    11
  2.8154995955558060E-01 a       792     0    40     1    12
 -2.7632941851093751E-01 a       793     0    40     1    13
  5.9209987664624632E-02 a       794     0    40     1    14
 -1.5605072863621730E-01 a       795     0    40     1    15
 -5.6666698072293457E-02 a       796     0    40     1    16
  2.7506951386639716E-01 a       797     0    40     1    17
  7.2043703815027019E-02 a       798     0    40     1    18
  6.2112819215668386E-02 a       799     0    40     1    19
  2.0371222909424505E-01 a       800     0    40     1    20
 -2.0263165802302075E-02 a       801     0    41     1     1
 -3.5549231520636654E-01 a       802     0    41     1     2
  3.9593580543660051E-01 a       803     0    41     1     3
 -9.7909800959365204E-02 a       804     0    41     1     4
  6.8008257485318011E-02 a       805     0    41     1     5
  1.0239961896796673E-01 a       806     0    41     1     6
  6.9283652260467579E-02 a       807     0    41     1     7
 -3.9593343359357790E-02 a       808     0    41     1     8
 -5.6176890556271779E-02 a       809     0    41     1     9
 -1.5687746834020147E-01 a       810     0    41     1    10
  2.9425002349951651E-01 a       811     0    41     1    11
  3.1652670146305642E-02 a       812     0    41     1    12
 -9.7804149344365557E-02 a       813     0    41     1    13
  1.0100158611173907E-01 a       814     0    41     1    14
  1.4872313282095309E-01 a       815     0    41     1    15
 -7.1700224467658696E-02 a       816     0    41     1    16
 -5.0159127743351135E-02 a       817     0    41     1    17
 -3.4181220631690373E-01 a       818     0    41     1    18
 -2.1938008581959850E-02 a       819     0    41     1    19
  3.5647214710944321E-02 a       820     0    41     1    20
  3.6758144576586466E-02 a       821     0    42     1     1
 -2.4796212765254666E-01 a       822     0    42     1     2
 -3.7339114244781374E-01 a       823     0    42     1     3
 -7.8379324865937156E-02 a       824     0    42     1     4
  1.2117431636049501E-02 a       825     0    42     1     5
 -2.3903229842450413E-01 a       826     0    42     1     6
 -2.7603929414238437E-01 a       827     0    42     1     7
  3.4185721473329461E-01 a       828     0    42     1     8
  1.1867212769510449E-01 a       829     0    42     1     9
  1.1297769811920630E-01 a       830     0    42     1    10
 -1.2654190569909457E-01 a       831     0    42     1    11
 -8.5506591591465106E-02 a       832     0    42     1    12
 -2.3243774157810065E-02 a       833     0    42     1    13
  1.2553334462874377E-01 a       834     0    42     1    14
 -9.2699294159992951E-02 a       835     0    42     1    15
 -1.0901997862127925E-01 a       836     0    42     1    16
  2.8567817240138521E-01 a       837     0    42     1    17
 -5.5576400090281941E-01 a       838     0    42     1    18
  1.7020753285110557E-01 a       839     0    42     1    19
 -1.1711636824324596E-01 a       840     0    42     1    20
 -9.6585771983880936E-02 a       841     0    43     1     1
  1.3460107112696829E-01 a       842     0    43     1     2
 -1.0421340246969074E-01 a       843     0    43     1     3
  5.8308741059161708E-02 a       844     0    43     1     4
 -2.0337536639396619E-01 a       845     0    43     1     5
  6.8577314290260136E-02 a       846     0    43     1     6
 -4.1151501908971301E-02 a       847     0    43     1     7
 -1.0817023158664519E-02 a       848     0    43     1     8
 -1.6912027269889246E-01 a       849     0    43     1     9
 -8.7289441125601441E-03 a       850     0    43     1    10
 -9.0487439441897327E-02 a       851     0    43     1    11
  5.3727606909639986E-02 a       852     0    43     1    12
 -2.2768623483234232E-02 a       853     0    43     1    13
 -9.4288863531754752E-02 a       854     0    43     1    14
  1.4936506585754925E-01 a       855     0    43     1    15
  5.5926267734310198E-02 a       856     0    43     1    16
 -8.2345873595164543E-02 a       857     0    43     1    17
  1.0419987013175055E-01 a       858     0    43     1    18
  1.5884963865268231E-02 a       859     0    43     1    19
  9.6049553767690130E-02 a       860     0    43     1    20
  7.0073610916010165E-02 a       861     0    44     1     1
  7.7396942568671490E-01 a       862     0    44     1     2
 -1.5490435757583013E-01 a       863     0    44     1     3
  3.2913113280542250E-01 a       864     0    44     1     4
 -8.5990888640283814E-02 a       865     0    44     1     5
  3.1672083512329885E-01 a       866     0    44     1     6
  4.3424380533734319E-01 a       867     0    44     1     7
 -5.4694029783465259E-01 a       868     0    44     1     8
  1.4056018716848692E-01 a       869     0    44     1     9
  8.9123006703438791E-03 a       870     0    44     1    10
  4.6699795591988030E-01 a       871     0    44     1    11
 -1.1854647709863388E-01 a       872     0    44     1    12
  2.2845626874604374E-01 a       873     0    44     1    13
 -9.2805843870407512E-01 a       874     0    44     1    14
 -6.4330178857303399E-01 a       875     0    44     1    15
 -2.6073651603954628E-01 a       876     0    44     1    16
 -3.8081890472032248E-01 a       877     0    44     1    17
  6.3988200020585284E-01 a       878     0    44     1    18
 -3.9059253314101633E-01 a       879     0    44     1    19
  3.8503508060836809E-03 a       880     0    44     1    20
  2.5960079011231529E-01 a       881     0    45     1     1
 -5.6006584535430348E-01 a       882     0    45     1     2
  9.2718287912840291E-01 a       883     0    45     1     3
 -4.1776711630887103E-01 a       884     0    45     1     4
 -5.9684588317928744E-01 a       885     0    45     1     5
 -1.5634239433199335E-01 a       886     0    45     1     6
 -4.9610650538496831E-01 a       887     0    45     1     7
  4.7175205992909325E-01 a       888     0    45     1     8
 -3.1743524047516447E-01 a       889     0    45     1     9
  3.5186259548253440E-01 a       890     0    45     1    10
  8.4225904132857535E-02 a       891     0    45     1    11
  3.0943269084100322E-01 a       892     0    45     1    12
 -4.0166581576088356E-01 a       893     0    45     1    13
  6.3729335613356597E-01 a       894     0    45     1    14
  5.9256455888527892E-01 a       895     0    45     1    15
  7.9341640367128666E-02 a       896     0    45     1    16
  2.8399871323167558E-01 a       897     0    45     1    17
 -4.1737103926800800E-01 a       898     0    45     1    18
  6.3354754999759358E-02 a       899     0    45     1    19
  5.5092306905197341E-02 a       900     0    45     1    20
  3.5295565314453131E-01 a       901     0    46     1     1
  7.2803513397462816E-01 a       902     0    46     1     2
 -1.7602100947342489E-01 a       903     0    46     1     3
  3.0696630378992268E-01 a       904     0    46     1     4
 -5.8477069995699626E-02 a       905     0    46     1     5
  6.4780453661892209E-02 a       906     0    46     1     6
  3.2226870658757123E-01 a       907     0    46     1     7
 -8.4094680625205598E-01 a       908     0    46     1     8
 -5.1311657866473215E-01 a       909     0    46     1     9
  6.8688347187020804E-01 a       910     0    46     1    10
 -1.2435341523377615E-01 a       911     0    46     1    11
 -6.4638666391369715E-01 a       912     0    46     1    12
  2.4169347033316102E-01 a       913     0    46     1    13
 -7.7357060378836706E-01 a       914     0    46     1    14
 -5.2546414070131631E-01 a       915     0    46     1    15
  1.4963816093331100E-01 a       916     0    46     1    16
 -2.0076174393851101E-01 a       917     0    46     1    17
  4.9800500008027065E-01 a       918     0    46     1    18
 -7.6912848987902752E-02 a       919     0    46     1    19
  4.1593224999919137E-01 a       920     0    46     1    20
  5.4266190518638423E-02 a       921     0    47     1     1
  2.8476234395568317E-01 a       922     0    47     1     2
 -1.5173868724302600E-01 a       923     0    47     1     3
  3.8890826317826904E-01 a       924     0    47     1     4
  1.0826713830385577E+00 a       925     0    47     1     5
  2.1194427938311725E-01 a       926     0    47     1     6
  3.5656945560017983E-01 a       927     0    47     1     7
 -7.2364670635712580E-01 a       928     0    47     1     8
 -4.9566184917407646E-01 a       929     0    47     1     9
 -1.2963668062259606E+00 a       930     0    47     1    10
 -8.8516036666814468E-01 a       931     0    47     1    11
 -5.5911749799779482E-02 a       932     0    47     1    12
 -1.2848487895943189E-01 a       933     0    47     1    13
  2.3393181874736969E-02 a       934     0    47     1    14
  1.9344292176064462E-01 a       935     0    47     1    15
  4.0967041733929555E-01 a       936     0    47     1    16
  1.4235064537920714E-01 a       937     0    47     1    17
  3.6765570577158752E-01 a       938     0    47     1    18
  4.5797537664089116E-01 a       939     0    47     1    19
 -2.1041628189822556E-01 a       940     0    47     1    20
 -1.6229596254196729E-01 a       941     0    48     1     1
  2.6839508141352941E-02 a       942     0    48     1     2
  1.9802621017782244E-02 a       943     0    48     1     3
 -2.2185444465217743E-01 a       944     0    48     1     4
  2.2958475834798678E-01 a       945     0    48     1     5
  1.9976344401695306E-01 a       946     0    48     1     6
 -1.2196252351211952E-01 a       947     0    48     1     7
  2.0925263082256279E-01 a       948     0    48     1     8
  2.5350105646119908E-01 a       949     0    48     1     9
  4.2684806320328783E-01 a       950     0    48     1    10
  3.6100284515022663E-01 a       951     0    48     1    11
  2.3673472547221550E-02 a       952     0    48     1    12
  3.7651676478996358E-02 a       953     0    48     1    13
  5.9437072741559287E-02 a       954     0    48     1    14
 -1.5788287094730524E-02 a       955     0    48     1    15
  2.0020522876298669E-01 a       956     0    48     1    16
 -2.0028788937232389E-01 a       957     0    48     1    17
  2.2323187089355746E-02 a       958     0    48     1    18
 -2.2572228869757094E-01 a       959     0    48     1    19
  2.0143006943764463E-01 a       960     0    48     1    20
 -3.8540671963700229E-01 a       961     0    49     1     1
  1.9678477289945720E-02 a       962     0    49     1     2
 -8.0536254647813188E-01 a       963     0    49     1     3
  1.8554487347412976E-01 a       964     0    49     1     4
 -1.6943250052029904E-01 a       965     0    49     1     5
 -8.0965091908124798E-01 a       966     0    49     1     6
 -4.7242199485706854E-01 a       967     0    49     1     7
  3.7049113700295760E-01 a       968     0    49     1     8
  2.9881987991389891E-01 a       969     0    49     1     9
  3.2686091718262200E-01 a       970     0    49     1    10
 -2.3876973870420845E-01 a       971     0    49     1    11
  1.8268176729790480E+00 a       972     0    49     1    12
 -7.3587960132607308E-02 a       973     0    49     1    13
 -7.2326360606610185E-01 a       974     0    49     1    14
 -1.4239336790036547E-01 a       975     0    49     1    15
  6.9255906157830241E-02 a       976     0    49     1    16
  2.6641845386832402E-01 a       977     0    49     1    17
 -1.7353206032868518E-01 a       978     0    49     1    18
  4.5761125430714084E-01 a       979     0    49     1    19
 -1.2398962720689076E-01 a       980     0    49     1    20
  2.3833969319033650E+00 a       981     0    50     1     1
 -5.8142005974420714E-02 a       982     0    50     1     2
 -3.1669358054679062E-02 a       983     0    50     1     3
 -7.8494483722917030E-01 a       984     0    50     1     4
 -2.0918723033763423E-01 a       985     0    50     1     5
 -6.9563407537888422E-01 a       986     0    50     1     6
 -4.4854498817296906E-01 a       987     0    50     1     7
 -6.1796844341996104E-01 a       988     0    50     1     8
 -5.9173931385092726E-01 a       989     0    50     1     9
  2.9169046004873700E-01 a       990     0    50     1    10
  5.0212441035347521E-01 a       991     0    50     1    11
 -2.5277113236446489E+00 a       992     0    50     1    12
  2.6011693240278400E-01 a       993     0    50     1    13
 -3.1213919900274834E-01 a       994     0    50     1    14
  8.8582784134328185E-01 a       995     0    50     1    15
  1.6161583397412654E-01 a       996     0    50     1    16
  1.5204535979036868E-01 a       997     0    50     1    17
  5.0294318391265180E-01 a       998     0    50     1    18
  3.3713479450493439E-01 a       999     0    50     1    19
  1.5903277205849748E+00 a      1000     0    50     1    20
  7.2592285938406456E-02 a      1001     0    51     1     1
 -2.3311383521050205E-01 a      1002     0    51     1     2
  1.0546623788662371E-01 a      1003     0    51     1     3
 -1.7434681003734084E-01 a      1004     0    51     1     4
  3.0711469705876920E-01 a      1005     0    51     1     5
  4.3004958039767296E-02 a      1006     0    51     1     6
 -2.1735167621634432E-01 a      1007     0    51     1     7
  7.5515698742674345E-02 a      1008     0    51     1     8
  4.0250832838660056E-01 a      1009     0    51     1     9
 -1.6251489997953683E-01 a      1010     0    51     1    10
  4.9558511344936268E-01 a      1011     0    51     1    11
  1.5339199681159957E-01 a      1012     0    51     1    12
  1.0529043608929371E-01 a      1013     0    51     1    13
  2.7197336511437770E-01 a      1014     0    51     1    14
  2.8789092871681088E-01 a      1015     0    51     1    15
 -2.0412356569349982E-01 a      1016     0    51     1    16
  1.8234475857856042E-01 a      1017     0    51     1    17
  2.5517936663368695E-01 a      1018     0    51     1    18
  2.0862240776046678E-01 a      1019     0    51     1    19
  2.9003306907097171E-02 a      1020     0    51     1    20
  4.2936441285093624E-01 b      1021     1     1
 -1.2240579367318196E+00 b      1022     1     2
 -1.1454194527244348E+00 b      1023     1     3
  6.5719252066403644E-01 b      1024     1     4
  9.6876651727577745E-01 b      1025     1     5
  9.7352328704585189E-01 b      1026     1     6
  8.1896989758048544E-01 b      1027     1     7
  8.8140260373456958E-01 b      1028     1     8
  1.1654748345527381E+00 b      1029     1     9
 -1.5607532024711079E+00 b      1030     1    10
 -9.6708801285437451E-01 b      1031     1    11
  5.1123663793566165E-01 b      1032     1    12
  3.3208966345171337E-01 b      1033     1    13
  7.2298451665988661E-01 b      1034     1    14
  3.5530558858884211E-02 b      1035     1    15
  2.6232461136512719E-01 b      1036     1    16
  5.0242056430138882E-01 b      1037     1    17
 -1.1198983720887532E+00 b      1038     1    18
  1.2078933769795392E+00 b      1039     1    19
 -6.1918460620849369E-01 b      1040     1    20
  1.5860661161162934E-01 a      1041     1     1     2     1
  5.0151196265227949E-01 a      1042     1     1     2     2
  7.5148287306190290E-02 a      1043     1     1     2     3
 -1.4983315376697084E-01 a      1044     1     1     2     4
 -1.0381403878941358E+00 a      1045     1     1     2     5
 -3.6766749531700477E-01 a      1046     1     1     2     6
 -3.1219232102222050E-01 a      1047     1     1     2     7
  1.5646901568677687E-01 a      1048     1     1     2     8
  6.7356566861003900E-02 a      1049     1     1     2     9
 -4.5395394538468459E-01 a      1050     1     1     2    10
  6.6276084741672425E-01 a      1051     1     1     2    11
  4.1234306527552961E-01 a      1052     1     1     2    12
 -3.1392751465263086E-01 a      1053     1     1     2    13
 -2.3877242378359823E-01 a      1054     1     1     2    14
 -5.1152093194967430E-01 a      1055     1     1     2    15
  3.6588429569239911E-01 a      1056     1     1     2    16
  6.3724070856854470E-02 a      1057     1     1     2    17
  2.9792751371054096E-02 a      1058     1     1     2    18
 -7.8067490767179970E-01 a      1059     1     1     2    19
 -8.3457617698064301E-01 a      1060     1     1     2    20
  2.3629887563759974E-01 a      1061     1     2     2     1
  5.1226531303297906E-01 a      1062     1     2     2     2
  3.4980587499909904E-01 a      1063     1     2     2     3
  4.2347612988612343E-01 a      1064     1     2     2     4
 -6.1558706080486809E-02 a      1065     1     2     2     5
  5.9150560477709321E-02 a      1066     1     2     2     6
  2.4320159580646666E-01 a      1067     1     2     2     7
 -4.1643564445213693E-01 a      1068     1     2     2     8
 -1.5844706102993900E-01 a      1069     1     2     2     9
  1.0992228064381056E-01 a      1070     1     2     2    10
 -6.1644510590879329E-03 a      1071     1     2     2    11
 -4.2492964693589863E-01 a      1072     1     2     2    12
 -2.6758127502651808E-04 a      1073     1     2     2    13
  2.0077677563606869E-01 a      1074     1     2     2    14
  1.0531929255618031E-01 a      1075     1     2     2    15
  1.0776520007434891E-01 a      1076     1     2     2    16
 -4.1967332850228795E-01 a      1077     1     2     2    17
  6.0497479078716943E-01 a      1078     1     2     2    18
  7.2276771388029115E-01 a      1079     1     2     2    19
 -3.1347976099914532E-01 a      1080     1     2     2    20
 -1.3112007699365516E-01 a      1081     1     3     2     1
  3.8409222954436512E-01 a      1082     1     3     2     2
  5.0857823997201790E-02 a      1083     1     3     2     3
 -1.2043949537408547E+00 a      1084     1     3     2     4
 -3.3307812320601926E-01 a      1085     1     3     2     5
 -6.4088259516250898E-02 a      1086     1     3     2     6
  5.5616115711553937E-01 a      1087     1     3     2     7
 -1.4650202545016966E-01 a      1088     1     3     2     8
 -3.9319445408792969E-01 a      1089     1     3     2     9
 -1.0154967777446945E-01 a      1090     1     3     2    10
 -5.8782082262742757E-02 a      1091     1     3     2    11
  9.0706740073308401E-01 a      1092     1     3     2    12
  7.8721557346492743E-01 a      1093     1     3     2    13
  7.1415880003211685E-01 a      1094     1     3     2    14
  1.9425823368094594E-01 a      1095     1     3     2    15
 -6.6458717622849128E-01 a      1096     1     3     2    16
 -3.7419685143972231E-01 a      1097     1     3     2    17
  1.3721540980755706E-01 a      1098     1     3     2    18
  2.4932221060584542E-01 a      1099     1     3     2    19
  4.3602727667966557E-01 a      1100     1     3     2    20
  3.4101482198415445E-01 a      1101     1     4     2     1
  4.0394642875201670E-02 a      1102     1     4     2     2
 -1.0918966665818727E-01 a      1103     1     4     2     3
 -1.1573644540098897E-01 a      1104     1     4     2     4
  5.7796232838797956E-01 a      1105     1     4     2     5
  5.7103533067217449E-01 a      1106     1     4     2     6
  3.5291676493812119E-01 a      1107     1     4     2     7
  1.8638317469634819E-01 a      1108     1     4     2     8
  4.8092068569411056E-01 a      1109     1     4     2     9
 -2.6502706992547631E-01 a      1110     1     4     2    10
 -7.3149580028569056E-02 a      1111     1     4     2    11
 -3.0622210225089580E-01 a      1112     1     4     2    12
  4.5250744229565626E-01 a      1113     1     4     2    13
  2.8673773615696752E-01 a      1114     1     4     2    14
  7.2094178258089137E-01 a      1115     1     4     2    15
 -1.2914157121535608E+00 a      1116     1     4     2    16
  5.3815600918872342E-01 a      1117     1     4     2    17
  2.7144324511339396E-01 a      1118     1     4     2    18
  4.3859754781979332E-01 a      1119     1     4     2    19
  6.6821589706731660E-02 a      1120     1     4     2    20
  3.2988986301577311E-01 a      1121     1     5     2     1
 -9.4712660445665342E-02 a      1122     1     5     2     2
 -2.0742900621232008E-01 a      1123     1     5     2     3
 -4.8861515827377533E-01 a      1124     1     5     2     4
  3.0261011891262507E-01 a      1125     1     5     2     5
 -2.8609529014948182E-01 a      1126     1     5     2     6
 -3.3584325168812552E-02 a      1127     1     5     2     7
 -2.5047580103898581E-01 a      1128     1     5     2     8
  8.8442263807978350E-01 a      1129     1     5     2     9
 -3.8844511573811291E-01 a      1130     1     5     2    10
 -8.4298495228887460E-01 a      1131     1     5     2    11
 -2.8165891193015374E-01 a      1132     1     5     2    12
  2.0186192284336557E-01 a      1133     1     5     2    13
  4.4258033476814194E-02 a      1134     1     5     2    14
 -4.9010726926960746E-01 a      1135     1     5     2    15
  2.0592261805787224E-01 a      1136     1     5     2    16
  5.5439959278689177E-01 a      1137     1     5     2    17
  1.8198636899960011E-01 a      1138     1     5     2    18
 -6.3066553309414475E-01 a      1139     1     5     2    19
 -8.8598576168388538E-02 a      1140     1     5     2    20
 -6.4497836402194031E-02 a      1141     1     6     2     1
 -3.5749726605827609E-01 a      1142     1     6     2     2
 -1.7428575858709258E-01 a      1143     1     6     2     3
  3.2429227104879654E-01 a      1144     1     6     2     4
  1.5915320932564628E-01 a      1145     1     6     2     5
  8.6409337942833631E-01 a      1146     1     6     2     6
  4.6926716979736444E-01 a      1147     1     6     2     7
  2.0767850525647585E-01 a      1148     1     6     2     8
 -1.2773125795532511E-01 a      1149     1     6     2     9
  8.2712720082676339E-01 a      1150     1     6     2    10
 -2.1417844374092379E-01 a      1151     1     6     2    11
  7.4608726197154895E-01 a      1152     1     6     2    12
 -8.5953850115486022E-02 a      1153     1     6     2    13
  4.2975226421633139E-01 a      1154     1     6     2    14
 -3.5578458458245116E-02 a      1155     1     6     2    15
 -3.7916150215894745E-01 a      1156     1     6     2    16
  4.3327907046997499E-01 a      1157     1     6     2    17
  1.2370291738677512E-01 a      1158     1     6     2    18
  5.6686153257345562E-01 a      1159     1     6     2    19
 -1.0765928597525909E+00 a      1160     1     6     2    20
 -7.3787857231388054E-01 a      1161     1     7     2     1
 -5.4736837276654948E-01 a      1162     1     7     2     2
 -3.1893948731513372E-01 a      1163     1     7     2     3
 -1.8088389003585403E-01 a      1164     1     7     2     4
 -9.2791952921290910E-01 a      1165     1     7     2     5
  5.8844760608704083E-02 a      1166     1     7     2     6
  2.1913747848569298E-01 a      1167     1     7     2     7
  4.1257947723247612E-01 a      1168     1     7     2     8
  2.6546252714383028E-01 a      1169     1     7     2     9
 -6.7084997481690645E-01 a      1170     1     7     2    10
 -7.0652130635043375E-01 a      1171     1     7     2    11
 -3.3569416449816719E-01 a      1172     1     7     2    12
 -5.4131058823610934E-01 a      1173     1     7     2    13
 -4.9160602382114482E-01 a      1174     1     7     2    14
 -7.6825183904910044E-01 a      1175     1     7     2    15
 -7.9774538661686367E-01 a      1176     1     7     2    16
  5.7059285532164654E-02 a      1177     1     7     2    17
  4.9069751723077877E-02 a      1178     1     7     2    18
 -3.7450732191803898E-01 a      1179     1     7     2    19
 -1.0563340804757058E-01 a      1180     1     7     2    20
  5.6711072023670395E-01 a      1181     1     8     2     1
  5.1562035747865154E-01 a      1182     1     8     2     2
 -1.8489129938474702E-01 a      1183     1     8     2     3
 -3.7920112604134693E-01 a      1184     1     8     2     4
  5.5396895387951528E-01 a      1185     1     8     2     5
  2.1798541039941380E-01 a      1186     1     8     2     6
 -1.4203231254655899E-01 a      1187     1     8     2     7
 -2.4136274273415262E-01 a      1188     1     8     2     8
  2.0751333011468415E-01 a      1189     1     8     2     9
  8.0955517619344275E-01 a      1190     1     8     2    10
 -4.4136563977833659E-01 a      1191     1     8     2    11
  4.2349283389345377E-01 a      1192     1     8     2    12
 -1.9683145026216861E-01 a      1193     1     8     2    13
 -2.5761604849302494E-01 a      1194     1     8     2    14
 -5.7602539158983379E-01 a      1195     1     8     2    15
 -1.9686777085642035E-01 a      1196     1     8     2    16
 -2.1162321723314828E-01 a      1197     1     8     2    17
 -2.0248783515580834E-01 a      1198     1     8     2    18
  3.7624167362848782E-01 a      1199     1     8     2    19
 -5.6597217099305963E-01 a      1200     1     8     2    20
  7.3116609574872526E-01 a      1201     1     9     2     1
 -4.6916647224702006E-02 a      1202     1     9     2     2
  4.8738834874636006E-01 a      1203     1     9     2     3
  1.4244842712586708E-01 a      1204     1     9     2     4
  4.4471704758411623E-01 a      1205     1     9     2     5
 -1.4815657527714146E-01 a      1206     1     9     2     6
  5.6444888334115240E-01 a      1207     1     9     2     7
  2.0933440834005185E-01 a      1208     1     9     2     8
 -4.6581338901838965E-01 a      1209     1     9     2     9
  5.4873101829126847E-01 a      1210     1     9     2    10
 -1.5395095460912725E-01 a      1211     1     9     2    11
 -3.9397665247013158E-01 a      1212     1     9     2    12
  1.2679163245887748E-01 a      1213     1     9     2    13
  5.3627804772019248E-03 a      1214     1     9     2    14
  5.6675067598449513E-01 a      1215     1     9     2    15
 -1.5210757663938540E-01 a      1216     1     9     2    16
  4.6754183163684887E-01 a      1217     1     9     2    17
 -6.2096032773941257E-01 a      1218     1     9     2    18
 -2.3972832399533843E-02 a      1219     1     9     2    19
 -2.7128020875638181E-01 a      1220     1     9     2    20
 -3.8008421142927368E-01 a      1221     1    10     2     1
 -2.3684573963219696E-01 a      1222     1    10     2     2
 -1.6665544052470904E-01 a      1223     1    10     2     3
  4.5791073568431573E-01 a      1224     1    10     2     4
 -3.4086110232219768E-01 a      1225     1    10     2     5
  6.0172483489476580E-01 a      1226     1    10     2     6
 -2.9573607288427406E-01 a      1227     1    10     2     7
 -3.4662974902917132E-01 a      1228     1    10     2     8
  1.0464891257231668E+00 a      1229     1    10     2     9
 -9.8044453212411009E-02 a      1230     1    10     2    10
  3.6572132894435305E-01 a      1231     1    10     2    11
  5.1684164803216248E-01 a      1232     1    10     2    12
  3.2207447230202330E-01 a      1233     1    10     2    13
 -4.7594984287776348E-01 a      1234     1    10     2    14
  4.3954547488978102E-01 a      1235     1    10     2    15
 -4.8644578084024986E-01 a      1236     1    10     2    16
  3.1376556434904855E-02 a      1237     1    10     2    17
  5.9981343741451298E-01 a      1238     1    10     2    18
 -3.3598727727253436E-01 a      1239     1    10     2    19
 -3.5573887774798757E-01 a      1240     1    10     2    20
  2.6235266496063586E-01 a      1241     1    11     2     1
  2.9279703002101559E-01 a      1242     1    11     2     2
 -5.1701743386146870E-01 a      1243     1    11     2     3
 -4.3556463985090321E-01 a      1244     1    11     2     4
  4.0926669224880524E-01 a      1245     1    11     2     5
  2.8846968408441226E-01 a      1246     1    11     2     6
  1.6753729125459735E-02 a      1247     1    11     2     7
 -3.1230744841106994E-01 a      1248     1    11     2     8
 -3.5970535453703645E-01 a      1249     1    11     2     9
 -6.7139721412904044E-02 a      1250     1    11     2    10
 -3.4279956611355861E-01 a      1251     1    11     2    11
 -8.1146906921985951E-02 a      1252     1    11     2    12
  1.0103655254904689E+00 a      1253     1    11     2    13
 -6.6626937955433396E-01 a      1254     1    11     2    14
 -2.4966035660721897E-01 a      1255     1    11     2    15
 -2.1703158338483178E-01 a      1256     1    11     2    16
 -2.0592550749265195E-01 a      1257     1    11     2    17
 -2.1098016474486522E-01 a      1258     1    11     2    18
  4.1930126566871728E-01 a      1259     1    11     2    19
 -5.9735816866963432E-01 a      1260     1    11     2    20
 -1.6450269444429175E-01 a      1261     1    12     2     1
  2.8205478651605420E-01 a      1262     1    12     2     2
  6.8023966049813323E-01 a      1263     1    12     2     3
  9.2596024759370302E-02 a      1264     1    12     2     4
  1.1810480147809015E+00 a      1265     1    12     2     5
 -6.4301562248791155E-01 a      1266     1    12     2     6
 -7.7233069286083378E-01 a      1267     1    12     2     7
  3.4492475063338157E-01 a      1268     1    12     2     8
  4.9621034049255563E-01 a      1269     1    12     2     9
  7.6778142368481339E-01 a      1270     1    12     2    10
 -5.5804861897679181E-01 a      1271     1    12     2    11
 -3.4437557155952220E-01 a      1272     1    12     2    12
 -8.8526110892925836E-01 a      1273     1    12     2    13
 -6.5975961996140475E-01 a      1274     1    12     2    14
  4.2817454687090389E-01 a      1275     1    12     2    15
 -3.6290772841081054E-01 a      1276     1    12     2    16
  1.9076640199901704E-01 a      1277     1    12     2    17
  2.1073604688230690E-01 a      1278     1    12     2    18
 -1.6425632225288875E-01 a      1279     1    12     2    19
  5.2554256982595937E-01 a      1280     1    12     2    20
  6.5602842087976754E-01 a      1281     1    13     2     1
 -6.0679070592642381E-01 a      1282     1    13     2     2
  2.7004126306426068E-01 a      1283     1    13     2     3
  6.3630487069294828E-01 a      1284     1    13     2     4
 -5.6971261424982633E-01 a      1285     1    13     2     5
 -9.3298968362317297E-02 a      1286     1    13     2     6
  5.3796733487353665E-01 a      1287     1    13     2     7
  9.2490597200645633E-02 a      1288     1    13     2     8
 -7.3580039562557553E-01 a      1289     1    13     2     9
  1.6168608514454516E-01 a      1290     1    13     2    10
  2.6083823594322381E-01 a      1291     1    13     2    11
 -9.3807981587218703E-02 a      1292     1    13     2    12
  5.1733340611110601E-01 a      1293     1    13     2    13
 -4.4406787525018687E-01 a      1294     1    13     2    14
 -2.8472838846664739E-01 a      1295     1    13     2    15
  1.4423021030978769E-01 a      1296     1    13     2    16
 -4.2770113377893765E-01 a      1297     1    13     2    17
 -1.5280778011661841E-01 a      1298     1    13     2    18
 -6.1988077126561736E-01 a      1299     1    13     2    19
 -1.0047702624876065E-01 a      1300     1    13     2    20
  4.2734746750206914E-01 a      1301     1    14     2     1
  2.4762070651941967E-01 a      1302     1    14     2     2
 -4.5343549754165652E-01 a      1303     1    14     2     3
  2.9803015828222251E-01 a      1304     1    14     2     4
  3.5373076747126830E-01 a      1305     1    14     2     5
  4.0482008302523392E-01 a      1306     1    14     2     6
 -2.7575208557914899E-01 a      1307     1    14     2     7
 -4.8315417057661911E-03 a      1308     1    14     2     8
  6.1804696536885262E-01 a      1309     1    14     2     9
 -7.4129373570031021E-01 a      1310     1    14     2    10
 -4.2264339835169823E-01 a      1311     1    14     2    11
 -1.7756573277059132E-01 a      1312     1    14     2    12
  7.8762764003391106E-03 a      1313     1    14     2    13
  2.1943822530524856E-01 a      1314     1    14     2    14
  1.7518675692905991E-01 a      1315     1    14     2    15
 -4.8142916151292725E-01 a      1316     1    14     2    16
  1.8442290572551343E-01 a      1317     1    14     2    17
  5.2625084058315996E-01 a      1318     1    14     2    18
  5.0633390081569940E-01 a      1319     1    14     2    19
  3.4139068996172250E-02 a      1320     1    14     2    20
  6.0429912384975415E-01 a      1321     1    15     2     1
  3.3354212683517481E-01 a      1322     1    15     2     2
  3.1717844456349142E-01 a      1323     1    15     2     3
 -4.2466085388494570E-02 a      1324     1    15     2     4
 -9.7915739779875239E-03 a      1325     1    15     2     5
  3.2057464044326182E-02 a      1326     1    15     2     6
  6.2898874669544469E-01 a      1327     1    15     2     7
  4.4836568913352309E-01 a      1328     1    15     2     8
 -1.4135126595130390E-01 a      1329     1    15     2     9
  3.1663075212538705E-01 a      1330     1    15     2    10
 -2.9637679656051685E-01 a      1331     1    15     2    11
 -2.3091652476576521E-01 a      1332     1    15     2    12
  4.0175000700166780E-01 a      1333     1    15     2    13
  2.7185025780524524E-01 a      1334     1    15     2    14
 -1.6795984437985575E-01 a      1335     1    15     2    15
 -2.2351603119094596E-01 a      1336     1    15     2    16
  5.1530725485491380E-01 a      1337     1    15     2    17
 -1.1268723599074119E-01 a      1338     1    15     2    18
 -1.3806313629404213E-01 a      1339     1    15     2    19
 -4.8521875234847411E-01 a      1340     1    15     2    20
 -6.2363711980990288E-01 a      1341     1    16     2     1
  3.7002010151273773E-01 a      1342     1    16     2     2
  1.1952381947742163E-01 a      1343     1    16     2     3
  1.7855603829354447E-01 a      1344     1    16     2     4
 -2.4381314527670958E-01 a      1345     1    16     2     5
 -2.6422004800470988E-01 a      1346     1    16     2     6
 -1.5131382070193269E-01 a      1347     1    16     2     7
 -2.0765667074654237E-01 a      1348     1    16     2     8
 -3.5423161253124619E-01 a      1349     1    16     2     9
 -2.3742673762088590E-01 a      1350     1    16     2    10
 -6.1301424271278666E-02 a      1351     1    16     2    11
  3.3275002612795201E-01 a      1352     1    16     2    12
  1.1426627255268335E-01 a      1353     1    16     2    13
 -8.6415598843735522E-02 a      1354     1    16     2    14
  1.5206046456837793E-01 a      1355     1    16     2    15
 -9.3070685807894182E-02 a      1356     1    16     2    16
 -1.5172376875869714E-01 a      1357     1    16     2    17
  3.0125932720001442E-01 a      1358     1    16     2    18
  1.1908753426527570E-01 a      1359     1    16     2    19
  3.8528858707502101E-01 a      1360     1    16     2    20
  6.2138016187796996E-01 a      1361     1    17     2     1
  4.8975794575523351E-01 a      1362     1    17     2     2
 -4.3993722714578198E-01 a      1363     1    17     2     3
  1.6248700985790165E-01 a      1364     1    17     2     4
 -9.8864438352261441E-01 a      1365     1    17     2     5
  3.7441629858765518E-01 a      1366     1    17     2     6
 -4.1603919038360626E-01 a      1367     1    17     2     7
  2.1257777895976403E-02 a      1368     1    17     2     8
 -5.6590335024203919E-01 a      1369     1    17     2     9
 -1.0304685069657464E-01 a      1370     1    17     2    10
 -2.8642308059325977E-01 a      1371     1    17     2    11
  1.2213598775021856E-01 a      1372     1    17     2    12
 -3.8361487237272407E-01 a      1373     1    17     2    13
 -4.7008805381814611E-01 a      1374     1    17     2    14
  8.8140484939910946E-01 a      1375     1    17     2    15
 -4.7335294868610078E-01 a      1376     1    17     2    16
 -5.3416606325984040E-01 a      1377     1    17     2    17
  2.7268864465711823E-01 a      1378     1    17     2    18
 -5.0917491657406733E-01 a      1379     1    17     2    19
  8.3210112165211825E-01 a      1380     1    17     2    20
 -4.8790802955787632E-01 a      1381     1    18     2     1
 -3.3813391272057174E-02 a      1382     1    18     2     2
  4.1256402643963141E-01 a      1383     1    18     2     3
 -4.8217343661798456E-01 a      1384     1    18     2     4
 -5.6566035429865402E-01 a      1385     1    18     2     5
 -3.6504684999811216E-01 a      1386     1    18     2     6
 -3.0364705976597517E-01 a      1387     1    18     2     7
 -7.0708763131579366E-01 a      1388     1    18     2     8
  6.1281483055050745E-01 a      1389     1    18     2     9
  9.0040884112757791E-01 a      1390     1    18     2    10
 -7.7310171726332289E-01 a      1391     1    18     2    11
  1.5945443309001586E-01 a      1392     1    18     2    12
  4.9781019496425416E-01 a      1393     1    18     2    13
 -6.6475251741814423E-03 a      1394     1    18     2    14
 -1.2617815432468371E-01 a      1395     1    18     2    15
 -2.0306909960216946E-01 a      1396     1    18     2    16
 -5.0788203589743230E-01 a      1397     1    18     2    17
  9.6342276697495843E-01 a      1398     1    18     2    18
 -8.6112268913799320E-02 a      1399     1    18     2    19
  3.1768146376279394E-01 a      1400     1    18     2    20
 -9.0702319392775718E-02 a      1401     1    19     2     1
  3.3401114026537254E-01 a      1402     1    19     2     2
  7.3525014706587832E-01 a      1403     1    19     2     3
  5.8901887279225595E-01 a      1404     1    19     2     4
  2.4835858632450139E-01 a      1405     1    19     2     5
  2.8414357232669391E-01 a      1406     1    19     2     6
  7.8022477464612106E-01 a      1407     1    19     2     7
  4.8230877278715695E-01 a      1408     1    19     2     8
  9.5788218998101271E-01 a      1409     1    19     2     9
 -2.8894154321473586E-01 a      1410     1    19     2    10
  3.0282160634138168E-02 a      1411     1    19     2    11
 -4.8096984631683126E-01 a      1412     1    19     2    12
  9.4283379086058139E-01 a      1413     1    19     2    13
 -5.8254388784632138E-01 a      1414     1    19     2    14
  2.3876419700678753E-01 a      1415     1    19     2    15
 -5.0886540989769968E-01 a      1416     1    19     2    16
 -1.8232500144808492E-01 a      1417     1    19     2    17
  5.0977810808017027E-02 a      1418     1    19     2    18
  7.4861369379405307E-01 a      1419     1    19     2    19
  7.6115654107224068E-02 a      1420     1    19     2    20
  6.0578312092159670E-01 a      1421     1    20     2     1
  7.8862077479074102E-02 a      1422     1    20     2     2
 -6.0270417224869188E-01 a      1423     1    20     2     3
 -3.5103230142715913E-01 a      1424     1    20     2     4
 -1.2486851215808332E+00 a      1425     1    20     2     5
 -3.6222568404677941E-01 a      1426     1    20     2     6
  2.6554494746442114E-01 a      1427     1    20     2     7
  7.3940652483148761E-01 a      1428     1    20     2     8
 -3.1993801270096200E-01 a      1429     1    20     2     9
 -2.8140262568307761E-01 a      1430     1    20     2    10
  5.5088663440090668E-01 a      1431     1    20     2    11
 -2.2370747442371425E-01 a      1432     1    20     2    12
 -3.9049244097424984E-01 a      1433     1    20     2    13
 -6.5545998576102604E-02 a      1434     1    20     2    14
  7.0985840896110353E-01 a      1435     1    20     2    15
 -3.1726555821702895E-01 a      1436     1    20     2    16
 -5.7083335767834464E-01 a      1437     1    20     2    17
 -4.7382791159433152E-01 a      1438     1    20     2    18
 -6.9766665045069987E-01 a      1439     1    20     2    19
  1.7226652334888720E-01 a      1440     1    20     2    20
  9.6592500959339089E-01 b      1441     2     1
  4.7664809501791228E-01 b      1442     2     2
  6.9933573121126857E-01 b      1443     2     3
  8.2951861493741508E-01 b      1444     2     4
 -1.0147660012558468E+00 b      1445     2     5
  6.7126723494925133E-01 b      1446     2     6
 -8.3320593716488189E-01 b      1447     2     7
  3.2042995348073861E-01 b      1448     2     8
  6.9312010456908402E-01 b      1449     2     9
  6.5085225135401115E-01 b      1450     2    10
 -1.1097828091484585E+00 b      1451     2    11
 -1.4540181150115892E+00 b      1452     2    12
  1.3154835036527077E+00 b      1453     2    13
  1.0444864947116093E+00 b      1454     2    14
 -1.1427288515024578E+00 b      1455     2    15
  1.3314414697407280E+00 b      1456     2    16
  1.5126061638165438E+00 b      1457     2    17
 -1.8541441068981171E-01 b      1458     2    18
  1.4084213706427162E+00 b      1459     2    19
  2.1003018275819061E+00 b      1460     2    20
  1.6562212930864417E+00 a      1461     2     1     3     1
  1.2259937833770258E-01 a      1462     2     2     3     1
  5.6506565094810290E-01 a      1463     2     3     3     1
  1.6209058160224690E+00 a      1464     2     4     3     1
 -4.4577156051300643E-01 a      1465     2     5     3     1
  1.6797428569186492E+00 a      1466     2     6     3     1
 -6.3588898967309648E-01 a      1467     2     7     3     1
  2.7108067392469124E+00 a      1468     2     8     3     1
  1.9451702646769895E+00 a      1469     2     9     3     1
  1.7337393940850646E-01 a      1470     2    10     3     1
 -1.4649292771796696E+00 a      1471     2    11     3     1
 -2.0609354771693660E+00 a      1472     2    12     3     1
  6.3650109697537705E-01 a      1473     2    13     3     1
  5.7355503890572090E-01 a      1474     2    14     3     1
 -2.0832932945120191E+00 a      1475     2    15     3     1
  5.2498524039815975E-01 a      1476     2    16     3     1
  3.0806555154861957E+00 a      1477     2    17     3     1
 -8.7258376339942822E-01 a      1478     2    18     3     1
  1.6390249501104388E+00 a      1479     2    19     3     1
  1.0347376908332964E+00 a      1480     2    20     3     1
  1.4885037678358302E+00 b      1481     3     1
