################################################################################
# Neural network connection values (weights and biases).
################################################################################
# Col  Name       Description
################################################################################
# 1    connection Neural network connection value.
# 2    t          Connection type (a = weight, b = bias).
# 3    index      Index enumerating weights.
# 4    l_s        Starting point layer (end point layer for biases).
# 5    n_s        Starting point neuron in starting layer (end point neuron for biases).
# 6    l_e        End point layer.
# 7    n_e        End point neuron in end layer.
################################################################################
#                      1 2         3     4     5     6     7
#             connection t     index   l_s   n_s   l_e   n_e
############################################################
 -7.8608365413434966E-02 a         1     0     1     1     1
  1.7683735380503932E-01 a         2     0     1     1     2
  2.1321091686530338E-01 a         3     0     1     1     3
 -1.4685157322288417E-01 a         4     0     1     1     4
 -2.0499259040395912E-01 a         5     0     1     1     5
 -1.7360658847728469E-01 a         6     0     1     1     6
  4.0461139315900069E-01 a         7     0     1     1     7
  2.6067660830343753E-01 a         8     0     1     1     8
  6.1995632243976445E-02 a         9     0     1     1     9
  6.9599156937591578E-01 a        10     0     1     1    10
  6.2452936824824523E-01 a        11     0     1     1    11
  9.9613684221681931E-02 a        12     0     1     1    12
 -4.6159193694322065E-01 a        13     0     1     1    13
  4.4530585355271829E-01 a        14     0     1     1    14
  9.6090814590000670E-02 a        15     0     1     1    15
  1.6199681848992803E-01 a        16     0     1     1    16
  1.3166524234692489E-01 a        17     0     1     1    17
  7.5728611397920337E-02 a        18     0     1     1    18
 -1.0492188745760019E-01 a        19     0     1     1    19
  1.6867232149766560E-02 a        20     0     1     1    20
 -2.8171617486333778E-01 a        21     0     2     1     1
  1.1933751996711288E-02 a        22     0     2     1     2
  3.1685583509783649E-02 a        23     0     2     1     3
 -4.8701497825857759E-01 a        24     0     2     1     4
  4.0767006274237638E-01 a        25     0     2     1     5
 -4.1292536435809618E-01 a        26     0     2     1     6
 -1.1841228551708997E-01 a        27     0     2     1     7
 -3.5284520067124897E-01 a        28     0     2     1     8
  3.6317323173584248E-01 a        29     0     2     1     9
 -3.2891012406286828E-02 a        30     0     2     1    10
 -3.0582362149067302E-02 a        31     0     2     1    11
  9.3558863733657661E-03 a        32     0     2     1    12
 -6.2322052094042846E-02 a        33     0     2     1    13
  9.8247236758228607E-02 a        34     0     2     1    14
  1.4731583436211354E-01 a        35     0     2     1    15
 -1.0245383172895678E-01 a        36     0     2     1    16
  1.3720466085776692E-01 a        37     0     2     1    17
 -4.3966769224152331E-02 a        38     0     2     1    18
  4.9604635545089953E-01 a        39     0     2     1    19
  9.4568191853822512E-03 a        40     0     2     1    20
 -4.2315910290174752E-01 a        41     0     3     1     1
 -1.6412633740059887E-01 a        42     0     3     1     2
  2.4547559007407857E-01 a        43     0     3     1     3
  6.4389204323898677E-02 a        44     0     3     1     4
 -2.6878291373044699E-01 a        45     0     3     1     5
  5.3141933561355867E-02 a        46     0     3     1     6
 -1.8021851690000429E-01 a        47     0     3     1     7
 -3.1609205249187686E-02 a        48     0     3     1     8
 -1.4405390205108137E-01 a        49     0     3     1     9
 -5.3980181675384964E-01 a        50     0     3     1    10
 -2.4265440287873302E-01 a        51     0     3     1    11
  1.6982476433157376E-01 a        52     0     3     1    12
  1.7956513840668037E-01 a        53     0     3     1    13
  2.3411645308827175E-01 a        54     0     3     1    14
 -3.3219665747444488E-01 a        55     0     3     1    15
 -1.3799107890185982E-02 a        56     0     3     1    16
 -9.7541694392624154E-02 a        57     0     3     1    17
 -2.5776620665827760E-01 a        58     0     3     1    18
  2.6853404005420946E-02 a        59     0     3     1    19
 -3.8062668005719841E-01 a        60     0     3     1    20
  2.9911511907941501E-01 a        61     0     4     1     1
  2.5082284833181467E-01 a        62     0     4     1     2
  1.1602838561139715E-01 a        63     0     4     1     3
  4.1804599105888374E-01 a        64     0     4     1     4
  5.4356109060406513E-02 a        65     0     4     1     5
 -4.0418580174785675E-02 a        66     0     4     1     6
 -3.5700838107303218E-01 a        67     0     4     1     7
 -2.2588821465114028E-01 a        68     0     4     1     8
  2.6991787124985522E-01 a        69     0     4     1     9
 -2.7883065602209312E-01 a        70     0     4     1    10
 -3.4092097534757121E-01 a        71     0     4     1    11
 -1.2832761468031462E-01 a        72     0     4     1    12
  2.9972352103769612E-01 a        73     0     4     1    13
 -1.3444093802319043E-01 a        74     0     4     1    14
 -9.7962041646748599E-02 a        75     0     4     1    15
 -2.4244558626035443E-04 a        76     0     4     1    16
 -7.5868830288635211E-02 a        77     0     4     1    17
  1.8700461361108870E-02 a        78     0     4     1    18
  2.3667960978339719E-01 a        79     0     4     1    19
 -3.9793460332492619E-02 a        80     0     4     1    20
 -1.7319203779258344E-01 a        81     0     5     1     1
  5.3963693931593004E-01 a        82     0     5     1     2
 -3.8917516699191662E-01 a        83     0     5     1     3
  7.0862188996176223E-01 a        84     0     5     1     4
 -2.4519318900852036E-01 a        85     0     5     1     5
  1.5703759281980834E-01 a        86     0     5     1     6
  3.9160229963853328E-02 a        87     0     5     1     7
  3.8208827449591037E-01 a        88     0     5     1     8
 -3.0177625344571241E-01 a        89     0     5     1     9
 -1.7264567551316459E-01 a        90     0     5     1    10
 -2.5402058721231069E-01 a        91     0     5     1    11
 -4.6344190741642272E-01 a        92     0     5     1    12
 -1.5081045027173887E-01 a        93     0     5     1    13
 -1.2258840960182887E-01 a        94     0     5     1    14
  3.4298671735781017E-01 a        95     0     5     1    15
  5.5724387201240411E-01 a        96     0     5     1    16
 -2.1978483967709170E-01 a        97     0     5     1    17
 -1.0203920435874543E+00 a        98     0     5     1    18
 -1.9393529177745172E-02 a        99     0     5     1    19
  1.9569735140096767E-01 a       100     0     5     1    20
  3.2396446907170623E-01 a       101     0     6     1     1
  4.6671054165454662E-01 a       102     0     6     1     2
 -1.7766183661787738E-01 a       103     0     6     1     3
  7.1816841109694041E-01 a       104     0     6     1     4
  3.8330207930838703E-02 a       105     0     6     1     5
  3.9170310541243131E-01 a       106     0     6     1     6
 -3.2256721878267926E-02 a       107     0     6     1     7
  5.4654439380902121E-02 a       108     0     6     1     8
 -3.9008305816877542E-01 a       109     0     6     1     9
 -8.5799546861147202E-01 a       110     0     6     1    10
 -9.6156006328087795E-01 a       111     0     6     1    11
  3.1152379944868826E-02 a       112     0     6     1    12
  5.9040069298407404E-02 a       113     0     6     1    13
 -2.0252066692333093E-01 a       114     0     6     1    14
  6.5943264774580623E-02 a       115     0     6     1    15
  9.8739172352699089E-01 a       116     0     6     1    16
 -4.1922843995621967E-01 a       117     0     6     1    17
 -8.5596942488625649E-01 a       118     0     6     1    18
  5.9109168301359871E-01 a       119     0     6     1    19
  3.7347106117471739E-02 a       120     0     6     1    20
 -1.4444015784584771E-01 a       121     0     7     1     1
  8.7354814394690113E-03 a       122     0     7     1     2
  5.6861976501042411E-01 a       123     0     7     1     3
 -6.3928006243975855E-01 a       124     0     7     1     4
  4.3219947752593235E-01 a       125     0     7     1     5
 -6.3796781164991745E-01 a       126     0     7     1     6
 -6.3218123683051386E-01 a       127     0     7     1     7
 -6.9400829977952438E-01 a       128     0     7     1     8
  3.2678439931733150E-01 a       129     0     7     1     9
  3.3241912752366307E-02 a       130     0     7     1    10
  7.4651910650356357E-01 a       131     0     7     1    11
 -1.5431640407684816E-01 a       132     0     7     1    12
 -3.3710338140192292E-01 a       133     0     7     1    13
 -2.6305927970145154E-01 a       134     0     7     1    14
 -4.5895128413642822E-02 a       135     0     7     1    15
 -6.4569139450606461E-01 a       136     0     7     1    16
  1.4611320795476471E-01 a       137     0     7     1    17
  1.3319155642892064E+00 a       138     0     7     1    18
 -2.5794185075262938E-01 a       139     0     7     1    19
 -1.2364308342442812E-01 a       140     0     7     1    20
  1.5366084264490154E-01 a       141     0     8     1     1
 -2.4046261604622604E-01 a       142     0     8     1     2
  2.3599465964372732E-01 a       143     0     8     1     3
  1.0809099419002670E-01 a       144     0     8     1     4
 -2.0649348005626261E-01 a       145     0     8     1     5
 -1.5702310044331694E-01 a       146     0     8     1     6
  2.8234071077901268E-01 a       147     0     8     1     7
  4.4260748192018101E-01 a       148     0     8     1     8
  3.2079093045526175E-01 a       149     0     8     1     9
  5.0976766073562330E-02 a       150     0     8     1    10
 -3.3453773584710356E-02 a       151     0     8     1    11
 -4.9350091386099297E-04 a       152     0     8     1    12
 -2.6707422039875195E-02 a       153     0     8     1    13
  5.1505652327027231E-02 a       154     0     8     1    14
  1.4438441176083311E-01 a       155     0     8     1    15
 -3.1576757982767600E-01 a       156     0     8     1    16
  2.1009108781043825E-01 a       157     0     8     1    17
 -3.7665611599073329E-01 a       158     0     8     1    18
 -9.4727545704527613E-03 a       159     0     8     1    19
 -2.2494608009722101E-02 a       160     0     8     1    20
  5.0216388034941395E-01 a       161     0     9     1     1
 -5.8793382979321761E-02 a       162     0     9     1     2
 -1.3223612479830868E-01 a       163     0     9     1     3
 -2.2831563382368228E-01 a       164     0     9     1     4
 -5.4251562377780316E-01 a       165     0     9     1     5
  1.0333737547356610E+00 a       166     0     9     1     6
 -7.6843450468936070E-01 a       167     0     9     1     7
  5.0969737962904471E-01 a       168     0     9     1     8
  4.1367066535486213E-01 a       169     0     9     1     9
  8.5378740318866331E-01 a       170     0     9     1    10
 -1.1163763960732101E-01 a       171     0     9     1    11
  9.9904938763420359E-01 a       172     0     9     1    12
 -1.7768354125159486E-01 a       173     0     9     1    13
  3.6662423378333114E-01 a       174     0     9     1    14
 -3.5548155346366128E-01 a       175     0     9     1    15
  1.4932368244082189E-01 a       176     0     9     1    16
 -6.4510068440440616E-01 a       177     0     9     1    17
 -2.4304335278496656E+00 a       178     0     9     1    18
 -3.1624705553966563E-02 a       179     0     9     1    19
  1.5246399506751560E-01 a       180     0     9     1    20
 -1.8211059916059935E-01 a       181     0    10     1     1
  7.0255964114021141E-01 a       182     0    10     1     2
  2.1957601255173481E-01 a       183     0    10     1     3
 -3.3211175002362980E-01 a       184     0    10     1     4
  6.2834105279034747E-01 a       185     0    10     1     5
 -6.8356821955172808E-01 a       186     0    10     1     6
  9.5188052579625937E-01 a       187     0    10     1     7
 -8.2210397048540229E-01 a       188     0    10     1     8
 -1.2653244536559782E+00 a       189     0    10     1     9
 -1.3438155946711902E-01 a       190     0    10     1    10
 -2.7052429414721851E-01 a       191     0    10     1    11
 -1.2723819105806402E+00 a       192     0    10     1    12
  3.0069040768151223E-01 a       193     0    10     1    13
 -4.7418215941263747E-01 a       194     0    10     1    14
 -9.1949079638170927E-01 a       195     0    10     1    15
 -1.0797060990825672E-01 a       196     0    10     1    16
  8.1974386284511425E-01 a       197     0    10     1    17
  1.8376439773277751E+00 a       198     0    10     1    18
  2.1451341871587920E-01 a       199     0    10     1    19
  2.8110025063578244E-02 a       200     0    10     1    20
 -2.7754554767016233E-02 a       201     0    11     1     1
 -4.6926971752133406E-01 a       202     0    11     1     2
 -2.6321619191986123E-01 a       203     0    11     1     3
 -3.2913143727480926E-01 a       204     0    11     1     4
 -1.9503985697332615E-01 a       205     0    11     1     5
 -6.4815296529229982E-01 a       206     0    11     1     6
 -4.0859965297075995E-01 a       207     0    11     1     7
 -3.5370934246448477E-01 a       208     0    11     1     8
  1.8783322898226248E-01 a       209     0    11     1     9
 -6.0193135564936509E-02 a       210     0    11     1    10
  1.4354133011940590E-01 a       211     0    11     1    11
  2.7383201464724011E-01 a       212     0    11     1    12
 -1.6343762653162727E-01 a       213     0    11     1    13
  1.3223972578301908E+00 a       214     0    11     1    14
  4.9655097658238317E-01 a       215     0    11     1    15
 -3.3269775338669105E-01 a       216     0    11     1    16
 -4.0911964439864329E-01 a       217     0    11     1    17
  8.4781172465357291E-01 a       218     0    11     1    18
  5.2451353425425762E-01 a       219     0    11     1    19
 -6.8182729015364568E-02 a       220     0    11     1    20
 -2.9858664392825807E-01 a       221     0    12     1     1
 -3.7337952238371902E-01 a       222     0    12     1     2
 -3.4679572302390804E-01 a       223     0    12     1     3
  6.0710996338969436E-01 a       224     0    12     1     4
  2.5392864383239910E-01 a       225     0    12     1     5
 -2.3967152835400238E-01 a       226     0    12     1     6
 -3.0046811922981104E-01 a       227     0    12     1     7
  3.1432628399316258E-02 a       228     0    12     1     8
  1.7176283713504806E-01 a       229     0    12     1     9
 -5.2391910069266168E-01 a       230     0    12     1    10
 -1.3733452524772577E-01 a       231     0    12     1    11
 -8.1434015557346251E-02 a       232     0    12     1    12
  3.0249345843438175E-01 a       233     0    12     1    13
 -1.2553178379759304E+00 a       234     0    12     1    14
  6.7948247707172615E-01 a       235     0    12     1    15
 -2.1434663976629989E-01 a       236     0    12     1    16
  5.1808478731100316E-01 a       237     0    12     1    17
 -9.4095007904307437E-01 a       238     0    12     1    18
 -9.7915193522329011E-02 a       239     0    12     1    19
  5.9455265780879951E-02 a       240     0    12     1    20
  1.1497273881015577E-02 a       241     0    13     1     1
 -3.9000789666342467E-01 a       242     0    13     1     2
  1.1491933043529244E-01 a       243     0    13     1     3
 -2.5891755096587029E-02 a       244     0    13     1     4
 -2.4145477583161709E-01 a       245     0    13     1     5
 -5.7480435442581101E-01 a       246     0    13     1     6
  3.2818164082364276E-01 a       247     0    13     1     7
 -3.7195341138833729E-02 a       248     0    13     1     8
  1.1009016046201560E-01 a       249     0    13     1     9
 -1.0504890550333265E-01 a       250     0    13     1    10
 -4.1575676227513708E-02 a       251     0    13     1    11
  5.4089981930164743E-01 a       252     0    13     1    12
  2.5049351948263643E-01 a       253     0    13     1    13
  4.1573165487103098E-01 a       254     0    13     1    14
 -1.6628146965091781E-02 a       255     0    13     1    15
  3.7151572636047142E-01 a       256     0    13     1    16
 -2.0027395069997164E-01 a       257     0    13     1    17
  5.1531607226386200E-01 a       258     0    13     1    18
 -2.0000169156372685E-01 a       259     0    13     1    19
  1.5073321128613157E-01 a       260     0    13     1    20
 -2.4200809299447959E-01 a       261     0    14     1     1
 -8.4077838206687322E-02 a       262     0    14     1     2
 -1.6643497281334993E-01 a       263     0    14     1     3
  4.0831203826010382E-01 a       264     0    14     1     4
  8.9894159063836063E-02 a       265     0    14     1     5
 -1.7944467004349499E-02 a       266     0    14     1     6
 -1.9826482791028438E-01 a       267     0    14     1     7
  2.9541591363451508E-01 a       268     0    14     1     8
  1.0689996168501410E+00 a       269     0    14     1     9
  2.5423318812347384E-01 a       270     0    14     1    10
  7.7631276755466294E-01 a       271     0    14     1    11
  4.3845484128516926E-01 a       272     0    14     1    12
 -3.9314484696583954E-02 a       273     0    14     1    13
  7.7715715309648969E-01 a       274     0    14     1    14
 -2.0374908158298892E-02 a       275     0    14     1    15
 -4.0736473353873780E-02 a       276     0    14     1    16
  4.6927942015479659E-02 a       277     0    14     1    17
 -3.9361441203936320E-01 a       278     0    14     1    18
  6.7951105534105702E-02 a       279     0    14     1    19
  2.8825688884723022E-01 a       280     0    14     1    20
 -2.2499095177405662E-01 a       281     0    15     1     1
 -3.0647358668823588E-01 a       282     0    15     1     2
 -2.9655238671888889E-01 a       283     0    15     1     3
 -9.0181505320229824E-02 a       284     0    15     1     4
 -2.0332811592206029E-01 a       285     0    15     1     5
 -3.2240113239296164E-01 a       286     0    15     1     6
 -7.4924580183248979E-01 a       287     0    15     1     7
  8.6918470859720112E-02 a       288     0    15     1     8
 -1.2648631449430708E-01 a       289     0    15     1     9
 -1.2841092211545568E-01 a       290     0    15     1    10
  4.3091250886435027E-02 a       291     0    15     1    11
  4.7016848529897723E-02 a       292     0    15     1    12
 -7.9730770386670938E-02 a       293     0    15     1    13
  3.3132202864150118E-01 a       294     0    15     1    14
 -1.8452230921608931E-01 a       295     0    15     1    15
  4.0298559795539596E-01 a       296     0    15     1    16
  4.4590375267192839E-01 a       297     0    15     1    17
  6.1918478209419836E-01 a       298     0    15     1    18
 -3.4488710911214460E-01 a       299     0    15     1    19
  9.8213238667844233E-02 a       300     0    15     1    20
  4.2275019891853688E-01 a       301     0    16     1     1
  1.3550848807728885E-01 a       302     0    16     1     2
  1.3449325097318557E-01 a       303     0    16     1     3
  1.6516480861715668E-01 a       304     0    16     1     4
 -5.4051417736992546E-01 a       305     0    16     1     5
  5.3091139923837584E-03 a       306     0    16     1     6
 -2.8336876162883573E-01 a       307     0    16     1     7
  2.9285680357122512E-01 a       308     0    16     1     8
 -3.5083982995803037E-01 a       309     0    16     1     9
 -1.5334356284437270E-01 a       310     0    16     1    10
 -3.8435688721001400E-02 a       311     0    16     1    11
 -5.8433099370594921E-01 a       312     0    16     1    12
 -2.0288321421555994E-01 a       313     0    16     1    13
  2.9222837871110987E-02 a       314     0    16     1    14
 -1.0202884244709734E-01 a       315     0    16     1    15
  1.9901059098257647E-02 a       316     0    16     1    16
 -5.6559236627086962E-01 a       317     0    16     1    17
 -1.1824126065408764E+00 a       318     0    16     1    18
 -7.3918124001789792E-02 a       319     0    16     1    19
 -3.8323236567903812E-01 a       320     0    16     1    20
  2.0238900256416850E-01 a       321     0    17     1     1
  4.5922170496852921E-01 a       322     0    17     1     2
  1.5691416251976317E-01 a       323     0    17     1     3
  5.0187313331816141E-02 a       324     0    17     1     4
  2.0834382549486798E-02 a       325     0    17     1     5
 -3.7688644171595187E-01 a       326     0    17     1     6
  7.1521891626046080E-02 a       327     0    17     1     7
  1.0696726774809209E-01 a       328     0    17     1     8
  6.8917114081800246E-01 a       329     0    17     1     9
  8.4715873501176597E-01 a       330     0    17     1    10
 -4.2642865232086463E-02 a       331     0    17     1    11
  1.0804987864587863E-01 a       332     0    17     1    12
  9.4352964612630000E-02 a       333     0    17     1    13
  5.5415110865028960E-01 a       334     0    17     1    14
 -2.8458331855126301E-01 a       335     0    17     1    15
  3.5809800076751191E-01 a       336     0    17     1    16
 -2.6509503631156739E-01 a       337     0    17     1    17
  6.7905764981328787E-01 a       338     0    17     1    18
  3.4821702607924537E-01 a       339     0    17     1    19
  1.2559906889783240E-01 a       340     0    17     1    20
 -3.1544870078616553E-02 a       341     0    18     1     1
 -1.4344979724498311E-01 a       342     0    18     1     2
 -4.8123456363015898E-01 a       343     0    18     1     3
  1.6114933666494016E-01 a       344     0    18     1     4
  3.4840596360991810E-01 a       345     0    18     1     5
  1.6041414630064649E-01 a       346     0    18     1     6
  3.8631818167363985E-01 a       347     0    18     1     7
 -4.1185673009978452E-01 a       348     0    18     1     8
 -1.8641211197624543E-02 a       349     0    18     1     9
 -6.9722310120107034E-01 a       350     0    18     1    10
 -3.6599089412804475E-01 a       351     0    18     1    11
  2.2945105353397599E-01 a       352     0    18     1    12
  1.6175895521048561E-01 a       353     0    18     1    13
 -8.0865709989655710E-01 a       354     0    18     1    14
  4.6986929738451044E-01 a       355     0    18     1    15
  2.5858800760208400E-01 a       356     0    18     1    16
  3.2536422754309491E-01 a       357     0    18     1    17
 -6.5757703256085187E-01 a       358     0    18     1    18
  3.8449398293180720E-01 a       359     0    18     1    19
 -1.9079494145982423E-02 a       360     0    18     1    20
  3.1738775455085300E-01 a       361     0    19     1     1
 -1.6472354291461139E-01 a       362     0    19     1     2
 -1.1804689720586624E-01 a       363     0    19     1     3
 -6.0257636627758282E-01 a       364     0    19     1     4
 -2.2673460202932316E-01 a       365     0    19     1     5
  1.0687627429931629E-01 a       366     0    19     1     6
 -4.0024567010035061E-01 a       367     0    19     1     7
  5.9891582539025912E-01 a       368     0    19     1     8
 -7.4384193163031975E-01 a       369     0    19     1     9
  1.8339547989403146E-01 a       370     0    19     1    10
 -2.5697708481841086E-01 a       371     0    19     1    11
 -8.4883113493733042E-01 a       372     0    19     1    12
  2.4100801302512759E-01 a       373     0    19     1    13
 -1.7176865391427343E-01 a       374     0    19     1    14
  3.3116181640658582E-01 a       375     0    19     1    15
  5.3252623857438142E-01 a       376     0    19     1    16
 -6.9285958082591670E-01 a       377     0    19     1    17
 -5.6880439619454681E-01 a       378     0    19     1    18
 -1.8977265478130223E-01 a       379     0    19     1    19
 -3.6648676392732088E-01 a       380     0    19     1    20
  2.4987768965807802E-02 a       381     0    20     1     1
  2.8929017592786949E-01 a       382     0    20     1     2
 -3.5312207643245080E-01 a       383     0    20     1     3
 -8.4608438337607339E-02 a       384     0    20     1     4
  1.5214012037005564E-01 a       385     0    20     1     5
 -1.1438081426473216E-01 a       386     0    20     1     6
 -4.5034789179489790E-02 a       387     0    20     1     7
  4.6953608411357528E-01 a       388     0    20     1     8
  4.3978804308764069E-01 a       389     0    20     1     9
  1.0036124524332191E-01 a       390     0    20     1    10
  4.5889260072547661E-01 a       391     0    20     1    11
  5.9994486365292743E-01 a       392     0    20     1    12
 -1.3619597484925311E-02 a       393     0    20     1    13
  2.0539754521085091E-01 a       394     0    20     1    14
  8.9280575998870584E-02 a       395     0    20     1    15
  1.7945683774228924E-01 a       396     0    20     1    16
  5.9318414871913474E-03 a       397     0    20     1    17
  2.8092550585333759E-01 a       398     0    20     1    18
 -2.7770717692068159E-01 a       399     0    20     1    19
  1.6914084809080454E-01 a       400     0    20     1    20
 -2.4931149404622657E-01 a       401     0    21     1     1
 -1.5363844224099660E-01 a       402     0    21     1     2
  8.0475322089314252E-02 a       403     0    21     1     3
 -7.1959156969890303E-02 a       404     0    21     1     4
 -3.6180770340622870E-01 a       405     0    21     1     5
 -3.0651310265555232E-01 a       406     0    21     1     6
  5.9680306198436328E-01 a       407     0    21     1     7
  1.0496016109671345E-01 a       408     0    21     1     8
  4.1569447678185262E-01 a       409     0    21     1     9
  1.6618010590101664E-01 a       410     0    21     1    10
  5.4623305188393340E-02 a       411     0    21     1    11
  5.0622890317616971E-02 a       412     0    21     1    12
  7.1840052744816185E-01 a       413     0    21     1    13
  1.1658466387416219E-01 a       414     0    21     1    14
 -7.7241462865805466E-01 a       415     0    21     1    15
  1.3784828657427001E-01 a       416     0    21     1    16
 -4.7683017355393598E-01 a       417     0    21     1    17
  5.7010233549307765E-01 a       418     0    21     1    18
 -8.9901399192067993E-02 a       419     0    21     1    19
 -2.6597372930647650E-01 a       420     0    21     1    20
  1.4942260313748293E-01 a       421     0    22     1     1
  2.5861268886979005E-01 a       422     0    22     1     2
 -2.1248575104597352E-03 a       423     0    22     1     3
 -6.7270627782289802E-02 a       424     0    22     1     4
 -1.2506828140682402E-01 a       425     0    22     1     5
  1.0298202287057695E-01 a       426     0    22     1     6
  1.3626529654070824E-01 a       427     0    22     1     7
 -1.6809183322706511E-01 a       428     0    22     1     8
 -5.7384874212576964E-01 a       429     0    22     1     9
  4.8364740456892147E-01 a       430     0    22     1    10
  3.2289862480961157E-01 a       431     0    22     1    11
 -1.1524079582052042E-01 a       432     0    22     1    12
  2.9983015255428025E-01 a       433     0    22     1    13
  8.5650716104615637E-02 a       434     0    22     1    14
 -2.9835156532674895E-01 a       435     0    22     1    15
  2.3608960069943855E-01 a       436     0    22     1    16
 -5.5006403194176356E-01 a       437     0    22     1    17
  2.0296457342737234E-01 a       438     0    22     1    18
 -3.7426452702678631E-01 a       439     0    22     1    19
 -2.1697776329152552E-01 a       440     0    22     1    20
 -9.9853179669807557E-02 a       441     0    23     1     1
 -8.0305066582925022E-01 a       442     0    23     1     2
  3.1373520082836542E-01 a       443     0    23     1     3
  7.4353455747973335E-02 a       444     0    23     1     4
 -3.8488124701596543E-01 a       445     0    23     1     5
  3.2099461218685515E-01 a       446     0    23     1     6
 -3.4620096554078594E-01 a       447     0    23     1     7
  3.4190879410507391E-01 a       448     0    23     1     8
 -2.3351107083871059E-01 a       449     0    23     1     9
  2.0891149484748343E-02 a       450     0    23     1    10
 -4.3746305401101793E-01 a       451     0    23     1    11
  3.4260638890315542E-01 a       452     0    23     1    12
 -1.7254312822574010E-03 a       453     0    23     1    13
 -2.0605176952452775E-01 a       454     0    23     1    14
 -7.2912289186294115E-03 a       455     0    23     1    15
  6.8125523470802984E-01 a       456     0    23     1    16
 -7.2320238946589022E-01 a       457     0    23     1    17
 -1.9640711562381164E-02 a       458     0    23     1    18
  3.6749166930563415E-01 a       459     0    23     1    19
  2.4725182273226737E-01 a       460     0    23     1    20
  5.7130696868418351E-01 a       461     0    24     1     1
 -4.4337821765611252E-01 a       462     0    24     1     2
  3.5121907969950555E-01 a       463     0    24     1     3
 -2.6477766456405008E-03 a       464     0    24     1     4
 -2.6027395219155652E-01 a       465     0    24     1     5
  1.1463491829975540E-01 a       466     0    24     1     6
 -9.4251894977301709E-01 a       467     0    24     1     7
 -1.3860996981729970E-01 a       468     0    24     1     8
 -1.5892567539837171E-01 a       469     0    24     1     9
 -3.8257996833094976E-01 a       470     0    24     1    10
 -3.5842722102002106E-01 a       471     0    24     1    11
 -1.6052067744200516E-01 a       472     0    24     1    12
 -1.3163579087979996E-01 a       473     0    24     1    13
 -3.0285108180417691E-01 a       474     0    24     1    14
 -4.4668553944302974E-01 a       475     0    24     1    15
 -1.6830763791145720E-02 a       476     0    24     1    16
  4.0081129192708231E-01 a       477     0    24     1    17
 -3.9368448890632457E-01 a       478     0    24     1    18
 -6.6086699901400592E-02 a       479     0    24     1    19
 -3.5158718874209560E-01 a       480     0    24     1    20
 -1.7503180794356019E-01 a       481     0    25     1     1
 -8.6124691915060236E-01 a       482     0    25     1     2
 -1.9348898847765175E-01 a       483     0    25     1     3
  3.1710325929190430E-01 a       484     0    25     1     4
 -1.7196148418028603E-02 a       485     0    25     1     5
 -5.0736364624417907E-01 a       486     0    25     1     6
  1.0244269531708774E+00 a       487     0    25     1     7
  3.1331961131847341E-01 a       488     0    25     1     8
 -2.0623944090359064E-01 a       489     0    25     1     9
  1.3088988159420073E-01 a       490     0    25     1    10
 -4.3938485938321559E-01 a       491     0    25     1    11
 -1.8153621440913309E-01 a       492     0    25     1    12
  4.1285957163014381E-01 a       493     0    25     1    13
 -4.4999052944014939E-03 a       494     0    25     1    14
  9.5493341552031641E-01 a       495     0    25     1    15
  6.1366789808867483E-01 a       496     0    25     1    16
 -8.6091710519864728E-01 a       497     0    25     1    17
 -4.4695857087448873E-02 a       498     0    25     1    18
 -1.9820749331111046E-01 a       499     0    25     1    19
  1.3355115363496373E+00 a       500     0    25     1    20
 -1.1812633174351884E-01 a       501     0    26     1     1
  3.1044673292928027E-01 a       502     0    26     1     2
 -1.6265318231897602E-01 a       503     0    26     1     3
 -1.4676612899044306E-01 a       504     0    26     1     4
  2.1177831151740090E-01 a       505     0    26     1     5
 -1.0315410940860510E-01 a       506     0    26     1     6
  1.0112219305389734E+00 a       507     0    26     1     7
 -1.1688842192163060E-01 a       508     0    26     1     8
  2.6460436167001350E-01 a       509     0    26     1     9
  2.9315903308708419E-01 a       510     0    26     1    10
 -1.0662645700088103E-01 a       511     0    26     1    11
 -1.6816766551955217E-01 a       512     0    26     1    12
  2.7193932221701139E-01 a       513     0    26     1    13
  2.0495616090586899E-01 a       514     0    26     1    14
  2.4312785886158039E-01 a       515     0    26     1    15
 -7.6953811239690181E-02 a       516     0    26     1    16
 -2.0877624403492506E-01 a       517     0    26     1    17
  9.8262871309472838E-02 a       518     0    26     1    18
 -2.7204077630737400E-01 a       519     0    26     1    19
  7.3007444607792404E-02 a       520     0    26     1    20
  3.0467684289853847E-01 a       521     0    27     1     1
  1.8231445845051072E-01 a       522     0    27     1     2
 -1.0808769280330412E-01 a       523     0    27     1     3
  1.5822419899409829E-01 a       524     0    27     1     4
  1.2643088972786856E-01 a       525     0    27     1     5
  3.1914462672236166E-01 a       526     0    27     1     6
 -1.1933113342501780E+00 a       527     0    27     1     7
 -6.2152386770979406E-01 a       528     0    27     1     8
  2.3683384814433497E-01 a       529     0    27     1     9
 -4.8204447474539341E-01 a       530     0    27     1    10
 -8.3576715163899618E-01 a       531     0    27     1    11
 -1.2019632171594413E-01 a       532     0    27     1    12
 -7.9724193026769030E-02 a       533     0    27     1    13
 -2.1513966382480751E-01 a       534     0    27     1    14
 -5.5095443660174059E-01 a       535     0    27     1    15
 -1.3859722142195132E+00 a       536     0    27     1    16
  5.9465188501393451E-01 a       537     0    27     1    17
 -4.3825882807813528E-02 a       538     0    27     1    18
 -3.9509939717067055E-01 a       539     0    27     1    19
 -1.1793411598410410E+00 a       540     0    27     1    20
 -2.0380048612555937E-01 a       541     0    28     1     1
  6.9677638109380680E-01 a       542     0    28     1     2
 -3.1526196464388245E-01 a       543     0    28     1     3
 -1.6066087088480585E-01 a       544     0    28     1     4
  1.6005551735732643E-01 a       545     0    28     1     5
  5.4367136262521809E-01 a       546     0    28     1     6
  3.7210384772150779E-01 a       547     0    28     1     7
  7.7996057222679563E-02 a       548     0    28     1     8
  2.2833466476562053E-01 a       549     0    28     1     9
 -2.4491838643464237E-01 a       550     0    28     1    10
  5.0635884561123079E-01 a       551     0    28     1    11
  3.5962285806585220E-01 a       552     0    28     1    12
  4.9938849906956118E-01 a       553     0    28     1    13
  2.8749284168907763E-01 a       554     0    28     1    14
  2.5177138837357282E-01 a       555     0    28     1    15
 -1.9990628771497151E-02 a       556     0    28     1    16
  2.5310183193030081E-02 a       557     0    28     1    17
 -2.6285747611764967E-02 a       558     0    28     1    18
  8.9108309042242317E-02 a       559     0    28     1    19
 -3.1968701334628424E-01 a       560     0    28     1    20
 -1.5799653617295603E-01 a       561     0    29     1     1
  1.5276966820492530E-01 a       562     0    29     1     2
 -5.5428787127354717E-01 a       563     0    29     1     3
  1.5160550004967951E-01 a       564     0    29     1     4
  3.1982376756807812E-01 a       565     0    29     1     5
 -6.3143380739838176E-02 a       566     0    29     1     6
  3.1149925459583672E-01 a       567     0    29     1     7
  7.2863225258941136E-02 a       568     0    29     1     8
  5.7522270372177477E-02 a       569     0    29     1     9
  1.7402213477162459E-01 a       570     0    29     1    10
  2.5852674815808452E-01 a       571     0    29     1    11
  2.8050682386285364E-01 a       572     0    29     1    12
  3.1400804879409588E-01 a       573     0    29     1    13
  1.2729044930912045E-01 a       574     0    29     1    14
 -2.0225954475687932E-01 a       575     0    29     1    15
  4.2789743661452295E-01 a       576     0    29     1    16
  3.7483952082542860E-01 a       577     0    29     1    17
  1.0650644182251498E-01 a       578     0    29     1    18
  1.0062360723688320E-01 a       579     0    29     1    19
 -1.8501950375170920E-01 a       580     0    29     1    20
  9.8516373703057443E-03 a       581     0    30     1     1
 -4.7731282428912797E-01 a       582     0    30     1     2
  5.5791769656630930E-01 a       583     0    30     1     3
 -7.8708393474616736E-02 a       584     0    30     1     4
 -4.8456706681029532E-01 a       585     0    30     1     5
 -6.6609639309585145E-01 a       586     0    30     1     6
 -2.2305340815292873E-01 a       587     0    30     1     7
  5.0703387642529185E-01 a       588     0    30     1     8
  5.7314290116813038E-01 a       589     0    30     1     9
 -7.8248200327598799E-02 a       590     0    30     1    10
 -7.5423786711235397E-02 a       591     0    30     1    11
  7.3151578363765102E-01 a       592     0    30     1    12
  8.3476619789286916E-02 a       593     0    30     1    13
  1.8353680432513841E-02 a       594     0    30     1    14
 -1.5424948856360862E-01 a       595     0    30     1    15
  2.9199925785322733E-01 a       596     0    30     1    16
  4.9336007820618324E-02 a       597     0    30     1    17
  1.5458320826142613E-01 a       598     0    30     1    18
  1.3038947903123812E-02 a       599     0    30     1    19
  3.9662218741597771E-01 a       600     0    30     1    20
 -4.2679788786122030E-01 a       601     0    31     1     1
 -4.3056448969118882E-01 a       602     0    31     1     2
 -1.2380595876480502E-01 a       603     0    31     1     3
  1.1116129060513470E-01 a       604     0    31     1     4
 -6.3046095940044689E-01 a       605     0    31     1     5
 -5.9493525513347401E-01 a       606     0    31     1     6
  2.0726727476040488E-01 a       607     0    31     1     7
 -2.0340994390858735E-01 a       608     0    31     1     8
  4.6119583240171536E-01 a       609     0    31     1     9
 -1.3984350702200404E-01 a       610     0    31     1    10
  1.2469945429368380E-01 a       611     0    31     1    11
 -1.7733042084144798E-01 a       612     0    31     1    12
  2.5570504487363249E-01 a       613     0    31     1    13
  8.5734979047788745E-03 a       614     0    31     1    14
 -5.6827346298133929E-01 a       615     0    31     1    15
 -1.9152628710476233E-01 a       616     0    31     1    16
 -5.9893538808968616E-01 a       617     0    31     1    17
  5.2382769251743500E-01 a       618     0    31     1    18
 -4.7189308808071553E-02 a       619     0    31     1    19
 -2.0930769379910057E-02 a       620     0    31     1    20
  3.3821487968956426E-01 a       621     0    32     1     1
  2.5262536280496334E-01 a       622     0    32     1     2
  6.2326385303436260E-01 a       623     0    32     1     3
  8.0841108075680235E-02 a       624     0    32     1     4
 -6.1532603696536292E-02 a       625     0    32     1     5
 -8.1433327363826416E-04 a       626     0    32     1     6
  1.5277846257968519E-01 a       627     0    32     1     7
  3.8926546065827389E-01 a       628     0    32     1     8
 -5.3077895966030320E-01 a       629     0    32     1     9
  4.5660317180826193E-01 a       630     0    32     1    10
 -9.8080326576637247E-02 a       631     0    32     1    11
 -3.1738007411065944E-01 a       632     0    32     1    12
 -1.1769830741672989E+00 a       633     0    32     1    13
  1.0340019449391320E-03 a       634     0    32     1    14
  2.6332710840694928E-01 a       635     0    32     1    15
 -5.2598744832847510E-01 a       636     0    32     1    16
  6.6268902383159378E-01 a       637     0    32     1    17
 -4.8391271739881170E-01 a       638     0    32     1    18
  4.4509179224038081E-01 a       639     0    32     1    19
 -2.0497697730642167E-01 a       640     0    32     1    20
  2.3760673173412564E-01 a       641     0    33     1     1
 -3.4685200041679792E-01 a       642     0    33     1     2
 -7.5115528584769123E-02 a       643     0    33     1     3
 -2.3020743762566231E-01 a       644     0    33     1     4
 -4.0172682887566272E-02 a       645     0    33     1     5
 -2.1246791378288826E-01 a       646     0    33     1     6
  5.6876823817506132E-02 a       647     0    33     1     7
 -7.0068638621376370E-02 a       648     0    33     1     8
  1.6868223001232502E-01 a       649     0    33     1     9
  2.1210214196143587E-01 a       650     0    33     1    10
 -4.8166366129264249E-01 a       651     0    33     1    11
 -2.6866321327972570E-01 a       652     0    33     1    12
  3.9115523915484129E-01 a       653     0    33     1    13
  1.0218541510462621E-02 a       654     0    33     1    14
  1.6566840163788688E-01 a       655     0    33     1    15
 -7.1277569152092923E-01 a       656     0    33     1    16
 -7.7100763798983574E-01 a       657     0    33     1    17
 -1.9053113010934919E-01 a       658     0    33     1    18
  2.4844975897566041E-01 a       659     0    33     1    19
 -1.4190064254022836E-01 a       660     0    33     1    20
  3.1874245585414153E-03 a       661     0    34     1     1
 -1.5488714340351861E-01 a       662     0    34     1     2
 -1.6879929580747385E-01 a       663     0    34     1     3
  4.4817792584369881E-02 a       664     0    34     1     4
 -1.0954436220507983E-01 a       665     0    34     1     5
  3.7603618534127185E-02 a       666     0    34     1     6
 -4.3914310746913668E-02 a       667     0    34     1     7
  1.0909222480397168E-01 a       668     0    34     1     8
 -8.4139329863234302E-02 a       669     0    34     1     9
  8.2858377675508171E-03 a       670     0    34     1    10
  4.3841315666754405E-01 a       671     0    34     1    11
  4.5159712653483464E-01 a       672     0    34     1    12
  8.0607591164814654E-02 a       673     0    34     1    13
  9.4786324723699869E-02 a       674     0    34     1    14
 -3.4493431320968396E-02 a       675     0    34     1    15
  1.2290248871003715E-02 a       676     0    34     1    16
  6.1282375773001774E-02 a       677     0    34     1    17
 -1.7169269541305560E-02 a       678     0    34     1    18
 -2.2164110519219518E-01 a       679     0    34     1    19
  5.9042213401183666E-02 a       680     0    34     1    20
 -8.4532316133301000E-01 a       681     0    35     1     1
 -2.4214850360153670E-01 a       682     0    35     1     2
  5.7322813471794976E-01 a       683     0    35     1     3
  8.7807088541015565E-01 a       684     0    35     1     4
 -2.8426922754685957E-01 a       685     0    35     1     5
  3.4339548050624857E-01 a       686     0    35     1     6
  1.1356697253009944E-01 a       687     0    35     1     7
 -6.1471003711434900E-02 a       688     0    35     1     8
 -3.8623473338870401E-01 a       689     0    35     1     9
 -5.8980987185583877E-01 a       690     0    35     1    10
 -4.0624099973341904E-01 a       691     0    35     1    11
  1.5980067421656896E-01 a       692     0    35     1    12
 -5.0948749655665659E-01 a       693     0    35     1    13
 -5.7790405968790493E-01 a       694     0    35     1    14
  1.8721837956001967E-02 a       695     0    35     1    15
  8.8594020363185000E-01 a       696     0    35     1    16
 -2.8707960623595624E-02 a       697     0    35     1    17
  7.2024292885036612E-01 a       698     0    35     1    18
 -3.4783426081536400E-01 a       699     0    35     1    19
 -1.4745349473821828E-01 a       700     0    35     1    20
  2.8702387639788862E-01 a       701     0    36     1     1
  1.0043648886250449E-01 a       702     0    36     1     2
 -8.9949010821057176E-02 a       703     0    36     1     3
  1.5741266844690888E-01 a       704     0    36     1     4
  2.2994728219998967E-01 a       705     0    36     1     5
  1.2624412869728613E-01 a       706     0    36     1     6
  1.8322602894072657E-01 a       707     0    36     1     7
 -4.4730706309400842E-01 a       708     0    36     1     8
  4.4955845721259857E-01 a       709     0    36     1     9
 -1.2712855776357501E-01 a       710     0    36     1    10
  1.9556386939329859E-01 a       711     0    36     1    11
 -1.6025154758688244E-02 a       712     0    36     1    12
  3.6055503511045012E-01 a       713     0    36     1    13
 -4.2991465854307666E-02 a       714     0    36     1    14
  2.6491343176146881E-01 a       715     0    36     1    15
  3.3255163758947892E-01 a       716     0    36     1    16
 -1.8874698781835816E-01 a       717     0    36     1    17
  2.5593025150133258E-01 a       718     0    36     1    18
 -4.6238735520042590E-01 a       719     0    36     1    19
 -2.6085707211489606E-01 a       720     0    36     1    20
  2.3274915107455627E-03 a       721     0    37     1     1
  2.9441143965104766E-01 a       722     0    37     1     2
 -2.3009923714806549E-01 a       723     0    37     1     3
  3.2256022393091660E-01 a       724     0    37     1     4
  2.2137674391872697E-02 a       725     0    37     1     5
  1.6512104314656120E-01 a       726     0    37     1     6
 -2.0506860080039979E-01 a       727     0    37     1     7
 -2.3553380606221286E-01 a       728     0    37     1     8
 -3.9063422614124169E-02 a       729     0    37     1     9
 -9.1942727142929254E-02 a       730     0    37     1    10
  6.9082867368776335E-01 a       731     0    37     1    11
  1.4227760251353536E-01 a       732     0    37     1    12
 -1.1367120878529924E-01 a       733     0    37     1    13
  9.9524941753385665E-02 a       734     0    37     1    14
 -1.7402326690799771E-01 a       735     0    37     1    15
  6.4837384518131602E-01 a       736     0    37     1    16
  4.3937520846476408E-01 a       737     0    37     1    17
  9.1456195432249796E-02 a       738     0    37     1    18
  5.9578732381787451E-02 a       739     0    37     1    19
  2.2973147972115207E-01 a       740     0    37     1    20
 -5.3298821444411219E-02 a       741     0    38     1     1
  2.1467822116703603E-01 a       742     0    38     1     2
  3.6488715701573843E-01 a       743     0    38     1     3
 -7.3121811783449442E-01 a       744     0    38     1     4
  2.6468669693894570E-02 a       745     0    38     1     5
  1.0573312826805731E-01 a       746     0    38     1     6
  1.2083464814420856E-01 a       747     0    38     1     7
  6.5077494793059343E-01 a       748     0    38     1     8
 -3.2860502201985241E-02 a       749     0    38     1     9
 -3.8686110640179024E-02 a       750     0    38     1    10
 -7.0259782874542442E-01 a       751     0    38     1    11
 -1.6584712443562888E-01 a       752     0    38     1    12
 -1.2678810500423185E-01 a       753     0    38     1    13
  1.6951268751540599E-01 a       754     0    38     1    14
 -6.1265450647389599E-02 a       755     0    38     1    15
 -6.3681501180620148E-01 a       756     0    38     1    16
 -1.1472058044538788E-01 a       757     0    38     1    17
 -2.6314828698518877E-01 a       758     0    38     1    18
 -2.3792874835197902E-01 a       759     0    38     1    19
  5.2718036931299006E-02 a       760     0    38     1    20
 -2.3564044330241940E-01 a       761     0    39     1     1
  1.2098144010066987E-02 a       762     0    39     1     2
  2.3872928238901359E-02 a       763     0    39     1     3
 -4.4148023333171710E-01 a       764     0    39     1     4
  6.8620849204210621E-01 a       765     0    39     1     5
 -2.6637883297257259E-01 a       766     0    39     1     6
 -1.8470977818485923E-01 a       767     0    39     1     7
 -1.2089249796782089E-01 a       768     0    39     1     8
  2.9686742634764185E-01 a       769     0    39     1     9
 -3.9750563936584876E-01 a       770     0    39     1    10
 -6.0756473923470755E-01 a       771     0    39     1    11
 -8.4677441914353141E-02 a       772     0    39     1    12
 -4.2410485207033964E-02 a       773     0    39     1    13
 -6.2081154959709395E-01 a       774     0    39     1    14
 -3.5034016390328604E-01 a       775     0    39     1    15
 -2.4463445671553646E-01 a       776     0    39     1    16
 -3.0944678936294517E-02 a       777     0    39     1    17
  5.6472687134180644E-01 a       778     0    39     1    18
  1.6602376702041724E-01 a       779     0    39     1    19
  7.4530147182848352E-02 a       780     0    39     1    20
  7.5264922482568619E-01 a       781     0    40     1     1
 -9.2668126496278404E-03 a       782     0    40     1     2
  2.5725277778446748E-01 a       783     0    40     1     3
  3.9976295405136902E-01 a       784     0    40     1     4
 -2.8575613741356443E-01 a       785     0    40     1     5
  2.0461379951420242E-01 a       786     0    40     1     6
  8.4886238427606930E-01 a       787     0    40     1     7
  4.4316945087555654E-01 a       788     0    40     1     8
 -9.6046690233494492E-02 a       789     0    40     1     9
  1.1735967750875206E-01 a       790     0    40     1    10
 -1.2778150464869556E-01 a       791     0    40     1    11
 -1.4179187896177736E+00 a       792     0    40     1    12
 -5.7156808585894903E-01 a       793     0    40     1    13
 -9.7009445696963445E-02 a       794     0    40     1    14
 -1.3781156860662930E-01 a       795     0    40     1    15
 -7.6331844432991314E-01 a       796     0    40     1    16
 -2.1104534264786473E-01 a       797     0    40     1    17
 -3.6008055103585035E-01 a       798     0    40     1    18
 -5.1486047990919132E-02 a       799     0    40     1    19
 -6.9433284281480923E-01 a       800     0    40     1    20
 -5.4019264368829623E-01 a       801     0    41     1     1
  2.6882618788234286E-01 a       802     0    41     1     2
  3.7469077334395209E-02 a       803     0    41     1     3
 -2.0622457754397155E-01 a       804     0    41     1     4
  3.5091595019712440E-01 a       805     0    41     1     5
  1.4435815969783916E-01 a       806     0    41     1     6
 -4.8360903519705220E-02 a       807     0    41     1     7
 -1.9781575180403460E-01 a       808     0    41     1     8
 -1.4956543893833265E-03 a       809     0    41     1     9
 -8.3358913809852178E-02 a       810     0    41     1    10
 -1.8068758402524238E-01 a       811     0    41     1    11
  4.3507510963497603E-01 a       812     0    41     1    12
 -3.0962137671603612E-01 a       813     0    41     1    13
 -1.9892031466668497E-01 a       814     0    41     1    14
 -4.2690125406377760E-02 a       815     0    41     1    15
 -7.2364731074993818E-02 a       816     0    41     1    16
  4.6126304903222737E-01 a       817     0    41     1    17
  8.3273547741099675E-03 a       818     0    41     1    18
  5.5401477568913515E-01 a       819     0    41     1    19
  2.7817763922365019E-01 a       820     0    41     1    20
  1.1341385506643034E-01 a       821     0    42     1     1
  4.3137326009735583E-01 a       822     0    42     1     2
  1.2070645807057301E-01 a       823     0    42     1     3
 -8.2435634047303263E-01 a       824     0    42     1     4
  6.3166198450952324E-02 a       825     0    42     1     5
  3.1681112105742743E-01 a       826     0    42     1     6
  1.3056308069791847E-01 a       827     0    42     1     7
  4.3075470458583037E-01 a       828     0    42     1     8
 -7.5647485671375625E-01 a       829     0    42     1     9
  3.8609316633653318E-01 a       830     0    42     1    10
 -2.7254354315113227E-01 a       831     0    42     1    11
  2.3896222079269772E-01 a       832     0    42     1    12
 -2.2018569925876030E-01 a       833     0    42     1    13
 -3.9293507105727304E-01 a       834     0    42     1    14
  2.3650428712026192E-01 a       835     0    42     1    15
  1.1757492976543086E-02 a       836     0    42     1    16
  1.2700956053077006E+00 a       837     0    42     1    17
 -7.2471119083654822E-01 a       838     0    42     1    18
 -2.4211581102788947E-02 a       839     0    42     1    19
 -4.4403279237861255E-02 a       840     0    42     1    20
 -5.0514944634816528E-01 a       841     0    43     1     1
  2.5332824856796905E-02 a       842     0    43     1     2
  5.0661362117611541E-01 a       843     0    43     1     3
  3.2170281237020004E-01 a       844     0    43     1     4
  3.9656581150472214E-01 a       845     0    43     1     5
  1.4359075540376240E-01 a       846     0    43     1     6
 -1.2685404825064237E-01 a       847     0    43     1     7
 -7.7128174686626771E-01 a       848     0    43     1     8
 -6.1765780979309529E-02 a       849     0    43     1     9
 -8.5970998473424553E-03 a       850     0    43     1    10
 -3.5181153191750186E-01 a       851     0    43     1    11
 -5.9245661583136516E-02 a       852     0    43     1    12
  2.1894443234383925E-02 a       853     0    43     1    13
 -1.0049791657420927E-01 a       854     0    43     1    14
  7.4133637928860185E-02 a       855     0    43     1    15
 -1.4514212333305879E-01 a       856     0    43     1    16
 -3.8028175355955857E-01 a       857     0    43     1    17
  7.9988933456167366E-01 a       858     0    43     1    18
 -3.0951163268289800E-01 a       859     0    43     1    19
  1.5011133786558575E-01 a       860     0    43     1    20
  4.1446785658982294E-01 a       861     0    44     1     1
 -2.6545355885026524E-02 a       862     0    44     1     2
  1.3342395561529705E-01 a       863     0    44     1     3
 -3.4535493238493378E-02 a       864     0    44     1     4
 -3.6486273750030718E-01 a       865     0    44     1     5
 -2.7446591501522466E-01 a       866     0    44     1     6
 -1.9815818641491348E-01 a       867     0    44     1     7
  2.7042699694663375E-01 a       868     0    44     1     8
  1.9433778888188949E-01 a       869     0    44     1     9
  1.7928530542881180E-01 a       870     0    44     1    10
 -4.5690719264493737E-02 a       871     0    44     1    11
 -4.4397725424461754E-01 a       872     0    44     1    12
  1.8076024438186272E-01 a       873     0    44     1    13
  4.4339146612237956E-01 a       874     0    44     1    14
 -1.0767821860637064E-01 a       875     0    44     1    15
  1.2647016821231644E-01 a       876     0    44     1    16
 -2.5719987376441933E-02 a       877     0    44     1    17
 -5.8297866130002807E-01 a       878     0    44     1    18
  2.0637972548322277E-02 a       879     0    44     1    19
 -1.4125704753179060E-02 a       880     0    44     1    20
 -2.9662431135811473E-01 a       881     0    45     1     1
  4.9032899652702694E-01 a       882     0    45     1     2
  1.4465725415239605E-01 a       883     0    45     1     3
 -4.6365895830723425E-01 a       884     0    45     1     4
 -3.5380057287641438E-02 a       885     0    45     1     5
  1.7436365243785518E-01 a       886     0    45     1     6
  8.7543399887185525E-01 a       887     0    45     1     7
 -5.2300073275950099E-01 a       888     0    45     1     8
 -1.0303160899386449E-01 a       889     0    45     1     9
  2.9964297938700107E-01 a       890     0    45     1    10
  4.7675186018789938E-03 a       891     0    45     1    11
  4.9557183357519775E-02 a       892     0    45     1    12
  2.3844841888064583E-01 a       893     0    45     1    13
  6.1321333291985824E-01 a       894     0    45     1    14
 -2.4552154191188097E-01 a       895     0    45     1    15
 -2.2912054528718681E-01 a       896     0    45     1    16
  1.6353148586177607E-01 a       897     0    45     1    17
  5.8997602148033734E-01 a       898     0    45     1    18
  7.6056158042307379E-02 a       899     0    45     1    19
 -2.3652790617087469E-01 a       900     0    45     1    20
  2.9260720195582974E-02 a       901     0    46     1     1
 -2.8532447102589675E-01 a       902     0    46     1     2
  1.7473092471099214E-02 a       903     0    46     1     3
  8.7832548138908961E-01 a       904     0    46     1     4
  4.2040944042492162E-01 a       905     0    46     1     5
  3.8214124024694340E-01 a       906     0    46     1     6
 -9.9569943678574857E-01 a       907     0    46     1     7
 -5.0252857332885259E-01 a       908     0    46     1     8
  2.2830632102313869E-01 a       909     0    46     1     9
 -1.7807388304439517E-01 a       910     0    46     1    10
  1.6196873453153479E-01 a       911     0    46     1    11
  7.6015834131750226E-01 a       912     0    46     1    12
 -4.6613501623394932E-01 a       913     0    46     1    13
  2.9412811549564832E-01 a       914     0    46     1    14
  1.0581074549858047E+00 a       915     0    46     1    15
  5.2996670309562588E-01 a       916     0    46     1    16
 -3.3815655912133319E-01 a       917     0    46     1    17
  1.4311857380025303E-01 a       918     0    46     1    18
 -1.6467287427721955E-01 a       919     0    46     1    19
  1.6319589188201733E-01 a       920     0    46     1    20
 -1.1335965254101976E+00 b       921     1     1
 -3.7573932146291310E-02 b       922     1     2
  1.2360291872461209E+00 b       923     1     3
 -6.1939459294565358E-01 b       924     1     4
  8.3497988648634031E-02 b       925     1     5
  7.3341903477780956E-01 b       926     1     6
 -3.1189150935221403E-02 b       927     1     7
 -1.2473262226057462E+00 b       928     1     8
  2.8567387710143188E-01 b       929     1     9
 -4.5086236178878902E-01 b       930     1    10
 -1.3124792269218635E+00 b       931     1    11
  7.7418373980004584E-01 b       932     1    12
 -1.4189268818246399E+00 b       933     1    13
  5.2824788790084065E-01 b       934     1    14
  9.4963642631162792E-01 b       935     1    15
  1.1481039263034405E+00 b       936     1    16
 -1.1724021987043103E+00 b       937     1    17
 -9.5807017426529673E-01 b       938     1    18
  1.0780012762685405E+00 b       939     1    19
 -9.0479724587363641E-01 b       940     1    20
  3.8012239529294067E-01 a       941     1     1     2     1
 -5.5745674706450632E-01 a       942     1     1     2     2
  5.6050031076101225E-01 a       943     1     1     2     3
  3.7949912063860575E-01 a       944     1     1     2     4
 -2.4429686993636898E-01 a       945     1     1     2     5
  1.6816195926365568E-01 a       946     1     1     2     6
 -5.2724319351351345E-01 a       947     1     1     2     7
 -3.4764835458687811E-02 a       948     1     1     2     8
  9.2881314205522841E-02 a       949     1     1     2     9
  1.3618488812870921E-01 a       950     1     1     2    10
  1.4414217039253272E+00 a       951     1     1     2    11
 -3.5823576369297949E-01 a       952     1     1     2    12
 -4.8384263128742189E-01 a       953     1     1     2    13
  3.6482536418385059E-01 a       954     1     1     2    14
  3.5563336722002842E-01 a       955     1     1     2    15
  7.3628186169955190E-01 a       956     1     1     2    16
  7.0492028856174727E-01 a       957     1     1     2    17
 -2.5386572868665613E-01 a       958     1     1     2    18
  3.7260861349910029E-01 a       959     1     1     2    19
 -1.5738626118577054E-01 a       960     1     1     2    20
 -3.2452105831981654E-01 a       961     1     2     2     1
 -4.9020532187188569E-02 a       962     1     2     2     2
 -1.1408439325742054E-01 a       963     1     2     2     3
 -4.8486121079934559E-02 a       964     1     2     2     4
 -5.5185444106227599E-01 a       965     1     2     2     5
  5.8834106489153182E-01 a       966     1     2     2     6
 -1.0485589638041957E+00 a       967     1     2     2     7
 -1.2148035474982853E-01 a       968     1     2     2     8
 -5.1661010250049288E-01 a       969     1     2     2     9
  6.5172099018598523E-02 a       970     1     2     2    10
 -3.2737279153994514E-01 a       971     1     2     2    11
 -1.5821158798230366E-02 a       972     1     2     2    12
  3.2951963150530938E-01 a       973     1     2     2    13
  4.4579051139044951E-01 a       974     1     2     2    14
  1.0366829815436096E+00 a       975     1     2     2    15
 -3.3414859953711123E-01 a       976     1     2     2    16
  9.1153787121658092E-01 a       977     1     2     2    17
 -3.9422582200165185E-01 a       978     1     2     2    18
 -1.3352878264945949E-02 a       979     1     2     2    19
 -4.7531388455888479E-01 a       980     1     2     2    20
  1.5478563061285217E-01 a       981     1     3     2     1
  8.4618786605897695E-02 a       982     1     3     2     2
 -2.3447752085076642E-01 a       983     1     3     2     3
  2.1615774645437329E-02 a       984     1     3     2     4
 -3.7729937921630613E-01 a       985     1     3     2     5
  2.6902190453794082E-02 a       986     1     3     2     6
  4.2252999901394439E-01 a       987     1     3     2     7
 -6.0071466570336696E-01 a       988     1     3     2     8
 -4.7923455677940174E-01 a       989     1     3     2     9
  6.8224408011774285E-01 a       990     1     3     2    10
 -4.3814555022927104E-01 a       991     1     3     2    11
 -1.0087961341631367E-01 a       992     1     3     2    12
 -5.7022014124264908E-01 a       993     1     3     2    13
 -7.0385119202666846E-01 a       994     1     3     2    14
 -5.1943796509491857E-01 a       995     1     3     2    15
 -2.9255405271275070E-01 a       996     1     3     2    16
 -3.7547188652072450E-01 a       997     1     3     2    17
  1.8618525004034109E-01 a       998     1     3     2    18
 -3.0091347303381638E-01 a       999     1     3     2    19
 -1.0603350628899612E-01 a      1000     1     3     2    20
  2.9700427007433916E-01 a      1001     1     4     2     1
 -3.0478736859590833E-01 a      1002     1     4     2     2
 -9.7288441130123235E-02 a      1003     1     4     2     3
 -2.1161199156215027E-01 a      1004     1     4     2     4
 -3.3874195855727623E-02 a      1005     1     4     2     5
  2.7566091311496005E-01 a      1006     1     4     2     6
  8.2228315780528485E-02 a      1007     1     4     2     7
 -1.6744126970045012E-01 a      1008     1     4     2     8
  8.7663773448563409E-01 a      1009     1     4     2     9
 -7.0388223046143686E-02 a      1010     1     4     2    10
  5.7900998998354258E-01 a      1011     1     4     2    11
  2.8631023470512817E-01 a      1012     1     4     2    12
 -7.4797620714480058E-04 a      1013     1     4     2    13
 -6.7220133815227387E-02 a      1014     1     4     2    14
 -1.9368304025335981E-01 a      1015     1     4     2    15
 -1.9063705610668172E-01 a      1016     1     4     2    16
 -3.5651139609254051E-01 a      1017     1     4     2    17
  3.0078267682678678E-01 a      1018     1     4     2    18
  5.4750646830744898E-01 a      1019     1     4     2    19
 -1.7936207381890604E-01 a      1020     1     4     2    20
  2.4668801854761103E-02 a      1021     1     5     2     1
 -3.3154238324445001E-01 a      1022     1     5     2     2
 -6.7112460345483949E-01 a      1023     1     5     2     3
  7.3365882025177659E-02 a      1024     1     5     2     4
  1.3817884732387803E-01 a      1025     1     5     2     5
  2.4213252495087034E-01 a      1026     1     5     2     6
 -5.6113867165292741E-01 a      1027     1     5     2     7
 -5.1165773025348604E-01 a      1028     1     5     2     8
 -3.0658348618966452E-01 a      1029     1     5     2     9
  3.0757750583503374E-01 a      1030     1     5     2    10
 -7.4869979290530486E-01 a      1031     1     5     2    11
  3.5198775390565201E-01 a      1032     1     5     2    12
 -5.8107654741399928E-01 a      1033     1     5     2    13
 -5.2236639333741464E-01 a      1034     1     5     2    14
 -4.5328685080041502E-02 a      1035     1     5     2    15
 -5.3559079483976491E-01 a      1036     1     5     2    16
  4.0125827830424726E-01 a      1037     1     5     2    17
  5.5123189234394832E-01 a      1038     1     5     2    18
  5.7861326779596295E-02 a      1039     1     5     2    19
  2.1321851536149380E-01 a      1040     1     5     2    20
 -2.2075496609936268E-02 a      1041     1     6     2     1
 -8.3838928259612389E-01 a      1042     1     6     2     2
 -4.6913662828656699E-01 a      1043     1     6     2     3
  1.8768056039487169E-01 a      1044     1     6     2     4
 -3.7470172459785095E-02 a      1045     1     6     2     5
 -1.4709739501893393E-01 a      1046     1     6     2     6
 -2.5876690658644524E-01 a      1047     1     6     2     7
 -9.5094461647796613E-02 a      1048     1     6     2     8
  2.5891798696257329E-01 a      1049     1     6     2     9
  5.8152190851093544E-01 a      1050     1     6     2    10
  9.3020634648763201E-01 a      1051     1     6     2    11
 -4.5940228765996843E-01 a      1052     1     6     2    12
  2.6105498959025558E-01 a      1053     1     6     2    13
 -5.0510168051299466E-02 a      1054     1     6     2    14
 -1.9822377273236347E-01 a      1055     1     6     2    15
 -1.8502528640062227E-01 a      1056     1     6     2    16
 -4.3401985499068158E-01 a      1057     1     6     2    17
 -3.5747215165867491E-01 a      1058     1     6     2    18
  1.9839932123693269E-01 a      1059     1     6     2    19
  7.2354603582088395E-01 a      1060     1     6     2    20
  8.0630911961206986E-01 a      1061     1     7     2     1
  7.5802180623631210E-01 a      1062     1     7     2     2
 -1.0110811933355182E+00 a      1063     1     7     2     3
 -5.6935841053943603E-01 a      1064     1     7     2     4
  5.8923623801221514E-01 a      1065     1     7     2     5
  4.9009066549384234E-01 a      1066     1     7     2     6
 -1.3127888284217346E-01 a      1067     1     7     2     7
  5.2249874433899198E-03 a      1068     1     7     2     8
  4.5728998732561693E-01 a      1069     1     7     2     9
  5.3410369006878156E-01 a      1070     1     7     2    10
  2.6857751014901654E-01 a      1071     1     7     2    11
 -8.7578071410525726E-01 a      1072     1     7     2    12
  1.0223988243015653E-01 a      1073     1     7     2    13
 -5.5566613424030542E-01 a      1074     1     7     2    14
 -4.4727530641281965E-01 a      1075     1     7     2    15
 -5.8527415008544137E-01 a      1076     1     7     2    16
  6.1494792804514931E-01 a      1077     1     7     2    17
 -3.7799505442340270E-01 a      1078     1     7     2    18
  4.3137485773710504E-01 a      1079     1     7     2    19
 -1.2867956729075505E-01 a      1080     1     7     2    20
 -1.7998775657249486E-01 a      1081     1     8     2     1
  3.1163041770658767E-01 a      1082     1     8     2     2
 -6.9991925137272815E-01 a      1083     1     8     2     3
  4.5134421084191589E-01 a      1084     1     8     2     4
  3.6594216221926862E-01 a      1085     1     8     2     5
 -4.2092164148377864E-01 a      1086     1     8     2     6
 -7.3994884469938413E-03 a      1087     1     8     2     7
  7.9593668314378141E-02 a      1088     1     8     2     8
  5.2079602992087126E-01 a      1089     1     8     2     9
 -2.9067649730480460E-01 a      1090     1     8     2    10
  6.0642137905131765E-01 a      1091     1     8     2    11
  2.4124519709092626E-01 a      1092     1     8     2    12
  3.3280614652456159E-01 a      1093     1     8     2    13
  4.0896841999625955E-01 a      1094     1     8     2    14
 -7.8213666117353298E-01 a      1095     1     8     2    15
 -5.3007822417724615E-01 a      1096     1     8     2    16
 -7.5320409000494337E-01 a      1097     1     8     2    17
  5.9712939461784165E-01 a      1098     1     8     2    18
  5.4144876518314455E-01 a      1099     1     8     2    19
  5.2911301484414600E-02 a      1100     1     8     2    20
  4.7551315234903713E-01 a      1101     1     9     2     1
 -3.3697567274172247E-01 a      1102     1     9     2     2
 -2.7170489158042732E-01 a      1103     1     9     2     3
 -3.6005239478994910E-01 a      1104     1     9     2     4
  8.6847125441929920E-02 a      1105     1     9     2     5
 -8.3880217031950158E-02 a      1106     1     9     2     6
  3.4933706291609412E-02 a      1107     1     9     2     7
 -8.9656951563514042E-01 a      1108     1     9     2     8
  4.7335657418540754E-02 a      1109     1     9     2     9
 -2.4646565733032202E-01 a      1110     1     9     2    10
  7.4917281102349609E-01 a      1111     1     9     2    11
 -3.1831493204033379E-01 a      1112     1     9     2    12
  2.2809114875450362E-01 a      1113     1     9     2    13
 -1.6427063253113053E-01 a      1114     1     9     2    14
  2.1299579417029707E-01 a      1115     1     9     2    15
  4.0973943473608818E-02 a      1116     1     9     2    16
 -2.8527570968701021E-01 a      1117     1     9     2    17
 -4.6450750669539959E-01 a      1118     1     9     2    18
 -1.5148157884074397E-03 a      1119     1     9     2    19
  2.1470011706681238E-01 a      1120     1     9     2    20
 -8.4302105980190167E-01 a      1121     1    10     2     1
  6.8750736630155873E-01 a      1122     1    10     2     2
 -1.3267323236950431E-02 a      1123     1    10     2     3
 -2.0296656731888305E-01 a      1124     1    10     2     4
  2.6127250732152285E-01 a      1125     1    10     2     5
  6.6424300857084617E-01 a      1126     1    10     2     6
 -6.7846067174018321E-01 a      1127     1    10     2     7
 -8.8459819908876136E-01 a      1128     1    10     2     8
 -5.2217331403246003E-01 a      1129     1    10     2     9
 -1.9349820800378711E-01 a      1130     1    10     2    10
  1.1472365597006841E-01 a      1131     1    10     2    11
 -7.2365181034244686E-01 a      1132     1    10     2    12
  1.4862572504117613E-02 a      1133     1    10     2    13
  4.3549976468473661E-01 a      1134     1    10     2    14
 -7.8739369778068918E-02 a      1135     1    10     2    15
 -2.8549908068821644E-01 a      1136     1    10     2    16
 -1.1803263068986140E-01 a      1137     1    10     2    17
  1.2521753836115094E-02 a      1138     1    10     2    18
 -1.3030646023451700E-01 a      1139     1    10     2    19
 -5.8580147463093568E-01 a      1140     1    10     2    20
  8.7180932458499627E-01 a      1141     1    11     2     1
  3.7954997998427004E-01 a      1142     1    11     2     2
 -4.4714491542722584E-01 a      1143     1    11     2     3
 -5.8063320514971162E-01 a      1144     1    11     2     4
 -9.6450229554112366E-01 a      1145     1    11     2     5
 -4.5634771482561974E-02 a      1146     1    11     2     6
 -4.3663267384797166E-01 a      1147     1    11     2     7
  4.2839925852576455E-02 a      1148     1    11     2     8
 -1.9825336547826002E-02 a      1149     1    11     2     9
 -4.8773612659703353E-01 a      1150     1    11     2    10
  5.3277665671549868E-01 a      1151     1    11     2    11
 -1.9502829754503492E-01 a      1152     1    11     2    12
 -2.4002419651580165E-01 a      1153     1    11     2    13
  2.8634837500389548E-01 a      1154     1    11     2    14
 -1.4703259332690111E-01 a      1155     1    11     2    15
  1.3787073536991881E-01 a      1156     1    11     2    16
 -7.6082063938460809E-01 a      1157     1    11     2    17
 -2.2363761087997189E-01 a      1158     1    11     2    18
  2.0836939359229922E-01 a      1159     1    11     2    19
  4.9986468145048013E-01 a      1160     1    11     2    20
  1.0634669311303013E-01 a      1161     1    12     2     1
  7.5129631343853087E-02 a      1162     1    12     2     2
 -8.5282342740934783E-02 a      1163     1    12     2     3
 -3.5722029801218008E-01 a      1164     1    12     2     4
 -5.6653352851856964E-01 a      1165     1    12     2     5
 -4.1487297328433181E-01 a      1166     1    12     2     6
 -6.5315036009918481E-01 a      1167     1    12     2     7
 -2.7387422505080694E-01 a      1168     1    12     2     8
  5.2287742330986664E-01 a      1169     1    12     2     9
  5.7749652644659388E-01 a      1170     1    12     2    10
  1.6310959368518069E-01 a      1171     1    12     2    11
 -9.7525008139972003E-03 a      1172     1    12     2    12
 -3.0655385735010143E-01 a      1173     1    12     2    13
 -4.7852509950796551E-01 a      1174     1    12     2    14
  3.9404278289085948E-01 a      1175     1    12     2    15
 -8.3174422181713081E-01 a      1176     1    12     2    16
  4.7454328300237220E-01 a      1177     1    12     2    17
 -7.1777584663211169E-01 a      1178     1    12     2    18
 -5.4015710722345822E-01 a      1179     1    12     2    19
 -2.5643352082896703E-01 a      1180     1    12     2    20
  6.4270321429349075E-01 a      1181     1    13     2     1
  1.8891993540531596E-01 a      1182     1    13     2     2
  5.0849607269542785E-01 a      1183     1    13     2     3
  6.0442135110066764E-01 a      1184     1    13     2     4
 -5.5672873790350541E-01 a      1185     1    13     2     5
 -1.0037100995278150E-01 a      1186     1    13     2     6
  6.1505588768694308E-01 a      1187     1    13     2     7
 -8.1648592953043342E-01 a      1188     1    13     2     8
  6.5956481648190812E-01 a      1189     1    13     2     9
 -6.6340016908786181E-01 a      1190     1    13     2    10
  1.7615361001258473E-01 a      1191     1    13     2    11
 -6.5320895695823478E-01 a      1192     1    13     2    12
  6.2431111246389071E-01 a      1193     1    13     2    13
 -4.8608586453122604E-01 a      1194     1    13     2    14
  7.3650352332464619E-01 a      1195     1    13     2    15
 -8.1290289711748087E-01 a      1196     1    13     2    16
 -5.2756320907668552E-01 a      1197     1    13     2    17
  6.4397526230545288E-01 a      1198     1    13     2    18
 -3.4379056238659195E-01 a      1199     1    13     2    19
 -4.2835141403633276E-01 a      1200     1    13     2    20
  1.7443454073137693E-01 a      1201     1    14     2     1
  2.2728595216848203E-02 a      1202     1    14     2     2
 -9.8771044184781098E-01 a      1203     1    14     2     3
  3.7075600037043321E-01 a      1204     1    14     2     4
 -8.3263408316685839E-01 a      1205     1    14     2     5
  7.9304247745857104E-01 a      1206     1    14     2     6
  5.4700389974615360E-01 a      1207     1    14     2     7
 -5.2395759141859588E-01 a      1208     1    14     2     8
 -3.0163892519271335E-01 a      1209     1    14     2     9
  3.3674868177472195E-01 a      1210     1    14     2    10
 -2.1692219033473908E-01 a      1211     1    14     2    11
 -4.9481012078668762E-01 a      1212     1    14     2    12
 -5.8546268278298431E-02 a      1213     1    14     2    13
  2.1421252969373115E-02 a      1214     1    14     2    14
  4.5869770518867842E-01 a      1215     1    14     2    15
 -9.0392232592194671E-02 a      1216     1    14     2    16
 -1.0519341973702738E+00 a      1217     1    14     2    17
  2.1770684349287686E-01 a      1218     1    14     2    18
  6.6025846860826110E-01 a      1219     1    14     2    19
  6.0543846407009005E-01 a      1220     1    14     2    20
 -1.1099642769016638E+00 a      1221     1    15     2     1
  7.6982777892321094E-02 a      1222     1    15     2     2
  1.3507495271859352E-01 a      1223     1    15     2     3
  4.3306031167802760E-02 a      1224     1    15     2     4
 -4.6493411222675329E-01 a      1225     1    15     2     5
  5.0420037230972503E-01 a      1226     1    15     2     6
  1.3364097239762548E-01 a      1227     1    15     2     7
  3.8492740273984316E-01 a      1228     1    15     2     8
 -6.2225515446708424E-01 a      1229     1    15     2     9
  6.9521079749988779E-01 a      1230     1    15     2    10
  5.2243549496526875E-01 a      1231     1    15     2    11
  6.4436803272079257E-01 a      1232     1    15     2    12
 -3.1130458739709355E-01 a      1233     1    15     2    13
 -6.2219911625036206E-01 a      1234     1    15     2    14
  3.1615659257220491E-01 a      1235     1    15     2    15
 -5.7119635297847526E-01 a      1236     1    15     2    16
 -2.2211927474044632E-01 a      1237     1    15     2    17
 -2.9355041847036795E-01 a      1238     1    15     2    18
  9.6989878959520370E-01 a      1239     1    15     2    19
  3.2990047742207823E-01 a      1240     1    15     2    20
  7.3945443125846930E-02 a      1241     1    16     2     1
 -3.2540851757009026E-01 a      1242     1    16     2     2
  8.1177666836849571E-01 a      1243     1    16     2     3
 -5.5750600580336040E-01 a      1244     1    16     2     4
  4.9068813458021276E-01 a      1245     1    16     2     5
  4.1859925435867279E-01 a      1246     1    16     2     6
  9.2619639771069173E-01 a      1247     1    16     2     7
 -1.1088595528455113E-02 a      1248     1    16     2     8
 -2.7616764225492357E-01 a      1249     1    16     2     9
  4.1672248376939719E-01 a      1250     1    16     2    10
 -1.0605876131689357E-01 a      1251     1    16     2    11
 -1.8208077515208018E-01 a      1252     1    16     2    12
  3.6733422724340681E-01 a      1253     1    16     2    13
 -3.9394977892664929E-01 a      1254     1    16     2    14
  4.2711876151014833E-01 a      1255     1    16     2    15
  4.1499019154113727E-03 a      1256     1    16     2    16
  1.0134686269897705E-04 a      1257     1    16     2    17
 -1.3232653151513443E-01 a      1258     1    16     2    18
 -4.7418983067768095E-02 a      1259     1    16     2    19
  1.9056087301829036E-01 a      1260     1    16     2    20
  2.2628316357403477E-01 a      1261     1    17     2     1
 -1.4081856180934733E-02 a      1262     1    17     2     2
  2.3302749917629098E-01 a      1263     1    17     2     3
  1.5387103136064875E-01 a      1264     1    17     2     4
 -1.3456938207466329E+00 a      1265     1    17     2     5
 -2.8827912582866771E-01 a      1266     1    17     2     6
  2.6505184728252784E-01 a      1267     1    17     2     7
  9.2222371404401343E-02 a      1268     1    17     2     8
  6.2602782932332224E-01 a      1269     1    17     2     9
 -1.0733586263225288E-01 a      1270     1    17     2    10
  6.3023389898500337E-01 a      1271     1    17     2    11
 -2.6783967819087995E-01 a      1272     1    17     2    12
  1.3008951469148050E-01 a      1273     1    17     2    13
  2.4663202132110773E-01 a      1274     1    17     2    14
  2.6940999102055058E-01 a      1275     1    17     2    15
 -4.8837411125796143E-01 a      1276     1    17     2    16
 -5.7841332189033978E-01 a      1277     1    17     2    17
  2.0878066303671702E-01 a      1278     1    17     2    18
  1.8004966485149038E-01 a      1279     1    17     2    19
 -1.6679398263473616E-02 a      1280     1    17     2    20
 -3.1732096589399178E-01 a      1281     1    18     2     1
 -2.6896023648167561E-01 a      1282     1    18     2     2
 -4.5146302992504600E-01 a      1283     1    18     2     3
 -6.4122171733509065E-02 a      1284     1    18     2     4
 -9.2404302095164662E-02 a      1285     1    18     2     5
 -5.3729095726748022E-01 a      1286     1    18     2     6
 -2.1577698945395310E-01 a      1287     1    18     2     7
  5.3048158551147095E-01 a      1288     1    18     2     8
  2.6472956821963371E-02 a      1289     1    18     2     9
 -4.3593893108898502E-01 a      1290     1    18     2    10
 -1.9618295151524958E+00 a      1291     1    18     2    11
 -6.9755644380844048E-03 a      1292     1    18     2    12
 -3.5134962891421034E-01 a      1293     1    18     2    13
 -2.3778263996754145E-01 a      1294     1    18     2    14
  1.2974636325436503E-01 a      1295     1    18     2    15
  2.5427219397696416E-01 a      1296     1    18     2    16
  7.1675543563659516E-01 a      1297     1    18     2    17
 -8.3620535614205960E-01 a      1298     1    18     2    18
 -5.4933079411336250E-01 a      1299     1    18     2    19
 -4.3551486104395742E-01 a      1300     1    18     2    20
  4.9191218788786883E-01 a      1301     1    19     2     1
  5.0179378446670841E-01 a      1302     1    19     2     2
  1.2923616365536020E-01 a      1303     1    19     2     3
 -3.0860444039702140E-01 a      1304     1    19     2     4
  1.5490235920895046E-02 a      1305     1    19     2     5
 -3.0531059045470632E-01 a      1306     1    19     2     6
 -3.0236491785060510E-02 a      1307     1    19     2     7
 -2.2612806068207175E-01 a      1308     1    19     2     8
 -1.5814548053626892E-01 a      1309     1    19     2     9
  7.2770547088590398E-01 a      1310     1    19     2    10
  8.9419968307843933E-02 a      1311     1    19     2    11
 -2.9451457260256714E-01 a      1312     1    19     2    12
 -2.9367445253130076E-01 a      1313     1    19     2    13
  4.5578567623605004E-01 a      1314     1    19     2    14
 -9.3070364481253376E-01 a      1315     1    19     2    15
  2.4681059423376805E-01 a      1316     1    19     2    16
  2.9682292304581089E-03 a      1317     1    19     2    17
 -7.2712835703703305E-01 a      1318     1    19     2    18
 -2.8738574911176340E-01 a      1319     1    19     2    19
 -6.6062622505427299E-02 a      1320     1    19     2    20
 -2.9324446719310326E-01 a      1321     1    20     2     1
  9.5008885702673729E-01 a      1322     1    20     2     2
  2.3053031840776086E-01 a      1323     1    20     2     3
  4.9137497338620728E-01 a      1324     1    20     2     4
  3.5105876333236458E-01 a      1325     1    20     2     5
  3.6470842455542501E-01 a      1326     1    20     2     6
 -5.1667099445205511E-01 a      1327     1    20     2     7
  7.2037388448749462E-02 a      1328     1    20     2     8
  3.0806319788781966E-02 a      1329     1    20     2     9
 -4.3731738726276587E-01 a      1330     1    20     2    10
 -3.1592092632943303E-01 a      1331     1    20     2    11
 -4.5937402723252935E-01 a      1332     1    20     2    12
  6.4935855073960891E-01 a      1333     1    20     2    13
 -6.8787960308868162E-02 a      1334     1    20     2    14
  2.4945124282873438E-01 a      1335     1    20     2    15
 -2.8380351752614352E-01 a      1336     1    20     2    16
  1.5592072763200510E-01 a      1337     1    20     2    17
 -4.6649250868039865E-01 a      1338     1    20     2    18
  5.7711405015117179E-01 a      1339     1    20     2    19
  4.1884061761236331E-02 a      1340     1    20     2    20
 -1.9864408666869306E-02 b      1341     2     1
 -9.5076782695628526E-01 b      1342     2     2
 -9.8514558073298220E-01 b      1343     2     3
 -6.3415609192662026E-01 b      1344     2     4
 -3.1017762504406121E-01 b      1345     2     5
 -1.0777159137993104E+00 b      1346     2     6
 -1.1896517314026926E+00 b      1347     2     7
  7.8713358669046896E-01 b      1348     2     8
 -8.9553401840246863E-02 b      1349     2     9
 -1.1005274981475364E+00 b      1350     2    10
  1.1550707221812684E+00 b      1351     2    11
  8.4134942212829611E-01 b      1352     2    12
 -1.3297845500379284E+00 b      1353     2    13
 -1.0816338811067008E+00 b      1354     2    14
 -1.1253803789805787E+00 b      1355     2    15
  1.9046484993996151E+00 b      1356     2    16
 -4.7955292873880612E-01 b      1357     2    17
 -7.0797288292109128E-01 b      1358     2    18
  1.1857537649405681E+00 b      1359     2    19
  1.0571473232621493E+00 b      1360     2    20
 -5.4399687122088414E-01 a      1361     2     1     3     1
 -1.5325350536511149E+00 a      1362     2     2     3     1
  1.6340480412669481E-01 a      1363     2     3     3     1
 -1.2272985333109481E+00 a      1364     2     4     3     1
 -4.6518000092566986E-01 a      1365     2     5     3     1
 -5.2375186370843141E-01 a      1366     2     6     3     1
  4.2063590174384942E-02 a      1367     2     7     3     1
 -1.4974015587244036E-01 a      1368     2     8     3     1
 -2.1170770621740687E+00 a      1369     2     9     3     1
  1.5953245764240822E+00 a      1370     2    10     3     1
 -4.6006729776431349E-01 a      1371     2    11     3     1
  1.4860493837262467E+00 a      1372     2    12     3     1
 -2.0861616521400026E+00 a      1373     2    13     3     1
 -1.5782100327933573E+00 a      1374     2    14     3     1
 -8.3245261307928520E-01 a      1375     2    15     3     1
  1.0837940495578100E+00 a      1376     2    16     3     1
 -1.0962400198025120E-01 a      1377     2    17     3     1
 -9.5366970855470246E-01 a      1378     2    18     3     1
  9.9575880131238381E-01 a      1379     2    19     3     1
  9.0890083339982344E-02 a      1380     2    20     3     1
  5.9779250213147861E-01 b      1381     3     1
