################################################################################
# Neural network connection values (weights and biases).
################################################################################
# Col  Name       Description
################################################################################
# 1    connection Neural network connection value.
# 2    t          Connection type (a = weight, b = bias).
# 3    index      Index enumerating weights.
# 4    l_s        Starting point layer (end point layer for biases).
# 5    n_s        Starting point neuron in starting layer (end point neuron for biases).
# 6    l_e        End point layer.
# 7    n_e        End point neuron in end layer.
################################################################################
#                      1 2         3     4     5     6     7
#             connection t     index   l_s   n_s   l_e   n_e
############################################################
  2.8385158848122466E-01 a         1     0     1     1     1
  2.2319153093176841E-01 a         2     0     1     1     2
 -2.8872880381173677E-01 a         3     0     1     1     3
 -1.2498338574525279E-01 a         4     0     1     1     4
 -7.1479847496860427E-02 a         5     0     1     1     5
  4.6342313568661420E-01 a         6     0     1     1     6
 -2.4221287558427979E-01 a         7     0     1     1     7
 -1.5353262292128264E-01 a         8     0     1     1     8
 -1.1657825665097847E-01 a         9     0     1     1     9
  1.3713150923030740E-01 a        10     0     1     1    10
 -5.4624287337524412E-02 a        11     0     1     1    11
  2.5652609722947850E-01 a        12     0     1     1    12
 -2.7049446047239561E-01 a        13     0     1     1    13
 -1.4836422265829502E-01 a        14     0     1     1    14
  5.7538860276285818E-02 a        15     0     1     1    15
  1.1994960194828998E-01 a        16     0     1     1    16
  4.2694845838852233E-02 a        17     0     1     1    17
  3.7129924877727170E-02 a        18     0     1     1    18
 -3.3646118192008195E-01 a        19     0     1     1    19
  3.8965622015672979E-01 a        20     0     1     1    20
  1.1559758096729139E-01 a        21     0     2     1     1
 -2.8100623890715204E-01 a        22     0     2     1     2
 -3.2031026388500999E-01 a        23     0     2     1     3
 -4.8821358122891741E-02 a        24     0     2     1     4
  3.1179567992362343E-03 a        25     0     2     1     5
 -1.0123389645132137E-02 a        26     0     2     1     6
 -6.0571658862892386E-01 a        27     0     2     1     7
 -2.5945665696849557E-01 a        28     0     2     1     8
  1.0264658262953825E-01 a        29     0     2     1     9
  1.2550217220365209E-01 a        30     0     2     1    10
 -2.1431073639604326E-02 a        31     0     2     1    11
  9.0068057527121465E-02 a        32     0     2     1    12
 -3.3475125588840210E-01 a        33     0     2     1    13
  9.5667937031954670E-02 a        34     0     2     1    14
  3.0593495013230954E-01 a        35     0     2     1    15
  1.9482478345205315E-01 a        36     0     2     1    16
 -3.1832092524991679E-01 a        37     0     2     1    17
  5.1801646288911853E-02 a        38     0     2     1    18
 -2.1554730839815763E-02 a        39     0     2     1    19
  1.7052411630827635E-01 a        40     0     2     1    20
  3.4815178601960017E-01 a        41     0     3     1     1
  8.4085861179657440E-02 a        42     0     3     1     2
  6.2626752569994892E-02 a        43     0     3     1     3
 -2.6816177944323529E-02 a        44     0     3     1     4
 -1.8732952942948211E-01 a        45     0     3     1     5
  4.5942013088740810E-02 a        46     0     3     1     6
  1.4573904395545778E-01 a        47     0     3     1     7
  3.4144753180092624E-01 a        48     0     3     1     8
 -3.6842216542559390E-02 a        49     0     3     1     9
  2.7430049927872785E-01 a        50     0     3     1    10
  3.2081082978204156E-01 a        51     0     3     1    11
  3.1030854417180542E-01 a        52     0     3     1    12
  2.0628501500416929E-01 a        53     0     3     1    13
 -2.2589571905890990E-01 a        54     0     3     1    14
 -1.9684544110946070E-01 a        55     0     3     1    15
 -3.2536750044995405E-01 a        56     0     3     1    16
 -1.8083293395670688E-01 a        57     0     3     1    17
 -3.1917296111365423E-01 a        58     0     3     1    18
 -2.5685604515364974E-01 a        59     0     3     1    19
 -1.6877814587432108E-01 a        60     0     3     1    20
  3.9606441052276703E-02 a        61     0     4     1     1
 -6.0048669299655480E-02 a        62     0     4     1     2
  5.0045433876718692E-01 a        63     0     4     1     3
  3.6401805308703067E-01 a        64     0     4     1     4
 -5.1691929467865848E-02 a        65     0     4     1     5
 -3.5112884470066880E-01 a        66     0     4     1     6
  6.2169962480262209E-01 a        67     0     4     1     7
 -3.4349417042776059E-01 a        68     0     4     1     8
 -2.4056485401175126E-01 a        69     0     4     1     9
 -1.7423400725120014E-01 a        70     0     4     1    10
  5.6057989996172774E-03 a        71     0     4     1    11
 -1.6966502106094375E-01 a        72     0     4     1    12
 -1.3564953783152017E-01 a        73     0     4     1    13
  7.7740599741740288E-02 a        74     0     4     1    14
 -1.4277816332518090E-01 a        75     0     4     1    15
  3.2294210803138734E-01 a        76     0     4     1    16
  3.5125929249174520E-01 a        77     0     4     1    17
 -1.9241825592563665E-02 a        78     0     4     1    18
  4.0591359152813622E-01 a        79     0     4     1    19
  1.8414610464890388E-01 a        80     0     4     1    20
 -3.1379059706677870E-01 a        81     0     5     1     1
 -2.6008675789464036E-01 a        82     0     5     1     2
 -1.8752239254114783E-01 a        83     0     5     1     3
 -5.4629356595356082E-01 a        84     0     5     1     4
  4.5070935749454982E-01 a        85     0     5     1     5
 -2.8087311885682931E-01 a        86     0     5     1     6
 -6.0028065998118163E-01 a        87     0     5     1     7
  4.8159654495881510E-01 a        88     0     5     1     8
  1.6880287457120216E-01 a        89     0     5     1     9
 -5.0886282560278229E-01 a        90     0     5     1    10
 -3.0611862386177485E-01 a        91     0     5     1    11
 -1.5036091984707536E-01 a        92     0     5     1    12
  3.4450537589521774E-01 a        93     0     5     1    13
  2.4837597674297679E-01 a        94     0     5     1    14
  6.2826485777282143E-02 a        95     0     5     1    15
  3.6481342522147790E-02 a        96     0     5     1    16
  9.4043996635627056E-02 a        97     0     5     1    17
 -6.0037339611182822E-02 a        98     0     5     1    18
  3.0777045203901430E-02 a        99     0     5     1    19
 -7.5239450901392765E-02 a       100     0     5     1    20
 -2.5345349235151154E-01 a       101     0     6     1     1
 -1.1873125423037195E-01 a       102     0     6     1     2
 -1.4309111408999936E-01 a       103     0     6     1     3
 -3.1264955036021297E-01 a       104     0     6     1     4
  2.9319159772396153E-01 a       105     0     6     1     5
 -4.3433077415103660E-01 a       106     0     6     1     6
  2.3853664108365691E-01 a       107     0     6     1     7
  1.5492757518942588E-02 a       108     0     6     1     8
 -1.4300195641267948E-02 a       109     0     6     1     9
  1.5427084621935488E-01 a       110     0     6     1    10
  1.3957346116642577E-01 a       111     0     6     1    11
 -5.1458437411262681E-01 a       112     0     6     1    12
 -5.8760213180202095E-02 a       113     0     6     1    13
 -9.3974948438718831E-03 a       114     0     6     1    14
 -4.5316157594389095E-01 a       115     0     6     1    15
 -3.5499226567762054E-02 a       116     0     6     1    16
  2.1084519762713638E-01 a       117     0     6     1    17
  4.7682189814713344E-01 a       118     0     6     1    18
  6.1796162417892175E-01 a       119     0     6     1    19
 -2.5823508370577913E-01 a       120     0     6     1    20
  5.5491951021376040E-01 a       121     0     7     1     1
 -3.0927572746477516E-01 a       122     0     7     1     2
 -2.4261847473875020E-01 a       123     0     7     1     3
  2.4347712580051872E-02 a       124     0     7     1     4
 -4.8015812614777986E-01 a       125     0     7     1     5
  5.0688104411134227E-01 a       126     0     7     1     6
  6.6963553249263030E-01 a       127     0     7     1     7
  1.8225890361181785E-01 a       128     0     7     1     8
  4.1178022882279874E-01 a       129     0     7     1     9
 -1.1583404606682571E-01 a       130     0     7     1    10
  1.8911186869790308E-01 a       131     0     7     1    11
 -3.1828696001347589E-01 a       132     0     7     1    12
 -4.0926877909856174E-01 a       133     0     7     1    13
  3.8141261406201038E-01 a       134     0     7     1    14
 -3.8370125390164733E-01 a       135     0     7     1    15
  1.8917355522116602E-01 a       136     0     7     1    16
 -1.0725990121423971E-01 a       137     0     7     1    17
  3.8483373105099965E-02 a       138     0     7     1    18
 -9.1843741434923765E-01 a       139     0     7     1    19
 -3.0071902100892489E-01 a       140     0     7     1    20
  1.6908187580837902E-01 a       141     0     8     1     1
  9.1416745805052685E-02 a       142     0     8     1     2
  5.1044172097647410E-02 a       143     0     8     1     3
  2.8771707368008104E-02 a       144     0     8     1     4
 -1.3104909653042307E-01 a       145     0     8     1     5
 -8.2736818536573331E-02 a       146     0     8     1     6
 -1.5412893231277330E-01 a       147     0     8     1     7
 -5.8229599125296283E-01 a       148     0     8     1     8
 -3.8582846433682599E-01 a       149     0     8     1     9
  1.5177351063039785E-01 a       150     0     8     1    10
 -1.6427194110414201E-01 a       151     0     8     1    11
  8.4690433337271442E-02 a       152     0     8     1    12
  1.8210953175611638E-01 a       153     0     8     1    13
 -7.3331545908561738E-02 a       154     0     8     1    14
 -1.3546783989773287E-01 a       155     0     8     1    15
 -1.9911678843603703E-01 a       156     0     8     1    16
 -5.0878455883948015E-02 a       157     0     8     1    17
  1.5748568402034946E-01 a       158     0     8     1    18
  7.1891807431052973E-02 a       159     0     8     1    19
  4.7887204974728165E-01 a       160     0     8     1    20
  6.1475866174538862E-01 a       161     0     9     1     1
 -6.0457650124589195E-02 a       162     0     9     1     2
 -9.7805093281623762E-02 a       163     0     9     1     3
  1.1448952245347093E+00 a       164     0     9     1     4
  2.8379891546959296E-01 a       165     0     9     1     5
 -9.0797041219569385E-01 a       166     0     9     1     6
  1.0555310970408235E-03 a       167     0     9     1     7
 -4.4656075435100018E-01 a       168     0     9     1     8
 -6.3457224222362385E-01 a       169     0     9     1     9
  1.3435582903585050E-01 a       170     0     9     1    10
  2.6685660947157935E-01 a       171     0     9     1    11
  2.0216490055082328E-01 a       172     0     9     1    12
 -1.6016883748942983E+00 a       173     0     9     1    13
  2.2882982704568278E-01 a       174     0     9     1    14
 -7.6438402736769351E-01 a       175     0     9     1    15
  1.9678200150196062E-01 a       176     0     9     1    16
  1.4035369383452118E-01 a       177     0     9     1    17
 -4.0685355150466662E-01 a       178     0     9     1    18
  4.7058069100251049E-01 a       179     0     9     1    19
 -1.7813432681253927E-01 a       180     0     9     1    20
 -9.9988438346687192E-01 a       181     0    10     1     1
 -3.2469714982242007E-02 a       182     0    10     1     2
 -2.3713962108386244E-01 a       183     0    10     1     3
 -1.2410339602331080E+00 a       184     0    10     1     4
 -4.5085349009490300E-01 a       185     0    10     1     5
  5.7117998499056610E-01 a       186     0    10     1     6
 -4.0762187303052705E-01 a       187     0    10     1     7
  2.7577901150573320E-02 a       188     0    10     1     8
  1.2593459380311081E+00 a       189     0    10     1     9
  5.0338380896420254E-01 a       190     0    10     1    10
 -4.3361455550882505E-01 a       191     0    10     1    11
 -3.5331795632714952E-01 a       192     0    10     1    12
  1.5689431281977904E+00 a       193     0    10     1    13
 -3.3490997441803605E-01 a       194     0    10     1    14
  1.0397436273558254E+00 a       195     0    10     1    15
  2.5821784547738230E-01 a       196     0    10     1    16
 -2.9471575933809654E-02 a       197     0    10     1    17
 -1.1328006288070720E-01 a       198     0    10     1    18
 -1.6114567478977779E-01 a       199     0    10     1    19
 -7.1259961506945624E-01 a       200     0    10     1    20
  3.4495129024077942E-01 a       201     0    11     1     1
  9.3110975574587107E-01 a       202     0    11     1     2
  2.3875468291336155E-01 a       203     0    11     1     3
 -1.3869572313017881E-01 a       204     0    11     1     4
  3.1510937118730059E-01 a       205     0    11     1     5
  1.7981686277744377E-01 a       206     0    11     1     6
  1.2175750149946875E-02 a       207     0    11     1     7
 -6.2337799221709211E-01 a       208     0    11     1     8
 -4.0694292538535032E-01 a       209     0    11     1     9
 -3.1509750120592456E-02 a       210     0    11     1    10
 -7.4880205343070064E-02 a       211     0    11     1    11
  1.3843190524716992E-01 a       212     0    11     1    12
 -1.3803930305730430E+00 a       213     0    11     1    13
  3.8778840537251213E-01 a       214     0    11     1    14
  2.8356931515376971E-01 a       215     0    11     1    15
 -9.6535451921536605E-02 a       216     0    11     1    16
 -2.5164184697270708E-01 a       217     0    11     1    17
 -1.8785245458996380E-01 a       218     0    11     1    18
  3.2992545009083690E-02 a       219     0    11     1    19
  1.5462465467537809E-01 a       220     0    11     1    20
 -6.4023256500748957E-02 a       221     0    12     1     1
 -9.0527043752750880E-01 a       222     0    12     1     2
  4.7494575993018057E-01 a       223     0    12     1     3
  1.2508473624051195E-01 a       224     0    12     1     4
  2.1364290545241277E-01 a       225     0    12     1     5
 -3.0807762646419736E-03 a       226     0    12     1     6
  4.7338499253658783E-01 a       227     0    12     1     7
  4.1366053299767219E-01 a       228     0    12     1     8
 -5.5935385379207125E-01 a       229     0    12     1     9
 -4.5231338145246563E-01 a       230     0    12     1    10
  1.7695521322377467E-01 a       231     0    12     1    11
  8.0562171513901881E-02 a       232     0    12     1    12
  1.4025307382223051E-01 a       233     0    12     1    13
 -5.4167535867843630E-01 a       234     0    12     1    14
 -7.6406670284460287E-01 a       235     0    12     1    15
 -1.5577092097176690E-01 a       236     0    12     1    16
  2.2092144112901327E-01 a       237     0    12     1    17
  7.6688032961346253E-01 a       238     0    12     1    18
 -2.1598213321304355E-01 a       239     0    12     1    19
  5.9973437796174922E-01 a       240     0    12     1    20
  2.3408684264894467E-01 a       241     0    13     1     1
  2.3785873159740878E-01 a       242     0    13     1     2
  2.2941119835127657E-01 a       243     0    13     1     3
 -1.4693082001386107E-01 a       244     0    13     1     4
  2.1071830388533241E-01 a       245     0    13     1     5
  1.2313276080964879E-01 a       246     0    13     1     6
 -5.2969967723237046E-02 a       247     0    13     1     7
 -1.9604812432935331E-01 a       248     0    13     1     8
  1.1013773448072890E-01 a       249     0    13     1     9
  3.4361741217892044E-01 a       250     0    13     1    10
  7.1398379501331299E-01 a       251     0    13     1    11
  5.5632708822871346E-01 a       252     0    13     1    12
 -8.9593649373436524E-01 a       253     0    13     1    13
 -6.0081434495356231E-02 a       254     0    13     1    14
  3.3528026230727642E-01 a       255     0    13     1    15
 -2.7903021543984863E-01 a       256     0    13     1    16
 -5.0333407347817716E-01 a       257     0    13     1    17
 -1.8110754344660246E-01 a       258     0    13     1    18
 -3.1887043418492000E-01 a       259     0    13     1    19
 -4.1691950154151181E-01 a       260     0    13     1    20
  3.0999766942051776E-01 a       261     0    14     1     1
 -3.1151794606120947E-01 a       262     0    14     1     2
 -9.9403323310027519E-02 a       263     0    14     1     3
  2.5566892114429196E-01 a       264     0    14     1     4
  5.4878873063618983E-01 a       265     0    14     1     5
  2.6209770995136361E-01 a       266     0    14     1     6
 -7.7978549307187506E-02 a       267     0    14     1     7
 -1.1164226191712125E-01 a       268     0    14     1     8
 -6.7276228954885678E-02 a       269     0    14     1     9
 -1.8682984961686799E-01 a       270     0    14     1    10
 -2.0543732519091829E-01 a       271     0    14     1    11
 -1.5117713845247463E-01 a       272     0    14     1    12
 -2.8822445197000135E-01 a       273     0    14     1    13
 -1.8909910206771685E-01 a       274     0    14     1    14
 -1.9902846899334883E-01 a       275     0    14     1    15
  3.0548959029299692E-02 a       276     0    14     1    16
 -1.2209361030414748E-01 a       277     0    14     1    17
  6.2416391936293524E-04 a       278     0    14     1    18
 -3.2757983310840011E-01 a       279     0    14     1    19
  6.4898761078552220E-02 a       280     0    14     1    20
 -7.9515196991646886E-02 a       281     0    15     1     1
  3.9590622610690207E-01 a       282     0    15     1     2
 -1.6236260178382400E-01 a       283     0    15     1     3
  4.9198113511309494E-01 a       284     0    15     1     4
 -2.6063108094141102E-01 a       285     0    15     1     5
 -2.1234059922652010E-01 a       286     0    15     1     6
  9.7476073013755299E-02 a       287     0    15     1     7
  4.0638852190667385E-01 a       288     0    15     1     8
 -3.2208619902810466E-02 a       289     0    15     1     9
 -4.4943331771563837E-02 a       290     0    15     1    10
 -4.3300752190056258E-01 a       291     0    15     1    11
  1.4136880074099759E-01 a       292     0    15     1    12
 -2.5932927302712588E-01 a       293     0    15     1    13
  3.4264014348502889E-02 a       294     0    15     1    14
 -1.9610233046157893E-01 a       295     0    15     1    15
 -3.0365756125979065E-01 a       296     0    15     1    16
  1.7811162085175228E-01 a       297     0    15     1    17
 -2.3934565824129819E-01 a       298     0    15     1    18
 -5.5815487861775803E-01 a       299     0    15     1    19
 -3.1623263742404213E-02 a       300     0    15     1    20
 -1.9439141178301647E-01 a       301     0    16     1     1
 -2.6041041239256602E-01 a       302     0    16     1     2
  5.8003585556661641E-01 a       303     0    16     1     3
  2.1106319030698428E-01 a       304     0    16     1     4
 -9.8720611340685729E-02 a       305     0    16     1     5
 -5.1141622703810556E-02 a       306     0    16     1     6
 -7.9534188381938237E-02 a       307     0    16     1     7
 -4.7227103558485095E-01 a       308     0    16     1     8
 -5.9831118309239828E-01 a       309     0    16     1     9
  1.1679020525375196E-01 a       310     0    16     1    10
  8.1818490458950044E-01 a       311     0    16     1    11
 -6.8934122500853359E-02 a       312     0    16     1    12
 -5.9261380408132236E-01 a       313     0    16     1    13
  2.6171014489836669E-01 a       314     0    16     1    14
  7.9720607022476839E-02 a       315     0    16     1    15
  6.5748053163313475E-02 a       316     0    16     1    16
  1.9109973786230997E-01 a       317     0    16     1    17
  9.9598409905335070E-03 a       318     0    16     1    18
  3.7111151986013335E-01 a       319     0    16     1    19
 -2.9615352395263161E-01 a       320     0    16     1    20
  1.7618647134806675E-01 a       321     0    17     1     1
  6.0826239705335416E-01 a       322     0    17     1     2
  1.3208068864357003E-01 a       323     0    17     1     3
 -4.3536925416304845E-01 a       324     0    17     1     4
 -1.7714652994717700E-01 a       325     0    17     1     5
 -1.7733444510776093E-02 a       326     0    17     1     6
 -4.6959873501083861E-02 a       327     0    17     1     7
  2.8519089210431692E-01 a       328     0    17     1     8
  1.7039609796034622E-01 a       329     0    17     1     9
  5.4610980865088277E-01 a       330     0    17     1    10
 -2.6728431427063498E-01 a       331     0    17     1    11
  5.0187170889560018E-01 a       332     0    17     1    12
 -2.3021853380923074E-01 a       333     0    17     1    13
  1.4421116511003690E-01 a       334     0    17     1    14
  5.3341523761307319E-01 a       335     0    17     1    15
  4.9335480787326705E-02 a       336     0    17     1    16
 -4.3316370962863865E-01 a       337     0    17     1    17
  1.1411456974875608E-01 a       338     0    17     1    18
  1.4527694123646887E-01 a       339     0    17     1    19
 -2.2825200553428962E-01 a       340     0    17     1    20
 -2.0003126250582173E-01 a       341     0    18     1     1
 -1.3542426899303908E-01 a       342     0    18     1     2
 -1.0891249815714696E-01 a       343     0    18     1     3
  7.6342580757567002E-01 a       344     0    18     1     4
  1.4313597261125183E-01 a       345     0    18     1     5
 -2.4689874832027092E-01 a       346     0    18     1     6
  1.6404789479405243E-01 a       347     0    18     1     7
  1.5534190648108803E-01 a       348     0    18     1     8
 -3.3988070284158600E-01 a       349     0    18     1     9
 -9.7751158966692370E-02 a       350     0    18     1    10
  9.2013869637969647E-02 a       351     0    18     1    11
 -2.9717515976474640E-01 a       352     0    18     1    12
 -5.5011008518314286E-01 a       353     0    18     1    13
  4.6871316700829846E-01 a       354     0    18     1    14
 -2.0657300857851940E-01 a       355     0    18     1    15
  2.0004273505708761E-01 a       356     0    18     1    16
  1.6185855711884614E-01 a       357     0    18     1    17
  2.2291455750632594E-01 a       358     0    18     1    18
  2.9043188838352235E-01 a       359     0    18     1    19
  1.6843503684962260E-01 a       360     0    18     1    20
 -1.5872760044528267E-01 a       361     0    19     1     1
  4.0652294385985199E-01 a       362     0    19     1     2
 -2.7538127306444043E-01 a       363     0    19     1     3
  3.3995168614355259E-01 a       364     0    19     1     4
  3.9942055505337992E-01 a       365     0    19     1     5
 -3.2313674580102469E-01 a       366     0    19     1     6
  5.7630651225108187E-01 a       367     0    19     1     7
  4.0736719173583402E-01 a       368     0    19     1     8
 -3.0274004676027583E-01 a       369     0    19     1     9
 -4.3466943593308277E-01 a       370     0    19     1    10
 -3.8867594410961787E-01 a       371     0    19     1    11
 -5.4350595685854119E-01 a       372     0    19     1    12
  1.5112602599416772E-01 a       373     0    19     1    13
  1.7156202386971900E-01 a       374     0    19     1    14
  2.2653431429648407E-01 a       375     0    19     1    15
 -4.9456341943269749E-01 a       376     0    19     1    16
 -9.6790098207988784E-02 a       377     0    19     1    17
 -1.1295506686858264E-01 a       378     0    19     1    18
  1.5587468298924273E-01 a       379     0    19     1    19
 -3.3641716992349402E-01 a       380     0    19     1    20
  3.3833403676059269E-02 a       381     0    20     1     1
  2.1180524463790640E-01 a       382     0    20     1     2
  3.1534582728152777E-01 a       383     0    20     1     3
  1.9911430204301285E-02 a       384     0    20     1     4
  1.5540931408417760E-01 a       385     0    20     1     5
  9.5312664554583121E-02 a       386     0    20     1     6
  8.0833445779102051E-02 a       387     0    20     1     7
 -1.1818396752489772E-01 a       388     0    20     1     8
  2.5927582666406369E-02 a       389     0    20     1     9
 -1.1720074947085642E-01 a       390     0    20     1    10
  1.3227473652841817E-01 a       391     0    20     1    11
  5.7893437779728753E-02 a       392     0    20     1    12
  3.1524019729995439E-01 a       393     0    20     1    13
 -1.2914829862930171E-02 a       394     0    20     1    14
  4.9230145644460849E-02 a       395     0    20     1    15
 -3.7474016821977829E-01 a       396     0    20     1    16
 -1.1394538490565818E-01 a       397     0    20     1    17
  4.0127760757582931E-01 a       398     0    20     1    18
 -1.9444997394500241E-01 a       399     0    20     1    19
 -1.5923435510560086E-01 a       400     0    20     1    20
 -6.3264847384347977E-01 a       401     0    21     1     1
 -1.5362239521688500E-01 a       402     0    21     1     2
  2.5365168911473912E-01 a       403     0    21     1     3
  2.6285917628575295E-01 a       404     0    21     1     4
  1.5546501952681679E-01 a       405     0    21     1     5
 -2.4601070476933767E-01 a       406     0    21     1     6
  2.8127818504733149E-01 a       407     0    21     1     7
  2.8900840550531604E-01 a       408     0    21     1     8
  1.2842769936868006E-01 a       409     0    21     1     9
  7.0336140044666973E-01 a       410     0    21     1    10
 -2.3292919530968956E-01 a       411     0    21     1    11
 -2.7866589448122264E-01 a       412     0    21     1    12
 -2.7592917788170696E-01 a       413     0    21     1    13
 -1.1700081998814754E-01 a       414     0    21     1    14
 -2.1629452778930999E-01 a       415     0    21     1    15
 -1.9274745179921015E-02 a       416     0    21     1    16
  7.6507896605958969E-02 a       417     0    21     1    17
 -1.6507031178001552E-01 a       418     0    21     1    18
  4.6612372718398298E-01 a       419     0    21     1    19
 -1.6534266343847435E-02 a       420     0    21     1    20
 -2.1944698298531676E-01 a       421     0    22     1     1
  2.3938278249347344E-01 a       422     0    22     1     2
 -6.7066196832363256E-01 a       423     0    22     1     3
 -2.6347305979605257E-01 a       424     0    22     1     4
  2.6405156647500988E-01 a       425     0    22     1     5
  5.1939228640240476E-01 a       426     0    22     1     6
 -1.9602601293427807E-01 a       427     0    22     1     7
  5.2958297218448958E-01 a       428     0    22     1     8
  3.1605074470655178E-02 a       429     0    22     1     9
  2.2510998688872608E-01 a       430     0    22     1    10
  1.9941433246709764E-01 a       431     0    22     1    11
 -3.5593274710833700E-01 a       432     0    22     1    12
  3.1651864740066388E-01 a       433     0    22     1    13
 -2.8931470399102299E-01 a       434     0    22     1    14
  5.6656771665242034E-01 a       435     0    22     1    15
 -7.7894396182674177E-03 a       436     0    22     1    16
 -4.5641318477441684E-01 a       437     0    22     1    17
 -3.8379987058469989E-01 a       438     0    22     1    18
 -2.9240421590243121E-01 a       439     0    22     1    19
 -3.8728975507276792E-01 a       440     0    22     1    20
  2.8943145917721839E-02 a       441     0    23     1     1
 -1.5757278214525305E-01 a       442     0    23     1     2
  2.4463600959895351E-01 a       443     0    23     1     3
 -2.3697258031350263E-01 a       444     0    23     1     4
 -1.5405367914366852E-01 a       445     0    23     1     5
 -3.4195239145437134E-01 a       446     0    23     1     6
 -1.3387274693492332E-01 a       447     0    23     1     7
 -1.7890573273331162E-01 a       448     0    23     1     8
  1.7884215617176299E-01 a       449     0    23     1     9
 -3.4551466095998173E-01 a       450     0    23     1    10
 -1.6328173515508965E-01 a       451     0    23     1    11
  1.2526319961633464E-01 a       452     0    23     1    12
  1.7366323069936976E-01 a       453     0    23     1    13
  1.6337187075504492E-01 a       454     0    23     1    14
 -8.7023465615849536E-03 a       455     0    23     1    15
 -3.0799503587043126E-01 a       456     0    23     1    16
  2.6880836876232594E-01 a       457     0    23     1    17
  8.2062912731601267E-02 a       458     0    23     1    18
 -3.0271102734114139E-02 a       459     0    23     1    19
 -2.3508396022248104E-01 a       460     0    23     1    20
 -1.9423253637151761E-01 a       461     0    24     1     1
 -2.1217862116263972E-01 a       462     0    24     1     2
  2.6893182364710289E-01 a       463     0    24     1     3
  6.3154204412880399E-01 a       464     0    24     1     4
 -2.7915418124341712E-01 a       465     0    24     1     5
 -1.5975495659474062E-01 a       466     0    24     1     6
  5.9076555261665931E-01 a       467     0    24     1     7
 -2.9677497150745608E-01 a       468     0    24     1     8
  4.9117326572172104E-02 a       469     0    24     1     9
  1.6301348454792419E-01 a       470     0    24     1    10
 -1.0025554565073500E-01 a       471     0    24     1    11
 -1.8448234099628799E-01 a       472     0    24     1    12
  2.5648290061733031E-01 a       473     0    24     1    13
  5.8361078152778267E-01 a       474     0    24     1    14
 -2.0086448563612472E-01 a       475     0    24     1    15
  3.0573444652514925E-01 a       476     0    24     1    16
 -1.0411386033516278E-02 a       477     0    24     1    17
  1.4531383525284949E-01 a       478     0    24     1    18
 -7.6765136509153994E-02 a       479     0    24     1    19
 -2.9189321002524493E-01 a       480     0    24     1    20
 -3.1221323886023050E-01 a       481     0    25     1     1
  3.3373625675335311E-01 a       482     0    25     1     2
 -3.0150400284477430E-01 a       483     0    25     1     3
 -6.0554628165523772E-01 a       484     0    25     1     4
  7.7268448484050511E-01 a       485     0    25     1     5
 -3.9470133155763887E-01 a       486     0    25     1     6
 -3.5217056641205396E-01 a       487     0    25     1     7
  6.0020949025244896E-01 a       488     0    25     1     8
  1.5945450714789627E-01 a       489     0    25     1     9
 -6.3833588930009255E-01 a       490     0    25     1    10
  5.6152595633058455E-01 a       491     0    25     1    11
 -1.8931845962974142E-01 a       492     0    25     1    12
 -1.0948544449828725E-01 a       493     0    25     1    13
 -2.9334276310883894E-01 a       494     0    25     1    14
  7.5941076116618628E-02 a       495     0    25     1    15
 -4.3234333870394714E-01 a       496     0    25     1    16
  3.2313807551981594E-01 a       497     0    25     1    17
  8.9224933536853984E-02 a       498     0    25     1    18
  8.0694770508609526E-01 a       499     0    25     1    19
  4.6721096038635695E-01 a       500     0    25     1    20
 -2.2241023844932234E-01 a       501     0    26     1     1
  5.4236873183541034E-01 a       502     0    26     1     2
 -2.0279563663099864E-01 a       503     0    26     1     3
 -1.7118846143239769E-01 a       504     0    26     1     4
  9.0144849942362160E-02 a       505     0    26     1     5
  2.6904847189260961E-01 a       506     0    26     1     6
 -2.3029915405370971E-01 a       507     0    26     1     7
  6.1945113643335314E-01 a       508     0    26     1     8
 -4.2247590854920619E-01 a       509     0    26     1     9
 -3.0028004572953443E-01 a       510     0    26     1    10
  3.3268110563526174E-02 a       511     0    26     1    11
  2.1355040044644613E-01 a       512     0    26     1    12
 -3.5656922429025531E-02 a       513     0    26     1    13
 -3.9241655738505754E-01 a       514     0    26     1    14
  3.7552982408784058E-01 a       515     0    26     1    15
 -2.6284127801796714E-01 a       516     0    26     1    16
 -1.4587681942064604E-01 a       517     0    26     1    17
  4.7011151453771466E-01 a       518     0    26     1    18
  2.7490963902096429E-02 a       519     0    26     1    19
  1.3240752945605261E-01 a       520     0    26     1    20
 -2.2612336659987436E-01 a       521     0    27     1     1
  6.0323154890400343E-01 a       522     0    27     1     2
  8.1782307765277271E-02 a       523     0    27     1     3
  3.6036203048235255E-01 a       524     0    27     1     4
 -8.6090723861900864E-01 a       525     0    27     1     5
 -3.4632972467684664E-01 a       526     0    27     1     6
  8.4565530264545630E-01 a       527     0    27     1     7
 -4.6348560810609679E-01 a       528     0    27     1     8
 -6.9973227636843949E-01 a       529     0    27     1     9
  4.3479737728086626E-01 a       530     0    27     1    10
  2.1555406951923367E-01 a       531     0    27     1    11
  2.4829569656339226E-01 a       532     0    27     1    12
  2.1733141204946996E-01 a       533     0    27     1    13
  7.9332008573654064E-02 a       534     0    27     1    14
 -1.6937870764649665E-01 a       535     0    27     1    15
  5.2856479842887738E-01 a       536     0    27     1    16
 -3.9512027289232032E-01 a       537     0    27     1    17
 -1.3207400212111303E-01 a       538     0    27     1    18
 -4.7344234446512273E-01 a       539     0    27     1    19
 -8.5335401368820882E-02 a       540     0    27     1    20
 -9.0671792647589247E-03 a       541     0    28     1     1
  1.1223731961164060E-01 a       542     0    28     1     2
  2.9837661859013231E-01 a       543     0    28     1     3
  4.1927508782167100E-01 a       544     0    28     1     4
  1.9430660229007360E-01 a       545     0    28     1     5
 -2.6717466045623112E-01 a       546     0    28     1     6
  1.2442780677253525E-01 a       547     0    28     1     7
  1.2706614660364426E-02 a       548     0    28     1     8
 -1.9398047203511623E-01 a       549     0    28     1     9
 -1.3211017987830049E-02 a       550     0    28     1    10
 -3.9468524867483551E-01 a       551     0    28     1    11
  2.3624892564217972E-01 a       552     0    28     1    12
 -3.3338067309525188E-01 a       553     0    28     1    13
 -9.7584945466524353E-02 a       554     0    28     1    14
 -4.1519770788060559E-02 a       555     0    28     1    15
 -8.7904472434791367E-02 a       556     0    28     1    16
  3.9272587522797286E-01 a       557     0    28     1    17
 -1.2942634569696446E-01 a       558     0    28     1    18
  1.9574218143803621E-01 a       559     0    28     1    19
  1.5989041297038248E-01 a       560     0    28     1    20
 -1.1467914878565991E-01 a       561     0    29     1     1
  5.2003455231727169E-01 a       562     0    29     1     2
 -1.7400509407910980E-01 a       563     0    29     1     3
  2.8632935153077382E-01 a       564     0    29     1     4
  2.9988340857877621E-01 a       565     0    29     1     5
 -1.0381592134498241E-01 a       566     0    29     1     6
  4.4529125209890079E-03 a       567     0    29     1     7
 -5.1952233600728015E-01 a       568     0    29     1     8
 -4.3810448672675267E-01 a       569     0    29     1     9
 -7.2569473312270039E-02 a       570     0    29     1    10
  6.5567412296795913E-02 a       571     0    29     1    11
  1.1358900685178447E-01 a       572     0    29     1    12
 -2.9812760803442073E-01 a       573     0    29     1    13
  1.9695181819174526E-01 a       574     0    29     1    14
  1.7516167818109524E-01 a       575     0    29     1    15
  1.6484086605264492E-01 a       576     0    29     1    16
 -1.3718811259074251E-01 a       577     0    29     1    17
 -1.0608364977062638E-02 a       578     0    29     1    18
  3.7029724547930598E-01 a       579     0    29     1    19
 -1.6410943931595723E-01 a       580     0    29     1    20
 -1.0527914961059207E-01 a       581     0    30     1     1
 -1.6235344748381514E-01 a       582     0    30     1     2
 -3.2234330478375411E-01 a       583     0    30     1     3
 -7.5690721466971931E-03 a       584     0    30     1     4
 -2.3465252196001202E-01 a       585     0    30     1     5
  7.2231255500687985E-02 a       586     0    30     1     6
 -1.2264315069721694E-01 a       587     0    30     1     7
  1.4041067087652837E-01 a       588     0    30     1     8
  2.7051809971732294E-01 a       589     0    30     1     9
  5.5952106312289329E-01 a       590     0    30     1    10
  2.5477811601354089E-01 a       591     0    30     1    11
  3.9826217406711811E-01 a       592     0    30     1    12
 -3.1739017832560064E-02 a       593     0    30     1    13
  1.1307027028643296E-01 a       594     0    30     1    14
  4.6253239897291520E-02 a       595     0    30     1    15
 -1.7322585239535532E-01 a       596     0    30     1    16
  1.3958883555329540E-01 a       597     0    30     1    17
  4.3738628574277010E-02 a       598     0    30     1    18
  9.2819633460404338E-02 a       599     0    30     1    19
 -5.3075160574922364E-01 a       600     0    30     1    20
 -1.2870766954540772E-01 a       601     0    31     1     1
 -4.4899551744733474E-01 a       602     0    31     1     2
 -7.0188593428867713E-02 a       603     0    31     1     3
 -2.6227217365355027E-01 a       604     0    31     1     4
 -2.5593676057644571E-01 a       605     0    31     1     5
  2.4479872497753816E-01 a       606     0    31     1     6
 -2.0291697102797734E-01 a       607     0    31     1     7
 -2.5453342820099722E-01 a       608     0    31     1     8
  3.2820429056857653E-01 a       609     0    31     1     9
  5.5092701117624565E-01 a       610     0    31     1    10
  3.6194472618277129E-01 a       611     0    31     1    11
  2.2622130073340707E-01 a       612     0    31     1    12
 -1.6666815161154147E-01 a       613     0    31     1    13
 -8.0036646279373333E-02 a       614     0    31     1    14
  2.8945654170923540E-01 a       615     0    31     1    15
 -1.6119761760255691E-01 a       616     0    31     1    16
  2.8839402942956915E-01 a       617     0    31     1    17
 -3.0653758643488788E-01 a       618     0    31     1    18
 -4.5067061754539103E-02 a       619     0    31     1    19
  3.1322289693372574E-01 a       620     0    31     1    20
  3.9597795027875993E-01 a       621     0    32     1     1
 -3.4151581512736773E-01 a       622     0    32     1     2
  4.5433330824609583E-02 a       623     0    32     1     3
  2.4326926424066517E-01 a       624     0    32     1     4
  1.4695908891526507E-01 a       625     0    32     1     5
  8.2832413810689043E-01 a       626     0    32     1     6
 -4.8991287406323464E-01 a       627     0    32     1     7
 -2.9726777937033766E-01 a       628     0    32     1     8
  1.4541973958609419E-01 a       629     0    32     1     9
 -4.6319597015130726E-01 a       630     0    32     1    10
  1.1833158745530972E-01 a       631     0    32     1    11
 -2.8484588338492317E-01 a       632     0    32     1    12
  4.5703511028424088E-01 a       633     0    32     1    13
  1.5211450899154516E-01 a       634     0    32     1    14
 -3.3738822057985551E-01 a       635     0    32     1    15
  4.5716887756480479E-01 a       636     0    32     1    16
 -1.4212157731811631E-01 a       637     0    32     1    17
  4.3438111676547153E-01 a       638     0    32     1    18
 -3.2573503148094879E-01 a       639     0    32     1    19
 -2.5524188337345637E-02 a       640     0    32     1    20
 -3.6686975677916472E-01 a       641     0    33     1     1
 -1.6946312040165762E-01 a       642     0    33     1     2
 -8.2789391208187246E-01 a       643     0    33     1     3
  4.1146452759293559E-02 a       644     0    33     1     4
  3.7143459917787969E-01 a       645     0    33     1     5
  2.6501506081972459E-01 a       646     0    33     1     6
 -1.3772047015869915E-01 a       647     0    33     1     7
 -2.3240050634370210E-01 a       648     0    33     1     8
 -1.9740389402890586E-02 a       649     0    33     1     9
  2.8759128787359093E-02 a       650     0    33     1    10
  4.3217089431073702E-01 a       651     0    33     1    11
 -1.9613446840577503E-02 a       652     0    33     1    12
 -1.4124241718086422E-01 a       653     0    33     1    13
  5.6867883619398474E-01 a       654     0    33     1    14
 -5.5880587573362374E-02 a       655     0    33     1    15
  3.8335183673914142E-01 a       656     0    33     1    16
 -5.5767206875129094E-02 a       657     0    33     1    17
  1.3222627875807794E-01 a       658     0    33     1    18
 -1.7641691770727691E-02 a       659     0    33     1    19
 -1.7034874392185684E-01 a       660     0    33     1    20
 -6.0444015413771649E-03 a       661     0    34     1     1
  9.1401873287291754E-02 a       662     0    34     1     2
  1.8204819442395190E-02 a       663     0    34     1     3
 -3.2470980554108519E-02 a       664     0    34     1     4
 -3.4606848891148173E-01 a       665     0    34     1     5
 -1.8456840865091881E-01 a       666     0    34     1     6
  1.5129410963246445E-01 a       667     0    34     1     7
  1.5127238285828984E-01 a       668     0    34     1     8
  3.9510443966717909E-04 a       669     0    34     1     9
 -9.7749100231659350E-02 a       670     0    34     1    10
  1.1196916871346105E-01 a       671     0    34     1    11
  3.1798735553764571E-02 a       672     0    34     1    12
  4.2053553485678336E-01 a       673     0    34     1    13
 -1.4779206139109474E-01 a       674     0    34     1    14
  1.0100796532968169E-01 a       675     0    34     1    15
 -4.0651939300410445E-01 a       676     0    34     1    16
  3.4992424681388329E-02 a       677     0    34     1    17
  1.2130660377013207E-01 a       678     0    34     1    18
  1.7335499481059741E-01 a       679     0    34     1    19
  1.2168969576668111E-01 a       680     0    34     1    20
  2.4282123668428257E-01 a       681     0    35     1     1
  6.3873590528637658E-01 a       682     0    35     1     2
  5.4969887272745536E-02 a       683     0    35     1     3
  7.1906008043624825E-01 a       684     0    35     1     4
  2.4329616375154371E-02 a       685     0    35     1     5
 -7.1797484612997287E-01 a       686     0    35     1     6
 -1.2289302870241667E-01 a       687     0    35     1     7
  2.9261114903701224E-01 a       688     0    35     1     8
  6.4680970447357145E-01 a       689     0    35     1     9
 -1.9715413384269795E-01 a       690     0    35     1    10
 -8.8077633292802848E-01 a       691     0    35     1    11
 -6.6318629552443487E-01 a       692     0    35     1    12
  3.7941602866341573E-01 a       693     0    35     1    13
  8.0206658051569721E-02 a       694     0    35     1    14
  3.4974610685279844E-01 a       695     0    35     1    15
 -2.3329341542523779E-01 a       696     0    35     1    16
 -7.1623546680436828E-02 a       697     0    35     1    17
 -3.0630596910408679E-02 a       698     0    35     1    18
 -2.3333848367447646E-01 a       699     0    35     1    19
 -2.0242224391520050E-01 a       700     0    35     1    20
 -1.4076966627539148E-01 a       701     0    36     1     1
 -2.5361017728355956E-01 a       702     0    36     1     2
  2.4818946322106544E-01 a       703     0    36     1     3
  7.9237597795358980E-02 a       704     0    36     1     4
 -1.7272212340561946E-01 a       705     0    36     1     5
  4.1036503662236518E-01 a       706     0    36     1     6
 -1.9708687534045997E-02 a       707     0    36     1     7
  3.1354173042369587E-01 a       708     0    36     1     8
 -4.8453453982299020E-02 a       709     0    36     1     9
 -2.4728883195790566E-01 a       710     0    36     1    10
  4.8275006890981265E-01 a       711     0    36     1    11
  2.8478039146903983E-01 a       712     0    36     1    12
  2.1772390711271450E-01 a       713     0    36     1    13
  5.2036391425822603E-01 a       714     0    36     1    14
  9.7670102882284102E-02 a       715     0    36     1    15
 -3.4963442139399274E-02 a       716     0    36     1    16
  1.3962829720859030E-01 a       717     0    36     1    17
  2.7678722297704766E-02 a       718     0    36     1    18
  8.0994341598140562E-02 a       719     0    36     1    19
  1.3638366228865668E-02 a       720     0    36     1    20
  5.2872814468289531E-01 a       721     0    37     1     1
  2.3866765522316585E-01 a       722     0    37     1     2
  2.9669174046591539E-02 a       723     0    37     1     3
  1.5051210333015722E-01 a       724     0    37     1     4
  1.2530752890710511E-01 a       725     0    37     1     5
 -2.8881893846987594E-01 a       726     0    37     1     6
  4.4234901505350782E-02 a       727     0    37     1     7
  2.0518040862646712E-02 a       728     0    37     1     8
  3.1940499394014638E-02 a       729     0    37     1     9
  2.2860249829330090E-01 a       730     0    37     1    10
 -3.1987093715504894E-01 a       731     0    37     1    11
  2.3956430483115975E-02 a       732     0    37     1    12
 -6.7426444412502196E-01 a       733     0    37     1    13
 -2.3816441007508871E-01 a       734     0    37     1    14
 -7.0908637721528736E-02 a       735     0    37     1    15
 -4.0972320706945031E-01 a       736     0    37     1    16
 -1.0497844998076239E-01 a       737     0    37     1    17
 -2.0679797200521882E-01 a       738     0    37     1    18
 -1.3088815653589617E-01 a       739     0    37     1    19
  4.2700636252233061E-02 a       740     0    37     1    20
 -5.6306170689334856E-01 a       741     0    38     1     1
 -1.7531712486730494E-01 a       742     0    38     1     2
 -3.7933594527925912E-01 a       743     0    38     1     3
 -1.8852298172656068E-01 a       744     0    38     1     4
  2.1236216562542173E-01 a       745     0    38     1     5
 -1.4242096215959944E-02 a       746     0    38     1     6
  4.3292929602680025E-01 a       747     0    38     1     7
 -3.3399767681285325E-01 a       748     0    38     1     8
 -2.4649815942452216E-01 a       749     0    38     1     9
 -2.1169231349166431E-01 a       750     0    38     1    10
 -1.3800022807648743E-01 a       751     0    38     1    11
  1.6681193355689013E-02 a       752     0    38     1    12
  7.1812046816211050E-01 a       753     0    38     1    13
 -3.7454473209219008E-01 a       754     0    38     1    14
 -2.5009702540116185E-01 a       755     0    38     1    15
 -3.7653779486397249E-01 a       756     0    38     1    16
 -6.3148838308803509E-02 a       757     0    38     1    17
  1.3247555527003765E-01 a       758     0    38     1    18
  9.1005697886742828E-02 a       759     0    38     1    19
 -3.2449213009821182E-01 a       760     0    38     1    20
 -6.0532364638485392E-01 a       761     0    39     1     1
  3.8647487141923537E-01 a       762     0    39     1     2
  1.4843942226357376E-01 a       763     0    39     1     3
 -2.1798786349347682E-01 a       764     0    39     1     4
 -2.5735656827057024E-01 a       765     0    39     1     5
 -2.7609589491877262E-01 a       766     0    39     1     6
  3.4933633338830516E-01 a       767     0    39     1     7
  4.8859043578566552E-01 a       768     0    39     1     8
  1.3023259129484305E-01 a       769     0    39     1     9
 -1.0096009666654225E-01 a       770     0    39     1    10
  3.8394471276336334E-01 a       771     0    39     1    11
 -2.0984389172166476E-01 a       772     0    39     1    12
  8.4742941386601678E-01 a       773     0    39     1    13
  6.3070974402503199E-02 a       774     0    39     1    14
 -4.5620888939156651E-01 a       775     0    39     1    15
  4.9581186365936375E-01 a       776     0    39     1    16
  1.8491187745351872E-01 a       777     0    39     1    17
  3.6462800336484573E-02 a       778     0    39     1    18
  1.5789982690468909E-01 a       779     0    39     1    19
  1.9526111344026739E-01 a       780     0    39     1    20
 -8.7954138436751339E-01 a       781     0    40     1     1
 -7.7391682699793657E-02 a       782     0    40     1     2
 -1.4453994704026493E-01 a       783     0    40     1     3
 -4.5974932270526797E-01 a       784     0    40     1     4
 -4.6603776103489225E-01 a       785     0    40     1     5
 -7.3861504685374512E-03 a       786     0    40     1     6
  3.0171652929950787E-01 a       787     0    40     1     7
 -4.5308214150918213E-01 a       788     0    40     1     8
 -7.9671556829405088E-01 a       789     0    40     1     9
  2.4546696636430479E-01 a       790     0    40     1    10
 -4.2242423571593096E-01 a       791     0    40     1    11
  9.8832497218470913E-02 a       792     0    40     1    12
  9.0044189222826021E-01 a       793     0    40     1    13
 -4.9406362838451373E-01 a       794     0    40     1    14
  3.2230526944770582E-01 a       795     0    40     1    15
  5.0877704512583333E-01 a       796     0    40     1    16
 -1.4810438688655903E-01 a       797     0    40     1    17
  4.0883965224686836E-01 a       798     0    40     1    18
  2.8273282005818573E-01 a       799     0    40     1    19
 -6.5740825048326831E-02 a       800     0    40     1    20
  4.5228333323528352E-01 a       801     0    41     1     1
 -2.8610824566442303E-02 a       802     0    41     1     2
  1.5203980586639554E-01 a       803     0    41     1     3
  3.2452206580101084E-01 a       804     0    41     1     4
 -2.0695939397231006E-01 a       805     0    41     1     5
  2.1626984324074008E-01 a       806     0    41     1     6
 -7.6137208978898238E-02 a       807     0    41     1     7
  6.0588100477720608E-01 a       808     0    41     1     8
  1.8265969230121602E-02 a       809     0    41     1     9
  3.6639371918921104E-01 a       810     0    41     1    10
 -7.7153451728656883E-02 a       811     0    41     1    11
  4.1103340809556556E-03 a       812     0    41     1    12
 -5.7719157206726213E-02 a       813     0    41     1    13
  2.7134883044482511E-01 a       814     0    41     1    14
 -4.6924699747660455E-02 a       815     0    41     1    15
 -1.1070272934570340E-01 a       816     0    41     1    16
  2.1757694266514191E-01 a       817     0    41     1    17
 -3.3069108833138056E-01 a       818     0    41     1    18
  7.8781519254523230E-02 a       819     0    41     1    19
  2.0011671836111355E-01 a       820     0    41     1    20
  6.9388660963362903E-01 a       821     0    42     1     1
 -7.2559450833340131E-02 a       822     0    42     1     2
  1.8508432182248438E-01 a       823     0    42     1     3
  5.0404664848849319E-02 a       824     0    42     1     4
 -3.6501089977608803E-01 a       825     0    42     1     5
  2.0251471131146204E-01 a       826     0    42     1     6
 -1.4278282616988028E-01 a       827     0    42     1     7
  3.4532670997808618E-01 a       828     0    42     1     8
  4.9006913964686587E-02 a       829     0    42     1     9
 -2.6399070039208034E-01 a       830     0    42     1    10
  1.9555727664431977E-01 a       831     0    42     1    11
 -2.5742456394399310E-01 a       832     0    42     1    12
  7.6654458366989853E-01 a       833     0    42     1    13
 -4.0234063689253541E-01 a       834     0    42     1    14
  4.6343898956917040E-02 a       835     0    42     1    15
 -7.6655449385888044E-02 a       836     0    42     1    16
  1.9931133657536934E-01 a       837     0    42     1    17
  9.8799730258273308E-02 a       838     0    42     1    18
 -1.9901817407834005E-01 a       839     0    42     1    19
  4.5742196614430841E-01 a       840     0    42     1    20
 -6.0498815412832407E-01 a       841     0    43     1     1
 -9.0446447552396858E-01 a       842     0    43     1     2
  3.7403586591698769E-02 a       843     0    43     1     3
 -1.4038722519338953E+00 a       844     0    43     1     4
  1.2118260265151787E-01 a       845     0    43     1     5
  3.0543063774615115E-01 a       846     0    43     1     6
 -3.1813515054071595E-01 a       847     0    43     1     7
  3.6333043890579497E-01 a       848     0    43     1     8
  1.1841175044417893E+00 a       849     0    43     1     9
 -1.0371787149504974E+00 a       850     0    43     1    10
  5.8494543972858679E-02 a       851     0    43     1    11
  4.1173696626061206E-02 a       852     0    43     1    12
  4.3310082576126435E-01 a       853     0    43     1    13
  2.1372107935430415E-01 a       854     0    43     1    14
 -2.2782884857483651E-01 a       855     0    43     1    15
 -2.4878810855775382E-01 a       856     0    43     1    16
 -2.5507727907159783E-01 a       857     0    43     1    17
 -3.2751235569332732E-01 a       858     0    43     1    18
 -3.3579360905576100E-01 a       859     0    43     1    19
  1.6517573094215091E-01 a       860     0    43     1    20
  4.0240259140696538E-02 a       861     0    44     1     1
  4.5950111343534306E-01 a       862     0    44     1     2
 -2.2356099257301970E-01 a       863     0    44     1     3
  5.9701980107335170E-02 a       864     0    44     1     4
  1.5986867798773718E-01 a       865     0    44     1     5
 -1.7007419761129308E-01 a       866     0    44     1     6
  3.1762376476273352E-01 a       867     0    44     1     7
 -6.0776194747034891E-02 a       868     0    44     1     8
 -5.7060675813757045E-01 a       869     0    44     1     9
  1.6698317709008767E-01 a       870     0    44     1    10
 -3.4386993265212346E-01 a       871     0    44     1    11
 -1.8903617938320821E-02 a       872     0    44     1    12
 -1.2240469676641538E-01 a       873     0    44     1    13
 -9.6733647254302738E-02 a       874     0    44     1    14
 -2.6078945920099261E-01 a       875     0    44     1    15
 -5.1736097428628925E-04 a       876     0    44     1    16
 -3.0279502081842236E-01 a       877     0    44     1    17
  5.2039231015432696E-01 a       878     0    44     1    18
 -1.8856025634001100E-01 a       879     0    44     1    19
  2.0787155802965593E-01 a       880     0    44     1    20
  3.7948547909761882E-01 a       881     0    45     1     1
 -2.5455503625645953E-01 a       882     0    45     1     2
  3.1050194811712001E-01 a       883     0    45     1     3
 -3.8256197707725981E-02 a       884     0    45     1     4
  1.0385911225848126E-02 a       885     0    45     1     5
  6.6568401466622806E-01 a       886     0    45     1     6
 -6.8609533276832849E-02 a       887     0    45     1     7
 -1.1399248333690730E-01 a       888     0    45     1     8
 -1.7788248196873918E-01 a       889     0    45     1     9
  9.3037831284401948E-02 a       890     0    45     1    10
 -8.1695165155268284E-02 a       891     0    45     1    11
 -2.4984519462848118E-01 a       892     0    45     1    12
 -3.4991818453989360E-01 a       893     0    45     1    13
  4.6057699802544527E-01 a       894     0    45     1    14
  7.7055015862858389E-01 a       895     0    45     1    15
 -2.5649610155819552E-01 a       896     0    45     1    16
 -4.8429196001938946E-01 a       897     0    45     1    17
 -1.4907640646106615E-01 a       898     0    45     1    18
 -4.5972071641485718E-01 a       899     0    45     1    19
 -1.8407170634586642E-01 a       900     0    45     1    20
  5.2996043789169200E-01 a       901     0    46     1     1
 -9.9715159295222469E-02 a       902     0    46     1     2
  2.6078286779825643E-01 a       903     0    46     1     3
 -2.9771967810944316E-01 a       904     0    46     1     4
 -9.1403248286682920E-03 a       905     0    46     1     5
 -1.5663961350663971E-01 a       906     0    46     1     6
 -1.3568563973252934E-01 a       907     0    46     1     7
  2.1331700564526587E-01 a       908     0    46     1     8
  3.0010685826329914E-01 a       909     0    46     1     9
  4.4871177632120424E-02 a       910     0    46     1    10
 -1.4478541936797074E-01 a       911     0    46     1    11
 -8.3406139055202944E-03 a       912     0    46     1    12
 -1.0659909339824705E-01 a       913     0    46     1    13
  1.7641423668217548E-01 a       914     0    46     1    14
 -8.8358804906448707E-01 a       915     0    46     1    15
  2.6243855298236429E-01 a       916     0    46     1    16
 -4.3789933681234516E-02 a       917     0    46     1    17
 -3.5956139561996697E-01 a       918     0    46     1    18
 -2.4408887958084860E-01 a       919     0    46     1    19
  9.3820590360794598E-02 a       920     0    46     1    20
 -9.9934296534203837E-01 b       921     1     1
  4.3693871911059112E-01 b       922     1     2
  1.2920088810106887E+00 b       923     1     3
  7.5338919522855086E-01 b       924     1     4
  1.0826666338856870E+00 b       925     1     5
  1.6812171836276968E-01 b       926     1     6
  7.1475199724678318E-01 b       927     1     7
  1.0676818786242395E+00 b       928     1     8
 -1.0060380360310861E+00 b       929     1     9
 -1.3931866045389056E+00 b       930     1    10
  5.1874693007145956E-01 b       931     1    11
 -6.0224666922361081E-01 b       932     1    12
 -1.8317010907502325E+00 b       933     1    13
  1.4587886282906823E+00 b       934     1    14
 -3.3785617108239135E-01 b       935     1    15
 -7.3359714908907603E-01 b       936     1    16
  5.5042524466555887E-01 b       937     1    17
  1.9506005046503672E-01 b       938     1    18
  7.4106073407807915E-01 b       939     1    19
 -1.9186470116621059E+00 b       940     1    20
  4.7064267544727895E-01 a       941     1     1     2     1
 -1.3769436419836489E-01 a       942     1     1     2     2
 -1.8078091179068920E-01 a       943     1     1     2     3
 -5.6127048274415392E-01 a       944     1     1     2     4
 -8.6523966684443260E-02 a       945     1     1     2     5
  1.7832428262858255E-01 a       946     1     1     2     6
  6.9074574855591375E-02 a       947     1     1     2     7
 -3.7036242641090245E-01 a       948     1     1     2     8
 -8.9681500924103250E-02 a       949     1     1     2     9
 -5.4131838638961205E-02 a       950     1     1     2    10
  2.8066566698359019E-01 a       951     1     1     2    11
 -4.7728797915509374E-01 a       952     1     1     2    12
 -5.4018629444050326E-01 a       953     1     1     2    13
 -3.3390715865589460E-01 a       954     1     1     2    14
 -9.2815971695417179E-02 a       955     1     1     2    15
 -2.8847730518202819E-01 a       956     1     1     2    16
 -8.5882232462653574E-01 a       957     1     1     2    17
  1.9598320397189536E-01 a       958     1     1     2    18
  7.9132740076485497E-01 a       959     1     1     2    19
 -1.1546231358946323E-01 a       960     1     1     2    20
  3.3719152091241206E-01 a       961     1     2     2     1
 -2.6460489912147728E-01 a       962     1     2     2     2
  2.7035503321163878E-01 a       963     1     2     2     3
 -2.1856897263743322E-01 a       964     1     2     2     4
 -3.7802369256142349E-01 a       965     1     2     2     5
 -2.8690710341466169E-01 a       966     1     2     2     6
  3.3448392800362670E-01 a       967     1     2     2     7
 -4.3663104408369996E-01 a       968     1     2     2     8
  9.8439324515821403E-01 a       969     1     2     2     9
 -5.1052600135596227E-01 a       970     1     2     2    10
  2.3102270553982662E-01 a       971     1     2     2    11
  1.1239138687280081E-01 a       972     1     2     2    12
 -4.4455130455626196E-01 a       973     1     2     2    13
  9.2805859136681779E-01 a       974     1     2     2    14
  4.3329790474112834E-01 a       975     1     2     2    15
  6.7481739343207003E-01 a       976     1     2     2    16
 -2.6974658573955174E-01 a       977     1     2     2    17
  5.5596245319065353E-02 a       978     1     2     2    18
 -2.6629875919258147E-03 a       979     1     2     2    19
  6.4418737444235163E-01 a       980     1     2     2    20
  5.8598177612664026E-01 a       981     1     3     2     1
 -2.3021946131200153E-02 a       982     1     3     2     2
  4.1159773669103877E-01 a       983     1     3     2     3
 -2.8376131910492652E-02 a       984     1     3     2     4
  4.0404642989923589E-01 a       985     1     3     2     5
  3.6137873358341183E-01 a       986     1     3     2     6
  4.3010179208635024E-01 a       987     1     3     2     7
  2.5219761890171982E-01 a       988     1     3     2     8
 -3.9310033082461132E-01 a       989     1     3     2     9
 -2.0558197601153913E-01 a       990     1     3     2    10
 -1.6137103945452894E-01 a       991     1     3     2    11
  2.0772441569160799E-01 a       992     1     3     2    12
  3.5854381409415249E-02 a       993     1     3     2    13
  3.5627627617567759E-01 a       994     1     3     2    14
 -3.5110655915064581E-01 a       995     1     3     2    15
  4.4472719034973390E-01 a       996     1     3     2    16
 -1.5599158161306503E-01 a       997     1     3     2    17
 -8.7184043087902063E-02 a       998     1     3     2    18
 -6.8934799194463592E-01 a       999     1     3     2    19
  9.3651302589608104E-02 a      1000     1     3     2    20
 -5.8420939210987166E-01 a      1001     1     4     2     1
  7.4526088477840813E-01 a      1002     1     4     2     2
 -2.5090241326864610E-01 a      1003     1     4     2     3
  5.0564675392260061E-01 a      1004     1     4     2     4
  4.4714900483279324E-01 a      1005     1     4     2     5
 -2.5254487327195629E-01 a      1006     1     4     2     6
 -3.0476495436981715E-01 a      1007     1     4     2     7
  4.4113169974094796E-01 a      1008     1     4     2     8
 -8.7721986685377984E-01 a      1009     1     4     2     9
  3.2012342915683075E-03 a      1010     1     4     2    10
 -3.3376656747389105E-01 a      1011     1     4     2    11
  2.4897003684376476E-01 a      1012     1     4     2    12
 -6.2809131876455759E-02 a      1013     1     4     2    13
 -1.2286717594931430E-01 a      1014     1     4     2    14
  3.6813208872429898E-01 a      1015     1     4     2    15
 -7.3640724472856531E-03 a      1016     1     4     2    16
  4.8581307079504997E-02 a      1017     1     4     2    17
  1.4699146442855973E-01 a      1018     1     4     2    18
 -4.7507878366544137E-01 a      1019     1     4     2    19
 -1.0624309480681414E-01 a      1020     1     4     2    20
  4.9067418262107237E-01 a      1021     1     5     2     1
 -7.5467174152077643E-01 a      1022     1     5     2     2
  9.2119357589100137E-01 a      1023     1     5     2     3
 -1.4839411490576473E-01 a      1024     1     5     2     4
  3.9382259114380552E-01 a      1025     1     5     2     5
 -1.9669302589030949E-02 a      1026     1     5     2     6
  2.9441321851911184E-01 a      1027     1     5     2     7
  2.6902559389575359E-01 a      1028     1     5     2     8
  9.2325854679557895E-02 a      1029     1     5     2     9
 -6.5790164972685816E-01 a      1030     1     5     2    10
  3.4927579371938194E-01 a      1031     1     5     2    11
  4.9387923775987252E-01 a      1032     1     5     2    12
 -7.5073999083020926E-01 a      1033     1     5     2    13
  7.9294244970850147E-01 a      1034     1     5     2    14
 -1.9807514520084165E-02 a      1035     1     5     2    15
 -4.4460949250811771E-01 a      1036     1     5     2    16
 -2.7765636119869702E-01 a      1037     1     5     2    17
 -5.5945861710833759E-02 a      1038     1     5     2    18
  5.1653017208331065E-01 a      1039     1     5     2    19
 -7.7950933905094633E-01 a      1040     1     5     2    20
  4.0833194803650835E-01 a      1041     1     6     2     1
 -1.6503165527449101E-01 a      1042     1     6     2     2
  2.2443137945474825E-01 a      1043     1     6     2     3
 -5.4553074262635039E-02 a      1044     1     6     2     4
  5.7946230076844907E-01 a      1045     1     6     2     5
 -2.5846196120619119E-01 a      1046     1     6     2     6
 -3.2917069867288434E-01 a      1047     1     6     2     7
 -2.1937754943727433E-01 a      1048     1     6     2     8
 -3.0451797184979640E-01 a      1049     1     6     2     9
 -2.7930170217779593E-01 a      1050     1     6     2    10
  2.9124093674703318E-02 a      1051     1     6     2    11
  1.6180524484827669E-01 a      1052     1     6     2    12
 -4.2767057367901312E-01 a      1053     1     6     2    13
  2.9850409231157982E-01 a      1054     1     6     2    14
  3.8225714214669498E-01 a      1055     1     6     2    15
 -1.3833333272112394E-01 a      1056     1     6     2    16
  3.1606230145502640E-01 a      1057     1     6     2    17
  5.4834236896391864E-01 a      1058     1     6     2    18
 -6.8307487136091027E-01 a      1059     1     6     2    19
  3.7787737057089732E-01 a      1060     1     6     2    20
  5.2716010853069561E-01 a      1061     1     7     2     1
 -2.4722492303576540E-01 a      1062     1     7     2     2
 -7.6344254909716691E-01 a      1063     1     7     2     3
 -5.4964041384247286E-01 a      1064     1     7     2     4
  4.2659919339946434E-01 a      1065     1     7     2     5
  4.8818705073342916E-01 a      1066     1     7     2     6
 -1.1257951994901892E-01 a      1067     1     7     2     7
  7.1308822277785289E-02 a      1068     1     7     2     8
  1.2171382208210933E-01 a      1069     1     7     2     9
 -1.4085168483335878E-01 a      1070     1     7     2    10
  2.2389326377112950E-01 a      1071     1     7     2    11
 -6.5051596963524971E-01 a      1072     1     7     2    12
  6.7979874940334917E-01 a      1073     1     7     2    13
 -6.9393378719775811E-01 a      1074     1     7     2    14
  7.5956991242592656E-02 a      1075     1     7     2    15
 -7.4248165371372643E-01 a      1076     1     7     2    16
  4.0488805239958309E-01 a      1077     1     7     2    17
  3.0869348947551667E-01 a      1078     1     7     2    18
  3.5694115588316222E-01 a      1079     1     7     2    19
  4.0915489164222052E-01 a      1080     1     7     2    20
  3.2490954247368875E-01 a      1081     1     8     2     1
  3.5071060511386226E-02 a      1082     1     8     2     2
 -7.2524711808473821E-02 a      1083     1     8     2     3
  7.0129824953161879E-01 a      1084     1     8     2     4
  3.9902042440434271E-01 a      1085     1     8     2     5
  5.5199126104156737E-01 a      1086     1     8     2     6
  4.4247046619084011E-02 a      1087     1     8     2     7
  8.4583810839957640E-02 a      1088     1     8     2     8
 -2.7603093344002017E-01 a      1089     1     8     2     9
 -1.8014628121318245E-02 a      1090     1     8     2    10
 -4.4633573584897868E-01 a      1091     1     8     2    11
  6.3668862151865802E-01 a      1092     1     8     2    12
 -1.2960958473974477E-01 a      1093     1     8     2    13
  2.4433084086076953E-01 a      1094     1     8     2    14
  1.9042720010140704E-01 a      1095     1     8     2    15
  2.2296452113129123E-01 a      1096     1     8     2    16
  3.5835088813758958E-01 a      1097     1     8     2    17
  1.4883513188898720E-01 a      1098     1     8     2    18
  7.7830413528688502E-01 a      1099     1     8     2    19
  4.4641298799675627E-01 a      1100     1     8     2    20
 -3.1249767790223876E-01 a      1101     1     9     2     1
 -5.4504937589113740E-02 a      1102     1     9     2     2
 -6.7302142753180538E-01 a      1103     1     9     2     3
 -3.6750959411344586E-01 a      1104     1     9     2     4
 -4.8989233429719770E-01 a      1105     1     9     2     5
 -2.5039206443367029E-01 a      1106     1     9     2     6
 -4.8684547123789113E-01 a      1107     1     9     2     7
  1.0513568478818798E+00 a      1108     1     9     2     8
 -2.9460098021404568E-01 a      1109     1     9     2     9
  2.3519170529001932E-01 a      1110     1     9     2    10
  5.6906952551757328E-01 a      1111     1     9     2    11
  4.3028739483010719E-01 a      1112     1     9     2    12
 -3.1548050729074552E-02 a      1113     1     9     2    13
  4.1761785763239312E-01 a      1114     1     9     2    14
  6.3012833710329105E-02 a      1115     1     9     2    15
 -2.3818537648445829E-02 a      1116     1     9     2    16
 -8.2310993521657472E-01 a      1117     1     9     2    17
 -6.7417643234326707E-01 a      1118     1     9     2    18
  3.4584052798275361E-01 a      1119     1     9     2    19
 -5.0231810317172709E-01 a      1120     1     9     2    20
  4.5982225770334706E-01 a      1121     1    10     2     1
  3.4519165284386998E-02 a      1122     1    10     2     2
  8.1920803841814227E-01 a      1123     1    10     2     3
 -5.3732330360997826E-01 a      1124     1    10     2     4
  4.7094115679122184E-01 a      1125     1    10     2     5
  1.7147589289017373E-01 a      1126     1    10     2     6
 -4.6001528334315267E-01 a      1127     1    10     2     7
 -6.2054585947960350E-01 a      1128     1    10     2     8
 -4.5212460223164208E-01 a      1129     1    10     2     9
  2.7147721021783161E-01 a      1130     1    10     2    10
  1.5982886142013139E-01 a      1131     1    10     2    11
 -3.5598342733605759E-01 a      1132     1    10     2    12
 -2.1213975818507469E-01 a      1133     1    10     2    13
  4.9423906702858583E-01 a      1134     1    10     2    14
  3.9029781877487341E-01 a      1135     1    10     2    15
 -4.5012962805107959E-01 a      1136     1    10     2    16
  1.3569655452120190E-02 a      1137     1    10     2    17
 -5.9679383015331700E-01 a      1138     1    10     2    18
 -1.5593772087986391E-01 a      1139     1    10     2    19
  6.6760060121255493E-01 a      1140     1    10     2    20
  2.8170796149573938E-02 a      1141     1    11     2     1
 -4.3050290316454923E-02 a      1142     1    11     2     2
 -2.2616666207354616E-01 a      1143     1    11     2     3
  1.1696563951273994E-01 a      1144     1    11     2     4
 -3.1118229219877708E-01 a      1145     1    11     2     5
 -2.6223040867674196E-02 a      1146     1    11     2     6
 -1.0208938421139790E-01 a      1147     1    11     2     7
 -1.8018350342792022E-01 a      1148     1    11     2     8
  2.0108248864924785E-01 a      1149     1    11     2     9
  3.8148541048820411E-01 a      1150     1    11     2    10
 -1.8389415643923987E-01 a      1151     1    11     2    11
  4.7800973718928427E-02 a      1152     1    11     2    12
  6.0362751517971755E-02 a      1153     1    11     2    13
  4.4446392046370686E-01 a      1154     1    11     2    14
  4.7208773542320490E-02 a      1155     1    11     2    15
 -9.4548403028906339E-02 a      1156     1    11     2    16
 -1.2947231355205766E-01 a      1157     1    11     2    17
 -2.8181330190488041E-01 a      1158     1    11     2    18
  2.8625540646825959E-01 a      1159     1    11     2    19
  3.0557677032502690E-02 a      1160     1    11     2    20
  3.6233801431378093E-01 a      1161     1    12     2     1
 -3.8680876547253878E-01 a      1162     1    12     2     2
  3.7810788547559504E-01 a      1163     1    12     2     3
  5.9365402838747627E-01 a      1164     1    12     2     4
  5.1954510504527915E-02 a      1165     1    12     2     5
  2.5760170872587701E-01 a      1166     1    12     2     6
  3.0506383664640863E-01 a      1167     1    12     2     7
 -2.2383992288297530E-01 a      1168     1    12     2     8
  7.1615402871821082E-02 a      1169     1    12     2     9
 -5.5789685468763195E-01 a      1170     1    12     2    10
  3.6725515760992639E-01 a      1171     1    12     2    11
  2.4004451916400113E-01 a      1172     1    12     2    12
  2.3937586296000629E-01 a      1173     1    12     2    13
 -3.8605426701837270E-01 a      1174     1    12     2    14
  3.3028951950394109E-01 a      1175     1    12     2    15
 -3.1824551905983427E-02 a      1176     1    12     2    16
  6.6754426921998122E-01 a      1177     1    12     2    17
  1.2547449853411866E-01 a      1178     1    12     2    18
 -4.3737202288770954E-01 a      1179     1    12     2    19
 -1.0679267838908048E-01 a      1180     1    12     2    20
  5.3523104822181644E-01 a      1181     1    13     2     1
 -1.7240342107092305E-01 a      1182     1    13     2     2
  1.1629164918832524E+00 a      1183     1    13     2     3
 -2.7188063656838440E-01 a      1184     1    13     2     4
 -4.0434960151051175E-01 a      1185     1    13     2     5
 -1.0043835556426087E-01 a      1186     1    13     2     6
 -1.2085838946791004E-01 a      1187     1    13     2     7
 -2.7719666694663481E-01 a      1188     1    13     2     8
  7.1922313605449739E-01 a      1189     1    13     2     9
 -2.6893453096813491E-01 a      1190     1    13     2    10
  9.2733762094633976E-01 a      1191     1    13     2    11
 -4.9186210153886500E-01 a      1192     1    13     2    12
 -5.6233129561306094E-01 a      1193     1    13     2    13
 -3.0707669025469231E-01 a      1194     1    13     2    14
  1.4081382001542755E-01 a      1195     1    13     2    15
 -1.9729872249296640E-01 a      1196     1    13     2    16
 -1.2497923313590527E-01 a      1197     1    13     2    17
 -5.0361767918149961E-02 a      1198     1    13     2    18
  3.9741370880442078E-01 a      1199     1    13     2    19
 -5.7928718735781626E-01 a      1200     1    13     2    20
 -5.2668555504032855E-01 a      1201     1    14     2     1
 -3.9015996666590125E-01 a      1202     1    14     2     2
 -3.3675786838841537E-01 a      1203     1    14     2     3
  1.0919690150471428E-01 a      1204     1    14     2     4
  3.1672731356064260E-01 a      1205     1    14     2     5
 -6.7870532220920676E-01 a      1206     1    14     2     6
  4.8993222094757394E-01 a      1207     1    14     2     7
 -8.8599830682294445E-01 a      1208     1    14     2     8
  2.9912449013923237E-01 a      1209     1    14     2     9
 -5.8749587924431523E-02 a      1210     1    14     2    10
 -7.4849405231202398E-02 a      1211     1    14     2    11
  4.6537509153785324E-03 a      1212     1    14     2    12
 -4.2541481190397473E-01 a      1213     1    14     2    13
 -5.4185082034997423E-01 a      1214     1    14     2    14
  7.5406779221374273E-02 a      1215     1    14     2    15
 -5.4760468062169099E-01 a      1216     1    14     2    16
  6.1810169932209846E-01 a      1217     1    14     2    17
  2.2202501280942510E-01 a      1218     1    14     2    18
 -3.6851030373536026E-01 a      1219     1    14     2    19
 -7.0938469530376802E-01 a      1220     1    14     2    20
 -3.6941481232533935E-01 a      1221     1    15     2     1
  6.8096237401119475E-01 a      1222     1    15     2     2
  4.2984162449726504E-01 a      1223     1    15     2     3
  1.0319342884347600E-01 a      1224     1    15     2     4
 -1.7154173706525092E-01 a      1225     1    15     2     5
 -2.5848385690723819E-01 a      1226     1    15     2     6
  4.4948636900817773E-01 a      1227     1    15     2     7
  1.7930154496845491E-01 a      1228     1    15     2     8
 -6.9082528763241702E-01 a      1229     1    15     2     9
  3.6532952629808317E-02 a      1230     1    15     2    10
  5.8878302307935027E-01 a      1231     1    15     2    11
 -1.5668729379098523E-01 a      1232     1    15     2    12
  5.6048310131357582E-01 a      1233     1    15     2    13
  7.3776725818305536E-02 a      1234     1    15     2    14
  5.1685533236628178E-01 a      1235     1    15     2    15
  1.9127913157580814E-01 a      1236     1    15     2    16
 -2.7967269329178113E-01 a      1237     1    15     2    17
 -8.2798224386576483E-02 a      1238     1    15     2    18
 -5.1750833933389606E-01 a      1239     1    15     2    19
  7.4801793580096776E-01 a      1240     1    15     2    20
 -1.6139457475430841E-01 a      1241     1    16     2     1
  1.9912859224490865E-02 a      1242     1    16     2     2
 -4.3066980231996088E-01 a      1243     1    16     2     3
  2.5693405640718897E-01 a      1244     1    16     2     4
 -1.7711822403171223E-01 a      1245     1    16     2     5
 -1.5975894385857242E-01 a      1246     1    16     2     6
 -3.9224181128023078E-01 a      1247     1    16     2     7
  6.0311812448058577E-01 a      1248     1    16     2     8
 -2.9686026415859251E-01 a      1249     1    16     2     9
 -3.8347615719006045E-01 a      1250     1    16     2    10
  2.2853456179834022E-01 a      1251     1    16     2    11
  4.5990204538142615E-01 a      1252     1    16     2    12
  4.4201125673067965E-01 a      1253     1    16     2    13
  2.0349957535908858E-01 a      1254     1    16     2    14
  9.4148336440804087E-02 a      1255     1    16     2    15
  4.7241541521101132E-01 a      1256     1    16     2    16
 -2.6235876133472635E-01 a      1257     1    16     2    17
 -3.0640058355156541E-01 a      1258     1    16     2    18
  2.8468643219753403E-01 a      1259     1    16     2    19
  2.6599144992006185E-01 a      1260     1    16     2    20
  6.1837490548062271E-02 a      1261     1    17     2     1
 -2.7352411613531485E-01 a      1262     1    17     2     2
 -4.8496510906588042E-01 a      1263     1    17     2     3
 -2.2257570049106651E-01 a      1264     1    17     2     4
  5.1326907367137187E-01 a      1265     1    17     2     5
  6.7957246580135133E-01 a      1266     1    17     2     6
  1.4998945035622599E-01 a      1267     1    17     2     7
  4.3583906561500088E-02 a      1268     1    17     2     8
  5.1529629420913471E-02 a      1269     1    17     2     9
 -6.1155816335161428E-01 a      1270     1    17     2    10
  8.6770759704765613E-03 a      1271     1    17     2    11
  1.7281448765631990E-01 a      1272     1    17     2    12
  5.5032696182905461E-01 a      1273     1    17     2    13
  7.8303357275075269E-01 a      1274     1    17     2    14
  4.7954137840688332E-02 a      1275     1    17     2    15
 -3.0122167904944469E-01 a      1276     1    17     2    16
  8.8287941562865763E-02 a      1277     1    17     2    17
  1.2417152754878277E-01 a      1278     1    17     2    18
  2.4651321563861624E-02 a      1279     1    17     2    19
 -1.5607002132698400E-01 a      1280     1    17     2    20
  3.3406922697186897E-01 a      1281     1    18     2     1
 -1.4723866669265656E-01 a      1282     1    18     2     2
 -9.5069645245177248E-02 a      1283     1    18     2     3
  2.9881275282998726E-01 a      1284     1    18     2     4
  3.9542067170499262E-01 a      1285     1    18     2     5
  2.3653551335698256E-01 a      1286     1    18     2     6
 -3.3274288734846669E-01 a      1287     1    18     2     7
 -1.7080383988054437E-01 a      1288     1    18     2     8
 -7.8100129097125637E-01 a      1289     1    18     2     9
 -4.0259540046461040E-01 a      1290     1    18     2    10
  7.7819391425803325E-02 a      1291     1    18     2    11
  1.9410997059587387E-01 a      1292     1    18     2    12
  1.0879686540443341E-01 a      1293     1    18     2    13
  2.4123225800273951E-01 a      1294     1    18     2    14
 -3.3784292843778471E-02 a      1295     1    18     2    15
 -5.8216943803532907E-02 a      1296     1    18     2    16
  1.0551375485965369E+00 a      1297     1    18     2    17
 -8.3138483041154498E-01 a      1298     1    18     2    18
 -5.8473169085048027E-01 a      1299     1    18     2    19
 -3.2643391085831880E-01 a      1300     1    18     2    20
  2.4703865574628173E-01 a      1301     1    19     2     1
 -5.8566993599864425E-01 a      1302     1    19     2     2
  3.9439723930429516E-01 a      1303     1    19     2     3
  5.6440181259664113E-01 a      1304     1    19     2     4
  3.1241197927493602E-01 a      1305     1    19     2     5
 -3.5853440172499218E-01 a      1306     1    19     2     6
 -4.6402845517514979E-01 a      1307     1    19     2     7
  1.4127836343005404E-01 a      1308     1    19     2     8
 -1.9964132451143665E-01 a      1309     1    19     2     9
 -6.5706278318702616E-01 a      1310     1    19     2    10
 -2.6463399644469077E-01 a      1311     1    19     2    11
  3.7416963759462923E-01 a      1312     1    19     2    12
 -3.9008826606276625E-01 a      1313     1    19     2    13
  4.8316581263010161E-01 a      1314     1    19     2    14
  5.6262938273593577E-01 a      1315     1    19     2    15
  7.4356610929049149E-01 a      1316     1    19     2    16
 -3.4632502398337239E-01 a      1317     1    19     2    17
 -5.6629030063243913E-01 a      1318     1    19     2    18
  5.0994067490869122E-01 a      1319     1    19     2    19
  1.7203186951717056E-01 a      1320     1    19     2    20
 -6.6776240933039813E-02 a      1321     1    20     2     1
 -3.1342471548637602E-01 a      1322     1    20     2     2
 -7.5367878066422378E-01 a      1323     1    20     2     3
 -5.9062980980090267E-02 a      1324     1    20     2     4
 -2.6263340531894130E-01 a      1325     1    20     2     5
 -5.6828811404277024E-01 a      1326     1    20     2     6
 -6.3330035913533667E-01 a      1327     1    20     2     7
 -3.8470203151682097E-01 a      1328     1    20     2     8
 -4.1679807612364178E-01 a      1329     1    20     2     9
  7.5640891294646045E-02 a      1330     1    20     2    10
 -7.6999778186512713E-01 a      1331     1    20     2    11
 -6.3239272285560322E-01 a      1332     1    20     2    12
 -2.2403642272824262E-01 a      1333     1    20     2    13
  5.7939255873007293E-02 a      1334     1    20     2    14
  4.2295981329173515E-01 a      1335     1    20     2    15
 -9.0366142793102455E-01 a      1336     1    20     2    16
  2.5141528981518813E-01 a      1337     1    20     2    17
 -6.5828563464423961E-01 a      1338     1    20     2    18
  1.1477945512107392E-01 a      1339     1    20     2    19
 -2.5453094065900606E-01 a      1340     1    20     2    20
 -6.6901264649321357E-01 b      1341     2     1
 -1.3653225668605193E+00 b      1342     2     2
 -3.4033990021101668E-01 b      1343     2     3
  1.2951559756548698E+00 b      1344     2     4
  5.5769429975962359E-01 b      1345     2     5
 -3.5236707903460623E-01 b      1346     2     6
  1.6267242907411299E+00 b      1347     2     7
 -1.5389569185066526E-01 b      1348     2     8
  1.6216808772972713E+00 b      1349     2     9
 -1.0684843977272496E+00 b      1350     2    10
  1.5782165672907755E+00 b      1351     2    11
  1.3809469904179852E+00 b      1352     2    12
 -1.2094585677076921E+00 b      1353     2    13
 -1.1806950185683851E+00 b      1354     2    14
 -1.3726225078169800E+00 b      1355     2    15
 -8.1105263687536500E-01 b      1356     2    16
  1.2535519569595519E+00 b      1357     2    17
 -1.3551911396361906E+00 b      1358     2    18
  1.3095147830859186E+00 b      1359     2    19
 -6.3840356845462087E-01 b      1360     2    20
 -2.7701572221080151E-01 a      1361     2     1     3     1
 -8.7162760426100161E-01 a      1362     2     2     3     1
 -1.4224821107059842E+00 a      1363     2     3     3     1
  1.5815348696543057E+00 a      1364     2     4     3     1
  2.6842423374586061E-01 a      1365     2     5     3     1
  7.5663994201427820E-01 a      1366     2     6     3     1
  1.5837989775728494E+00 a      1367     2     7     3     1
 -2.2853997608531629E-01 a      1368     2     8     3     1
  6.4981596531632591E-01 a      1369     2     9     3     1
 -7.0087743048665746E-02 a      1370     2    10     3     1
  1.2311471949349282E+00 a      1371     2    11     3     1
  1.1517344231868860E+00 a      1372     2    12     3     1
 -7.6259736899895325E-01 a      1373     2    13     3     1
 -3.0893075888504543E-02 a      1374     2    14     3     1
 -5.5412761505143948E-01 a      1375     2    15     3     1
  4.6684117470000841E-01 a      1376     2    16     3     1
  1.3754407430100284E+00 a      1377     2    17     3     1
  3.2698854461406485E-01 a      1378     2    18     3     1
 -1.8793973385853431E-02 a      1379     2    19     3     1
 -4.2079130659977998E-01 a      1380     2    20     3     1
  4.2141488748114120E-01 b      1381     3     1
